{"learner":{"attributes":{"scikit_learn":"{\"_estimator_type\": \"regressor\"}"},"feature_names":["open","high","low","close","volume","trade_count","vwap","HT_DCPERIOD","HT_DCPHASE","HT_PHASOR_0","HT_PHASOR_1","HT_SINE_0","HT_SINE_1","HT_TRENDMODE","ADX","ADXR","APO","AROON_0","AROON_1","AROONOSC","BOP","CCI","CMO","DX","MACD_0","MACD_1","MACD_2","MACDEXT_0","MACDEXT_1","MACDEXT_2","MACDFIX_0","MACDFIX_1","MACDFIX_2","MFI","MINUS_DI","MINUS_DM","MOM","PLUS_DI","PLUS_DM","PPO","ROC","ROCP","ROCR","ROCR100","RSI","STOCH_0","STOCH_1","STOCHF_0","STOCHF_1","STOCHRSI_0","STOCHRSI_1","TRIX","ULTOSC","WILLR","BBANDS_0","BBANDS_1","BBANDS_2","DEMA","EMA","HT_TRENDLINE","KAMA","MA","MAMA_0","MAMA_1","MIDPOINT","MIDPRICE","SAR","SAREXT","SMA","T3","TEMA","TRIMA","WMA","CDL2CROWS","CDL3BLACKCROWS","CDL3INSIDE","CDL3LINESTRIKE","CDL3OUTSIDE","CDL3STARSINSOUTH","CDL3WHITESOLDIERS","CDLABANDONEDBABY","CDLADVANCEBLOCK","CDLBELTHOLD","CDLBREAKAWAY","CDLCLOSINGMARUBOZU","CDLCONCEALBABYSWALL","CDLCOUNTERATTACK","CDLDARKCLOUDCOVER","CDLDOJI","CDLDOJISTAR","CDLDRAGONFLYDOJI","CDLENGULFING","CDLEVENINGDOJISTAR","CDLEVENINGSTAR","CDLGAPSIDESIDEWHITE","CDLGRAVESTONEDOJI","CDLHAMMER","CDLHANGINGMAN","CDLHARAMI","CDLHARAMICROSS","CDLHIGHWAVE","CDLHIKKAKE","CDLHIKKAKEMOD","CDLHOMINGPIGEON","CDLIDENTICAL3CROWS","CDLINNECK","CDLINVERTEDHAMMER","CDLKICKING","CDLKICKINGBYLENGTH","CDLLADDERBOTTOM","CDLLONGLEGGEDDOJI","CDLLONGLINE","CDLMARUBOZU","CDLMATCHINGLOW","CDLMATHOLD","CDLMORNINGDOJISTAR","CDLMORNINGSTAR","CDLONNECK","CDLPIERCING","CDLRICKSHAWMAN","CDLRISEFALL3METHODS","CDLSEPARATINGLINES","CDLSHOOTINGSTAR","CDLSHORTLINE","CDLSPINNINGTOP","CDLSTALLEDPATTERN","CDLSTICKSANDWICH","CDLTAKURI","CDLTASUKIGAP","CDLTHRUSTING","CDLTRISTAR","CDLUNIQUE3RIVER","CDLUPSIDEGAP2CROWS","CDLXSIDEGAP3METHODS","AVGPRICE","MEDPRICE","TYPPRICE","WCLPRICE","BETA","CORREL","LINEARREG","LINEARREG_ANGLE","LINEARREG_INTERCEPT","LINEARREG_SLOPE","STDDEV","TSF","VAR","ATR","NATR","TRANGE","AD","ADOSC","OBV"],"feature_types":["float","float","float","float","float","float","float","float","float","float","float","float","float","float","float","float","float","float","float","float","float","float","float","float","float","float","float","float","float","float","float","float","float","float","float","float","float","float","float","float","float","float","float","float","float","float","float","float","float","float","float","float","float","float","float","float","float","float","float","float","float","float","float","float","float","float","float","float","float","float","float","float","float","float","float","float","float","float","float","float","float","float","float","float","float","float","float","float","float","float","float","float","float","float","float","float","float","float","float","float","float","float","float","float","float","float","float","float","float","float","float","float","float","float","float","float","float","float","float","float","float","float","float","float","float","float","float","float","float","float","float","float","float","float","float","float","float","float","float","float","float","float","float","float","float","float","float","float","float","float","float","float","float"],"gradient_booster":{"model":{"gbtree_model_param":{"num_parallel_tree":"1","num_trees":"200"},"iteration_indptr":[0,1,2,3,4,5,6,7,8,9,10,11,12,13,14,15,16,17,18,19,20,21,22,23,24,25,26,27,28,29,30,31,32,33,34,35,36,37,38,39,40,41,42,43,44,45,46,47,48,49,50,51,52,53,54,55,56,57,58,59,60,61,62,63,64,65,66,67,68,69,70,71,72,73,74,75,76,77,78,79,80,81,82,83,84,85,86,87,88,89,90,91,92,93,94,95,96,97,98,99,100,101,102,103,104,105,106,107,108,109,110,111,112,113,114,115,116,117,118,119,120,121,122,123,124,125,126,127,128,129,130,131,132,133,134,135,136,137,138,139,140,141,142,143,144,145,146,147,148,149,150,151,152,153,154,155,156,157,158,159,160,161,162,163,164,165,166,167,168,169,170,171,172,173,174,175,176,177,178,179,180,181,182,183,184,185,186,187,188,189,190,191,192,193,194,195,196,197,198,199,200],"tree_info":[0,0,0,0,0,0,0,0,0,0,0,0,0,0,0,0,0,0,0,0,0,0,0,0,0,0,0,0,0,0,0,0,0,0,0,0,0,0,0,0,0,0,0,0,0,0,0,0,0,0,0,0,0,0,0,0,0,0,0,0,0,0,0,0,0,0,0,0,0,0,0,0,0,0,0,0,0,0,0,0,0,0,0,0,0,0,0,0,0,0,0,0,0,0,0,0,0,0,0,0,0,0,0,0,0,0,0,0,0,0,0,0,0,0,0,0,0,0,0,0,0,0,0,0,0,0,0,0,0,0,0,0,0,0,0,0,0,0,0,0,0,0,0,0,0,0,0,0,0,0,0,0,0,0,0,0,0,0,0,0,0,0,0,0,0,0,0,0,0,0,0,0,0,0,0,0,0,0,0,0,0,0,0,0,0,0,0,0,0,0,0,0,0,0,0,0,0,0,0,0],"trees":[{"base_weights":[-2.1164518E-5,-8.024862E-5,6.0715526E-4,-3.8490669E-4,4.5905984E-4,-3.2499776E-4,-4.170655E-4,3.5725514E-4,3.988252E-4,2.3641829E-4,-4.704661E-4,4.4203925E-4,-2.1773581E-4,1.3761791E-4,1.4268236E-4,2.0179064E-4,-4.9953884E-4,3.598651E-4,1.5997635E-3,3.045043E-4,-2.9691026E-4,-1.2530878E-3,-3.8504976E-4,5.8889284E-4,1.2836877E-4,1.8199407E-4,1.3935047E-5,-3.3355984E-6,4.1352148E-4,-5.691983E-4,3.2189335E-5,7.774101E-5,-1.5218881E-3,-5.1674014E-4,-9.795303E-5,-3.2850814E-5,7.197892E-4,-1.3934152E-4,4.576579E-4,5.756782E-5,-1.6196902E-6,-8.771784E-5,2.3649465E-5,-5.2061613E-4,-2.1117325E-3,4.7933936E-6,-6.0098735E-4,3.807587E-4,-3.3404378E-4,2.5413294E-5,-3.7066115E-5,1.6126913E-4,6.1250426E-4,3.1409665E-5,-4.1838974E-4,-2.3504097E-5,5.3131423E-4,-9.76548E-5,-5.174746E-6,-2.6755577E-5,-2.2693945E-4,-1.287163E-4,-5.186848E-4,4.4467774E-7,6.311392E-4,-4.3993103E-4,2.8337852E-5,-8.176717E-6,6.7100645E-4,-8.761882E-5,-1.3969907E-4,1.128513E-5,6.811846E-5,1.09908884E-4,-5.6582794E-4,8.3792016E-5,-6.1729247E-6,-5.1765464E-4,1.1696256E-5,8.6904934E-4,3.567596E-5,2.4599987E-5,-4.115109E-5,-3.579906E-5,4.333563E-5,-1.2800633E-4,-5.1396777E-4,-3.5637448E-5,-9.1521935E-5,5.070308E-5,1.2527684E-4,-5.868274E-4,-2.0143013E-4,-4.758804E-4,-8.9159654E-4,3.7426569E-6,-6.388575E-5,-5.989E-4,2.8067034E-6,-1.3541287E-5,-1.01677426E-4,-6.5804465E-4,2.1189468E-5,3.2830674E-5,-7.018666E-4,-2.5835328E-5,-8.2561615E-5],"categories":[],"categories_nodes":[],"categories_segments":[],"categories_sizes":[],"default_left":[0,0,0,0,0,0,0,0,0,0,0,0,0,0,0,0,0,0,0,0,0,0,0,0,0,0,0,0,0,0,0,0,0,0,0,0,0,0,0,0,0,0,0,0,0,0,0,0,0,0,0,0,0,0,0,0,0,0,0,0,0,0,0,0,0,0,0,0,0,0,0,0,0,0,0,0,0,0,0,0,0,0,0,0,0,0,0,0,0,0,0,0,0,0,0,0,0,0,0,0,0,0,0,0,0,0,0],"id":0,"left_children":[1,3,-1,5,7,9,-1,-1,11,13,15,17,-1,-1,19,-1,21,23,25,27,29,31,33,35,37,-1,-1,-1,39,41,-1,-1,43,45,47,49,51,53,55,-1,-1,-1,-1,57,59,-1,61,63,65,-1,-1,-1,67,-1,69,-1,71,-1,-1,-1,-1,-1,73,-1,75,77,-1,-1,79,-1,81,-1,-1,83,85,-1,-1,87,-1,89,-1,-1,-1,-1,-1,-1,91,-1,-1,-1,-1,93,95,97,99,-1,-1,101,-1,-1,-1,103,-1,-1,105,-1,-1],"loss_changes":[1.1244186E-4,5.0946837E-5,0E0,4.3550972E-5,1.9579657E-5,1.6118205E-5,0E0,0E0,1.3319799E-5,4.183942E-6,1.2293669E-5,9.8891505E-6,0E0,0E0,2.8647041E-6,0E0,1.28898355E-5,5.4383872E-6,1.9972376E-6,1.0819381E-6,2.036642E-6,1.2099103E-5,5.0912568E-6,4.255615E-6,4.7359376E-6,0E0,0E0,0E0,1.5423218E-6,2.192547E-6,0E0,0E0,9.531301E-6,4.4530225E-6,5.1000443E-6,1.063658E-6,3.1314012E-6,3.9273486E-6,1.3493996E-6,0E0,0E0,0E0,0E0,1.6596437E-6,2.5911359E-6,0E0,3.9067672E-6,1.4105115E-6,2.0859807E-6,0E0,0E0,0E0,1.6795202E-6,0E0,2.301696E-6,0E0,1.3028616E-6,0E0,0E0,0E0,0E0,0E0,2.2550958E-6,0E0,1.3411716E-6,1.1859247E-6,0E0,0E0,1.9926301E-6,0E0,1.4641195E-6,0E0,0E0,1.0631826E-6,1.8978735E-6,0E0,0E0,1.1485831E-6,0E0,2.420904E-6,0E0,0E0,0E0,0E0,0E0,0E0,1.3847057E-6,0E0,0E0,0E0,0E0,1.3678073E-6,1.4866649E-6,2.5586214E-6,1.0928607E-6,0E0,0E0,1.7219227E-6,0E0,0E0,0E0,1.5703663E-6,0E0,0E0,1.4332363E-6,0E0,0E0],"parents":[2147483647,0,0,1,1,3,3,4,4,5,5,8,8,9,9,10,10,11,11,14,14,16,16,17,17,18,18,19,19,20,20,21,21,22,22,23,23,24,24,28,28,29,29,32,32,33,33,34,34,35,35,36,36,37,37,38,38,43,43,44,44,46,46,47,47,48,48,52,52,54,54,56,56,62,62,64,64,65,65,68,68,70,70,73,73,74,74,77,77,79,79,86,86,91,91,92,92,93,93,94,94,97,97,101,101,104,104],"right_children":[2,4,-1,6,8,10,-1,-1,12,14,16,18,-1,-1,20,-1,22,24,26,28,30,32,34,36,38,-1,-1,-1,40,42,-1,-1,44,46,48,50,52,54,56,-1,-1,-1,-1,58,60,-1,62,64,66,-1,-1,-1,68,-1,70,-1,72,-1,-1,-1,-1,-1,74,-1,76,78,-1,-1,80,-1,82,-1,-1,84,86,-1,-1,88,-1,90,-1,-1,-1,-1,-1,-1,92,-1,-1,-1,-1,94,96,98,100,-1,-1,102,-1,-1,-1,104,-1,-1,106,-1,-1],"split_conditions":[6.414944E-1,2.6982998E-2,6.0715526E-4,9.583708E1,1.2814791E1,-7.359925E-2,-4.170655E-4,3.5725514E-4,6.89E1,-4.2421186E-1,1.1658182E1,6.8064575E1,-2.1773581E-4,1.3761791E-4,1.9317432E2,2.0179064E-4,-1.4311783E-1,1.95E2,1.4019557E2,1.7882736E1,-1.125E-1,-9.4666666E-1,-2.2287248E-2,2.2509922E-1,3.2606735E1,1.8199407E-4,1.3935047E-5,-3.3355984E-6,2.15E2,1E2,3.2189335E-5,7.774101E-5,1.8321355E-1,-1.371304E1,-7.676588E-3,2.0945387E1,4.282609E1,6.551565E-3,8.085812E-2,5.756782E-5,-1.6196902E-6,-8.771784E-5,2.3649465E-5,-1.6464938E-1,1.0295435E-1,4.7933936E-6,-6.7757706E1,2.178092E-1,3.0700796E1,2.5413294E-5,-3.7066115E-5,1.6126913E-4,-2.4514275E-2,3.1409665E-5,4.55431E-2,-2.3504097E-5,-6.2588495E2,-9.76548E-5,-5.174746E-6,-2.6755577E-5,-2.2693945E-4,-1.287163E-4,3.2127795E0,4.4467774E-7,7.99927E-1,1.6902553E-2,2.8337852E-5,-8.176717E-6,6.0556538E1,-8.761882E-5,6.670245E1,1.128513E-5,6.811846E-5,-5.2688673E-2,-5.8838487E-2,8.3792016E-5,-6.1729247E-6,2.1990038E1,1.1696256E-5,1.6089274E-2,3.567596E-5,2.4599987E-5,-4.115109E-5,-3.579906E-5,4.333563E-5,-1.2800633E-4,-4.200949E-2,-3.5637448E-5,-9.1521935E-5,5.070308E-5,1.2527684E-4,3.3976533E3,-2.7627673E-2,-5.573715E1,-8.779606E-1,3.7426569E-6,-6.388575E-5,4.81925E1,2.8067034E-6,-1.3541287E-5,-1.01677426E-4,1.3337877E-1,2.1189468E-5,3.2830674E-5,6.682844E1,-2.5835328E-5,-8.2561615E-5],"split_indices":[9,9,0,45,15,10,0,0,1,10,15,6,0,0,8,0,9,5,8,7,36,20,9,38,14,0,0,0,5,82,0,0,38,8,10,7,8,10,147,0,0,0,0,9,147,0,67,11,34,0,0,0,26,0,9,0,151,0,0,0,0,0,23,0,11,9,0,0,52,0,67,0,0,9,10,0,0,34,0,26,0,0,0,0,0,0,9,0,0,0,0,151,9,53,11,0,0,23,0,0,0,38,0,0,66,0,0],"split_type":[0,0,0,0,0,0,0,0,0,0,0,0,0,0,0,0,0,0,0,0,0,0,0,0,0,0,0,0,0,0,0,0,0,0,0,0,0,0,0,0,0,0,0,0,0,0,0,0,0,0,0,0,0,0,0,0,0,0,0,0,0,0,0,0,0,0,0,0,0,0,0,0,0,0,0,0,0,0,0,0,0,0,0,0,0,0,0,0,0,0,0,0,0,0,0,0,0,0,0,0,0,0,0,0,0,0,0],"sum_hessian":[3.1E2,3.08E2,2E0,1.97E2,1.11E2,1.95E2,2E0,1E0,1.1E2,4E1,1.55E2,1.09E2,1E0,2E0,3.8E1,1E0,1.54E2,1.03E2,6E0,2.8E1,1E1,1.9E1,1.35E2,5.1E1,5.2E1,5E0,1E0,7E0,2.1E1,7E0,3E0,2E0,1.7E1,9.2E1,4.3E1,9E0,4.2E1,2.9E1,2.3E1,1.5E1,6E0,5E0,2E0,7E0,1E1,1.2E1,8E1,1.4E1,2.9E1,5E0,4E0,3E0,3.9E1,1.1E1,1.8E1,2E0,2.1E1,3E0,4E0,1E0,9E0,7E0,7.3E1,6E0,8E0,2.5E1,4E0,3E0,3.6E1,6E0,1.2E1,6E0,1.5E1,5E0,6.8E1,6E0,2E0,2.2E1,3E0,2.1E1,1.5E1,5E0,7E0,2E0,3E0,3E0,6.5E1,1.7E1,5E0,1.2E1,9E0,5.2E1,1.3E1,4E1,1.2E1,9E0,4E0,3.2E1,8E0,2E0,1E1,3E1,2E0,1E0,2.9E1,7E0,2.2E1],"tree_param":{"num_deleted":"0","num_feature":"153","num_nodes":"107","size_leaf_vector":"1"}},{"base_weights":[-3.184619E-6,-1.0590157E-4,1.4350043E-3,-4.922009E-4,9.575892E-5,2.9427726E-3,2.8077982E-4,-5.5768184E-4,1.2351316E-3,-2.5722577E-4,1.3694793E-4,3.8436416E-3,8.5577594E-5,5.980473E-4,-1.7632151E-4,1.4098178E-4,-7.274994E-4,1.9170111E-4,3.6883484E-5,8.750276E-5,8.110389E-4,4.640935E-4,1.4993698E-4,1.1446532E-4,1.8166268E-4,4.7049612E-5,-1.7139323E-4,-4.6550008E-4,-1.21485E-3,2.7320546E-4,-9.3095514E-5,1.261397E-3,3.718905E-5,-2.4100851E-5,4.8346712E-5,-3.837834E-5,2.9623543E-5,-1.2835422E-4,-4.082525E-4,5.3431002E-5,-1.4557579E-3,-9.7068034E-5,3.1295777E-4,-3.5937742E-4,1.1864782E-4,-1.08659E-6,1.5180228E-4,1.6226575E-5,-5.0270464E-4,-2.3668764E-4,-8.522689E-4,-2.342253E-4,3.713336E-4,1.2729445E-6,-5.086559E-4,1.2599662E-4,4.7795762E-5,-7.948514E-4,-3.683105E-5,9.435053E-6,-1.0779773E-4,5.5078685E-6,-8.311928E-5,4.0356186E-4,-5.7963643E-5,-3.2742726E-5,4.3932774E-5,-3.0344787E-5,-8.682065E-5,7.438513E-4,-1.2459939E-5,1.812897E-5,-8.913039E-5,4.428838E-4,-1.3556154E-5,-9.59465E-6,1.0557661E-4,4.6294466E-5,-1.218492E-4,2.9859937E-5,5.7129876E-4,1.687213E-4,-3.1048583E-4,1.2452772E-5,6.902519E-5,3.2664283E-7,6.6426925E-5,-1.3763968E-4,-7.105922E-5,4.5419976E-5,-2.400071E-4,-4.388312E-5,7.831407E-6],"categories":[],"categories_nodes":[],"categories_segments":[],"categories_sizes":[],"default_left":[0,0,0,0,0,0,0,0,0,0,0,0,0,0,0,0,0,0,0,0,0,0,0,0,0,0,0,0,0,0,0,0,0,0,0,0,0,0,0,0,0,0,0,0,0,0,0,0,0,0,0,0,0,0,0,0,0,0,0,0,0,0,0,0,0,0,0,0,0,0,0,0,0,0,0,0,0,0,0,0,0,0,0,0,0,0,0,0,0,0,0,0,0],"id":1,"left_children":[1,3,5,7,9,11,13,15,17,-1,19,21,-1,23,-1,25,27,-1,-1,29,31,-1,-1,-1,33,-1,35,37,39,41,43,45,-1,-1,-1,-1,-1,-1,47,-1,49,-1,51,53,55,-1,-1,-1,57,-1,59,61,63,65,67,-1,69,71,-1,-1,-1,-1,-1,73,-1,-1,-1,-1,-1,75,77,-1,-1,79,-1,-1,-1,-1,81,-1,83,85,87,-1,-1,-1,-1,89,-1,-1,91,-1,-1],"loss_changes":[4.6538054E-5,2.2950118E-5,3.57201E-5,1.211265E-5,2.16715E-5,1.3631696E-5,9.4848965E-6,1.1729813E-5,1.6557797E-6,0E0,6.328496E-6,4.2559623E-6,0E0,2.523239E-6,0E0,2.139281E-6,9.521649E-6,0E0,0E0,6.0621996E-6,2.1019605E-6,0E0,0E0,0E0,1.137032E-6,0E0,1.2062073E-6,1.9580302E-6,1.2155258E-5,4.704595E-6,5.2299138E-6,1.975467E-6,0E0,0E0,0E0,0E0,0E0,0E0,2.829791E-6,0E0,1.11791815E-5,0E0,2.8659524E-6,2.207979E-6,4.1447456E-6,0E0,0E0,0E0,1.4348116E-6,0E0,3.5202675E-6,1.6001267E-6,2.6551197E-6,2.0157008E-6,1.8762421E-6,0E0,2.106334E-6,1.3855515E-6,0E0,0E0,0E0,0E0,0E0,1.6923887E-6,0E0,0E0,0E0,0E0,0E0,1.1490783E-6,2.500605E-6,0E0,0E0,1.1634475E-6,0E0,0E0,0E0,0E0,2.1900628E-6,0E0,1.8804039E-6,1.3096834E-6,1.5619587E-6,0E0,0E0,0E0,0E0,1.1995426E-6,0E0,0E0,1.0470053E-6,0E0,0E0],"parents":[2147483647,0,0,1,1,2,2,3,3,4,4,5,5,6,6,7,7,8,8,10,10,11,11,13,13,15,15,16,16,19,19,20,20,24,24,26,26,27,27,28,28,29,29,30,30,31,31,38,38,40,40,42,42,43,43,44,44,48,48,50,50,51,51,52,52,53,53,54,54,56,56,57,57,63,63,69,69,70,70,73,73,78,78,80,80,81,81,82,82,87,87,90,90],"right_children":[2,4,6,8,10,12,14,16,18,-1,20,22,-1,24,-1,26,28,-1,-1,30,32,-1,-1,-1,34,-1,36,38,40,42,44,46,-1,-1,-1,-1,-1,-1,48,-1,50,-1,52,54,56,-1,-1,-1,58,-1,60,62,64,66,68,-1,70,72,-1,-1,-1,-1,-1,74,-1,-1,-1,-1,-1,76,78,-1,-1,80,-1,-1,-1,-1,82,-1,84,86,88,-1,-1,-1,-1,90,-1,-1,92,-1,-1],"split_conditions":[1.6062757E-1,-5.426339E-2,2.2980951E1,1.746888E-2,1.2921894E1,2.26936E1,6.845E1,-1.0999226E-1,2.05E2,-2.5722577E-4,4.3438148E-1,3E2,8.5577594E-5,8.01E-2,-1.7632151E-4,1.0734E4,2.0065639E5,1.9170111E-4,3.6883484E-5,-6.847716E-3,3.5E-2,4.640935E-4,1.4993698E-4,1.1446532E-4,1.8109256E0,4.7049612E-5,5E1,-1.8506683E-1,-9.4666666E-1,1.0918751E1,1.6902553E-2,-3.2906428E-2,3.718905E-5,-2.4100851E-5,4.8346712E-5,-3.837834E-5,2.9623543E-5,-1.2835422E-4,1.2171192E1,5.3431002E-5,-1.2677298E0,-9.7068034E-5,1.3590793E1,4.6069912E1,-1.0035933E-1,-1.08659E-6,1.5180228E-4,1.6226575E-5,1.6441023E-1,-2.3668764E-4,6.701E1,-2.8571428E1,6.7975E1,4.086932E1,2.1990038E1,1.2599662E-4,1.18E2,0E0,-3.683105E-5,9.435053E-6,-1.0779773E-4,5.5078685E-6,-8.311928E-5,3.7286058E-1,-5.7963643E-5,-3.2742726E-5,4.3932774E-5,-3.0344787E-5,-8.682065E-5,6.68001E1,1.2600183E1,1.812897E-5,-8.913039E-5,2.5772532E1,-1.3556154E-5,-9.59465E-6,1.0557661E-4,4.6294466E-5,1.73E2,2.9859937E-5,-2.156634E-2,8.8237387E-1,6.6855415E1,1.2452772E-5,6.902519E-5,3.2664283E-7,6.6426925E-5,3.316979E1,-7.105922E-5,4.5419976E-5,2.0032259E1,-4.388312E-5,7.831407E-6],"split_indices":[9,9,7,26,15,14,2,10,4,0,38,4,0,149,0,4,150,0,0,10,149,0,0,0,141,0,18,9,20,37,9,9,0,0,0,0,0,0,37,0,141,0,46,52,24,0,0,0,38,0,2,19,2,52,34,0,5,129,0,0,0,0,0,38,0,0,0,0,0,2,34,0,0,15,0,0,0,0,5,0,51,11,33,0,0,0,0,8,0,0,37,0,0],"split_type":[0,0,0,0,0,0,0,0,0,0,0,0,0,0,0,0,0,0,0,0,0,0,0,0,0,0,0,0,0,0,0,0,0,0,0,0,0,0,0,0,0,0,0,0,0,0,0,0,0,0,0,0,0,0,0,0,0,0,0,0,0,0,0,0,0,0,0,0,0,0,0,0,0,0,0,0,0,0,0,0,0,0,0,0,0,0,0,0,0,0,0,0,0],"sum_hessian":[3.13E2,2.93E2,2E1,1E2,1.93E2,8E0,1.2E1,9.7E1,3E0,2E0,1.91E2,5E0,3E0,1.1E1,1E0,1.9E1,7.8E1,1E0,2E0,1.79E2,1.2E1,3E0,2E0,4E0,7E0,9E0,1E1,5.2E1,2.6E1,8.8E1,9.1E1,5E0,7E0,3E0,4E0,7E0,3E0,2E0,5E1,3E0,2.3E1,2E0,8.6E1,4E1,5.1E1,1E0,4E0,7E0,4.3E1,8E0,1.5E1,8E0,7.8E1,1.2E1,2.8E1,2E0,4.9E1,1.2E1,3.1E1,3E0,1.2E1,6E0,2E0,7.6E1,2E0,7E0,5E0,1.9E1,9E0,3E0,4.6E1,1E0,1.1E1,7.1E1,5E0,1E0,2E0,8E0,3.8E1,3.5E1,3.6E1,1.5E1,2.3E1,8E0,2.8E1,1.2E1,3E0,1.7E1,6E0,2E0,1.5E1,9E0,6E0],"tree_param":{"num_deleted":"0","num_feature":"153","num_nodes":"93","size_leaf_vector":"1"}},{"base_weights":[-9.69411E-6,-4.5170236E-5,5.5826426E-4,-2.9276375E-4,4.3209476E-4,-2.3993787E-4,-3.8225527E-4,1.9223118E-3,3.2558874E-4,1.7127913E-4,-3.4946922E-4,2.8893228E-3,-1.9398774E-4,3.6198177E-4,-1.6750544E-4,7.8194505E-5,1.0825767E-4,-1.2291794E-3,-2.7771926E-4,1.3624672E-4,3.9620232E-4,6.7890127E-4,2.1851013E-4,-4.3402158E-4,2.1552028E-4,6.899621E-5,-1.682004E-3,-3.231134E-4,1.1214908E-3,9.5185987E-4,2.277387E-4,2.820421E-4,-3.1705942E-5,4.0392442E-6,-6.779607E-5,3.0025322E-4,-4.738568E-5,-2.2386934E-4,-6.775758E-5,-4.2172283E-5,-4.267752E-4,1.7469752E-4,-6.902231E-5,1.3222084E-4,4.8632544E-4,-1.4426419E-5,6.857861E-5,2.1161727E-4,7.485638E-5,-1.652486E-5,3.9996354E-5,4.7313687E-4,-2.2366352E-4,1.3706612E-5,-4.92129E-4,9.14311E-6,8.629335E-5,7.278103E-5,4.6482528E-4,8.154229E-5,5.199475E-6,-2.977792E-4,3.5106208E-5,-5.2368507E-4,3.7247104E-5,1.6746181E-4,-5.8560447E-5,1.539703E-5,7.602832E-5,-4.522306E-4,-1.7969678E-6,-3.1526436E-4,-7.168536E-4,8.652277E-6,6.1960374E-5,-5.335589E-6,-6.015397E-5,-8.265657E-5,-1.5473519E-4,-5.773024E-4,-1.3424467E-3,6.542849E-5,-5.211061E-4,-8.9416484E-4,-3.387439E-4,-1.0322606E-6,-1.5312753E-4,-8.671529E-5,3.8055547E-5,-7.692311E-5,-1.6309097E-5,-1.1345045E-4,-9.044872E-6,-6.721868E-5,-2.8739767E-6,-1.9188941E-5,4.6806043E-5],"categories":[],"categories_nodes":[],"categories_segments":[],"categories_sizes":[],"default_left":[0,0,0,0,0,0,0,0,0,0,0,0,0,0,0,0,0,0,0,0,0,0,0,0,0,0,0,0,0,0,0,0,0,0,0,0,0,0,0,0,0,0,0,0,0,0,0,0,0,0,0,0,0,0,0,0,0,0,0,0,0,0,0,0,0,0,0,0,0,0,0,0,0,0,0,0,0,0,0,0,0,0,0,0,0,0,0,0,0,0,0,0,0,0,0,0,0],"id":2,"left_children":[1,3,-1,5,7,9,-1,11,13,15,17,19,-1,21,-1,23,-1,25,27,-1,-1,29,31,33,35,-1,37,39,41,43,45,47,-1,-1,-1,49,-1,-1,-1,51,53,-1,-1,-1,55,-1,-1,57,-1,-1,-1,59,61,-1,63,-1,-1,65,67,-1,-1,69,-1,71,-1,73,-1,-1,-1,75,-1,77,79,-1,-1,-1,-1,-1,81,83,85,87,89,91,93,-1,-1,95,-1,-1,-1,-1,-1,-1,-1,-1,-1],"loss_changes":[6.294481E-5,3.734933E-5,0E0,3.7867372E-5,1.6515562E-5,9.338334E-6,0E0,3.174839E-5,8.032907E-6,3.6477709E-6,9.947056E-6,4.4290246E-6,0E0,4.4440185E-6,0E0,2.9774997E-6,0E0,1.1588931E-5,1.001679E-5,0E0,0E0,3.6008332E-6,2.5052555E-6,1.0689378E-6,2.0699042E-6,0E0,4.0746654E-6,4.2921856E-6,6.8717954E-6,2.6327652E-6,2.3140688E-6,1.9442928E-6,0E0,0E0,0E0,1.458553E-6,0E0,0E0,0E0,3.940311E-6,4.047166E-6,0E0,0E0,0E0,1.4083055E-6,0E0,0E0,1.9699726E-6,0E0,0E0,0E0,1.5432638E-6,1.4250202E-6,0E0,2.841547E-6,0E0,0E0,2.4668516E-6,1.7198308E-6,0E0,0E0,1.2019491E-6,0E0,3.558469E-6,0E0,1.190652E-6,0E0,0E0,0E0,1.0399051E-6,0E0,3.7298032E-6,3.4155091E-6,0E0,0E0,0E0,0E0,0E0,3.0185734E-6,2.796306E-6,1.996541E-6,1.1836705E-6,1.1182005E-6,3.1811887E-6,2.5648983E-6,0E0,0E0,1.0817325E-6,0E0,0E0,0E0,0E0,0E0,0E0,0E0,0E0,0E0],"parents":[2147483647,0,0,1,1,3,3,4,4,5,5,7,7,8,8,9,9,10,10,11,11,13,13,15,15,17,17,18,18,21,21,22,22,23,23,24,24,26,26,27,27,28,28,29,29,30,30,31,31,35,35,39,39,40,40,44,44,47,47,51,51,52,52,54,54,57,57,58,58,61,61,63,63,65,65,69,69,71,71,72,72,78,78,79,79,80,80,81,81,82,82,83,83,84,84,87,87],"right_children":[2,4,-1,6,8,10,-1,12,14,16,18,20,-1,22,-1,24,-1,26,28,-1,-1,30,32,34,36,-1,38,40,42,44,46,48,-1,-1,-1,50,-1,-1,-1,52,54,-1,-1,-1,56,-1,-1,58,-1,-1,-1,60,62,-1,64,-1,-1,66,68,-1,-1,70,-1,72,-1,74,-1,-1,-1,76,-1,78,80,-1,-1,-1,-1,-1,82,84,86,88,90,92,94,-1,-1,96,-1,-1,-1,-1,-1,-1,-1,-1,-1],"split_conditions":[6.9075455E1,3.0549025E-2,5.5826426E-4,9.382716E1,1.67E2,-7.342038E-2,-3.8225527E-4,6.8135E1,6.414944E-1,6.8009E1,-1.6269466E-1,6.8889916E-1,-1.9398774E-4,9.313E3,-1.6750544E-4,-1.0499058E-1,1.0825767E-4,-9.4666666E-1,2.1306379E-1,1.3624672E-4,3.9620232E-4,2.4431059E1,9.917948E-1,-8.991427E-2,6.7774155E1,6.899621E-5,2.951683E1,6.683262E1,6.81013E1,1.4019557E2,7.531E3,1E2,-3.1705942E-5,4.0392442E-6,-6.779607E-5,1.0416729E1,-4.738568E-5,-2.2386934E-4,-6.775758E-5,-7.676588E-3,-1.4459992E1,1.7469752E-4,-6.902231E-5,1.3222084E-4,6.293E3,-1.4426419E-5,6.857861E-5,5.531353E-1,7.485638E-5,-1.652486E-5,3.9996354E-5,-7.881624E-3,6.682992E1,1.3706612E-5,1.4186927E0,9.14311E-6,8.629335E-5,4.739217E-1,3.5714287E1,8.154229E-5,5.199475E-6,5.033557E-1,3.5106208E-5,2.5479673E1,3.7247104E-5,6.750124E1,-5.8560447E-5,1.539703E-5,7.602832E-5,-1.9193084E5,-1.7969678E-6,2.9149312E-1,4.5588543E1,8.652277E-6,6.1960374E-5,-5.335589E-6,-6.015397E-5,-8.265657E-5,2.7701744E-1,4.7273096E-2,1.06E2,1.3718E4,3.123032E-1,5.2695816E1,3.016473E1,-1.0322606E-6,-1.5312753E-4,-2.9692453E-4,3.8055547E-5,-7.692311E-5,-1.6309097E-5,-1.1345045E-4,-9.044872E-6,-6.721868E-5,-2.8739767E-6,-1.9188941E-5,4.6806043E-5],"split_indices":[140,9,0,45,4,10,0,0,9,66,9,35,0,4,0,9,0,20,148,0,0,7,12,25,66,0,15,66,3,8,4,82,0,0,0,46,0,0,0,10,8,0,0,0,4,0,0,11,0,0,0,51,57,0,138,0,0,11,17,0,0,20,0,34,0,69,0,0,0,150,0,138,33,0,0,0,0,0,38,144,4,4,38,45,15,0,0,51,0,0,0,0,0,0,0,0,0],"split_type":[0,0,0,0,0,0,0,0,0,0,0,0,0,0,0,0,0,0,0,0,0,0,0,0,0,0,0,0,0,0,0,0,0,0,0,0,0,0,0,0,0,0,0,0,0,0,0,0,0,0,0,0,0,0,0,0,0,0,0,0,0,0,0,0,0,0,0,0,0,0,0,0,0,0,0,0,0,0,0,0,0,0,0,0,0,0,0,0,0,0,0,0,0,0,0,0,0],"sum_hessian":[3.15E2,3.14E2,1E0,2.07E2,1.07E2,2.05E2,2E0,6E0,1.01E2,4.3E1,1.62E2,5E0,1E0,1E2,1E0,4E1,3E0,1.1E1,1.51E2,3E0,2E0,3E1,7E1,8E0,3.2E1,2E0,9E0,1.47E2,4E0,1.8E1,1.2E1,6.3E1,7E0,3E0,5E0,2.9E1,3E0,5E0,4E0,4E1,1.07E2,3E0,1E0,9E0,9E0,7E0,5E0,5.6E1,7E0,5E0,2.4E1,1E1,3E1,1.1E1,9.6E1,5E0,4E0,3.7E1,1.9E1,5E0,5E0,2.7E1,3E0,9.3E1,3E0,3.3E1,4E0,1E1,9E0,1.7E1,1E1,4.6E1,4.7E1,2.9E1,4E0,5E0,1.2E1,1E1,3.6E1,4E1,7E0,2.3E1,1.3E1,1.6E1,2.4E1,1E0,6E0,1.6E1,7E0,7E0,6E0,1.2E1,4E0,1.1E1,1.3E1,1.4E1,2E0],"tree_param":{"num_deleted":"0","num_feature":"153","num_nodes":"97","size_leaf_vector":"1"}},{"base_weights":[2.8439561E-5,-6.1252205E-5,3.0349365E-3,-1.71503E-3,1.2574167E-6,4.574123E-3,8.8876317E-4,-7.994007E-7,-2.6944764E-3,-1.6230234E-4,3.2175577E-4,5.496867E-4,4.4157237E-5,1.3112646E-4,1.7000737E-5,9.28023E-5,-4.6501078E-5,-2.998435E-3,-4.3536253E-5,6.637955E-5,-2.2041755E-4,3.6851648E-4,-1.2974265E-4,-6.991528E-5,-3.3184607E-4,-1.9703891E-4,-1.5496642E-4,3.004404E-4,1.3509304E-4,-2.1751189E-4,1.7338118E-4,2.2237276E-4,7.1950495E-4,-2.3689725E-4,9.987282E-5,7.244248E-5,3.5272937E-4,-2.6116646E-5,9.04714E-5,-1.0879565E-4,-4.05706E-4,2.7813588E-4,-1.2658838E-4,5.405028E-4,9.6977186E-5,-2.3217517E-4,9.6462936E-5,-2.3337323E-4,-7.4792997E-4,6.0473656E-5,8.087892E-6,5.7550726E-5,-2.8434099E-5,1.0229561E-4,3.9286434E-4,2.7139048E-4,-3.2615004E-5,-1.002949E-4,-7.418366E-4,1.9812016E-4,-2.1815504E-5,-2.9945793E-4,3.2318585E-5,2.6143336E-5,-8.4706733E-4,-5.9708677E-6,5.097394E-5,1.1419113E-6,6.161158E-5,-1.6641227E-4,7.347166E-5,-2.4012606E-6,-8.701671E-5,6.879559E-5,5.451633E-4,-4.6017763E-4,-9.590475E-6,-5.4760087E-5,-1.340117E-4,-1.8296563E-5,-5.3539465E-4,2.0113546E-5,-2.6242915E-5,7.893799E-5,-1.2499106E-5,-5.5215106E-4,1.8371393E-5,-1.5468585E-4,3.5178422E-5,5.465838E-6,-7.7688164E-4,-3.5561577E-6,-6.9367245E-4,-6.515405E-5,-6.5431523E-6,-4.2155065E-5,-1.20449055E-4,-8.708925E-5,-2.9077064E-5],"categories":[],"categories_nodes":[],"categories_segments":[],"categories_sizes":[],"default_left":[0,0,0,0,0,0,0,0,0,0,0,0,0,0,0,0,0,0,0,0,0,0,0,0,0,0,0,0,0,0,0,0,0,0,0,0,0,0,0,0,0,0,0,0,0,0,0,0,0,0,0,0,0,0,0,0,0,0,0,0,0,0,0,0,0,0,0,0,0,0,0,0,0,0,0,0,0,0,0,0,0,0,0,0,0,0,0,0,0,0,0,0,0,0,0,0,0,0,0],"id":3,"left_children":[1,3,5,7,9,11,13,15,17,19,21,-1,-1,-1,-1,-1,-1,23,-1,-1,25,27,-1,-1,-1,29,-1,31,-1,33,-1,35,37,39,-1,41,43,-1,-1,45,47,49,51,53,55,57,59,61,63,-1,-1,-1,-1,-1,65,67,-1,69,71,73,-1,75,-1,-1,77,-1,-1,-1,-1,79,-1,-1,-1,81,83,85,-1,-1,-1,87,89,-1,-1,-1,-1,91,-1,93,-1,-1,95,-1,97,-1,-1,-1,-1,-1,-1],"loss_changes":[8.377989E-5,3.1222018E-5,2.5664922E-5,1.8466813E-5,1.5359044E-5,1.6639176E-5,1.295452E-6,2.5873903E-6,3.5013327E-6,9.460031E-6,7.973825E-6,0E0,0E0,0E0,0E0,0E0,0E0,2.0948683E-6,0E0,0E0,5.3504855E-6,6.081379E-6,0E0,0E0,0E0,7.492571E-6,0E0,2.849817E-6,0E0,4.4569233E-6,0E0,1.5184555E-6,2.7790907E-6,3.783428E-6,0E0,1.5909036E-6,1.964569E-6,0E0,0E0,2.6055163E-6,4.3076598E-6,1.1751506E-6,2.3787884E-6,1.3076051E-6,1.4906954E-6,4.2273114E-6,1.2905654E-6,2.009343E-6,2.7230926E-6,0E0,0E0,0E0,0E0,0E0,1.0883257E-6,1.2476264E-6,0E0,2.9931216E-6,1.1766479E-6,1.3089311E-6,0E0,1.4934722E-6,0E0,0E0,2.6621437E-6,0E0,0E0,0E0,0E0,2.668156E-6,0E0,0E0,0E0,1.0609713E-6,1.407968E-6,1.6411809E-6,0E0,0E0,0E0,1.871518E-6,2.0373254E-6,0E0,0E0,0E0,0E0,1.6568274E-6,0E0,1.1547223E-6,0E0,0E0,1.0116728E-6,0E0,1.0320109E-6,0E0,0E0,0E0,0E0,0E0,0E0],"parents":[2147483647,0,0,1,1,2,2,3,3,4,4,5,5,6,6,7,7,8,8,9,9,10,10,17,17,20,20,21,21,25,25,27,27,29,29,31,31,32,32,33,33,35,35,36,36,39,39,40,40,41,41,42,42,43,43,44,44,45,45,46,46,47,47,48,48,54,54,55,55,57,57,58,58,59,59,61,61,64,64,69,69,73,73,74,74,75,75,79,79,80,80,85,85,87,87,90,90,92,92],"right_children":[2,4,6,8,10,12,14,16,18,20,22,-1,-1,-1,-1,-1,-1,24,-1,-1,26,28,-1,-1,-1,30,-1,32,-1,34,-1,36,38,40,-1,42,44,-1,-1,46,48,50,52,54,56,58,60,62,64,-1,-1,-1,-1,-1,66,68,-1,70,72,74,-1,76,-1,-1,78,-1,-1,-1,-1,80,-1,-1,-1,82,84,86,-1,-1,-1,88,90,-1,-1,-1,-1,92,-1,94,-1,-1,96,-1,98,-1,-1,-1,-1,-1,-1],"split_conditions":[8.513E-1,-1.8506683E-1,3E2,1E2,3.0549025E-2,8.901138E-1,1.9084251E1,2.33E2,2.3148415E1,-1.9196303E-1,6.7991E1,5.496867E-4,4.4157237E-5,1.3112646E-4,1.7000737E-5,9.28023E-5,-4.6501078E-5,-8.6949745E1,-4.3536253E-5,6.637955E-5,3.664462E-1,6.7570145E1,-1.2974265E-4,-6.991528E-5,-3.3184607E-4,3.4190333E-1,-1.5496642E-4,1.6062757E-1,1.3509304E-4,6.8068436E1,1.7338118E-4,6.7056305E1,-2.4228133E-1,3.2758337E-2,9.987282E-5,7.341794E-3,6.7271965E1,-2.6116646E-5,9.04714E-5,-2.2736922E-2,6.72861E1,3.6237556E-1,5.307661E1,2.2102644E1,9.727031E-1,2.0539E4,-7.676588E-3,2.1472434E5,-9.571429E1,6.0473656E-5,8.087892E-6,5.7550726E-5,-2.8434099E-5,1.0229561E-4,3.325658E-2,3.1473843E1,-3.2615004E-5,6.798E1,1.764585E1,5.529638E-3,-2.1815504E-5,4.7273096E-2,3.2318585E-5,2.6143336E-5,2.5479673E1,-5.9708677E-6,5.097394E-5,1.1419113E-6,6.161158E-5,2.1282545E5,7.347166E-5,-2.4012606E-6,-8.701671E-5,9.16E-2,-1.8593173E-2,6.660132E1,-9.590475E-6,-5.4760087E-5,-1.340117E-4,6.723998E1,6.6945274E1,2.0113546E-5,-2.6242915E-5,7.893799E-5,-1.2499106E-5,1.7117685E1,1.8371393E-5,0E0,3.5178422E-5,5.465838E-6,3.357602E1,-3.5561577E-6,-3.923784E-2,-6.515405E-5,-6.5431523E-6,-4.2155065E-5,-1.20449055E-4,-8.708925E-5,-2.9077064E-5],"split_indices":[36,9,4,88,9,11,7,4,7,10,55,0,0,0,0,0,0,21,0,0,10,142,0,0,0,10,0,9,0,69,0,62,10,10,0,10,142,0,0,9,55,138,52,22,139,4,10,150,53,0,0,0,0,0,144,15,0,3,14,26,0,144,0,0,34,0,0,0,0,150,0,0,0,149,24,45,0,0,0,63,56,0,0,0,0,7,0,82,0,0,23,0,25,0,0,0,0,0,0],"split_type":[0,0,0,0,0,0,0,0,0,0,0,0,0,0,0,0,0,0,0,0,0,0,0,0,0,0,0,0,0,0,0,0,0,0,0,0,0,0,0,0,0,0,0,0,0,0,0,0,0,0,0,0,0,0,0,0,0,0,0,0,0,0,0,0,0,0,0,0,0,0,0,0,0,0,0,0,0,0,0,0,0,0,0,0,0,0,0,0,0,0,0,0,0,0,0,0,0,0,0],"sum_hessian":[3.09E2,3.01E2,8E0,1E1,2.91E2,4E0,4E0,4E0,6E0,1.93E2,9.8E1,3E0,1E0,2E0,2E0,1E0,3E0,5E0,1E0,1.2E1,1.81E2,9.6E1,2E0,1E0,4E0,1.79E2,2E0,9.1E1,5E0,1.78E2,1E0,7.8E1,1.3E1,1.76E2,2E0,3.7E1,4.1E1,2E0,1.1E1,1.01E2,7.5E1,1.8E1,1.9E1,2.3E1,1.8E1,6.3E1,3.8E1,5.1E1,2.4E1,6E0,1.2E1,3E0,1.6E1,4E0,1.9E1,1.3E1,5E0,5.1E1,1.2E1,2.9E1,9E0,4.6E1,5E0,2E0,2.2E1,4E0,1.5E1,8E0,5E0,4.8E1,3E0,2E0,1E1,2.2E1,7E0,2.5E1,2.1E1,1.5E1,7E0,3.5E1,1.3E1,1.6E1,6E0,5E0,2E0,2.2E1,3E0,2.6E1,9E0,4E0,9E0,5E0,1.7E1,3E0,2.3E1,6E0,3E0,1.1E1,6E0],"tree_param":{"num_deleted":"0","num_feature":"153","num_nodes":"99","size_leaf_vector":"1"}},{"base_weights":[-4.3379863E-5,-7.544562E-5,5.0286675E-4,-1.5810839E-3,-1.5764359E-5,-7.0739345E-4,-3.1516163E-4,-1.7670188E-4,2.696773E-4,-1.3372205E-4,4.1419535E-5,-2.0462112E-4,1.2075967E-3,2.3154258E-4,2.1035393E-4,-1.7285298E-4,-1.6545106E-4,-2.5174148E-5,1.7779566E-4,2.7188365E-4,-1.1115348E-3,1.3211239E-4,-2.5560954E-4,1.8977618E-4,9.4881246E-4,4.0837032E-5,-2.2609283E-4,-8.1504615E-5,4.095955E-5,-2.7811062E-4,9.321462E-5,2.8876844E-4,-1.9600318E-6,-6.4199435E-6,1.18105956E-4,-5.5408407E-5,7.2020724E-5,-3.0077875E-4,6.074703E-5,-4.2410684E-5,3.3220457E-4,-1.5811017E-4,3.2471387E-5,-4.061894E-5,1.8707196E-5,-2.4404253E-4,-7.724408E-4,2.599282E-4,8.319821E-5,3.3891898E-5,-2.496105E-4,-1.3910151E-4,-3.8916135E-4,-8.809438E-5,-4.478074E-6,3.7849107E-4,2.784253E-5,-3.8918446E-5,1.4092622E-5,-1.6679266E-4,4.079602E-5,-5.2027905E-4,-1.8981665E-4,-9.539663E-6,4.6065223E-4,-2.9676108E-5,2.0048737E-5,-4.5670513E-5,-5.8337362E-5,-6.8571814E-4,-1.4210273E-4,3.0468556E-5,-3.4410536E-5,5.397949E-4,-4.302026E-6,1.4137842E-4,-2.1751663E-4,-3.577222E-5,-9.2923794E-5,9.640536E-6,-5.835932E-5,-2.598163E-5,5.8217203E-5,-7.275864E-6,4.698599E-5,-7.2597695E-6,-5.636965E-4,-9.802047E-5,-1.9207493E-5],"categories":[],"categories_nodes":[],"categories_segments":[],"categories_sizes":[],"default_left":[0,0,0,0,0,0,0,0,0,0,0,0,0,0,0,0,0,0,0,0,0,0,0,0,0,0,0,0,0,0,0,0,0,0,0,0,0,0,0,0,0,0,0,0,0,0,0,0,0,0,0,0,0,0,0,0,0,0,0,0,0,0,0,0,0,0,0,0,0,0,0,0,0,0,0,0,0,0,0,0,0,0,0,0,0,0,0,0,0],"id":4,"left_children":[1,3,-1,5,7,9,-1,11,13,-1,-1,15,17,-1,19,21,-1,-1,-1,23,25,27,29,31,33,-1,-1,35,-1,37,-1,39,41,-1,-1,-1,43,45,-1,-1,47,49,-1,-1,-1,51,53,55,-1,-1,57,59,61,-1,-1,63,65,-1,-1,67,-1,69,71,-1,73,-1,-1,-1,75,77,79,-1,-1,81,-1,83,85,-1,-1,-1,-1,-1,-1,-1,-1,-1,87,-1,-1],"loss_changes":[5.177333E-5,2.8280469E-5,0E0,1.4236477E-5,1.4012888E-5,6.911533E-6,0E0,7.783568E-6,1.2862614E-5,0E0,0E0,8.557588E-6,3.7769769E-6,0E0,9.086434E-6,4.803729E-6,0E0,0E0,0E0,5.600352E-6,9.65814E-6,2.4636633E-6,4.2413812E-6,1.7847235E-6,2.6637827E-6,0E0,0E0,1.7811757E-6,0E0,3.133663E-6,0E0,2.0606922E-6,1.7346764E-6,0E0,0E0,0E0,1.1213411E-6,3.6649772E-6,0E0,0E0,1.9149484E-6,1.130599E-6,0E0,0E0,0E0,1.9256258E-6,1.144851E-6,1.4478494E-6,0E0,0E0,1.1450215E-6,1.2344998E-6,1.3126728E-6,0E0,0E0,1.4066745E-6,1.1242785E-6,0E0,0E0,2.3001053E-6,0E0,1.9046429E-6,1.8596543E-6,0E0,1.2190826E-6,0E0,0E0,0E0,1.7792357E-6,1.424808E-6,1.214551E-6,0E0,0E0,1.0322733E-6,0E0,1.7926877E-6,1.5142854E-6,0E0,0E0,0E0,0E0,0E0,0E0,0E0,0E0,0E0,1.2047783E-6,0E0,0E0],"parents":[2147483647,0,0,1,1,3,3,4,4,5,5,7,7,8,8,11,11,12,12,14,14,15,15,19,19,20,20,21,21,22,22,23,23,24,24,27,27,29,29,31,31,32,32,36,36,37,37,40,40,41,41,45,45,46,46,47,47,50,50,51,51,52,52,55,55,56,56,59,59,61,61,62,62,64,64,68,68,69,69,70,70,73,73,75,75,76,76,86,86],"right_children":[2,4,-1,6,8,10,-1,12,14,-1,-1,16,18,-1,20,22,-1,-1,-1,24,26,28,30,32,34,-1,-1,36,-1,38,-1,40,42,-1,-1,-1,44,46,-1,-1,48,50,-1,-1,-1,52,54,56,-1,-1,58,60,62,-1,-1,64,66,-1,-1,68,-1,70,72,-1,74,-1,-1,-1,76,78,80,-1,-1,82,-1,84,86,-1,-1,-1,-1,-1,-1,-1,-1,-1,88,-1,-1],"split_conditions":[6.855205E1,-1.8506683E-1,5.0286675E-4,6.685211E1,3.0549025E-2,-7.4608215E1,-3.1516163E-4,2.3638472E-1,-2.5167666E-2,-1.3372205E-4,4.1419535E-5,6.73234E-1,6.721E1,2.3154258E-4,2.928E-1,-6.545284E-2,-1.6545106E-4,-2.5174148E-5,1.7779566E-4,6.7625E1,6.769E1,-3.343584E-3,6.8068436E1,2.9994443E-2,2.1873703E1,4.0837032E-5,-2.2609283E-4,-1.0499058E-1,4.095955E-5,1E2,9.321462E-5,-1.8652735E-2,6.735E1,-6.4199435E-6,1.18105956E-4,-5.5408407E-5,0E0,6.770573E1,6.074703E-5,-4.2410684E-5,1.6062757E-1,6.669658E1,3.2471387E-5,-4.061894E-5,1.8707196E-5,9.657432E-1,9.9316925E-1,7.142857E1,8.319821E-5,3.3891898E-5,2.9253223E1,6.7431435E1,4.118252E-2,-8.809438E-5,-4.478074E-6,1.8741527E-1,5.8351923E-2,-3.8918446E-5,1.4092622E-5,2.3323944E1,4.079602E-5,7.142857E1,4.5497254E-2,-9.539663E-6,1E2,-2.9676108E-5,2.0048737E-5,-4.5670513E-5,5.8333332E1,2.5479673E1,6.693777E1,3.0468556E-5,-3.4410536E-5,-1.0836084E-1,-4.302026E-6,2.5877353E2,2.4991098E-1,-3.577222E-5,-9.2923794E-5,9.640536E-6,-5.835932E-5,-2.598163E-5,5.8217203E-5,-7.275864E-6,4.698599E-5,-7.2597695E-6,5.3796295E1,-9.802047E-5,-1.9207493E-5],"split_indices":[56,9,0,45,9,21,0,148,26,0,0,38,0,0,149,10,0,0,0,3,0,11,69,10,34,0,0,9,0,96,0,32,0,0,0,0,82,54,0,0,9,56,0,0,0,139,12,19,0,0,7,56,144,0,0,38,27,0,0,49,0,47,144,0,84,0,0,0,47,34,67,0,0,24,0,151,35,0,0,0,0,0,0,0,0,0,45,0,0],"split_type":[0,0,0,0,0,0,0,0,0,0,0,0,0,0,0,0,0,0,0,0,0,0,0,0,0,0,0,0,0,0,0,0,0,0,0,0,0,0,0,0,0,0,0,0,0,0,0,0,0,0,0,0,0,0,0,0,0,0,0,0,0,0,0,0,0,0,0,0,0,0,0,0,0,0,0,0,0,0,0,0,0,0,0,0,0,0,0,0,0],"sum_hessian":[3.15E2,3.14E2,1E0,1.1E1,3.03E2,8E0,3E0,1.94E2,1.09E2,5E0,3E0,1.91E2,3E0,2E0,1.07E2,1.88E2,3E0,1E0,2E0,1.03E2,4E0,4E1,1.48E2,9.3E1,1E1,2E0,2E0,2.3E1,1.7E1,1.46E2,2E0,6.1E1,3.2E1,2E0,8E0,5E0,1.8E1,1.43E2,3E0,3E0,5.8E1,2.2E1,1E1,3E0,1.5E1,1.29E2,1.4E1,5.2E1,6E0,3E0,1.9E1,7.6E1,5.3E1,1.2E1,2E0,3.4E1,1.8E1,1.4E1,5E0,7.3E1,3E0,3.1E1,2.2E1,5E0,2.9E1,6E0,1.2E1,1.9E1,5.4E1,2.1E1,1E1,5E0,1.7E1,2.5E1,4E0,2.4E1,3E1,1E1,1.1E1,7E0,3E0,1E0,2.4E1,1.5E1,9E0,2.2E1,8E0,3E0,5E0],"tree_param":{"num_deleted":"0","num_feature":"153","num_nodes":"89","size_leaf_vector":"1"}},{"base_weights":[-2.4747085E-5,-7.043457E-5,3.3851573E-3,-1.7316099E-3,-1.8637973E-5,-2.0709083E-5,4.6516038E-4,-2.4502869E-3,-2.20692E-5,-8.435358E-5,4.7864288E-4,-8.9167464E-5,-3.0066745E-4,-2.0412417E-4,-6.100057E-5,1.9176883E-3,2.2284721E-4,-8.584511E-5,9.8435536E-5,2.21689E-4,3.6044075E-5,-1.0984381E-4,3.5645466E-4,-1.9529209E-4,1.1089721E-4,2.000547E-5,6.179691E-5,-2.2162747E-5,-3.4601928E-4,1.19185555E-4,7.278616E-5,-1.256218E-4,3.181843E-4,-2.44593E-4,-7.155967E-4,1.1898221E-4,-4.7876552E-4,-8.7153385E-5,-8.415938E-5,5.9745777E-5,-2.7473397E-6,1.0785375E-5,-3.4449215E-4,-1.0233793E-3,-2.9410536E-5,1.6583425E-4,-1.9850228E-5,-7.848102E-5,1.9089739E-5,-7.8621524E-5,-4.433525E-5,4.786384E-5,-3.6905383E-4,-1.2214253E-4,-1.5412998E-5,1.07977176E-4,4.461215E-4,5.0827653E-6,-3.014915E-4,-5.917803E-5,-2.474391E-4,2.3832175E-4,-1.17736545E-5,8.387297E-6,6.928886E-5,-4.7072648E-5,1.3112373E-5,-4.5686505E-5,-7.609366E-5,-2.3121254E-5,2.985889E-5,-3.8650058E-5,1.8891993E-5],"categories":[],"categories_nodes":[],"categories_segments":[],"categories_sizes":[],"default_left":[0,0,0,0,0,0,0,0,0,0,0,0,0,0,0,0,0,0,0,0,0,0,0,0,0,0,0,0,0,0,0,0,0,0,0,0,0,0,0,0,0,0,0,0,0,0,0,0,0,0,0,0,0,0,0,0,0,0,0,0,0,0,0,0,0,0,0,0,0,0,0,0,0],"id":5,"left_children":[1,3,5,7,9,-1,-1,11,-1,13,15,-1,-1,-1,17,19,21,23,-1,-1,-1,-1,25,27,29,-1,-1,31,33,-1,35,37,39,41,43,45,47,-1,49,-1,-1,-1,51,53,-1,55,-1,-1,-1,-1,57,-1,59,-1,-1,61,63,-1,65,-1,67,69,-1,-1,-1,-1,-1,-1,71,-1,-1,-1,-1],"loss_changes":[4.713121E-5,2.560861E-5,1.9160863E-5,9.232001E-6,9.517318E-6,0E0,0E0,2.522178E-6,0E0,1.1620184E-5,1.2088102E-5,0E0,0E0,0E0,6.7072046E-6,1.5305977E-6,5.68755E-6,5.40487E-6,0E0,0E0,0E0,0E0,1.0215963E-6,4.1936737E-6,3.62093E-6,0E0,0E0,2.7160813E-6,3.04867E-6,0E0,2.299161E-6,1.7513642E-6,1.7540086E-6,2.4665856E-6,2.0341167E-6,1.2526518E-6,1.5844454E-6,0E0,1.5587924E-6,0E0,0E0,0E0,1.2683868E-6,1.5332562E-6,0E0,1.119424E-6,0E0,0E0,0E0,0E0,1.3612695E-6,0E0,1.2891715E-6,0E0,0E0,1.8227133E-6,1.0145777E-6,0E0,1.1599278E-6,0E0,1.2570661E-6,1.1726395E-6,0E0,0E0,0E0,0E0,0E0,0E0,1.800521E-6,0E0,0E0,0E0,0E0],"parents":[2147483647,0,0,1,1,2,2,3,3,4,4,7,7,9,9,10,10,14,14,15,15,16,16,17,17,22,22,23,23,24,24,27,27,28,28,30,30,31,31,32,32,33,33,34,34,35,35,36,36,38,38,42,42,43,43,45,45,50,50,52,52,55,55,56,56,58,58,60,60,61,61,68,68],"right_children":[2,4,6,8,10,-1,-1,12,-1,14,16,-1,-1,-1,18,20,22,24,-1,-1,-1,-1,26,28,30,-1,-1,32,34,-1,36,38,40,42,44,46,48,-1,50,-1,-1,-1,52,54,-1,56,-1,-1,-1,-1,58,-1,60,-1,-1,62,64,-1,66,-1,68,70,-1,-1,-1,-1,-1,-1,72,-1,-1,-1,-1],"split_conditions":[6.869E1,-1.8506683E-1,6.87E1,-2.0571144E-3,1.0278157E-1,-2.0709083E-5,4.6516038E-4,-8.6949745E1,-2.20692E-5,1.2921894E1,-6.1655555E-2,-8.9167464E-5,-3.0066745E-4,-2.0412417E-4,1.4511175E-1,6.868E1,2.2744547E1,1.0390192E-2,9.8435536E-5,2.21689E-4,3.6044075E-5,-1.0984381E-4,6.728E1,-1.0494823E-3,-8.0976136E-2,2.000547E-5,6.179691E-5,1.6155303E-3,6.753E1,1.19185555E-4,8.731846E1,-2.0519267E2,5.0002834E1,1.7363405E1,6.61823E1,9.9316925E-1,2.3178272E1,-8.7153385E-5,1.5165751E-2,5.9745777E-5,-2.7473397E-6,1.0785375E-5,7.142857E0,-4.107143E1,-2.9410536E-5,9.842336E-2,-1.9850228E-5,-7.848102E-5,1.9089739E-5,-7.8621524E-5,3.876683E1,4.786384E-5,6.428571E1,-1.2214253E-4,-1.5412998E-5,-1.1671754E-2,6.692E1,5.0827653E-6,-5.4602075E-2,-5.917803E-5,6.430763E-2,5.608E3,-1.17736545E-5,8.387297E-6,6.928886E-5,-4.7072648E-5,1.3112373E-5,-4.5686505E-5,-8.027613E1,-2.3121254E-5,2.985889E-5,-3.8650058E-5,1.8891993E-5],"split_indices":[55,9,0,26,9,0,0,21,0,15,28,0,0,0,147,0,14,9,0,0,0,0,66,10,29,0,0,26,1,0,46,21,52,7,50,12,7,0,144,0,0,0,17,53,0,10,0,0,0,0,46,0,17,0,0,10,0,0,9,0,10,4,0,0,0,0,0,0,53,0,0,0,0],"split_type":[0,0,0,0,0,0,0,0,0,0,0,0,0,0,0,0,0,0,0,0,0,0,0,0,0,0,0,0,0,0,0,0,0,0,0,0,0,0,0,0,0,0,0,0,0,0,0,0,0,0,0,0,0,0,0,0,0,0,0,0,0,0,0,0,0,0,0,0,0,0,0,0,0],"sum_hessian":[3E2,2.97E2,3E0,8E0,2.89E2,1E0,2E0,5E0,3E0,2.56E2,3.3E1,2E0,3E0,2E0,2.54E2,4E0,2.9E1,2.49E2,5E0,3E0,1E0,2E0,2.7E1,1.6E2,8.9E1,1.8E1,9E0,7.5E1,8.5E1,2E0,8.7E1,5.8E1,1.7E1,6.8E1,1.7E1,8.1E1,6E0,2E0,5.6E1,9E0,8E0,1.5E1,5.3E1,9E0,8E0,7.1E1,1E1,4E0,2E0,2E0,5.4E1,1E0,5.2E1,7E0,2E0,6E1,1.1E1,4E1,1.4E1,1.7E1,3.5E1,3.8E1,2.2E1,5E0,6E0,1E1,4E0,1.5E1,2E1,4E0,3.4E1,9E0,1.1E1],"tree_param":{"num_deleted":"0","num_feature":"153","num_nodes":"73","size_leaf_vector":"1"}},{"base_weights":[-1.0495987E-5,-3.4075804E-4,1.16690435E-5,-5.584217E-5,8.887844E-4,-2.2026725E-5,-1.2281756E-3,2.2302025E-3,1.14109156E-4,-1.3390556E-4,1.6183124E-4,-1.6810015E-3,8.6868085E-6,3.556693E-4,7.2296965E-4,3.9216602E-4,-1.1288404E-4,-1.665915E-4,1.0041978E-3,1.3581307E-4,1.0098507E-4,-2.8837216E-5,-1.9018531E-4,1.0020803E-4,-1.9673631E-5,6.0261427E-5,-2.3199602E-5,-1.4345835E-4,-1.0907528E-4,-1.0427352E-4,1.7766148E-4,2.689875E-4,2.5888594E-6,-2.0555705E-4,4.0397365E-5,5.2985597E-5,1.4890957E-4,5.0354043E-5,-5.9512317E-5,-3.7492104E-5,-3.134214E-4,2.8794742E-4,-2.0898893E-5,5.7891633E-5,7.9244615E-5,-3.260886E-5,1.2982142E-5,-1.2654359E-4,6.366427E-5,-2.402531E-4,-6.2029154E-5,5.1090956E-5,-9.087676E-6,-1.1672298E-5,2.4903555E-5,-2.061721E-4,5.5171895E-5,-2.8035257E-4,1.8741735E-5,-3.8553096E-4,1.6727218E-4,7.2962052E-6,-3.3027736E-5,-1.2711903E-4,-7.7333854E-4,-3.9854726E-6,5.480716E-5,-4.143139E-5,9.330624E-6,-9.50671E-5,1.6438231E-6],"categories":[],"categories_nodes":[],"categories_segments":[],"categories_sizes":[],"default_left":[0,0,0,0,0,0,0,0,0,0,0,0,0,0,0,0,0,0,0,0,0,0,0,0,0,0,0,0,0,0,0,0,0,0,0,0,0,0,0,0,0,0,0,0,0,0,0,0,0,0,0,0,0,0,0,0,0,0,0,0,0,0,0,0,0,0,0,0,0,0,0],"id":6,"left_children":[1,-1,3,5,7,9,11,13,15,17,19,21,-1,-1,23,25,-1,27,29,31,-1,-1,-1,-1,-1,-1,-1,33,-1,-1,-1,35,37,39,41,-1,43,45,-1,47,49,51,-1,-1,53,-1,-1,55,-1,57,-1,-1,-1,-1,-1,59,-1,61,-1,63,65,-1,-1,67,69,-1,-1,-1,-1,-1,-1],"loss_changes":[2.323108E-5,0E0,1.8228675E-5,1.131084E-5,2.2607106E-5,5.760648E-6,4.9099126E-6,1.3423258E-5,5.6268527E-6,6.640088E-6,2.2016234E-6,1.2969431E-6,0E0,0E0,1.4806437E-6,1.8474038E-6,0E0,3.4779118E-6,9.757969E-6,1.8444775E-6,0E0,0E0,0E0,0E0,0E0,0E0,0E0,1.9149763E-6,0E0,0E0,0E0,1.5499752E-6,1.5431075E-6,2.2542768E-6,2.714808E-6,0E0,1.0625108E-6,1.5380783E-6,0E0,3.0821984E-6,1.5574137E-6,1.904626E-6,0E0,0E0,1.1270944E-6,0E0,0E0,2.5441557E-6,0E0,1.1329528E-6,0E0,0E0,0E0,0E0,0E0,2.8106908E-6,0E0,1.047169E-6,0E0,2.7076894E-6,1.1260764E-6,0E0,0E0,1.1781482E-6,1.5562105E-6,0E0,0E0,0E0,0E0,0E0,0E0],"parents":[2147483647,0,0,2,2,3,3,4,4,5,5,6,6,7,7,8,8,9,9,10,10,11,11,14,14,15,15,17,17,18,18,19,19,27,27,31,31,32,32,33,33,34,34,36,36,37,37,39,39,40,40,41,41,44,44,47,47,49,49,55,55,57,57,59,59,60,60,63,63,64,64],"right_children":[2,-1,4,6,8,10,12,14,16,18,20,22,-1,-1,24,26,-1,28,30,32,-1,-1,-1,-1,-1,-1,-1,34,-1,-1,-1,36,38,40,42,-1,44,46,-1,48,50,52,-1,-1,54,-1,-1,56,-1,58,-1,-1,-1,-1,-1,60,-1,62,-1,64,66,-1,-1,68,70,-1,-1,-1,-1,-1,-1],"split_conditions":[6E-4,-3.4075804E-4,1.7218538E-1,1.8129042E-1,2.2980951E1,1.336723E-2,3.3E1,1.492548E-1,3.587179E1,7.9960644E-1,1.3211049E-1,-9.5507205E-2,8.6868085E-6,3.556693E-4,1.9281841E1,2.06E2,-1.1288404E-4,6.73234E-1,6.733E1,1.9E2,1.0098507E-4,-2.8837216E-5,-1.9018531E-4,1.0020803E-4,-1.9673631E-5,6.0261427E-5,-2.3199602E-5,5.517957E1,-1.0907528E-4,-1.0427352E-4,1.7766148E-4,-1.0775862E-1,2.0554002E4,1.3839832E1,6.6635635E1,5.2985597E-5,3.1060738E1,2.04E2,-5.9512317E-5,6.8E1,6.7640915E1,7.1428575E-2,-2.0898893E-5,5.7891633E-5,6.0081553E-1,-3.260886E-5,1.2982142E-5,1.1114497E3,6.366427E-5,7.552177E-2,-6.2029154E-5,5.1090956E-5,-9.087676E-6,-1.1672298E-5,2.4903555E-5,-8.249593E-2,5.5171895E-5,6.666E1,1.8741735E-5,2.03E2,-1.18151085E2,7.2962052E-6,-3.3027736E-5,-2.1047857E-2,-2.7063778E-2,-3.9854726E-6,5.480716E-5,-4.143139E-5,9.330624E-6,-9.50671E-5,1.6438231E-6],"split_indices":[149,0,9,144,7,9,5,26,34,38,147,24,0,0,7,5,0,38,1,5,0,0,0,0,0,0,0,46,0,0,0,20,151,37,46,0,8,5,0,1,142,20,0,0,141,0,0,151,0,25,0,0,0,0,0,31,0,2,0,5,21,0,0,51,9,0,0,0,0,0,0],"split_type":[0,0,0,0,0,0,0,0,0,0,0,0,0,0,0,0,0,0,0,0,0,0,0,0,0,0,0,0,0,0,0,0,0,0,0,0,0,0,0,0,0,0,0,0,0,0,0,0,0,0,0,0,0,0,0,0,0,0,0,0,0,0,0,0,0,0,0,0,0,0,0],"sum_hessian":[3.07E2,1E0,3.06E2,2.85E2,2.1E1,2.78E2,7E0,7E0,1.4E1,1.73E2,1.05E2,5E0,2E0,3E0,4E0,1.2E1,2E0,1.69E2,4E0,1.03E2,2E0,1E0,4E0,3E0,1E0,9E0,3E0,1.66E2,3E0,1E0,3E0,5.1E1,5.2E1,1.24E2,4.2E1,1.5E1,3.6E1,4.9E1,3E0,4.9E1,7.5E1,2.1E1,2.1E1,4E0,3.2E1,8E0,4.1E1,4.4E1,5E0,6.2E1,1.3E1,1.3E1,8E0,1.5E1,1.7E1,4E1,4E0,5.7E1,5E0,2.7E1,1.3E1,7E0,5E1,1.7E1,1E1,9E0,4E0,7E0,1E1,8E0,2E0],"tree_param":{"num_deleted":"0","num_feature":"153","num_nodes":"71","size_leaf_vector":"1"}},{"base_weights":[3.1041584E-6,-3.7114605E-5,4.1043834E-4,-2.2997885E-4,2.0888365E-4,-3.0261476E-4,-1.7928188E-4,8.577163E-5,1.1880618E-3,-1.3719358E-4,-1.0144208E-3,1.2450013E-4,-1.4790497E-4,-7.49487E-5,1.5437991E-3,-1.651854E-4,1.0167772E-4,-1.4841322E-4,-1.7367627E-5,4.288182E-4,7.638105E-6,3.1502426E-5,2.552031E-3,-4.7540173E-4,-1.0963519E-4,1.3931618E-4,6.9309564E-5,-1.466291E-4,1.842947E-4,3.1807902E-4,1.2852643E-4,-2.3785298E-4,-1.0183269E-4,-1.356429E-4,3.9274273E-5,3.5072746E-5,-1.4236242E-5,4.820923E-6,-3.2001518E-4,-1.964392E-5,2.9751483E-5,1.2010157E-5,-4.268387E-4,-8.20494E-5,-1.13181595E-4,-5.1574356E-5,-6.499748E-5,-5.606069E-5,1.6133468E-5,-9.4229166E-5,-8.714566E-5,3.2660664E-5,-3.0162535E-5,4.9416583E-5,-1.1757134E-4,4.057931E-5,-1.4340566E-4,-1.7098636E-4,3.9533494E-5,-1.9351376E-4,4.8563175E-5,-1.2305335E-4,-3.3897135E-4,-1.589851E-4,3.1665928E-5,8.097427E-6,-4.6639874E-5,-6.554128E-5,-3.7389967E-5,-1.157161E-4,4.0917534E-5,-2.4003955E-6,-4.4347944E-5],"categories":[],"categories_nodes":[],"categories_segments":[],"categories_sizes":[],"default_left":[0,0,0,0,0,0,0,0,0,0,0,0,0,0,0,0,0,0,0,0,0,0,0,0,0,0,0,0,0,0,0,0,0,0,0,0,0,0,0,0,0,0,0,0,0,0,0,0,0,0,0,0,0,0,0,0,0,0,0,0,0,0,0,0,0,0,0,0,0,0,0,0,0],"id":7,"left_children":[1,3,-1,5,7,-1,9,11,13,15,17,19,-1,-1,21,23,-1,-1,-1,25,27,-1,29,31,33,35,-1,37,39,-1,-1,41,-1,43,-1,-1,-1,-1,45,-1,-1,-1,47,-1,49,-1,51,-1,-1,53,-1,-1,-1,-1,55,-1,57,59,-1,61,-1,63,65,67,-1,-1,-1,69,-1,71,-1,-1,-1],"loss_changes":[5.0956434E-5,1.4565984E-5,0E0,2.3839719E-5,1.617216E-5,0E0,5.836256E-6,7.517129E-6,1.1495931E-5,5.433139E-6,2.901499E-6,4.228749E-6,0E0,0E0,1.5301623E-5,2.705092E-6,0E0,0E0,0E0,2.4282317E-6,2.3979746E-6,0E0,1.4872821E-6,2.8530962E-6,1.8432733E-6,1.0622808E-6,0E0,1.6031938E-6,1.8258199E-6,0E0,0E0,1.2689335E-6,0E0,1.9222628E-6,0E0,0E0,0E0,0E0,1.2143332E-6,0E0,0E0,0E0,1.0345916E-6,0E0,1.7573915E-6,0E0,1.2104862E-6,0E0,0E0,1.7886365E-6,0E0,0E0,0E0,0E0,1.7077266E-6,0E0,1.8060812E-6,1.7506688E-6,0E0,1.0754293E-6,0E0,1.2353172E-6,1.9107074E-6,1.3812648E-6,0E0,0E0,0E0,1.2382892E-6,0E0,1.3721092E-6,0E0,0E0,0E0],"parents":[2147483647,0,0,1,1,3,3,4,4,6,6,7,7,8,8,9,9,10,10,11,11,14,14,15,15,19,19,20,20,22,22,23,23,24,24,25,25,27,27,28,28,31,31,33,33,38,38,42,42,44,44,46,46,49,49,54,54,56,56,57,57,59,59,61,61,62,62,63,63,67,67,69,69],"right_children":[2,4,-1,6,8,-1,10,12,14,16,18,20,-1,-1,22,24,-1,-1,-1,26,28,-1,30,32,34,36,-1,38,40,-1,-1,42,-1,44,-1,-1,-1,-1,46,-1,-1,-1,48,-1,50,-1,52,-1,-1,54,-1,-1,-1,-1,56,-1,58,60,-1,62,-1,64,66,68,-1,-1,-1,70,-1,72,-1,-1,-1],"split_conditions":[6.869E1,5.7142857E1,4.1043834E-4,-4.5685002E-1,3.0388475E1,-3.0261476E-4,1.5577453E-1,9.9960285E-1,1.2135048E1,1.509173E-1,2.4404188E-1,9.347E3,-1.4790497E-4,-7.49487E-5,3.8418865E1,-3.7144342E-1,1.0167772E-4,-1.4841322E-4,-1.7367627E-5,7.357E3,6.7249214E1,3.1502426E-5,2.05E2,4.1356716E1,1.3047913E0,1.4285715E-1,6.9309564E-5,1.4097027E-2,3.7063677E-2,3.1807902E-4,1.2852643E-4,-3.763467E-2,-1.0183269E-4,1.1305684E1,3.9274273E-5,3.5072746E-5,-1.4236242E-5,4.820923E-6,8.864568E-2,-1.964392E-5,2.9751483E-5,1.2010157E-5,1.5458E4,-8.20494E-5,3.9812748E1,-5.1574356E-5,3.0283013E-2,-5.606069E-5,1.6133468E-5,1.55E2,-8.714566E-5,3.2660664E-5,-3.0162535E-5,4.9416583E-5,-1.9196303E-1,4.057931E-5,1.6635241E-2,1E2,3.9533494E-5,7.6338404E-1,4.8563175E-5,1.7298544E1,-2.5327772E-1,4.962494E1,3.1665928E-5,8.097427E-6,-4.6639874E-5,6.677796E-1,-3.7389967E-5,6.737E1,4.0917534E-5,-2.4003955E-6,-4.4347944E-5],"split_indices":[55,18,0,10,34,0,147,11,14,147,148,4,0,0,37,40,0,0,0,4,140,0,4,52,138,20,0,10,28,0,0,10,0,37,0,0,0,0,10,0,0,0,4,0,37,0,24,0,0,4,0,0,0,0,10,0,26,96,0,138,0,22,40,52,0,0,0,20,0,1,0,0,0],"split_type":[0,0,0,0,0,0,0,0,0,0,0,0,0,0,0,0,0,0,0,0,0,0,0,0,0,0,0,0,0,0,0,0,0,0,0,0,0,0,0,0,0,0,0,0,0,0,0,0,0,0,0,0,0,0,0,0,0,0,0,0,0,0,0,0,0,0,0,0,0,0,0,0,0],"sum_hessian":[3.07E2,3.05E2,2E0,1.71E2,1.34E2,2E0,1.69E2,1.2E2,1.4E1,1.62E2,7E0,1.18E2,2E0,2E0,1.2E1,1.59E2,3E0,4E0,3E0,3.2E1,8.6E1,6E0,6E0,2.3E1,1.36E2,1.6E1,1.6E1,4.6E1,4E1,3E0,3E0,1.7E1,6E0,1.3E2,6E0,9E0,7E0,2.2E1,2.4E1,9E0,3.1E1,6E0,1.1E1,3E0,1.27E2,1.3E1,1.1E1,9E0,2E0,1.25E2,2E0,4E0,7E0,4E0,1.21E2,5E0,1.16E2,1.11E2,5E0,1.08E2,3E0,7.4E1,3.4E1,6.9E1,5E0,8E0,2.6E1,4.9E1,2E1,4.5E1,4E0,3.6E1,9E0],"tree_param":{"num_deleted":"0","num_feature":"153","num_nodes":"73","size_leaf_vector":"1"}},{"base_weights":[3.9383747E-5,1.213435E-5,4.1616E-4,-2.3554603E-3,3.561332E-5,-4.4729655E-5,-3.085894E-4,8.5323205E-4,-2.8526269E-5,8.9174406E-5,1.9469626E-3,-3.37915E-4,8.168187E-5,-1.4483955E-4,6.401839E-4,2.3096651E-4,4.5166922E-5,-2.607396E-4,-8.6632196E-4,-2.7847864E-5,2.6458845E-4,2.8064502E-5,2.1177866E-4,-2.9736708E-4,3.813284E-5,-1.0978335E-4,-3.7354255E-6,8.65932E-5,-2.4848175E-4,5.6942395E-4,1.4229074E-4,1.5092288E-5,-3.6531696E-4,-1.5735744E-4,2.1128159E-4,-6.4265055E-6,-4.971854E-4,2.505935E-4,9.2696115E-5,-5.8538575E-7,2.959353E-5,-2.3516045E-4,-6.6787587E-4,2.0510223E-4,-4.103918E-5,1.6459316E-4,1.0123715E-4,-2.420446E-5,-1.00964964E-4,8.7135566E-5,-2.2770685E-6,-7.5872917E-6,-4.9558148E-5,-8.74532E-5,-3.832608E-6,-1.4807791E-5,4.4434953E-5,6.214961E-5,1.0761257E-4,-6.735064E-8,3.0617444E-5],"categories":[],"categories_nodes":[],"categories_segments":[],"categories_sizes":[],"default_left":[0,0,0,0,0,0,0,0,0,0,0,0,0,0,0,0,0,0,0,0,0,0,0,0,0,0,0,0,0,0,0,0,0,0,0,0,0,0,0,0,0,0,0,0,0,0,0,0,0,0,0,0,0,0,0,0,0,0,0,0,0],"id":8,"left_children":[1,3,-1,5,7,-1,-1,9,11,13,15,17,19,-1,21,-1,-1,23,25,27,29,-1,-1,31,-1,-1,-1,33,35,37,39,-1,41,43,45,-1,47,49,-1,-1,-1,51,53,55,-1,57,-1,-1,-1,-1,-1,-1,-1,-1,-1,-1,-1,-1,59,-1,-1],"loss_changes":[3.420951E-5,1.6982847E-5,0E0,2.8010509E-6,1.586174E-5,0E0,0E0,1.821119E-5,9.6089025E-6,1.2788258E-5,3.837915E-6,2.7918368E-6,4.1743792E-6,0E0,5.2494656E-6,0E0,0E0,1.6655395E-6,1.6862332E-6,3.3292113E-6,2.82687E-6,0E0,0E0,1.9741933E-6,0E0,0E0,0E0,2.6795965E-6,2.0297398E-6,2.2755717E-6,1.299144E-6,0E0,2.0088428E-6,2.8356146E-6,2.0026648E-6,0E0,2.2398794E-6,2.225865E-6,0E0,0E0,0E0,1.6216718E-6,2.048087E-6,1.1642644E-6,0E0,1.3910566E-6,0E0,0E0,0E0,0E0,0E0,0E0,0E0,0E0,0E0,0E0,0E0,0E0,1.0967822E-6,0E0,0E0],"parents":[2147483647,0,0,1,1,3,3,4,4,7,7,8,8,9,9,10,10,11,11,12,12,14,14,17,17,18,18,19,19,20,20,23,23,27,27,28,28,29,29,30,30,32,32,33,33,34,34,36,36,37,37,41,41,42,42,43,43,45,45,58,58],"right_children":[2,4,-1,6,8,-1,-1,10,12,14,16,18,20,-1,22,-1,-1,24,26,28,30,-1,-1,32,-1,-1,-1,34,36,38,40,-1,42,44,46,-1,48,50,-1,-1,-1,52,54,56,-1,58,-1,-1,-1,-1,-1,-1,-1,-1,-1,-1,-1,-1,60,-1,-1],"split_conditions":[6.9075455E1,-3.572002E-1,4.1616E-4,6.75037E1,3.04E2,-4.4729655E-5,-3.085894E-4,1.7242388E-1,-7.0055924E-2,2.4414873E3,8.901138E-1,5.4734355E-1,4.2161494E-2,-1.4483955E-4,1.7296886E2,2.3096651E-4,4.5166922E-5,5.0824755E-1,6.813E1,4.411867E-2,9.023E3,2.8064502E-5,2.1177866E-4,-1.2776591E-1,3.813284E-5,-1.0978335E-4,-3.7354255E-6,2.8091244E1,5.1869343E1,7.357E3,3.1060856E1,1.5092288E-5,1.4754E4,-8.897369E1,1.4853571E-1,-6.4265055E-6,2.0871517E-1,1.9126469E1,9.2696115E-5,-5.8538575E-7,2.959353E-5,6.715681E1,6.72072E1,-6.428571E1,-4.103918E-5,3.3712387E1,1.0123715E-4,-2.420446E-5,-1.00964964E-4,8.7135566E-5,-2.2770685E-6,-7.5872917E-6,-4.9558148E-5,-8.74532E-5,-3.832608E-6,-1.4807791E-5,4.4434953E-5,6.214961E-5,4.3024772E-1,-6.735064E-8,3.0617444E-5],"split_indices":[140,9,0,1,4,0,0,10,9,151,11,35,9,0,8,0,0,35,1,10,4,0,0,10,0,0,0,50,33,4,15,0,4,53,147,0,35,7,0,0,0,62,3,19,0,50,0,0,0,0,0,0,0,0,0,0,0,0,20,0,0],"split_type":[0,0,0,0,0,0,0,0,0,0,0,0,0,0,0,0,0,0,0,0,0,0,0,0,0,0,0,0,0,0,0,0,0,0,0,0,0,0,0,0,0,0,0,0,0,0,0,0,0,0,0,0,0,0,0,0,0,0,0,0,0],"sum_hessian":[3.04E2,3.03E2,1E0,2E0,3.01E2,1E0,1E0,2.1E1,2.8E2,1.3E1,8E0,7.3E1,2.07E2,3E0,1E1,6E0,2E0,6.5E1,8E0,1.3E2,7.7E1,9E0,1E0,6.2E1,3E0,6E0,2E0,8.6E1,4.4E1,2.1E1,5.6E1,8E0,5.4E1,2.9E1,5.7E1,2.6E1,1.8E1,1.2E1,9E0,2.9E1,2.7E1,3.9E1,1.5E1,1.2E1,1.7E1,5.5E1,2E0,1.3E1,5E0,3E0,9E0,2.5E1,1.4E1,1.1E1,4E0,5E0,7E0,5E0,5E1,3.3E1,1.7E1],"tree_param":{"num_deleted":"0","num_feature":"153","num_nodes":"61","size_leaf_vector":"1"}},{"base_weights":[1.4165043E-5,-1.2681472E-5,3.9535202E-4,-2.2376871E-3,1.02216045E-5,-4.249317E-5,-2.9315992E-4,-7.570105E-5,5.3808227E-4,-5.5513145E-5,-1.732793E-4,3.4984417E-4,1.823428E-3,-7.6729906E-5,9.994541E-4,-8.108252E-5,4.7610397E-4,2.4718873E-4,5.6715926E-5,-9.090987E-4,-4.854714E-5,1.518913E-4,-5.3919106E-5,2.011897E-4,3.685982E-4,-1.3065315E-4,-1.8503308E-5,6.8431094E-5,-1.7527526E-4,-2.2523513E-5,4.3548938E-4,-1.1181045E-5,3.5780784E-5,-2.7628688E-4,-8.1325816E-5,9.92451E-6,5.532489E-4,8.493102E-5,-3.767891E-5,2.9028201E-6,-3.532754E-4,-5.0483865E-4,1.6829242E-7,7.118591E-5,1.8669867E-5,-9.10194E-5,3.4773453E-5,1.8705921E-5,-3.973745E-5,5.873912E-7,-1.016726E-4,8.2709914E-5,-2.2389072E-4,3.4739525E-5,-6.8822286E-5,-8.924208E-5,-1.7645495E-4,-4.657119E-5,5.3685712E-6,-3.9909984E-5,-5.9618296E-6],"categories":[],"categories_nodes":[],"categories_segments":[],"categories_sizes":[],"default_left":[0,0,0,0,0,0,0,0,0,0,0,0,0,0,0,0,0,0,0,0,0,0,0,0,0,0,0,0,0,0,0,0,0,0,0,0,0,0,0,0,0,0,0,0,0,0,0,0,0,0,0,0,0,0,0,0,0,0,0,0,0],"id":9,"left_children":[1,3,-1,5,7,-1,-1,9,11,13,-1,15,17,19,21,-1,23,-1,-1,25,27,-1,-1,-1,29,-1,-1,31,33,-1,35,37,-1,39,41,-1,43,-1,45,-1,47,49,-1,-1,-1,51,-1,-1,-1,-1,-1,53,55,-1,57,-1,59,-1,-1,-1,-1],"loss_changes":[3.1248735E-5,1.5004958E-5,0E0,2.5279478E-6,1.3284451E-5,0E0,0E0,8.334019E-6,9.2820765E-6,5.672434E-6,0E0,5.8082346E-6,2.6712423E-6,5.726645E-6,4.8152997E-6,0E0,4.872044E-6,0E0,0E0,2.0603875E-6,3.5550331E-6,0E0,0E0,0E0,1.4089201E-6,0E0,0E0,2.883738E-6,1.0688796E-6,0E0,1.1329716E-6,2.289318E-6,0E0,1.3030713E-6,2.145321E-6,0E0,1.1461457E-6,0E0,2.02579E-6,0E0,1.1227762E-6,2.6202451E-6,0E0,0E0,0E0,2.0037114E-6,0E0,0E0,0E0,0E0,0E0,1.5480259E-6,1.3964273E-6,0E0,1.2405558E-6,0E0,1.1988213E-6,0E0,0E0,0E0,0E0],"parents":[2147483647,0,0,1,1,3,3,4,4,7,7,8,8,9,9,11,11,12,12,13,13,14,14,16,16,19,19,20,20,24,24,27,27,28,28,30,30,31,31,33,33,34,34,36,36,38,38,40,40,41,41,45,45,51,51,52,52,54,54,56,56],"right_children":[2,4,-1,6,8,-1,-1,10,12,14,-1,16,18,20,22,-1,24,-1,-1,26,28,-1,-1,-1,30,-1,-1,32,34,-1,36,38,-1,40,42,-1,44,-1,46,-1,48,50,-1,-1,-1,52,-1,-1,-1,-1,-1,54,56,-1,58,-1,60,-1,-1,-1,-1],"split_conditions":[6.9075455E1,-3.572002E-1,3.9535202E-4,6.75025E1,1.0278157E-1,-4.249317E-5,-2.9315992E-4,5.2752987E1,2.085451E6,3.5067376E-1,-1.732793E-4,2.0032734E1,1.492548E-1,-1.8506683E-1,2.33E2,-8.108252E-5,-7.1227807E-1,2.4718873E-4,5.6715926E-5,-6.7128845E-2,-5.8057025E-4,1.518913E-4,-5.3919106E-5,2.011897E-4,-2.4228133E-1,-1.3065315E-4,-1.8503308E-5,5.529638E-3,1E0,-2.2523513E-5,1.2662852E-1,-4.2421186E-1,3.5780784E-5,1.7363405E1,-1.2350951E-1,9.92451E-6,7.863931E-2,8.493102E-5,1.0152512E0,2.9028201E-6,-8.4965646E-1,-1.3646154E-1,1.6829242E-7,7.118591E-5,1.8669867E-5,4.76044E-1,3.4773453E-5,1.8705921E-5,-3.973745E-5,5.873912E-7,-1.016726E-4,1.5607391E1,-9.285714E1,3.4739525E-5,2.5082922E1,-8.924208E-5,-2.618946E-2,-4.657119E-5,5.3685712E-6,-3.9909984E-5,-5.9618296E-6],"split_indices":[140,9,0,0,9,0,0,37,152,10,0,15,26,9,4,0,10,0,0,16,10,0,0,0,10,0,0,26,13,0,35,10,0,7,9,0,29,0,138,0,12,16,0,0,0,138,0,0,0,0,0,45,19,0,46,0,29,0,0,0,0],"split_type":[0,0,0,0,0,0,0,0,0,0,0,0,0,0,0,0,0,0,0,0,0,0,0,0,0,0,0,0,0,0,0,0,0,0,0,0,0,0,0,0,0,0,0,0,0,0,0,0,0,0,0,0,0,0,0,0,0,0,0,0,0],"sum_hessian":[2.94E2,2.93E2,1E0,2E0,2.91E2,1E0,1E0,2.51E2,4E1,2.49E2,2E0,3.6E1,4E0,2.45E2,4E0,3E0,3.3E1,2E0,2E0,7E0,2.38E2,3E0,1E0,1E0,3.2E1,4E0,3E0,1.24E2,1.14E2,3E0,2.9E1,9.8E1,2.6E1,5.4E1,6E1,8E0,2.1E1,2E0,9.6E1,1.1E1,4.3E1,9E0,5.1E1,1.4E1,7E0,8.5E1,1.1E1,3E0,4E1,5E0,4E0,3.7E1,4.8E1,1.3E1,2.4E1,2E0,4.6E1,5E0,1.9E1,1.5E1,3.1E1],"tree_param":{"num_deleted":"0","num_feature":"153","num_nodes":"61","size_leaf_vector":"1"}},{"base_weights":[1.807697E-6,-2.3999452E-5,3.755844E-4,-1.8794539E-4,2.8162534E-4,-1.4857056E-4,-2.592787E-4,1.850656E-4,2.3173817E-4,1.2209863E-4,-1.6242373E-4,2.1151826E-4,1.91348E-4,-1.1877657E-4,-6.5499276E-4,-9.712396E-4,2.5052263E-4,1.2627219E-4,-1.8637272E-4,4.797451E-5,-8.664713E-5,-4.573219E-6,-1.5730005E-4,1.9980474E-4,1.1234837E-4,2.6711421E-5,-6.342172E-6,-8.743051E-5,-3.349992E-4,2.2400961E-4,-3.8265352E-5,-1.8139635E-4,1.8135639E-5,-1.8977253E-4,-4.9587124E-4,3.5109566E-5,1.20402285E-4,-4.618813E-5,-8.996571E-6,-9.022214E-6,-5.729371E-5,-2.030069E-5,-7.962237E-5,1.2805378E-6,3.1469142E-5,1.5464595E-5,-2.0694972E-5],"categories":[],"categories_nodes":[],"categories_segments":[],"categories_sizes":[],"default_left":[0,0,0,0,0,0,0,0,0,0,0,0,0,0,0,0,0,0,0,0,0,0,0,0,0,0,0,0,0,0,0,0,0,0,0,0,0,0,0,0,0,0,0,0,0,0,0],"id":10,"left_children":[1,3,-1,5,7,9,-1,-1,11,-1,13,-1,15,17,19,21,23,25,27,-1,-1,-1,-1,29,-1,-1,-1,31,33,35,-1,37,-1,39,41,-1,43,-1,-1,-1,-1,-1,-1,45,-1,-1,-1],"loss_changes":[2.8379382E-5,1.4633761E-5,0E0,1.7605937E-5,7.5551316E-6,3.7651862E-6,0E0,0E0,7.2025277E-6,0E0,3.94256E-6,0E0,7.0540914E-6,2.8891666E-6,4.0152763E-6,2.7127335E-6,3.9816236E-6,1.0321821E-6,1.9706495E-6,0E0,0E0,0E0,0E0,1.3686654E-6,0E0,0E0,0E0,2.1292103E-6,1.1674942E-6,1.1164279E-6,0E0,1.5484316E-6,0E0,1.0926339E-6,2.037424E-6,0E0,1.1568002E-6,0E0,0E0,0E0,0E0,0E0,0E0,1.053934E-6,0E0,0E0,0E0],"parents":[2147483647,0,0,1,1,3,3,4,4,5,5,8,8,10,10,12,12,13,13,14,14,15,15,16,16,17,17,18,18,23,23,27,27,28,28,29,29,31,31,33,33,34,34,36,36,43,43],"right_children":[2,4,-1,6,8,10,-1,-1,12,-1,14,-1,16,18,20,22,24,26,28,-1,-1,-1,-1,30,-1,-1,-1,32,34,36,-1,38,-1,40,42,-1,44,-1,-1,-1,-1,-1,-1,46,-1,-1,-1],"split_conditions":[6.9075455E1,3.0410822E-2,3.755844E-4,9.583708E1,-2.5167666E-2,1.1658182E1,-2.592787E-4,1.850656E-4,1.2814791E1,1.2209863E-4,1.9670464E-1,2.1151826E-4,2.63E2,-7.359925E-2,-9.4666666E-1,6.769E1,6.5909546E1,1.2165E4,6.704E1,4.797451E-5,-8.664713E-5,-4.573219E-6,-1.5730005E-4,7.466458E1,1.1234837E-4,2.6711421E-5,-6.342172E-6,6.685706E1,2.5479673E1,1.83E2,-3.8265352E-5,1.3041678E1,1.8135639E-5,3.614464E-1,3.9216377E1,3.5109566E-5,8.6249314E-2,-4.618813E-5,-8.996571E-6,-9.022214E-6,-5.729371E-5,-2.030069E-5,-7.962237E-5,7.460399E-2,3.1469142E-5,1.5464595E-5,-2.0694972E-5],"split_indices":[140,9,0,45,26,15,0,0,15,0,148,0,4,10,20,0,37,4,135,0,0,0,0,52,0,0,0,145,34,5,0,49,0,38,52,0,24,0,0,0,0,0,0,9,0,0,0],"split_type":[0,0,0,0,0,0,0,0,0,0,0,0,0,0,0,0,0,0,0,0,0,0,0,0,0,0,0,0,0,0,0,0,0,0,0,0,0,0,0,0,0,0,0,0,0,0,0],"sum_hessian":[2.91E2,2.9E2,1E0,1.89E2,1.01E2,1.87E2,2E0,2E0,9.9E1,1E0,1.86E2,1E0,9.8E1,1.72E2,1.4E1,4E0,9.4E1,3.7E1,1.35E2,2E0,1.2E1,2E0,2E0,9E1,4E0,2.1E1,1.6E1,8.2E1,5.3E1,8.7E1,3E0,6.1E1,2.1E1,2.9E1,2.4E1,3.8E1,4.9E1,1.4E1,4.7E1,2.4E1,5E0,1.3E1,1.1E1,3.1E1,1.8E1,1.8E1,1.3E1],"tree_param":{"num_deleted":"0","num_feature":"153","num_nodes":"47","size_leaf_vector":"1"}},{"base_weights":[-7.974361E-6,-1.4904039E-3,2.1024176E-5,-2.0631666E-4,-2.2991899E-5,-2.4815754E-5,6.80068E-4,-9.481451E-6,-1.478414E-4,1.8320587E-3,5.5496337E-5,6.069878E-4,-3.634745E-5,2.5587392E-4,6.4736356E-5,-6.870872E-5,3.204816E-5,5.9072004E-6,1.3622554E-4,7.510079E-5,-1.5590197E-4,-1.8104042E-4,1.5358898E-4,-2.5381637E-4,-3.9680377E-5,-9.464665E-6,-5.684369E-5,-3.853223E-5,1.7756037E-4,-1.9985707E-4,-7.263161E-5,1.4353603E-4,-1.5917327E-4,1.4401888E-5,5.704413E-5,-2.3742195E-4,3.0591895E-5,-9.869935E-7,4.7075748E-5,-4.422173E-5,-4.229264E-6,-1.0921527E-5,-3.7954625E-4,-4.455544E-5,1.44393225E-5],"categories":[],"categories_nodes":[],"categories_segments":[],"categories_sizes":[],"default_left":[0,0,0,0,0,0,0,0,0,0,0,0,0,0,0,0,0,0,0,0,0,0,0,0,0,0,0,0,0,0,0,0,0,0,0,0,0,0,0,0,0,0,0,0,0],"id":11,"left_children":[1,3,5,-1,-1,7,9,11,-1,13,15,17,19,-1,-1,-1,-1,-1,-1,21,23,25,27,29,31,-1,-1,-1,33,35,-1,37,39,-1,-1,41,-1,-1,-1,-1,-1,-1,43,-1,-1],"loss_changes":[1.34436805E-5,3.8573917E-6,9.291507E-6,0E0,0E0,6.405479E-6,1.4288341E-5,4.7588114E-6,0E0,4.369829E-6,2.9750304E-6,4.885406E-6,3.675847E-6,0E0,0E0,0E0,0E0,0E0,0E0,2.9026864E-6,1.5034377E-6,1.0841333E-6,1.4894476E-6,1.6905346E-6,1.3802166E-6,0E0,0E0,0E0,1.3146941E-6,1.3265935E-6,0E0,1.2595893E-6,1.2384276E-6,0E0,0E0,1.0882675E-6,0E0,0E0,0E0,0E0,0E0,0E0,1.0672784E-6,0E0,0E0],"parents":[2147483647,0,0,1,1,2,2,5,5,6,6,7,7,9,9,10,10,11,11,12,12,19,19,20,20,21,21,22,22,23,23,24,24,28,28,29,29,31,31,32,32,35,35,42,42],"right_children":[2,4,6,-1,-1,8,10,12,-1,14,16,18,20,-1,-1,-1,-1,-1,-1,22,24,26,28,30,32,-1,-1,-1,34,36,-1,38,40,-1,-1,42,-1,-1,-1,-1,-1,-1,44,-1,-1],"split_conditions":[-2.3245278E-1,2.1674962E2,1.8021946E-1,-2.0631666E-4,-2.2991899E-5,5.2752987E1,2.26936E1,3.12E2,-1.478414E-4,1.492548E-1,-2.4228133E-1,-7.515767E0,-1.9219225E-4,2.5587392E-4,6.4736356E-5,-6.870872E-5,3.204816E-5,5.9072004E-6,1.3622554E-4,-2.0396054E-1,9.240471E-2,2.56E2,-9.760409E-1,3.452657E1,1.3530917E-1,-9.464665E-6,-5.684369E-5,-3.853223E-5,1.2916817E-1,4.2350292E1,-7.263161E-5,7.1897026E1,1.0842E4,1.4401888E-5,5.704413E-5,1.2045E4,3.0591895E-5,-9.869935E-7,4.7075748E-5,-4.422173E-5,-4.229264E-6,-1.0921527E-5,2.9555E4,-4.455544E-5,1.44393225E-5],"split_indices":[9,8,9,0,0,37,14,4,0,26,10,8,10,0,0,0,0,0,0,40,10,5,11,34,10,0,0,0,147,23,0,21,4,0,0,4,0,0,0,0,0,0,4,0,0],"split_type":[0,0,0,0,0,0,0,0,0,0,0,0,0,0,0,0,0,0,0,0,0,0,0,0,0,0,0,0,0,0,0,0,0,0,0,0,0,0,0,0,0,0,0,0,0],"sum_hessian":[3.11E2,5E0,3.06E2,3E0,2E0,2.87E2,1.9E1,2.85E2,2E0,6E0,1.3E1,1.1E1,2.74E2,3E0,3E0,3E0,1E1,7E0,4E0,1.42E2,1.32E2,3.3E1,1.09E2,7.1E1,6.1E1,2.8E1,5E0,4E0,1.05E2,6.5E1,6E0,2.4E1,3.7E1,9.8E1,7E0,6.1E1,4E0,1.7E1,7E0,1E1,2.7E1,3.3E1,2.8E1,2.5E1,3E0],"tree_param":{"num_deleted":"0","num_feature":"153","num_nodes":"45","size_leaf_vector":"1"}},{"base_weights":[-3.8948026E-5,-1.3354426E-4,1.3425917E-4,-1.4454684E-4,6.408082E-5,1.8814865E-4,1.0096822E-4,-1.3228753E-4,-9.013927E-5,1.3371222E-4,-1.1005573E-4,1.0918243E-4,-1.4410353E-4,8.597606E-5,9.229415E-4,-4.2387843E-4,-1.0072194E-4,1.2092434E-4,-8.004879E-5,1.3542069E-4,4.027372E-6,4.6309004E-5,-5.170879E-4,-1.1788958E-5,4.9282153E-5,7.101908E-5,9.511195E-6,-1.6766511E-5,-9.147998E-5],"categories":[],"categories_nodes":[],"categories_segments":[],"categories_sizes":[],"default_left":[0,0,0,0,0,0,0,0,0,0,0,0,0,0,0,0,0,0,0,0,0,0,0,0,0,0,0,0,0],"id":12,"left_children":[1,3,5,7,-1,-1,9,11,-1,13,-1,-1,15,17,19,21,23,25,-1,-1,-1,-1,27,-1,-1,-1,-1,-1,-1],"loss_changes":[5.097201E-6,1.8051214E-6,6.2083845E-6,1.72716E-6,0E0,0E0,4.435518E-6,3.006765E-6,0E0,3.9518495E-6,0E0,0E0,2.336174E-6,3.2567982E-6,2.2294457E-6,2.3889775E-6,1.8005436E-6,1.43828E-6,0E0,0E0,0E0,0E0,3.1818913E-6,0E0,0E0,0E0,0E0,0E0,0E0],"parents":[2147483647,0,0,1,1,2,2,3,3,6,6,7,7,9,9,12,12,13,13,14,14,15,15,16,16,17,17,22,22],"right_children":[2,4,6,8,-1,-1,10,12,-1,14,-1,-1,16,18,20,22,24,26,-1,-1,-1,-1,28,-1,-1,-1,-1,-1,-1],"split_conditions":[2.6982998E-2,9.087119E-2,1.2814791E1,9.322727E1,6.408082E-5,1.8814865E-4,9.995093E-1,1.1658182E1,-9.013927E-5,2.085451E6,-1.1005573E-4,1.0918243E-4,-1.4311783E-1,3.5715416E1,5.582181E-1,-9.4666666E-1,9.9012095E-1,-1.0035933E-1,-8.004879E-5,1.3542069E-4,4.027372E-6,4.6309004E-5,4.1666214E1,-1.1788958E-5,4.9282153E-5,7.101908E-5,9.511195E-6,-1.6766511E-5,-9.147998E-5],"split_indices":[9,25,15,48,0,0,11,15,0,152,0,0,9,34,11,20,139,24,0,0,0,0,52,0,0,0,0,0,0],"split_type":[0,0,0,0,0,0,0,0,0,0,0,0,0,0,0,0,0,0,0,0,0,0,0,0,0,0,0,0,0],"sum_hessian":[3.09E2,2E2,1.09E2,1.98E2,2E0,1E0,1.08E2,1.96E2,2E0,1.06E2,2E0,1E0,1.95E2,1.01E2,5E0,2.5E1,1.7E2,9.8E1,3E0,3E0,2E0,2E0,2.3E1,1.66E2,4E0,3E0,9.5E1,1.3E1,1E1],"tree_param":{"num_deleted":"0","num_feature":"153","num_nodes":"29","size_leaf_vector":"1"}},{"base_weights":[3.0420679E-5,7.2661683E-6,3.534696E-4,-1.1568491E-4,1.7495705E-4,-1.5012894E-4,4.146235E-4,1.7874122E-4,1.4839559E-4,-1.1166574E-4,-6.8195886E-4,1.0015336E-4,-6.382996E-6,1.8058246E-4,-8.9454313E-4,-6.317875E-5,-3.0513978E-4,-8.3891806E-5,1.6238288E-6,1.291941E-4,9.159879E-4,2.0978701E-5,-1.3325822E-4,9.059691E-6,-2.1316233E-5,-3.9188485E-4,1.2161213E-5,1.0923747E-4,6.7064866E-5,3.7588802E-6,1.20252276E-4,-5.4954366E-5,4.083926E-5,-4.666108E-5,1.35760565E-5,3.8995286E-6,2.686769E-4,-8.306833E-6,4.6483558E-5,5.516417E-4,2.8871247E-5,8.73432E-5,2.0431236E-5,-1.3288227E-5,4.284432E-5],"categories":[],"categories_nodes":[],"categories_segments":[],"categories_sizes":[],"default_left":[0,0,0,0,0,0,0,0,0,0,0,0,0,0,0,0,0,0,0,0,0,0,0,0,0,0,0,0,0,0,0,0,0,0,0,0,0,0,0,0,0,0,0,0,0],"id":13,"left_children":[1,3,-1,5,7,9,11,-1,13,15,17,-1,-1,19,21,23,25,-1,-1,27,29,-1,-1,31,-1,33,-1,35,-1,-1,-1,37,-1,-1,-1,-1,39,-1,-1,41,43,-1,-1,-1,-1],"loss_changes":[2.4721947E-5,6.288043E-6,0E0,3.2770547E-6,5.259719E-6,3.319524E-6,3.1528289E-6,0E0,4.4583626E-6,1.4441537E-6,1.2190958E-6,0E0,0E0,4.605569E-6,2.2145175E-6,1.3670882E-6,1.1952357E-6,0E0,0E0,1.2018018E-6,1.9683343E-6,0E0,0E0,2.2208537E-6,0E0,1.088496E-6,0E0,1.2774512E-6,0E0,0E0,0E0,1.1346148E-6,0E0,0E0,0E0,0E0,2.3590528E-6,0E0,0E0,1.6098224E-6,1.3495759E-6,0E0,0E0,0E0,0E0],"parents":[2147483647,0,0,1,1,3,3,4,4,5,5,6,6,8,8,9,9,10,10,13,13,14,14,15,15,16,16,19,19,20,20,23,23,25,25,27,27,31,31,36,36,39,39,40,40],"right_children":[2,4,-1,6,8,10,12,-1,14,16,18,-1,-1,20,22,24,26,-1,-1,28,30,-1,-1,32,-1,34,-1,36,-1,-1,-1,38,-1,-1,-1,-1,40,-1,-1,42,44,-1,-1,-1,-1],"split_conditions":[6.9075455E1,1.6902553E-2,3.534696E-4,9.824561E1,1.2814791E1,1.4066948E-1,8.6E2,1.7874122E-4,2.338E-1,3.4815968E1,6.80922E1,1.0015336E-4,-6.382996E-6,2.085284E6,6.769E1,5.0126095E1,3.775623E1,-8.3891806E-5,1.6238288E-6,6.780338E1,4.187206E-2,2.0978701E-5,-1.3325822E-4,3.5409543E-3,-2.1316233E-5,2.256692E5,1.2161213E-5,7.717866E1,6.7064866E-5,3.7588802E-6,1.20252276E-4,9.9012095E-1,4.083926E-5,-4.666108E-5,1.35760565E-5,3.8995286E-6,1.83E2,-8.306833E-6,4.6483558E-5,2.0833333E-1,3.275383E1,8.73432E-5,2.0431236E-5,-1.3288227E-5,4.284432E-5],"split_indices":[140,9,0,47,15,147,4,0,149,14,0,0,0,152,0,52,15,0,0,67,25,0,0,29,0,150,0,46,0,0,0,139,0,0,0,0,5,0,0,20,14,0,0,0,0],"split_type":[0,0,0,0,0,0,0,0,0,0,0,0,0,0,0,0,0,0,0,0,0,0,0,0,0,0,0,0,0,0,0,0,0,0,0,0,0,0,0,0,0,0,0,0,0],"sum_hessian":[3.04E2,3.03E2,1E0,1.75E2,1.28E2,1.65E2,1E1,1E0,1.27E2,1.55E2,1E1,4E0,6E0,1.24E2,3E0,1.25E2,3E1,8E0,2E0,1.17E2,7E0,1E0,2E0,8.5E1,4E1,2.5E1,5E0,1.14E2,3E0,2E0,5E0,7.4E1,1.1E1,2.2E1,3E0,8E1,3.4E1,7.1E1,3E0,1.5E1,1.9E1,7E0,8E0,1.4E1,5E0],"tree_param":{"num_deleted":"0","num_feature":"153","num_nodes":"45","size_leaf_vector":"1"}},{"base_weights":[4.518231E-5,2.4593606E-5,3.3579613E-4,-6.4763495E-5,2.2833211E-4,-8.804281E-5,3.5772126E-4,1.5367378E-4,1.85512E-4,-6.295089E-4,-6.133066E-5,9.214109E-5,-3.929992E-6,1.4151663E-4,1.4472807E-4,-8.466942E-5,-9.205744E-6,2.5113959E-5,-1.4971649E-4,1.8016958E-4,-7.066086E-5,-4.7114234E-5,3.344395E-4,-3.5439192E-5,-2.6785608E-4,2.051719E-4,-1.0475214E-4,-1.6932117E-4,9.1145106E-5,4.3919386E-5,-1.9437643E-5,1.16003015E-4,-2.3801612E-4,-1.8367318E-5,-6.309479E-5,1.5825679E-5,7.455451E-5,1.1684789E-5,-2.6259851E-5,6.259421E-5,1.641187E-6,-1.8081257E-5,3.4041495E-5,-4.785122E-5,-4.9232053E-6],"categories":[],"categories_nodes":[],"categories_segments":[],"categories_sizes":[],"default_left":[0,0,0,0,0,0,0,0,0,0,0,0,0,0,0,0,0,0,0,0,0,0,0,0,0,0,0,0,0,0,0,0,0,0,0,0,0,0,0,0,0,0,0,0,0],"id":14,"left_children":[1,3,-1,5,7,9,11,-1,13,15,17,-1,-1,-1,19,-1,-1,21,23,25,-1,27,29,31,33,35,-1,37,39,-1,-1,41,43,-1,-1,-1,-1,-1,-1,-1,-1,-1,-1,-1,-1],"loss_changes":[2.2084307E-5,5.9133636E-6,0E0,2.2542406E-6,5.2614964E-6,3.071093E-6,2.7217725E-6,0E0,4.6597506E-6,1.0893209E-6,1.5776989E-6,0E0,0E0,0E0,2.9937116E-6,0E0,0E0,2.3616694E-6,1.367576E-6,3.0388746E-6,0E0,1.4685103E-6,1.1932846E-6,1.6535814E-6,1.4124182E-6,2.1890141E-6,0E0,1.2585664E-6,1.6283786E-6,0E0,0E0,2.126429E-6,1.0206837E-6,0E0,0E0,0E0,0E0,0E0,0E0,0E0,0E0,0E0,0E0,0E0,0E0],"parents":[2147483647,0,0,1,1,3,3,4,4,5,5,6,6,8,8,9,9,10,10,14,14,17,17,18,18,19,19,21,21,22,22,23,23,24,24,25,25,27,27,28,28,31,31,32,32],"right_children":[2,4,-1,6,8,10,12,-1,14,16,18,-1,-1,-1,20,-1,-1,22,24,26,-1,28,30,32,34,36,-1,38,40,-1,-1,42,44,-1,-1,-1,-1,-1,-1,-1,-1,-1,-1,-1,-1],"split_conditions":[6.9075455E1,3.9710194E-2,3.3579613E-4,9.929412E1,-2.5167666E-2,-1.8506683E-1,8.6E2,1.5367378E-4,1.3171243E1,-1.8039471E-3,-1.0494823E-3,9.214109E-5,-3.929992E-6,1.4151663E-4,6.805448E1,-8.466942E-5,-9.205744E-6,3.6732948E-3,8.01E-2,6.89E1,-7.066086E-5,-4.257291E-2,4.766937E-1,-1.798432E-2,4.7823387E-1,6.74551E1,-1.0475214E-4,-1.4408082E-1,-3.4263916E-2,4.3919386E-5,-1.9437643E-5,6.68433E1,9.296766E-3,-1.8367318E-5,-6.309479E-5,1.5825679E-5,7.455451E-5,1.1684789E-5,-2.6259851E-5,6.259421E-5,1.641187E-6,-1.8081257E-5,3.4041495E-5,-4.785122E-5,-4.9232053E-6],"split_indices":[140,9,0,47,26,9,4,0,14,26,10,0,0,0,63,0,0,26,149,0,0,9,35,9,35,56,0,10,9,0,0,136,9,0,0,0,0,0,0,0,0,0,0,0,0],"split_type":[0,0,0,0,0,0,0,0,0,0,0,0,0,0,0,0,0,0,0,0,0,0,0,0,0,0,0,0,0,0,0,0,0,0,0,0,0,0,0,0,0,0,0,0,0],"sum_hessian":[3.24E2,3.23E2,1E0,2.25E2,9.8E1,2.14E2,1.1E1,2E0,9.6E1,9E0,2.05E2,4E0,7E0,2E0,9.4E1,6E0,3E0,1.04E2,1.01E2,9.1E1,3E0,8.5E1,1.9E1,5.2E1,4.9E1,9E1,1E0,4.5E1,4E1,1.6E1,3E0,3E1,2.2E1,4.1E1,8E0,8.4E1,6E0,1.1E1,3.4E1,4E0,3.6E1,1.3E1,1.7E1,9E0,1.3E1],"tree_param":{"num_deleted":"0","num_feature":"153","num_nodes":"45","size_leaf_vector":"1"}},{"base_weights":[2.1826634E-5,1.5495546E-3,-1.4498529E-5,2.3252327E-5,3.228089E-4,-8.344222E-5,1.4862404E-4,-6.0788843E-5,-1.223567E-4,3.7453775E-4,1.2842316E-5,9.410859E-5,-7.031316E-5,-5.0126593E-5,5.126233E-4,-5.0453822E-5,3.9892588E-5,-2.1942806E-5,-3.1151957E-4,2.6384241E-5,9.5892267E-4,1.8050878E-5,-1.6790565E-5,-3.531681E-5,7.387739E-5,-1.1213173E-4,-6.2498206E-4,1.7876437E-5,1.1316168E-4,-7.3482784E-6,-2.6953348E-5,1.50652995E-5,-3.056483E-4,-8.997657E-5,-5.3751694E-7,4.6382167E-5,-2.9888288E-5,2.3729244E-5,-4.9225982E-5,-5.4230415E-5,-7.871385E-6,1.75067E-5,-3.0938576E-5,-2.3930106E-6,2.4867748E-5],"categories":[],"categories_nodes":[],"categories_segments":[],"categories_sizes":[],"default_left":[0,0,0,0,0,0,0,0,0,0,0,0,0,0,0,0,0,0,0,0,0,0,0,0,0,0,0,0,0,0,0,0,0,0,0,0,0,0,0,0,0,0,0,0,0],"id":15,"left_children":[1,3,5,-1,-1,7,9,11,-1,13,15,-1,17,-1,19,21,-1,23,25,-1,27,-1,-1,29,-1,31,33,-1,-1,35,-1,-1,37,-1,-1,-1,39,-1,-1,-1,41,43,-1,-1,-1],"loss_changes":[1.6726453E-5,1.4724168E-5,3.3300512E-6,0E0,0E0,5.2977757E-6,2.6945856E-6,2.0223158E-6,0E0,4.247843E-6,1.3886329E-6,0E0,2.3732814E-6,0E0,2.9668872E-6,1.3595305E-6,0E0,1.765816E-6,2.05494E-6,0E0,1.1449938E-6,0E0,0E0,1.1050872E-6,0E0,1.1648174E-6,2.2085155E-6,0E0,0E0,1.6281294E-6,0E0,0E0,1.433956E-6,0E0,0E0,0E0,1.6428754E-6,0E0,0E0,0E0,1.0843282E-6,1.260797E-6,0E0,0E0,0E0],"parents":[2147483647,0,0,1,1,2,2,5,5,6,6,7,7,9,9,10,10,12,12,14,14,15,15,17,17,18,18,20,20,23,23,25,25,26,26,29,29,32,32,36,36,40,40,41,41],"right_children":[2,4,6,-1,-1,8,10,12,-1,14,16,-1,18,-1,20,22,-1,24,26,-1,28,-1,-1,30,-1,32,34,-1,-1,36,-1,-1,38,-1,-1,-1,40,-1,-1,-1,42,44,-1,-1,-1],"split_conditions":[1.06E2,1.814936E-1,3.4709614E-2,2.3252327E-5,3.228089E-4,9.4500565E1,9.313E3,1.1658182E1,-1.223567E-4,4.6511626E0,9.985734E-1,9.410859E-5,4.8037896E-1,-5.0126593E-5,8.638196E-2,2.8699508E-1,3.9892588E-5,6.8134575E1,4.4918804E1,2.6384241E-5,0E0,1.8050878E-5,-1.6790565E-5,1E2,7.387739E-5,3.043638E1,-1.8455535E-3,1.7876437E-5,1.1316168E-4,1.3337877E-1,-2.6953348E-5,1.50652995E-5,1.6629337E1,-8.997657E-5,-5.3751694E-7,4.6382167E-5,1.4078511E-1,2.3729244E-5,-4.9225982E-5,-5.4230415E-5,7.460399E-2,1.602458E-2,-3.0938576E-5,-2.3930106E-6,2.4867748E-5],"split_indices":[4,16,16,0,0,45,4,15,0,47,138,0,35,0,147,138,0,142,46,0,130,0,0,124,0,23,32,0,0,38,0,0,7,0,0,0,38,0,0,0,9,32,0,0,0],"split_type":[0,0,0,0,0,0,0,0,0,0,0,0,0,0,0,0,0,0,0,0,0,0,0,0,0,0,0,0,0,0,0,0,0,0,0,0,0,0,0,0,0,0,0,0,0],"sum_hessian":[3E2,6E0,2.94E2,4E0,2E0,2.07E2,8.7E1,2.04E2,3E0,3.2E1,5.5E1,1E0,2.03E2,4E0,2.8E1,4.8E1,7E0,1.7E2,3.3E1,1.9E1,9E0,1.6E1,3.2E1,1.68E2,2E0,2.1E1,1.2E1,2E0,7E0,1.51E2,1.7E1,9E0,1.2E1,8E0,4E0,6E0,1.45E2,3E0,9E0,5E0,1.4E2,1.3E2,1E1,1.11E2,1.9E1],"tree_param":{"num_deleted":"0","num_feature":"153","num_nodes":"45","size_leaf_vector":"1"}},{"base_weights":[1.410052E-5,-5.713304E-6,3.0286584E-4,-1.9238781E-3,1.3297283E-5,-1.9378169E-5,-2.6920353E-4,4.6257148E-4,-2.3523371E-5,2.1439093E-5,1.2870148E-3,-2.6982094E-4,1.9676716E-5,5.3137663E-4,-7.101059E-4,1.5692877E-4,2.9346415E-5,3.1804248E-5,-3.2319612E-4,3.0145498E-5,-4.783851E-5,2.5915942E-5,1.4906659E-4,3.0450272E-7,-9.959752E-5,-5.2256317E-5,-1.0766931E-4,-1.2385591E-5,6.1261795E-5,4.603596E-6,-4.739876E-5,5.0268223E-5,7.554233E-5,3.8204245E-5,3.4031666E-5,5.5527347E-5,-2.5795109E-5,2.0196322E-4,9.2151515E-7,5.0377836E-5,4.714584E-4,-1.0124635E-5,2.9391033E-5,-4.978703E-5,5.7625835E-5],"categories":[],"categories_nodes":[],"categories_segments":[],"categories_sizes":[],"default_left":[0,0,0,0,0,0,0,0,0,0,0,0,0,0,0,0,0,0,0,0,0,0,0,0,0,0,0,0,0,0,0,0,0,0,0,0,0,0,0,0,0,0,0,0,0],"id":16,"left_children":[1,3,-1,5,7,-1,-1,9,11,13,15,17,19,21,23,-1,-1,-1,25,27,-1,-1,-1,-1,-1,-1,29,-1,31,-1,-1,33,-1,-1,35,37,-1,39,-1,41,43,-1,-1,-1,-1],"loss_changes":[1.8294659E-5,1.114754E-5,0E0,3.4652921E-6,5.0232798E-6,0E0,0E0,8.337245E-6,2.9951707E-6,6.3460093E-6,1.7830898E-6,1.420638E-6,1.265805E-6,2.2250306E-6,1.4301088E-6,0E0,0E0,0E0,1.619524E-6,1.1384886E-6,0E0,0E0,0E0,0E0,0E0,0E0,1.1479215E-6,0E0,1.4653953E-6,0E0,0E0,1.0374383E-6,0E0,0E0,1.1880043E-6,1.1849481E-6,0E0,1.6920133E-6,0E0,1.0636692E-6,1.8106857E-6,0E0,0E0,0E0,0E0],"parents":[2147483647,0,0,1,1,3,3,4,4,7,7,8,8,9,9,10,10,11,11,12,12,13,13,14,14,18,18,19,19,26,26,28,28,31,31,34,34,35,35,37,37,39,39,40,40],"right_children":[2,4,-1,6,8,-1,-1,10,12,14,16,18,20,22,24,-1,-1,-1,26,28,-1,-1,-1,-1,-1,-1,30,-1,32,-1,-1,34,-1,-1,36,38,-1,40,-1,42,44,-1,-1,-1,-1],"split_conditions":[6.9075455E1,-3.572002E-1,3.0286584E-4,6.75025E1,3.04E2,-1.9378169E-5,-2.6920353E-4,1.7242388E-1,-1.0735737E-1,3.90053E1,1.492548E-1,-3.4312065E1,9.939581E-1,1.4019557E2,-1.1322185E1,1.5692877E-4,2.9346415E-5,3.1804248E-5,2.359365E1,1.2391574E1,-4.783851E-5,2.5915942E-5,1.4906659E-4,3.0450272E-7,-9.959752E-5,-5.2256317E-5,1.3639E4,-1.2385591E-5,6.8068436E1,4.603596E-6,-4.739876E-5,-6.784009E1,7.554233E-5,3.8204245E-5,6.764876E1,9.023E3,-2.5795109E-5,9.5568883E-1,9.2151515E-7,7.698E3,-1.5396154E-1,-1.0124635E-5,2.9391033E-5,-4.978703E-5,5.7625835E-5],"split_indices":[140,9,0,0,4,0,0,10,9,37,26,8,11,8,8,0,0,0,7,47,0,0,0,0,0,0,4,0,69,0,0,67,0,0,72,4,0,139,0,4,16,0,0,0,0],"split_type":[0,0,0,0,0,0,0,0,0,0,0,0,0,0,0,0,0,0,0,0,0,0,0,0,0,0,0,0,0,0,0,0,0,0,0,0,0,0,0,0,0,0,0,0,0],"sum_hessian":[3.05E2,3.04E2,1E0,2E0,3.02E2,1E0,1E0,2.2E1,2.8E2,1.5E1,7E0,4.1E1,2.39E2,9E0,6E0,5E0,2E0,3E0,3.8E1,2.35E2,4E0,8E0,1E0,2E0,4E0,1.9E1,1.9E1,3.9E1,1.96E2,1.4E1,5E0,1.94E2,2E0,8E0,1.86E2,1.74E2,1.2E1,4.1E1,1.33E2,2.7E1,1.4E1,1.7E1,1E1,1E0,1.3E1],"tree_param":{"num_deleted":"0","num_feature":"153","num_nodes":"45","size_leaf_vector":"1"}},{"base_weights":[2.8292208E-5,9.331417E-6,2.8772256E-4,-1.1498914E-4,2.4808207E-5,8.467086E-5,1.3617634E-5,-8.034108E-5,7.207488E-5,-5.5451355E-6,-7.509457E-5,3.216197E-4,2.6822758E-5,1.9072502E-5,7.697794E-5,-8.07449E-5,4.845847E-5,-5.2220043E-5,7.1265866E-5,6.0056653E-5,4.8559086E-5,2.2407556E-5,-2.117302E-8,-4.0283147E-5,4.2997606E-5,-2.161408E-5,8.283027E-5,-1.9022251E-6,2.050204E-4,2.694352E-4,-3.1265317E-5,6.971277E-5,1.9646863E-5],"categories":[],"categories_nodes":[],"categories_segments":[],"categories_sizes":[],"default_left":[0,0,0,0,0,0,0,0,0,0,0,0,0,0,0,0,0,0,0,0,0,0,0,0,0,0,0,0,0,0,0,0,0],"id":17,"left_children":[1,3,-1,-1,5,-1,7,9,11,-1,-1,13,15,-1,-1,-1,17,-1,19,-1,21,-1,23,-1,25,-1,27,-1,29,31,-1,-1,-1],"loss_changes":[1.6340615E-5,5.446723E-6,0E0,0E0,2.7385329E-6,0E0,1.6315905E-6,1.8611514E-6,2.0578884E-6,0E0,0E0,1.495712E-6,2.8549377E-6,0E0,0E0,0E0,2.0285474E-6,0E0,1.7496068E-6,0E0,1.2193135E-6,0E0,1.9754307E-6,0E0,1.0810869E-6,0E0,1.1239837E-6,0E0,1.451419E-6,1.0177048E-6,0E0,0E0,0E0],"parents":[2147483647,0,0,1,1,4,4,6,6,7,7,8,8,11,11,12,12,16,16,18,18,20,20,22,22,24,24,26,26,28,28,29,29],"right_children":[2,4,-1,-1,6,-1,8,10,12,-1,-1,14,16,-1,-1,-1,18,-1,20,-1,22,-1,24,-1,26,-1,28,-1,30,32,-1,-1,-1],"split_conditions":[6.9075455E1,1.2921894E1,2.8772256E-4,-1.1498914E-4,1.4282856E-2,8.467086E-5,-1.1754334E-3,6.798254E1,-6.477101E1,-5.5451355E-6,-7.509457E-5,6.7585E1,4.1919014E1,1.9072502E-5,7.697794E-5,-8.07449E-5,3.9840866E1,-5.2220043E-5,-8.164481E-4,6.0056653E-5,5.05495E1,2.2407556E-5,7.740012E0,-4.0283147E-5,2.9662699E1,-2.161408E-5,9.634471E-1,-1.9022251E-6,1E2,9.6843696E-1,-3.1265317E-5,6.971277E-5,1.9646863E-5],"split_indices":[140,15,0,0,144,0,41,56,53,0,0,0,52,0,0,0,44,0,41,0,52,0,23,0,47,0,139,0,124,139,0,0,0],"split_type":[0,0,0,0,0,0,0,0,0,0,0,0,0,0,0,0,0,0,0,0,0,0,0,0,0,0,0,0,0,0,0,0,0],"sum_hessian":[3.02E2,3.01E2,1E0,3E0,2.98E2,3E0,2.95E2,1.13E2,1.82E2,1.1E2,3E0,2.7E1,1.55E2,2.2E1,5E0,3E0,1.52E2,5E0,1.47E2,5E0,1.42E2,3E1,1.12E2,1E1,1.02E2,1.3E1,8.9E1,4.9E1,4E1,3.6E1,4E0,4E0,3.2E1],"tree_param":{"num_deleted":"0","num_feature":"153","num_nodes":"33","size_leaf_vector":"1"}},{"base_weights":[-4.9110627E-6,-1.8514951E-3,1.2860294E-5,-1.8132007E-5,-2.5959229E-4,-8.2955075E-6,1.0931888E-3,-2.0575917E-5,1.242978E-4,1.7059689E-4,3.6030655E-5,-1.002993E-5,-1.07886204E-4,-6.665904E-5,1.313327E-5,8.730619E-5,-7.505156E-5,1.4322526E-5,-1.0832271E-4,-5.879717E-5,-2.844558E-4,-8.34747E-5,3.8349386E-5,-4.5676836E-5,-6.0895577E-6,-3.868494E-6,-2.5512188E-4,-1.2989074E-4,-7.13526E-5,-4.2615284E-6,-7.2661394E-5],"categories":[],"categories_nodes":[],"categories_segments":[],"categories_sizes":[],"default_left":[0,0,0,0,0,0,0,0,0,0,0,0,0,0,0,0,0,0,0,0,0,0,0,0,0,0,0,0,0,0,0],"id":18,"left_children":[1,3,5,-1,-1,7,9,11,-1,-1,-1,13,-1,15,-1,-1,17,-1,19,21,23,25,-1,-1,-1,-1,27,29,-1,-1,-1],"loss_changes":[1.0328131E-5,3.2592798E-6,7.139896E-6,0E0,0E0,4.7429844E-6,2.079902E-6,3.3931844E-6,0E0,0E0,0E0,2.4343422E-6,0E0,1.7769211E-6,0E0,0E0,1.5841761E-6,0E0,1.6232148E-6,1.6473798E-6,1.5515964E-6,1.0741436E-6,0E0,0E0,0E0,0E0,1.5721071E-6,1.2189382E-6,0E0,0E0,0E0],"parents":[2147483647,0,0,1,1,2,2,5,5,6,6,7,7,11,11,13,13,16,16,18,18,19,19,20,20,21,21,26,26,27,27],"right_children":[2,4,6,-1,-1,8,10,12,-1,-1,-1,14,-1,16,-1,-1,18,-1,20,22,24,26,-1,-1,-1,-1,28,30,-1,-1,-1],"split_conditions":[-3.572002E-1,6.75025E1,8.513E-1,-1.8132007E-5,-2.5959229E-4,1.7539842E-2,3E2,5.2752987E1,1.242978E-4,1.7059689E-4,3.6030655E-5,4.0948205E-2,-1.07886204E-4,1.1658182E1,1.313327E-5,8.730619E-5,-1.1832073E-1,1.4322526E-5,2.903867E-1,6.8E1,6.428571E1,4.0742447E1,3.8349386E-5,-4.5676836E-5,-6.0895577E-6,-3.868494E-6,6.8896416E1,4.511789E1,-7.13526E-5,-4.2615284E-6,-7.2661394E-5],"split_indices":[9,0,36,0,0,51,4,37,0,0,0,9,0,15,0,0,10,0,38,1,17,23,0,0,0,0,49,33,0,0,0],"split_type":[0,0,0,0,0,0,0,0,0,0,0,0,0,0,0,0,0,0,0,0,0,0,0,0,0,0,0,0,0,0,0],"sum_hessian":[3.13E2,2E0,3.11E2,1E0,1E0,3.06E2,5E0,3.04E2,2E0,2E0,3E0,3.02E2,2E0,2.16E2,8.6E1,1E0,2.15E2,2.8E1,1.87E2,1.47E2,4E1,1.4E2,7E0,2.2E1,1.8E1,1.12E2,2.8E1,2.3E1,5E0,2.1E1,2E0],"tree_param":{"num_deleted":"0","num_feature":"153","num_nodes":"31","size_leaf_vector":"1"}},{"base_weights":[7.939511E-6,-9.687796E-6,2.648066E-4,4.341211E-6,-5.222892E-4,-2.922195E-5,1.5010947E-4,-1.09335226E-4,3.2211185E-5,-1.6012964E-5,-4.6471796E-5,5.348762E-4,5.271962E-6,-5.5214066E-5,1.4029809E-4,-6.835678E-6,7.696331E-5,-9.371805E-5,1.667806E-4,1.9900152E-4,-3.9261093E-5,4.8015186E-6,-1.5488957E-4,3.2511895E-4,-1.0748036E-5,-2.3195984E-5,2.7515633E-5,-8.022114E-5,-3.0407637E-5,7.09817E-5,1.2255688E-5,-1.3526958E-6,-2.9437315E-5],"categories":[],"categories_nodes":[],"categories_segments":[],"categories_sizes":[],"default_left":[0,0,0,0,0,0,0,0,0,0,0,0,0,0,0,0,0,0,0,0,0,0,0,0,0,0,0,0,0,0,0,0,0],"id":19,"left_children":[1,3,-1,5,7,9,11,-1,-1,13,-1,15,-1,17,19,-1,-1,21,23,25,-1,-1,27,29,-1,-1,-1,31,-1,-1,-1,-1,-1],"loss_changes":[1.4033687E-5,2.1596538E-6,0E0,1.4378724E-6,4.209831E-6,1.3673966E-6,2.032782E-6,0E0,0E0,1.4354694E-6,0E0,1.610354E-6,0E0,1.6140464E-6,1.5484584E-6,0E0,0E0,1.394643E-6,1.2508726E-6,1.4750757E-6,0E0,0E0,1.2232351E-6,1.315661E-6,0E0,0E0,0E0,1.0815027E-6,0E0,0E0,0E0,0E0,0E0],"parents":[2147483647,0,0,1,1,3,3,4,4,5,5,6,6,9,9,11,11,13,13,14,14,17,17,18,18,19,19,22,22,23,23,27,27],"right_children":[2,4,-1,6,8,10,12,-1,-1,14,-1,16,-1,18,20,-1,-1,22,24,26,-1,-1,28,30,-1,-1,-1,32,-1,-1,-1,-1,-1],"split_conditions":[6.9075455E1,5.2752987E1,2.648066E-4,1.7779768E-2,1.6345091E-1,8.786563E-1,2.9081197E-2,-1.09335226E-4,3.2211185E-5,3.2597977E1,-4.6471796E-5,-3.2467532E-1,5.271962E-6,2.3176498E5,5E-3,-6.835678E-6,7.696331E-5,2.9601008E-1,5.252754E-2,-1.6464938E-1,-3.9261093E-5,4.8015186E-6,9.7577626E-1,4.375E1,-1.0748036E-5,-2.3195984E-5,2.7515633E-5,6.7362595E1,-3.0407637E-5,7.09817E-5,1.2255688E-5,-1.3526958E-6,-2.9437315E-5],"split_indices":[140,37,0,26,26,35,29,0,0,34,0,20,0,150,36,0,0,138,144,9,0,0,139,48,0,0,0,6,0,0,0,0,0],"split_type":[0,0,0,0,0,0,0,0,0,0,0,0,0,0,0,0,0,0,0,0,0,0,0,0,0,0,0,0,0,0,0,0,0],"sum_hessian":[3E2,2.99E2,1E0,2.92E2,7E0,2.38E2,5.4E1,4E0,3E0,2.32E2,6E0,1E1,4.4E1,1.86E2,4.6E1,3E0,7E0,1.59E2,2.7E1,4.2E1,4E0,4.8E1,1.11E2,1.7E1,1E1,6E0,3.6E1,7.5E1,3.6E1,5E0,1.2E1,5.8E1,1.7E1],"tree_param":{"num_deleted":"0","num_feature":"153","num_nodes":"33","size_leaf_vector":"1"}},{"base_weights":[8.740361E-6,-7.835825E-6,2.5156626E-4,-1.7381014E-3,9.435379E-6,-1.6065605E-5,-2.446496E-4,-5.0788044E-6,1.08838314E-4,6.625114E-6,-6.9225345E-5,-1.5908776E-5,1.6443094E-4,-7.859024E-5,1.0278497E-4,-5.436358E-6,-5.624667E-5,5.621638E-6,5.209375E-5],"categories":[],"categories_nodes":[],"categories_segments":[],"categories_sizes":[],"default_left":[0,0,0,0,0,0,0,0,0,0,0,0,0,0,0,0,0,0,0],"id":20,"left_children":[1,3,-1,5,7,-1,-1,9,-1,11,-1,13,-1,15,17,-1,-1,-1,-1],"loss_changes":[1.2652496E-5,9.071181E-6,0E0,2.9593175E-6,4.7192016E-6,0E0,0E0,2.401292E-6,0E0,1.0875758E-5,0E0,2.1730882E-6,0E0,2.20846E-6,1.9374647E-6,0E0,0E0,0E0,0E0],"parents":[2147483647,0,0,1,1,3,3,4,4,7,7,9,9,11,11,13,13,14,14],"right_children":[2,4,-1,6,8,-1,-1,10,-1,12,-1,14,-1,16,18,-1,-1,-1,-1],"split_conditions":[6.9075455E1,-3.572002E-1,2.5156626E-4,6.75037E1,1.7415382E-2,-1.6065605E-5,-2.446496E-4,6.890116E1,1.08838314E-4,1.1787864E0,-6.9225345E-5,2.5483757E-2,1.6443094E-4,3.8994892E1,6.7585E1,-5.436358E-6,-5.624667E-5,5.621638E-6,5.209375E-5],"split_indices":[140,9,0,1,51,0,0,54,0,38,0,9,0,37,2,0,0,0,0],"split_type":[0,0,0,0,0,0,0,0,0,0,0,0,0,0,0,0,0,0,0],"sum_hessian":[3.03E2,3.02E2,1E0,2E0,3E2,1E0,1E0,2.97E2,3E0,2.93E2,4E0,2.9E2,3E0,1.9E2,1E2,1.82E2,8E0,9.1E1,9E0],"tree_param":{"num_deleted":"0","num_feature":"153","num_nodes":"19","size_leaf_vector":"1"}},{"base_weights":[-8.945047E-6,-2.424442E-5,2.3898795E-4,-1.6511964E-3,-8.472393E-6,-1.5262329E-5,-2.3241714E-4,-4.7800982E-5,2.0801136E-4,-3.2893935E-5,-5.207148E-5,1.5089047E-4,1.186485E-4,-2.7188993E-4,-1.157828E-6,1.9521348E-4,-4.2432028E-5,-1.0483282E-6,-5.5838894E-4,4.845197E-5,2.7257677E-6,-7.1930495E-5,5.6850117E-6],"categories":[],"categories_nodes":[],"categories_segments":[],"categories_sizes":[],"default_left":[0,0,0,0,0,0,0,0,0,0,0,0,0,0,0,0,0,0,0,0,0,0,0],"id":21,"left_children":[1,3,-1,5,7,-1,-1,9,11,13,-1,-1,15,17,-1,19,-1,-1,21,-1,-1,-1,-1],"loss_changes":[1.1581901E-5,8.017694E-6,0E0,2.670784E-6,2.6577973E-6,0E0,0E0,1.8440057E-6,5.4010443E-6,1.3061015E-6,0E0,0E0,1.995163E-6,1.5668937E-6,0E0,1.97901E-6,0E0,0E0,1.0309107E-6,0E0,0E0,0E0,0E0],"parents":[2147483647,0,0,1,1,3,3,4,4,7,7,8,8,9,9,12,12,13,13,15,15,18,18],"right_children":[2,4,-1,6,8,-1,-1,10,12,14,-1,-1,16,18,-1,20,-1,-1,22,-1,-1,-1,-1],"split_conditions":[6.9075455E1,-3.572002E-1,2.3898795E-4,6.75037E1,7.38437E1,-1.5262329E-5,-2.3241714E-4,9.030809E-1,1.3171243E1,-1.4311783E-1,-5.207148E-5,1.5089047E-4,7.466458E1,5.8584356E-1,-1.157828E-6,3.215434E-2,-4.2432028E-5,-1.0483282E-6,1.4E-1,4.845197E-5,2.7257677E-6,-7.1930495E-5,5.6850117E-6],"split_indices":[140,9,0,1,46,0,0,35,14,9,0,0,52,138,0,20,0,0,149,0,0,0,0],"split_type":[0,0,0,0,0,0,0,0,0,0,0,0,0,0,0,0,0,0,0,0,0,0,0],"sum_hessian":[3.13E2,3.12E2,1E0,2E0,3.1E2,1E0,1E0,2.63E2,4.7E1,2.56E2,7E0,2E0,4.5E1,2E1,2.36E2,4E1,5E0,1.1E1,9E0,1.4E1,2.6E1,7E0,2E0],"tree_param":{"num_deleted":"0","num_feature":"153","num_nodes":"23","size_leaf_vector":"1"}},{"base_weights":[7.4025093E-6,-7.5591024E-6,2.2703854E-4,-1.5686366E-3,8.024923E-6,-1.4499215E-5,-2.2079628E-4,-2.880339E-6,1.0922411E-4,5.224442E-6,-8.042935E-5,-3.281455E-5,1.5292963E-4,-6.03624E-5,1.3343769E-4,1.1221179E-4,7.05106E-5,-6.9184716E-5,5.5379438E-5,-4.727519E-5,1.8609804E-5,1.523465E-5,-3.436855E-5,8.806585E-6,-1.08555636E-4,-2.6623838E-4,-6.300339E-5,-8.424451E-5,-2.0756608E-5,-4.3582177E-6,-5.2816464E-5],"categories":[],"categories_nodes":[],"categories_segments":[],"categories_sizes":[],"default_left":[0,0,0,0,0,0,0,0,0,0,0,0,0,0,0,0,0,0,0,0,0,0,0,0,0,0,0,0,0,0,0],"id":22,"left_children":[1,3,-1,5,7,-1,-1,9,-1,11,-1,13,15,17,19,21,-1,23,-1,-1,-1,-1,-1,-1,25,27,29,-1,-1,-1,-1],"loss_changes":[1.0309955E-5,7.3839333E-6,0E0,2.410382E-6,3.562068E-6,0E0,0E0,1.94629E-6,0E0,1.6737296E-6,0E0,1.093489E-6,1.2923678E-6,1.1436441E-6,1.1733312E-6,1.113603E-6,0E0,1.2601621E-6,0E0,0E0,0E0,0E0,0E0,0E0,1.1468401E-6,1.0422025E-6,1.124299E-6,0E0,0E0,0E0,0E0],"parents":[2147483647,0,0,1,1,3,3,4,4,7,7,9,9,11,11,12,12,13,13,14,14,15,15,17,17,24,24,25,25,26,26],"right_children":[2,4,-1,6,8,-1,-1,10,-1,12,-1,14,16,18,20,22,-1,24,-1,-1,-1,-1,-1,-1,26,28,30,-1,-1,-1,-1],"split_conditions":[6.9075455E1,-3.572002E-1,2.2703854E-4,6.75037E1,1.7539842E-2,-1.4499215E-5,-2.2079628E-4,9.9960285E-1,1.0922411E-4,1.6123943E-2,-8.042935E-5,5.4458197E-2,2.085451E6,1E2,-1.8652735E-2,1.814936E-1,7.05106E-5,3.9216377E1,5.5379438E-5,-4.727519E-5,1.8609804E-5,1.523465E-5,-3.436855E-5,8.806585E-6,-4.939469E3,-4.2451775E-1,2.08772E6,-8.424451E-5,-2.0756608E-5,-4.3582177E-6,-5.2816464E-5],"split_indices":[140,9,0,1,51,0,0,11,0,32,0,9,152,94,32,16,0,52,0,0,0,0,0,0,151,40,152,0,0,0,0],"split_type":[0,0,0,0,0,0,0,0,0,0,0,0,0,0,0,0,0,0,0,0,0,0,0,0,0,0,0,0,0,0,0],"sum_hessian":[3.03E2,3.02E2,1E0,2E0,3E2,1E0,1E0,2.98E2,2E0,2.96E2,2E0,2.36E2,6E1,2.03E2,3.3E1,5.7E1,3E0,2.01E2,2E0,2E0,3.1E1,5.3E1,4E0,4E1,1.61E2,3.5E1,1.26E2,2E0,3.3E1,1.22E2,4E0],"tree_param":{"num_deleted":"0","num_feature":"153","num_nodes":"31","size_leaf_vector":"1"}},{"base_weights":[2.2378568E-5,-6.2553E-6,1.4455699E-3,-1.4902048E-3,8.755152E-6,2.1031697E-4,8.691362E-6,-1.3774255E-5,-2.0975647E-4,-2.5187373E-6,6.67654E-4,1.2174809E-5,-5.2749814E-4,1.21519806E-4,-7.612611E-5,1.1601583E-4,-2.8714983E-5,1.4100786E-5,-7.738348E-5,4.4552922E-5,3.6366083E-4,-9.321969E-5,8.056199E-5,1.0038812E-5,-2.3359744E-5,-1.6192816E-5,5.253954E-5,-6.544616E-5,-4.1995747E-5,2.04776E-4,-4.571771E-5,-1.33397425E-5,8.084615E-6,3.2901586E-4,-4.0582004E-6,-3.178241E-5,5.907152E-6,-2.7485736E-5,3.9079103E-5],"categories":[],"categories_nodes":[],"categories_segments":[],"categories_sizes":[],"default_left":[0,0,0,0,0,0,0,0,0,0,0,0,0,0,0,0,0,0,0,0,0,0,0,0,0,0,0,0,0,0,0,0,0,0,0,0,0,0,0],"id":23,"left_children":[1,3,5,7,9,-1,-1,-1,-1,11,13,15,17,-1,-1,19,21,-1,-1,23,25,27,29,-1,-1,-1,-1,31,-1,33,35,-1,-1,37,-1,-1,-1,-1,-1],"loss_changes":[1.2397491E-5,6.6731986E-6,5.177918E-6,2.17537E-6,2.2079023E-6,0E0,0E0,0E0,0E0,2.2665683E-6,4.837053E-6,1.2176982E-6,1.426537E-6,0E0,0E0,1.4172894E-6,1.4595793E-6,0E0,0E0,1.0174076E-6,1.6151828E-6,1.1522212E-6,1.2171613E-6,0E0,0E0,0E0,0E0,1.2136148E-6,0E0,1.2021985E-6,1.1308132E-6,0E0,0E0,1.0773254E-6,0E0,0E0,0E0,0E0,0E0],"parents":[2147483647,0,0,1,1,2,2,3,3,4,4,9,9,10,10,11,11,12,12,15,15,16,16,19,19,20,20,21,21,22,22,27,27,29,29,30,30,33,33],"right_children":[2,4,6,8,10,-1,-1,-1,-1,12,14,16,18,-1,-1,20,22,-1,-1,24,26,28,30,-1,-1,-1,-1,32,-1,34,36,-1,-1,38,-1,-1,-1,-1,-1],"split_conditions":[1.8568462E-1,-3.572002E-1,3E2,6.75037E1,1.1787864E0,2.1031697E-4,8.691362E-6,-1.3774255E-5,-2.0975647E-4,9.030809E-1,6.868E1,9.023E3,6.758114E1,1.21519806E-4,-7.612611E-5,7.701742E-2,6.731854E1,1.4100786E-5,-7.738348E-5,7.91738E-2,-3.86129E5,6.7283E1,9.16E-2,1.0038812E-5,-2.3359744E-5,-1.6192816E-5,5.253954E-5,7.487629E-2,-4.1995747E-5,2.3645036E5,1.087E-1,-1.33397425E-5,8.084615E-6,-8.571429E1,-4.0582004E-6,-3.178241E-5,5.907152E-6,-2.7485736E-5,3.9079103E-5],"split_indices":[16,9,4,1,38,0,0,0,0,35,1,4,54,0,0,9,145,0,0,10,152,55,149,0,0,0,0,10,0,150,149,0,0,19,0,0,0,0,0],"split_type":[0,0,0,0,0,0,0,0,0,0,0,0,0,0,0,0,0,0,0,0,0,0,0,0,0,0,0,0,0,0,0,0,0,0,0,0,0,0,0],"sum_hessian":[3.03E2,2.98E2,5E0,2E0,2.96E2,3E0,2E0,1E0,1E0,2.92E2,4E0,2.85E2,7E0,3E0,1E0,8E1,2.05E2,2E0,5E0,6.3E1,1.7E1,1.29E2,7.6E1,5.3E1,1E1,4E0,1.3E1,1.2E2,9E0,3.8E1,3.8E1,8.2E1,3.8E1,2.5E1,1.3E1,1E1,2.8E1,2E0,2.3E1],"tree_param":{"num_deleted":"0","num_feature":"153","num_nodes":"39","size_leaf_vector":"1"}},{"base_weights":[2.986562E-6,-1.04574665E-5,2.0517076E-4,-1.4156946E-3,3.4902855E-6,-1.3085542E-5,-1.9926864E-4,-1.8333167E-5,4.552982E-4,-9.979398E-6,-8.1418395E-5,-1.1219317E-5,1.2306522E-3,2.2514707E-5,-2.6488375E-5,1.7223739E-4,5.5419794E-5,-1.3352071E-5,1.2370002E-6],"categories":[],"categories_nodes":[],"categories_segments":[],"categories_sizes":[],"default_left":[0,0,0,0,0,0,0,0,0,0,0,0,0,0,0,0,0,0,0],"id":24,"left_children":[1,3,-1,5,7,-1,-1,9,11,13,-1,-1,15,-1,17,-1,-1,-1,-1],"loss_changes":[8.449633E-6,5.98291E-6,0E0,1.9632716E-6,2.9959297E-6,0E0,0E0,1.9198972E-6,6.2981653E-6,1.1238925E-6,0E0,0E0,1.0412268E-6,0E0,1.1246094E-6,0E0,0E0,0E0,0E0],"parents":[2147483647,0,0,1,1,3,3,4,4,7,7,8,8,9,9,12,12,14,14],"right_children":[2,4,-1,6,8,-1,-1,10,12,14,-1,-1,16,-1,18,-1,-1,-1,-1],"split_conditions":[7.8063225E1,-3.572002E-1,2.0517076E-4,6.75025E1,1.8736236E-1,-1.3085542E-5,-1.9926864E-4,3.9889626E-2,9.991541E-1,-1.4897952E0,-8.1418395E-5,-1.1219317E-5,1.3E2,2.2514707E-5,-6.13018E-2,1.7223739E-4,5.5419794E-5,-1.3352071E-5,1.2370002E-6],"split_indices":[52,9,0,0,9,0,0,146,138,141,0,0,4,0,9,0,0,0,0],"split_type":[0,0,0,0,0,0,0,0,0,0,0,0,0,0,0,0,0,0,0],"sum_hessian":[3.05E2,3.04E2,1E0,2E0,3.02E2,1E0,1E0,2.89E2,1.3E1,2.87E2,2E0,8E0,5E0,1.8E1,2.69E2,2E0,3E0,7.1E1,1.98E2],"tree_param":{"num_deleted":"0","num_feature":"153","num_nodes":"19","size_leaf_vector":"1"}},{"base_weights":[1.423553E-5,-3.552585E-6,1.7290082E-4,1.4541033E-5,-1.3008815E-3,3.3876664E-4,-8.3887124E-7,-2.6222071E-6,-1.7170275E-4,7.7387E-6,9.07524E-5,3.9586765E-5,-1.420786E-5,-4.0373898E-6,-4.559504E-5,-1.6500024E-5,4.523157E-5,-1.3573313E-4,1.9898387E-6,-1.23633E-6,-2.8606059E-5],"categories":[],"categories_nodes":[],"categories_segments":[],"categories_sizes":[],"default_left":[0,0,0,0,0,0,0,0,0,0,0,0,0,0,0,0,0,0,0,0,0],"id":25,"left_children":[1,3,-1,5,7,9,11,-1,-1,-1,-1,-1,13,15,-1,17,-1,19,-1,-1,-1],"loss_changes":[8.9128935E-6,6.8261947E-6,0E0,1.4314265E-6,2.0767525E-6,1.8623701E-6,1.4641048E-6,0E0,0E0,0E0,0E0,0E0,1.1977179E-6,1.4975518E-6,0E0,1.1137142E-6,0E0,1.1092155E-6,0E0,0E0,0E0],"parents":[2147483647,0,0,1,1,3,3,4,4,5,5,6,6,12,12,13,13,15,15,17,17],"right_children":[2,4,-1,6,8,10,12,-1,-1,-1,-1,-1,14,16,-1,18,-1,20,-1,-1,-1],"split_conditions":[6.869E1,9.9319725E1,1.7290082E-4,2.33E2,6.7135E1,8.590566E-1,-5.9712476E-1,-2.6222071E-6,-1.7170275E-4,7.7387E-6,9.07524E-5,3.9586765E-5,9.2761695E-1,6.8068436E1,-4.559504E-5,-2.0923628E-3,4.523157E-5,4.099202E1,1.9898387E-6,-1.23633E-6,-2.8606059E-5],"split_indices":[55,45,0,4,0,38,138,0,0,0,0,0,35,69,0,41,0,52,0,0,0],"split_type":[0,0,0,0,0,0,0,0,0,0,0,0,0,0,0,0,0,0,0,0,0],"sum_hessian":[2.91E2,2.89E2,2E0,2.86E2,3E0,1.2E1,2.74E2,1E0,2E0,9E0,3E0,8E0,2.66E2,2.61E2,5E0,2.55E2,6E0,5.9E1,1.96E2,3.3E1,2.6E1],"tree_param":{"num_deleted":"0","num_feature":"153","num_nodes":"21","size_leaf_vector":"1"}},{"base_weights":[2.485031E-5,1.9543683E-4,6.277131E-6,-2.4640349E-5,2.3067048E-4,-1.1775789E-5,-6.015829E-4,1.21900615E-4,1.4190166E-4,3.6685477E-5,-1.0803637E-4,1.8177283E-6,-9.1600734E-5,-9.631654E-6,2.6502396E-4,1.8279842E-6,5.7046982E-5,-1.7790277E-5,1.06260035E-4,5.463797E-5,2.5028405E-6,5.967135E-5,-2.8399297E-6],"categories":[],"categories_nodes":[],"categories_segments":[],"categories_sizes":[],"default_left":[0,0,0,0,0,0,0,0,0,0,0,0,0,0,0,0,0,0,0,0,0,0,0],"id":26,"left_children":[1,-1,3,5,7,9,11,-1,13,15,17,-1,-1,-1,19,-1,-1,-1,21,-1,-1,-1,-1],"loss_changes":[1.12764765E-5,0E0,2.1771766E-6,2.0414188E-6,3.1608904E-6,1.2681539E-6,1.1858572E-6,0E0,1.0814051E-6,1.7678316E-6,1.3813665E-6,0E0,0E0,0E0,1.6069042E-6,0E0,0E0,0E0,1.5359614E-6,0E0,0E0,0E0,0E0],"parents":[2147483647,0,0,2,2,3,3,4,4,5,5,6,6,8,8,9,9,10,10,14,14,18,18],"right_children":[2,-1,4,6,8,10,12,-1,14,16,18,-1,-1,-1,20,-1,-1,-1,22,-1,-1,-1,-1],"split_conditions":[-4.5685002E-1,1.9543683E-4,1.0278157E-1,1.8129042E-1,9.179506E1,9.33E-2,-1.2206357E-1,1.21900615E-4,2.5725882E0,1.2916817E-1,8.96358E-1,1.8177283E-6,-9.1600734E-5,-9.631654E-6,6.739939E1,1.8279842E-6,5.7046982E-5,-1.7790277E-5,2.3980917E1,5.463797E-5,2.5028405E-6,5.967135E-5,-2.8399297E-6],"split_indices":[10,0,9,144,8,149,10,0,49,147,12,0,0,0,49,0,0,0,8,0,0,0,0],"split_type":[0,0,0,0,0,0,0,0,0,0,0,0,0,0,0,0,0,0,0,0,0,0,0],"sum_hessian":[3.14E2,2E0,3.12E2,2.75E2,3.7E1,2.7E2,5E0,2E0,3.5E1,1.8E2,9E1,2E0,3E0,1.2E1,2.3E1,1.75E2,5E0,6.8E1,2.2E1,1E1,1.3E1,4E0,1.8E1],"tree_param":{"num_deleted":"0","num_feature":"153","num_nodes":"23","size_leaf_vector":"1"}},{"base_weights":[1.2051201E-5,3.2501822E-7,1.7649532E-4,3.320219E-4,-1.9531222E-5,3.83783E-5,1.02909085E-4,-8.544029E-6,-5.2718045E-5,5.8408445E-5,-2.6905604E-5,-2.0299742E-5,3.4638284E-5,-3.0163334E-5,4.203695E-5,-6.2150844E-5,-2.3329249E-6],"categories":[],"categories_nodes":[],"categories_segments":[],"categories_sizes":[],"default_left":[0,0,0,0,0,0,0,0,0,0,0,0,0,0,0,0,0],"id":27,"left_children":[1,3,-1,5,7,9,-1,11,-1,-1,-1,13,-1,15,-1,-1,-1],"loss_changes":[6.186436E-6,1.9823608E-6,0E0,3.4402328E-6,1.5795455E-6,2.3381458E-6,0E0,1.1711362E-6,0E0,0E0,0E0,1.1906035E-6,0E0,1.0604872E-6,0E0,0E0,0E0],"parents":[2147483647,0,0,1,1,3,3,4,4,5,5,7,7,11,11,13,13],"right_children":[2,4,-1,6,8,10,-1,12,-1,-1,-1,14,-1,16,-1,-1,-1],"split_conditions":[6.9075455E1,2.33E2,1.7649532E-4,1.7242388E-1,6.807558E1,2E0,1.02909085E-4,1E2,-5.2718045E-5,5.8408445E-5,-2.6905604E-5,6.8068436E1,3.4638284E-5,1.1769463E1,4.203695E-5,-6.2150844E-5,-2.3329249E-6],"split_indices":[140,4,0,10,57,5,0,96,0,0,0,69,0,15,0,0,0],"split_type":[0,0,0,0,0,0,0,0,0,0,0,0,0,0,0,0,0],"sum_hessian":[3E2,2.99E2,1E0,1.6E1,2.83E2,1.2E1,4E0,2.78E2,5E0,4E0,8E0,2.7E2,8E0,2.65E2,5E0,2E0,2.63E2],"tree_param":{"num_deleted":"0","num_feature":"153","num_nodes":"17","size_leaf_vector":"1"}},{"base_weights":[1.2796637E-5,2.0551104E-6,1.6767057E-4,2.145181E-5,-2.207012E-4,3.5959233E-6,8.5710315E-4,-2.9854255E-5,-7.071856E-5,1.2092247E-6,-4.6951885E-5,1.4749807E-4,1.7941928E-5,-1.2514271E-5,5.2006504E-5],"categories":[],"categories_nodes":[],"categories_segments":[],"categories_sizes":[],"default_left":[0,0,0,0,0,0,0,0,0,0,0,0,0,0,0],"id":28,"left_children":[1,3,-1,5,7,9,11,13,-1,-1,-1,-1,-1,-1,-1],"loss_changes":[5.5729056E-6,1.3484836E-6,0E0,4.2793295E-6,2.2999889E-6,1.1392432E-6,2.2477134E-6,1.0607006E-6,0E0,0E0,0E0,0E0,0E0,0E0,0E0],"parents":[2147483647,0,0,1,1,3,3,4,4,5,5,6,6,7,7],"right_children":[2,4,-1,6,8,10,12,14,-1,-1,-1,-1,-1,-1,-1],"split_conditions":[6.9075455E1,3.7874355E1,1.6767057E-4,8.3857507E-1,6.775737E1,9.4500565E1,6.8135E1,7.142857E1,-7.071856E-5,1.2092247E-6,-4.6951885E-5,1.4749807E-4,1.7941928E-5,-1.2514271E-5,5.2006504E-5],"split_indices":[140,34,0,35,54,45,0,18,0,0,0,0,0,0,0],"split_type":[0,0,0,0,0,0,0,0,0,0,0,0,0,0,0],"sum_hessian":[3.11E2,3.1E2,1E0,2.86E2,2.4E1,2.81E2,5E0,1.8E1,6E0,2.77E2,4E0,2E0,3E0,1.6E1,2E0],"tree_param":{"num_deleted":"0","num_feature":"153","num_nodes":"15","size_leaf_vector":"1"}},{"base_weights":[-4.88156E-6,-1.1923353E-3,1.0862467E-5,-1.6696562E-4,1.1981372E-5,1.9880452E-5,-6.6594745E-5,6.915853E-7,4.9060327E-4,8.622636E-5,-4.1625186E-5],"categories":[],"categories_nodes":[],"categories_segments":[],"categories_sizes":[],"default_left":[0,0,0,0,0,0,0,0,0,0,0],"id":29,"left_children":[1,3,5,-1,-1,7,-1,-1,9,-1,-1],"loss_changes":[5.715019E-6,2.7053125E-6,1.8564847E-6,0E0,0E0,1.8213238E-6,0E0,0E0,3.0552553E-6,0E0,0E0],"parents":[2147483647,0,0,1,1,2,2,5,5,8,8],"right_children":[2,4,6,-1,-1,8,-1,-1,10,-1,-1],"split_conditions":[-4.5685002E-1,2.63E2,5.3035486E-1,-1.6696562E-4,1.1981372E-5,1.1787864E0,-6.6594745E-5,6.915853E-7,6.871E1,8.622636E-5,-4.1625186E-5],"split_indices":[10,4,10,0,0,38,0,0,0,0,0],"split_type":[0,0,0,0,0,0,0,0,0,0,0],"sum_hessian":[3.04E2,3E0,3.01E2,2E0,1E0,2.98E2,3E0,2.91E2,7E0,5E0,2E0],"tree_param":{"num_deleted":"0","num_feature":"153","num_nodes":"11","size_leaf_vector":"1"}},{"base_weights":[1.253948E-5,5.9830904E-4,-2.373678E-5,2.9912996E-4,1.5706534E-4,-9.340387E-7,-3.3087961E-4,1.00119636E-4,1.1410464E-4,-6.73546E-5,-3.2519868E-6,3.0618026E-5,-3.9461065E-5],"categories":[],"categories_nodes":[],"categories_segments":[],"categories_sizes":[],"default_left":[0,0,0,0,0,0,0,0,0,0,0,0,0],"id":30,"left_children":[1,3,5,7,-1,-1,9,-1,11,-1,-1,-1,-1],"loss_changes":[6.5590566E-6,4.766463E-6,1.2836384E-6,1.8342596E-6,0E0,0E0,1.3071887E-6,0E0,1.3910756E-6,0E0,0E0,0E0,0E0],"parents":[2147483647,0,0,1,1,2,2,3,3,6,6,8,8],"right_children":[2,4,6,8,-1,-1,10,-1,12,-1,-1,-1,-1],"split_conditions":[3E2,1.5541795E-1,1.4066948E-1,-1.14869304E-1,1.5706534E-4,-9.340387E-7,2.5818875E-2,1.00119636E-4,6.252226E-1,-6.73546E-5,-3.2519868E-6,3.0618026E-5,-3.9461065E-5],"split_indices":[4,16,147,28,0,0,29,0,12,0,0,0,0],"split_type":[0,0,0,0,0,0,0,0,0,0,0,0,0],"sum_hessian":[3.07E2,1.7E1,2.9E2,1.4E1,3E0,2.78E2,1.2E1,2E0,1.2E1,5E0,7E0,9E0,3E0],"tree_param":{"num_deleted":"0","num_feature":"153","num_nodes":"13","size_leaf_vector":"1"}},{"base_weights":[-1.0067027E-5,-1.9056971E-4,2.3963412E-6,7.9466583E-4,-2.1619895E-5,-4.8136385E-6,1.4785349E-3,-1.1184299E-5,-4.5235396E-5,1.7872851E-4,1.2176711E-5,-4.5882384E-6,9.306316E-6],"categories":[],"categories_nodes":[],"categories_segments":[],"categories_sizes":[],"default_left":[0,0,0,0,0,0,0,0,0,0,0,0,0],"id":31,"left_children":[1,-1,3,5,7,-1,9,11,-1,-1,-1,-1,-1],"loss_changes":[7.234103E-6,0E0,5.820517E-6,5.2584683E-6,1.3299457E-6,0E0,1.8768787E-6,1.0568713E-6,0E0,0E0,0E0,0E0,0E0],"parents":[2147483647,0,0,2,2,3,3,4,4,6,6,7,7],"right_children":[2,-1,4,6,8,-1,10,12,-1,-1,-1,-1,-1],"split_conditions":[-3.572002E-1,-1.9056971E-4,1.3E2,8.633048E-2,6.805349E1,-4.8136385E-6,1.845303E-1,4.922426E-2,-4.5235396E-5,1.7872851E-4,1.2176711E-5,-4.5882384E-6,9.306316E-6],"split_indices":[9,0,4,9,57,0,10,24,0,0,0,0,0],"split_type":[0,0,0,0,0,0,0,0,0,0,0,0,0],"sum_hessian":[3.05E2,1E0,3.04E2,8E0,2.96E2,4E0,4E0,2.9E2,6E0,3E0,1E0,2.18E2,7.2E1],"tree_param":{"num_deleted":"0","num_feature":"153","num_nodes":"13","size_leaf_vector":"1"}},{"base_weights":[9.544104E-6,-3.497621E-6,1.3105353E-4,3.5145233E-4,-2.3412364E-5,-2.8414763E-5,5.8699795E-4,-3.7477203E-5,-1.1911824E-6,2.1578557E-5,9.22246E-5],"categories":[],"categories_nodes":[],"categories_segments":[],"categories_sizes":[],"default_left":[0,0,0,0,0,0,0,0,0,0,0],"id":32,"left_children":[1,3,-1,5,7,-1,9,-1,-1,-1,-1],"loss_changes":[5.1286684E-6,2.1288492E-6,0E0,2.5621985E-6,1.1471709E-6,0E0,1.294371E-6,0E0,0E0,0E0,0E0],"parents":[2147483647,0,0,1,1,3,3,4,4,6,6],"right_children":[2,4,-1,6,8,-1,10,-1,-1,-1,-1],"split_conditions":[6.869E1,2.33E2,1.3105353E-4,6.694637E1,4E0,-2.8414763E-5,4.4292603E1,-3.7477203E-5,-1.1911824E-6,2.1578557E-5,9.22246E-5],"split_indices":[55,4,0,56,5,0,49,0,0,0,0],"split_type":[0,0,0,0,0,0,0,0,0,0,0],"sum_hessian":[3.01E2,2.99E2,2E0,1.5E1,2.84E2,4E0,1.1E1,8E0,2.76E2,6E0,5E0],"tree_param":{"num_deleted":"0","num_feature":"153","num_nodes":"11","size_leaf_vector":"1"}},{"base_weights":[2.2689715E-5,1.3542211E-5,1.4429294E-4,2.6654654E-5,-4.323286E-4,4.0515483E-4,1.5042771E-6,-6.88816E-5,6.0484654E-6,1.0067316E-5,7.322819E-5,5.602105E-5,-6.293603E-5,2.9774687E-6,3.424407E-5,-1.5229313E-4,5.7310913E-6,-4.2260002E-5,-8.443997E-6],"categories":[],"categories_nodes":[],"categories_segments":[],"categories_sizes":[],"default_left":[0,0,0,0,0,0,0,0,0,0,0,0,0,0,0,0,0,0,0],"id":33,"left_children":[1,3,-1,5,7,9,11,-1,-1,-1,-1,13,15,-1,-1,17,-1,-1,-1],"loss_changes":[4.0598366E-6,1.8414642E-6,0E0,2.9028142E-6,1.1792664E-6,1.8187584E-6,1.0117789E-6,0E0,0E0,0E0,0E0,1.1625297E-6,1.4270572E-6,0E0,0E0,1.3582453E-6,0E0,0E0,0E0],"parents":[2147483647,0,0,1,1,3,3,4,4,5,5,6,6,11,11,12,12,15,15],"right_children":[2,4,-1,6,8,10,12,-1,-1,-1,-1,14,16,-1,-1,18,-1,-1,-1],"split_conditions":[6.89E1,8.786563E-1,1.4429294E-4,3.12E2,1E0,5.3125E1,5.0066418E1,-6.88816E-5,6.0484654E-6,1.0067316E-5,7.322819E-5,-4.107143E1,7.836005E1,2.9774687E-6,3.424407E-5,6.680745E1,5.7310913E-6,-4.2260002E-5,-8.443997E-6],"split_indices":[0,35,0,4,13,47,52,0,0,0,0,53,47,0,0,57,0,0,0],"split_type":[0,0,0,0,0,0,0,0,0,0,0,0,0,0,0,0,0,0,0],"sum_hessian":[3.13E2,3.12E2,1E0,3.04E2,8E0,1.8E1,2.86E2,5E0,3E0,1E1,8E0,1.55E2,1.31E2,1.43E2,1.2E1,7.5E1,5.6E1,1.4E1,6.1E1],"tree_param":{"num_deleted":"0","num_feature":"153","num_nodes":"19","size_leaf_vector":"1"}},{"base_weights":[-1.6267039E-5,-3.3317358E-6,-1.3086867E-3,7.79381E-4,-1.3826767E-5,-6.9891335E-6,-1.8931388E-4,1.3812345E-4,-5.1308958E-5,-5.9166655E-6,-4.7617537E-5,-1.4657781E-5,6.314787E-5,-8.595804E-7,-5.9374237E-5],"categories":[],"categories_nodes":[],"categories_segments":[],"categories_sizes":[],"default_left":[0,0,0,0,0,0,0,0,0,0,0,0,0,0,0],"id":34,"left_children":[1,3,5,7,9,-1,-1,-1,-1,11,-1,13,-1,-1,-1],"loss_changes":[5.061145E-6,2.4833694E-6,2.0397356E-6,3.820208E-6,1.0870356E-6,0E0,0E0,0E0,0E0,1.6472907E-6,0E0,1.016422E-6,0E0,0E0,0E0],"parents":[2147483647,0,0,1,1,2,2,3,3,4,4,9,9,11,11],"right_children":[2,4,6,8,10,-1,-1,-1,-1,12,-1,14,-1,-1,-1],"split_conditions":[1.7560363E-2,-4.5685002E-1,6.75025E1,1.06E2,9.939581E-1,-6.9891335E-6,-1.8931388E-4,1.3812345E-4,-5.1308958E-5,9.976471E1,-4.7617537E-5,9.6051285E1,6.314787E-5,-8.595804E-7,-5.9374237E-5],"split_indices":[51,10,0,4,11,0,0,0,0,45,0,45,0,0,0],"split_type":[0,0,0,0,0,0,0,0,0,0,0,0,0,0,0],"sum_hessian":[3.02E2,3E2,2E0,3E0,2.97E2,1E0,1E0,2E0,1E0,2.93E2,4E0,2.9E2,3E0,2.88E2,2E0],"tree_param":{"num_deleted":"0","num_feature":"153","num_nodes":"15","size_leaf_vector":"1"}},{"base_weights":[3.898313E-6,-1.2432524E-3,1.5877653E-5,-6.6396783E-6,-1.798482E-4,7.557509E-6,1.3017212E-4,1.816006E-5,-4.5549048E-5,4.461038E-6,6.0070975E-4,3.8743437E-5,-4.703721E-7,9.4378425E-5,1.0745781E-5],"categories":[],"categories_nodes":[],"categories_segments":[],"categories_sizes":[],"default_left":[0,0,0,0,0,0,0,0,0,0,0,0,0,0,0],"id":35,"left_children":[1,3,5,-1,-1,7,-1,9,-1,11,13,-1,-1,-1,-1],"loss_changes":[4.710914E-6,1.8408614E-6,3.3280642E-6,0E0,0E0,1.5351231E-6,0E0,2.4313304E-6,0E0,1.0512699E-6,1.0831382E-6,0E0,0E0,0E0,0E0],"parents":[2147483647,0,0,1,1,2,2,5,5,7,7,9,9,10,10],"right_children":[2,4,6,-1,-1,8,-1,10,-1,12,14,-1,-1,-1,-1],"split_conditions":[-3.572002E-1,6.75025E1,6.9075455E1,-6.6396783E-6,-1.798482E-4,2.5545704E-1,1.3017212E-4,1.640362E-1,-4.5549048E-5,-5.9712476E-1,3E2,3.8743437E-5,-4.703721E-7,9.4378425E-5,1.0745781E-5],"split_indices":[9,0,140,0,0,148,0,147,0,138,4,0,0,0,0],"split_type":[0,0,0,0,0,0,0,0,0,0,0,0,0,0,0],"sum_hessian":[3.13E2,2E0,3.11E2,1E0,1E0,3.1E2,1E0,3.04E2,6E0,2.98E2,6E0,6E0,2.92E2,3E0,3E0],"tree_param":{"num_deleted":"0","num_feature":"153","num_nodes":"15","size_leaf_vector":"1"}},{"base_weights":[3.7961447E-6,-3.7193178E-7,7.741182E-5],"categories":[],"categories_nodes":[],"categories_segments":[],"categories_sizes":[],"default_left":[0,0,0],"id":36,"left_children":[1,-1,-1],"loss_changes":[1.7975705E-6,