{"learner":{"attributes":{"scikit_learn":"{\"_estimator_type\": \"regressor\"}"},"feature_names":["open","high","low","close","volume","trade_count","vwap","HT_DCPERIOD","HT_DCPHASE","HT_PHASOR_0","HT_PHASOR_1","HT_SINE_0","HT_SINE_1","HT_TRENDMODE","ADX","ADXR","APO","AROON_0","AROON_1","AROONOSC","BOP","CCI","CMO","DX","MACD_0","MACD_1","MACD_2","MACDEXT_0","MACDEXT_1","MACDEXT_2","MACDFIX_0","MACDFIX_1","MACDFIX_2","MFI","MINUS_DI","MINUS_DM","MOM","PLUS_DI","PLUS_DM","PPO","ROC","ROCP","ROCR","ROCR100","RSI","STOCH_0","STOCH_1","STOCHF_0","STOCHF_1","STOCHRSI_0","STOCHRSI_1","TRIX","ULTOSC","WILLR","BBANDS_0","BBANDS_1","BBANDS_2","DEMA","EMA","HT_TRENDLINE","KAMA","MA","MAMA_0","MAMA_1","MIDPOINT","MIDPRICE","SAR","SAREXT","SMA","T3","TEMA","TRIMA","WMA","CDL2CROWS","CDL3BLACKCROWS","CDL3INSIDE","CDL3LINESTRIKE","CDL3OUTSIDE","CDL3STARSINSOUTH","CDL3WHITESOLDIERS","CDLABANDONEDBABY","CDLADVANCEBLOCK","CDLBELTHOLD","CDLBREAKAWAY","CDLCLOSINGMARUBOZU","CDLCONCEALBABYSWALL","CDLCOUNTERATTACK","CDLDARKCLOUDCOVER","CDLDOJI","CDLDOJISTAR","CDLDRAGONFLYDOJI","CDLENGULFING","CDLEVENINGDOJISTAR","CDLEVENINGSTAR","CDLGAPSIDESIDEWHITE","CDLGRAVESTONEDOJI","CDLHAMMER","CDLHANGINGMAN","CDLHARAMI","CDLHARAMICROSS","CDLHIGHWAVE","CDLHIKKAKE","CDLHIKKAKEMOD","CDLHOMINGPIGEON","CDLIDENTICAL3CROWS","CDLINNECK","CDLINVERTEDHAMMER","CDLKICKING","CDLKICKINGBYLENGTH","CDLLADDERBOTTOM","CDLLONGLEGGEDDOJI","CDLLONGLINE","CDLMARUBOZU","CDLMATCHINGLOW","CDLMATHOLD","CDLMORNINGDOJISTAR","CDLMORNINGSTAR","CDLONNECK","CDLPIERCING","CDLRICKSHAWMAN","CDLRISEFALL3METHODS","CDLSEPARATINGLINES","CDLSHOOTINGSTAR","CDLSHORTLINE","CDLSPINNINGTOP","CDLSTALLEDPATTERN","CDLSTICKSANDWICH","CDLTAKURI","CDLTASUKIGAP","CDLTHRUSTING","CDLTRISTAR","CDLUNIQUE3RIVER","CDLUPSIDEGAP2CROWS","CDLXSIDEGAP3METHODS","AVGPRICE","MEDPRICE","TYPPRICE","WCLPRICE","BETA","CORREL","LINEARREG","LINEARREG_ANGLE","LINEARREG_INTERCEPT","LINEARREG_SLOPE","STDDEV","TSF","VAR","ATR","NATR","TRANGE","AD","ADOSC","OBV"],"feature_types":["float","float","float","float","float","float","float","float","float","float","float","float","float","float","float","float","float","float","float","float","float","float","float","float","float","float","float","float","float","float","float","float","float","float","float","float","float","float","float","float","float","float","float","float","float","float","float","float","float","float","float","float","float","float","float","float","float","float","float","float","float","float","float","float","float","float","float","float","float","float","float","float","float","float","float","float","float","float","float","float","float","float","float","float","float","float","float","float","float","float","float","float","float","float","float","float","float","float","float","float","float","float","float","float","float","float","float","float","float","float","float","float","float","float","float","float","float","float","float","float","float","float","float","float","float","float","float","float","float","float","float","float","float","float","float","float","float","float","float","float","float","float","float","float","float","float","float","float","float","float","float","float","float"],"gradient_booster":{"model":{"gbtree_model_param":{"num_parallel_tree":"1","num_trees":"200"},"iteration_indptr":[0,1,2,3,4,5,6,7,8,9,10,11,12,13,14,15,16,17,18,19,20,21,22,23,24,25,26,27,28,29,30,31,32,33,34,35,36,37,38,39,40,41,42,43,44,45,46,47,48,49,50,51,52,53,54,55,56,57,58,59,60,61,62,63,64,65,66,67,68,69,70,71,72,73,74,75,76,77,78,79,80,81,82,83,84,85,86,87,88,89,90,91,92,93,94,95,96,97,98,99,100,101,102,103,104,105,106,107,108,109,110,111,112,113,114,115,116,117,118,119,120,121,122,123,124,125,126,127,128,129,130,131,132,133,134,135,136,137,138,139,140,141,142,143,144,145,146,147,148,149,150,151,152,153,154,155,156,157,158,159,160,161,162,163,164,165,166,167,168,169,170,171,172,173,174,175,176,177,178,179,180,181,182,183,184,185,186,187,188,189,190,191,192,193,194,195,196,197,198,199,200],"tree_info":[0,0,0,0,0,0,0,0,0,0,0,0,0,0,0,0,0,0,0,0,0,0,0,0,0,0,0,0,0,0,0,0,0,0,0,0,0,0,0,0,0,0,0,0,0,0,0,0,0,0,0,0,0,0,0,0,0,0,0,0,0,0,0,0,0,0,0,0,0,0,0,0,0,0,0,0,0,0,0,0,0,0,0,0,0,0,0,0,0,0,0,0,0,0,0,0,0,0,0,0,0,0,0,0,0,0,0,0,0,0,0,0,0,0,0,0,0,0,0,0,0,0,0,0,0,0,0,0,0,0,0,0,0,0,0,0,0,0,0,0,0,0,0,0,0,0,0,0,0,0,0,0,0,0,0,0,0,0,0,0,0,0,0,0,0,0,0,0,0,0,0,0,0,0,0,0,0,0,0,0,0,0,0,0,0,0,0,0,0,0,0,0,0,0,0,0,0,0,0,0],"trees":[{"base_weights":[2.2919854E-5,-2.2232419E-4,2.7063416E-4,-2.9154125E-4,3.0757634E-5,2.195993E-4,7.0554804E-4,-1.072893E-4,-4.5187346E-4,3.86011E-4,9.368246E-5,8.962269E-5,2.5448098E-6,-5.12955E-5,3.1508927E-5,-5.2445114E-4,8.309758E-6,-1.4223956E-5,5.0020905E-4,5.0144104E-6,7.30043E-5,7.0570204E-5,-4.1851367E-6,-4.229863E-4,-9.950993E-5,-4.195064E-6,5.886326E-5,-6.412673E-5,-2.283968E-5],"categories":[],"categories_nodes":[],"categories_segments":[],"categories_sizes":[],"default_left":[0,0,0,0,0,0,0,0,0,0,0,0,0,0,0,0,0,0,0,0,0,0,0,0,0,0,0,0,0],"id":0,"left_children":[1,3,5,7,-1,9,11,13,15,17,19,-1,-1,-1,21,23,-1,-1,25,-1,-1,-1,-1,27,-1,-1,-1,-1,-1],"loss_changes":[1.0995252E-5,3.4273826E-6,1.8426827E-6,2.3443818E-6,0E0,1.6820686E-6,1.1443185E-6,2.2120844E-6,1.7131397E-6,2.1825308E-6,1.293285E-6,0E0,0E0,0E0,1.5133048E-6,1.3937479E-6,0E0,0E0,1.4149446E-6,0E0,0E0,0E0,0E0,1.2552182E-6,0E0,0E0,0E0,0E0,0E0],"parents":[2147483647,0,0,1,1,2,2,3,3,5,5,6,6,7,7,8,8,9,9,10,10,14,14,15,15,18,18,23,23],"right_children":[2,4,6,8,-1,10,12,14,16,18,20,-1,-1,-1,22,24,-1,-1,26,-1,-1,-1,-1,28,-1,-1,-1,-1,-1],"split_conditions":[3.564701E-2,7.060841E-2,2.6349694E-1,-2.3299431E-2,3.0757634E-5,5.971904E1,4.375E-1,-1.4363463E-1,3.397741E1,1.8162678E1,8E1,8.962269E-5,2.5448098E-6,-5.12955E-5,-1.5616E5,5.5260336E-1,8.309758E-6,-1.4223956E-5,-2.328784E-1,5.0144104E-6,7.30043E-5,7.0570204E-5,-4.1851367E-6,-2.8475262E1,-9.950993E-5,-4.195064E-6,5.886326E-5,-6.412673E-5,-2.283968E-5],"split_indices":[9,29,9,10,0,21,20,9,23,45,91,0,0,0,152,38,0,0,138,0,0,0,0,21,0,0,0,0,0],"split_type":[0,0,0,0,0,0,0,0,0,0,0,0,0,0,0,0,0,0,0,0,0,0,0,0,0,0,0,0,0],"sum_hessian":[1.79E2,9E1,8.9E1,8E1,1E1,8.1E1,8E0,3.8E1,4.2E1,3.4E1,4.7E1,6E0,2E0,9E0,2.9E1,3.7E1,5E0,6E0,2.8E1,4.5E1,2E0,2E0,2.7E1,3.2E1,5E0,4E0,2.4E1,1.4E1,1.8E1],"tree_param":{"num_deleted":"0","num_feature":"153","num_nodes":"29","size_leaf_vector":"1"}},{"base_weights":[3.5214583E-5,-3.2198336E-4,1.5489262E-4,-6.536502E-4,-1.5645257E-5,8.637802E-5,4.3082697E-4,-1.13287955E-4,-3.7639595E-5,1.2157278E-5,-5.497924E-5,2.6709738E-4,8.604691E-5,6.1762374E-5,8.571193E-6],"categories":[],"categories_nodes":[],"categories_segments":[],"categories_sizes":[],"default_left":[0,0,0,0,0,0,0,0,0,0,0,0,0,0,0],"id":1,"left_children":[1,3,5,7,-1,9,11,-1,-1,-1,-1,13,-1,-1,-1],"loss_changes":[7.830145E-6,2.4231845E-6,2.5528434E-6,1.5666151E-6,0E0,2.5521144E-6,1.6694898E-6,0E0,0E0,0E0,0E0,1.2822502E-6,0E0,0E0,0E0],"parents":[2147483647,0,0,1,1,2,2,3,3,5,5,6,6,11,11],"right_children":[2,4,6,8,-1,10,12,-1,-1,-1,-1,14,-1,-1,-1],"split_conditions":[-6.146698E-2,1.5491167E2,2.0210602E0,-2.5459945E-1,-1.5645257E-5,6.977222E1,1.0999353E-1,-1.13287955E-4,-3.7639595E-5,1.2157278E-5,-5.497924E-5,7.190198E1,8.604691E-5,6.1762374E-5,8.571193E-6],"split_indices":[9,136,141,9,0,52,148,0,0,0,0,46,0,0,0],"split_type":[0,0,0,0,0,0,0,0,0,0,0,0,0,0,0],"sum_hessian":[1.81E2,4.5E1,1.36E2,1.4E1,3.1E1,1.1E2,2.6E1,4E0,1E1,1.05E2,5E0,2E1,6E0,6E0,1.4E1],"tree_param":{"num_deleted":"0","num_feature":"153","num_nodes":"15","size_leaf_vector":"1"}},{"base_weights":[-5.4092743E-5,-3.0035138E-4,5.050971E-5,-5.6989342E-5,-1.850258E-4,8.681193E-5,-2.5648103E-4,7.508839E-6,-2.8627908E-5,-4.6063076E-5,1.9018602E-5,1.7007615E-5,-5.123546E-5,7.8944635E-5,-3.596784E-4,6.7269457E-7,6.9111324E-5,-2.0100108E-5,-9.273874E-5],"categories":[],"categories_nodes":[],"categories_segments":[],"categories_sizes":[],"default_left":[0,0,0,0,0,0,0,0,0,0,0,0,0,0,0,0,0,0,0],"id":2,"left_children":[1,3,5,-1,7,9,11,-1,-1,13,-1,-1,-1,15,17,-1,-1,-1,-1],"loss_changes":[4.754874E-6,1.604235E-6,1.4710438E-6,0E0,1.0749927E-6,1.6158526E-6,1.6151648E-6,0E0,0E0,2.06702E-6,0E0,0E0,0E0,1.6753082E-6,1.1648322E-6,0E0,0E0,0E0,0E0],"parents":[2147483647,0,0,1,1,2,2,4,4,5,5,6,6,9,9,13,13,14,14],"right_children":[2,4,6,-1,8,10,12,-1,-1,14,-1,-1,-1,16,18,-1,-1,-1,-1],"split_conditions":[-5.1294208E-2,1.5480241E2,3.956144E1,-5.6989342E-5,7.61E2,4.816933E-2,1.5557402E2,7.508839E-6,-2.8627908E-5,6.3685204E1,1.9018602E-5,1.7007615E-5,-5.123546E-5,2.7497066E-3,2.3516855E1,6.7269457E-7,6.9111324E-5,-2.0100108E-5,-9.273874E-5],"split_indices":[9,140,15,0,4,9,63,0,0,52,0,0,0,51,15,0,0,0,0],"split_type":[0,0,0,0,0,0,0,0,0,0,0,0,0,0,0,0,0,0,0],"sum_hessian":[1.83E2,5.4E1,1.29E2,1.5E1,3.9E1,1.16E2,1.3E1,1.1E1,2.8E1,5.1E1,6.5E1,5E0,8E0,3.7E1,1.4E1,3.4E1,3E0,1.2E1,2E0],"tree_param":{"num_deleted":"0","num_feature":"153","num_nodes":"19","size_leaf_vector":"1"}},{"base_weights":[-1.2338358E-5,-1.7058355E-4,1.7431178E-4,-8.649575E-5,-4.787908E-4,2.630511E-4,-4.5635068E-5,-1.208657E-4,5.8815735E-5,-2.5668312E-4,-9.912795E-5,-2.258365E-5,3.1160156E-4,-2.1948337E-4,2.8781562E-5,2.961386E-5,-1.6083948E-4,-6.290138E-5,-8.015508E-6,3.7328858E-4,-4.5164265E-6,-3.8404573E-7,-5.2699605E-5,5.054209E-5,-1.8786803E-4,2.5156454E-5,6.1619555E-4,-3.126716E-5,-6.126264E-6,7.8850106E-5,-5.4769894E-6],"categories":[],"categories_nodes":[],"categories_segments":[],"categories_sizes":[],"default_left":[0,0,0,0,0,0,0,0,0,0,0,0,0,0,0,0,0,0,0,0,0,0,0,0,0,0,0,0,0,0,0],"id":3,"left_children":[1,3,5,7,9,11,13,15,-1,17,-1,-1,19,21,-1,-1,23,-1,-1,25,-1,-1,-1,-1,27,-1,29,-1,-1,-1,-1],"loss_changes":[5.405375E-6,2.5243173E-6,1.6515112E-6,1.902924E-6,2.135936E-6,1.4945135E-6,1.5124166E-6,1.3144929E-6,0E0,1.0012104E-6,0E0,0E0,1.2272894E-6,1.125296E-6,0E0,0E0,1.3555165E-6,0E0,0E0,1.234665E-6,0E0,0E0,0E0,0E0,1.0552994E-6,0E0,1.7773518E-6,0E0,0E0,0E0,0E0],"parents":[2147483647,0,0,1,1,2,2,3,3,4,4,5,5,6,6,7,7,9,9,12,12,13,13,16,16,19,19,24,24,26,26],"right_children":[2,4,6,8,10,12,14,16,-1,18,-1,-1,20,22,-1,-1,24,-1,-1,26,-1,-1,-1,-1,28,-1,30,-1,-1,-1,-1],"split_conditions":[4.0126998E-2,6.3689438E1,1.09286835E2,4.9506767E1,1.551413E2,1.8162678E1,1.497E4,-5.617494E-1,5.8815735E-5,-3.1302992E-2,-9.912795E-5,-2.258365E-5,6.436433E-1,1.5591E2,2.8781562E-5,2.961386E-5,5.0477304E0,-6.290138E-5,-8.015508E-6,1.5539917E2,-4.5164265E-6,-3.8404573E-7,-5.2699605E-5,5.054209E-5,-1.0639739E1,2.5156454E-5,2.53E2,-3.126716E-5,-6.126264E-6,7.8850106E-5,-5.4769894E-6],"split_indices":[9,52,21,23,142,45,4,138,0,29,0,0,11,1,0,0,45,0,0,61,0,0,0,0,22,0,5,0,0,0,0],"split_type":[0,0,0,0,0,0,0,0,0,0,0,0,0,0,0,0,0,0,0,0,0,0,0,0,0,0,0,0,0,0,0],"sum_hessian":[1.81E2,9.8E1,8.3E1,7.8E1,2E1,5.9E1,2.4E1,7.5E1,3E0,1.5E1,5E0,5E0,5.4E1,1.6E1,8E0,6E0,6.9E1,4E0,1.1E1,4.6E1,8E0,1E1,6E0,2E0,6.7E1,3.2E1,1.4E1,3.3E1,3.4E1,1.1E1,3E0],"tree_param":{"num_deleted":"0","num_feature":"153","num_nodes":"31","size_leaf_vector":"1"}},{"base_weights":[-9.434287E-6,-5.5794424E-4,3.2566084E-5,2.8453413E-5,-7.369889E-5,-6.283204E-5,1.243003E-4,-3.4604097E-6,-5.0191273E-5,1.8305078E-5,-9.559876E-5,-4.041256E-5,1.1805235E-5],"categories":[],"categories_nodes":[],"categories_segments":[],"categories_sizes":[],"default_left":[0,0,0,0,0,0,0,0,0,0,0,0,0],"id":4,"left_children":[1,3,5,-1,-1,7,9,-1,-1,-1,11,-1,-1],"loss_changes":[4.2110173E-6,2.1706342E-6,1.4955265E-6,0E0,0E0,1.0237566E-6,1.1414674E-6,0E0,0E0,0E0,1.3001329E-6,0E0,0E0],"parents":[2147483647,0,0,1,1,2,2,5,5,6,6,10,10],"right_children":[2,4,6,-1,-1,8,10,-1,-1,-1,12,-1,-1],"split_conditions":[-1.9204636E-1,-3.4871167E-1,3.564701E-2,2.8453413E-5,-7.369889E-5,2.5E-1,7.180071E-2,-3.4604097E-6,-5.0191273E-5,1.8305078E-5,2.8270338E-2,-4.041256E-5,1.1805235E-5],"split_indices":[9,9,9,0,0,149,29,0,0,0,26,0,0],"split_type":[0,0,0,0,0,0,0,0,0,0,0,0,0],"sum_hessian":[1.81E2,1.2E1,1.69E2,2E0,1E1,8.3E1,8.6E1,7.9E1,4E0,6.8E1,1.8E1,7E0,1.1E1],"tree_param":{"num_deleted":"0","num_feature":"153","num_nodes":"13","size_leaf_vector":"1"}},{"base_weights":[1.0956351E-5,-1.1994746E-4,1.7243072E-4,-6.289317E-5,-8.653848E-5,2.9349243E-4,4.71634E-5,1.4669291E-5,-1.5883688E-4,1.8434961E-5,7.2066276E-4,-1.4105055E-5,2.9549515E-4,-1.922478E-4,2.46293E-5,-8.370643E-6,1.0027369E-4,8.102272E-6,6.209486E-5,-1.3823412E-5,-6.431907E-5],"categories":[],"categories_nodes":[],"categories_segments":[],"categories_sizes":[],"default_left":[0,0,0,0,0,0,0,0,0,0,0,0,0,0,0,0,0,0,0,0,0],"id":5,"left_children":[1,3,5,-1,7,9,11,-1,13,-1,15,-1,17,19,-1,-1,-1,-1,-1,-1,-1],"loss_changes":[3.8254525E-6,1.6460374E-6,1.2145288E-6,0E0,1.6252145E-6,1.7786715E-6,1.9579993E-6,0E0,1.0354601E-6,0E0,1.8990695E-6,0E0,1.2061033E-6,1.5673709E-6,0E0,0E0,0E0,0E0,0E0,0E0,0E0],"parents":[2147483647,0,0,1,1,2,2,4,4,5,5,6,6,8,8,10,10,12,12,13,13],"right_children":[2,4,6,-1,8,10,12,-1,14,-1,16,-1,18,20,-1,-1,-1,-1,-1,-1,-1],"split_conditions":[5.078904E-2,1.54605E2,1.7241695E2,-6.289317E-5,2.3439718E1,7.9332404E-2,2E-1,1.4669291E-5,1.5578E2,1.8434961E-5,1.5901649E1,-1.4105055E-5,1.8958399E-1,3.557157E1,2.46293E-5,-8.370643E-6,1.0027369E-4,8.102272E-6,6.209486E-5,-1.3823412E-5,-6.431907E-5],"split_indices":[9,55,8,0,37,28,20,0,1,0,34,0,24,14,0,0,0,0,0,0,0],"split_type":[0,0,0,0,0,0,0,0,0,0,0,0,0,0,0,0,0,0,0,0,0],"sum_hessian":[1.79E2,9.9E1,8E1,5E0,9.4E1,4E1,4E1,2.2E1,7.2E1,3.3E1,7E0,2.3E1,1.7E1,6.7E1,5E0,2E0,5E0,1.1E1,6E0,6.1E1,6E0],"tree_param":{"num_deleted":"0","num_feature":"153","num_nodes":"21","size_leaf_vector":"1"}},{"base_weights":[-1.6066648E-5,-1.4429951E-4,1.476311E-4,-6.025208E-5,-4.0075555E-4,6.3050524E-5,1.1392055E-5,-9.2182825E-5,5.5351244E-5,-2.1931306E-5,-8.359915E-5,-3.4444654E-6,-3.4129596E-5],"categories":[],"categories_nodes":[],"categories_segments":[],"categories_sizes":[],"default_left":[0,0,0,0,0,0,0,0,0,0,0,0,0],"id":6,"left_children":[1,3,5,7,9,-1,-1,11,-1,-1,-1,-1,-1],"loss_changes":[3.820752E-6,2.17441E-6,1.2304085E-6,1.5796651E-6,1.7909133E-6,0E0,0E0,1.0669944E-6,0E0,0E0,0E0,0E0,0E0],"parents":[2147483647,0,0,1,1,2,2,3,3,4,4,7,7],"right_children":[2,4,6,8,10,-1,-1,12,-1,-1,-1,-1,-1],"split_conditions":[4.0126998E-2,6.3689438E1,0E0,6.978852E3,1.2840708E-1,6.3050524E-5,1.1392055E-5,4.919929E-1,5.5351244E-5,-2.1931306E-5,-8.359915E-5,-3.4444654E-6,-3.4129596E-5],"split_indices":[9,52,82,151,147,0,0,38,0,0,0,0,0],"split_type":[0,0,0,0,0,0,0,0,0,0,0,0,0],"sum_hessian":[1.8E2,1.01E2,7.9E1,7.7E1,2.4E1,4E0,7.5E1,7.4E1,3E0,1.8E1,6E0,6.1E1,1.3E1],"tree_param":{"num_deleted":"0","num_feature":"153","num_nodes":"13","size_leaf_vector":"1"}},{"base_weights":[2.6434773E-5,-3.4415585E-5,3.1805635E-4,4.415627E-5,-2.5716072E-4,2.0351608E-5,7.6138815E-5,-8.97676E-5,1.2697613E-5,-1.4312635E-4,-7.5801414E-5,-1.3782426E-4,4.132409E-5,-8.4962674E-5,-4.415542E-6,4.9240403E-5,-1.8395218E-5],"categories":[],"categories_nodes":[],"categories_segments":[],"categories_sizes":[],"default_left":[0,0,0,0,0,0,0,0,0,0,0,0,0,0,0,0,0],"id":7,"left_children":[1,3,5,7,9,-1,-1,11,-1,13,-1,15,-1,-1,-1,-1,-1],"loss_changes":[3.1873506E-6,2.6190787E-6,1.4192049E-6,1.242561E-6,2.1189737E-6,0E0,0E0,1.0963897E-6,0E0,2.2699433E-6,0E0,1.2534234E-6,0E0,0E0,0E0,0E0,0E0],"parents":[2147483647,0,0,1,1,2,2,3,3,4,4,7,7,9,9,11,11],"right_children":[2,4,6,8,10,-1,-1,12,-1,14,-1,16,-1,-1,-1,-1,-1],"split_conditions":[1.9253702E0,6.4281815E1,1.7227738E-1,-6.2329113E-2,3.648749E1,2.0351608E-5,7.6138815E-5,1.5520447E2,1.2697613E-5,-8.504801E0,-7.5801414E-5,3.9623497E0,4.132409E-5,-8.4962674E-5,-4.415542E-6,4.9240403E-5,-1.8395218E-5],"split_indices":[141,52,147,24,14,0,0,69,0,21,0,46,0,0,0,0,0],"split_type":[0,0,0,0,0,0,0,0,0,0,0,0,0,0,0,0,0],"sum_hessian":[1.78E2,1.48E2,3E1,1.1E2,3.8E1,2.5E1,5E0,4.2E1,6.8E1,3.2E1,6E0,3.9E1,3E0,3E0,2.9E1,2E0,3.7E1],"tree_param":{"num_deleted":"0","num_feature":"153","num_nodes":"17","size_leaf_vector":"1"}},{"base_weights":[-1.9406241E-5,-2.0256493E-4,6.032176E-5,-1.0634687E-5,-4.3922755E-5,4.2758448E-4,4.840218E-6,7.1645004E-4,4.9162677E-6,-1.7314585E-5,4.6026114E-5,9.2985116E-5,-2.0302648E-6,3.3194563E-5,-2.7478408E-4,-4.105207E-6,2.189683E-4,-5.6168716E-5,1.1819284E-5,3.98686E-5,-8.9496973E-7],"categories":[],"categories_nodes":[],"categories_segments":[],"categories_sizes":[],"default_left":[0,0,0,0,0,0,0,0,0,0,0,0,0,0,0,0,0,0,0,0,0],"id":8,"left_children":[1,3,5,-1,-1,7,9,11,-1,13,-1,-1,-1,15,17,-1,19,-1,-1,-1,-1],"loss_changes":[2.5531194E-6,1.160164E-6,2.4838391E-6,0E0,0E0,1.7137859E-6,1.0875735E-6,1.433893E-6,0E0,1.3485916E-6,0E0,0E0,0E0,1.2089865E-6,1.9830745E-6,0E0,1.0275905E-6,0E0,0E0,0E0,0E0],"parents":[2147483647,0,0,1,1,2,2,5,5,6,6,7,7,9,9,13,13,14,14,16,16],"right_children":[2,4,6,-1,-1,8,10,12,-1,14,-1,-1,-1,16,18,-1,20,-1,-1,-1,-1],"split_conditions":[-5.1294208E-2,1.2281423E-1,-2.1597405E-1,-1.0634687E-5,-4.3922755E-5,2.5105265E1,2.6522186E-1,9.789672E1,4.9162677E-6,3.648749E1,4.6026114E-5,9.2985116E-5,-2.0302648E-6,7.632803E-2,1.5542465E4,-4.105207E-6,7.51528E1,-5.6168716E-5,1.1819284E-5,3.98686E-5,-8.9496973E-7],"split_indices":[9,147,10,0,0,7,9,21,0,14,0,0,0,148,151,0,46,0,0,0,0],"split_type":[0,0,0,0,0,0,0,0,0,0,0,0,0,0,0,0,0,0,0,0,0],"sum_hessian":[1.73E2,5.2E1,1.21E2,3.8E1,1.4E1,1.5E1,1.06E2,8E0,7E0,1.02E2,4E0,6E0,2E0,8.6E1,1.6E1,6.2E1,2.4E1,9E0,7E0,1.3E1,1.1E1],"tree_param":{"num_deleted":"0","num_feature":"153","num_nodes":"21","size_leaf_vector":"1"}},{"base_weights":[1.3202841E-5,-1.1192185E-5,5.0860115E-5,-1.5797583E-5,4.1063096E-5,3.017423E-5,6.8911345E-6,6.2039594E-6,-2.919647E-4,-4.981922E-5,1.6915114E-5],"categories":[],"categories_nodes":[],"categories_segments":[],"categories_sizes":[],"default_left":[0,0,0,0,0,0,0,0,0,0,0],"id":9,"left_children":[1,3,-1,-1,5,-1,7,-1,9,-1,-1],"loss_changes":[2.0601856E-6,1.256733E-6,0E0,0E0,1.0757788E-6,0E0,1.7981088E-6,0E0,1.700881E-6,0E0,0E0],"parents":[2147483647,0,0,1,1,4,4,6,6,8,8],"right_children":[2,4,-1,-1,6,-1,8,-1,10,-1,-1],"split_conditions":[2.6522186E-1,-5.9751883E-2,5.0860115E-5,-1.5797583E-5,-2.1597405E-1,3.017423E-5,3.648749E1,6.2039594E-6,2.948585E-2,-4.981922E-5,1.6915114E-5],"split_indices":[9,9,0,0,10,0,14,0,26,0,0],"split_type":[0,0,0,0,0,0,0,0,0,0,0],"sum_hessian":[1.69E2,1.62E2,7E0,4.2E1,1.2E2,1.3E1,1.07E2,9.1E1,1.6E1,1.1E1,5E0],"tree_param":{"num_deleted":"0","num_feature":"153","num_nodes":"11","size_leaf_vector":"1"}},{"base_weights":[7.1757136E-6,-2.0347118E-4,9.313007E-5,-5.9037266E-5,-1.2493112E-5,3.2141932E-6,2.59843E-4,8.490259E-6,4.7870193E-4,7.193881E-5,1.3524598E-5],"categories":[],"categories_nodes":[],"categories_segments":[],"categories_sizes":[],"default_left":[0,0,0,0,0,0,0,0,0,0,0],"id":10,"left_children":[1,3,5,-1,-1,-1,7,-1,9,-1,-1],"loss_changes":[3.0607605E-6,1.4152201E-6,1.2117495E-6,0E0,0E0,0E0,1.1845495E-6,0E0,1.0600177E-6,0E0,0E0],"parents":[2147483647,0,0,1,1,2,2,6,6,8,8],"right_children":[2,4,6,-1,-1,-1,8,-1,10,-1,-1],"split_conditions":[-2.8568376E-2,-2.5459945E-1,1.9649153E0,-5.9037266E-5,-1.2493112E-5,3.2141932E-6,1.5591E2,8.490259E-6,-1.1790715E1,7.193881E-5,1.3524598E-5],"split_indices":[29,9,141,0,0,0,3,0,53,0,0],"split_type":[0,0,0,0,0,0,0,0,0,0,0],"sum_hessian":[1.67E2,4.8E1,1.19E2,7E0,4.1E1,8.8E1,3.1E1,1.8E1,1.3E1,7E0,6E0],"tree_param":{"num_deleted":"0","num_feature":"153","num_nodes":"11","size_leaf_vector":"1"}},{"base_weights":[-1.4943778E-5,9.952216E-5,-8.096589E-5,1.7955723E-6,3.8372218E-5,-1.6896291E-4,3.0233778E-5,-2.1669891E-4,1.7437556E-5,9.169576E-6,-2.9622082E-5,-1.2741388E-5,-4.403458E-5],"categories":[],"categories_nodes":[],"categories_segments":[],"categories_sizes":[],"default_left":[0,0,0,0,0,0,0,0,0,0,0,0,0],"id":11,"left_children":[1,3,5,-1,-1,7,9,11,-1,-1,-1,-1,-1],"loss_changes":[1.3003533E-6,1.4535242E-6,1.0716994E-6,0E0,0E0,1.0375529E-6,1.0103249E-6,1.0221836E-6,0E0,0E0,0E0,0E0,0E0],"parents":[2147483647,0,0,1,1,2,2,5,5,6,6,7,7],"right_children":[2,4,6,-1,-1,8,10,12,-1,-1,-1,-1,-1],"split_conditions":[-5.7180427E-2,1.5546196E2,5.078904E-2,1.7955723E-6,3.8372218E-5,4.230967E1,2.0468608E5,7.142857E1,1.7437556E-5,9.169576E-6,-2.9622082E-5,-1.2741388E-5,-4.403458E-5],"split_indices":[10,62,9,0,0,34,150,17,0,0,0,0,0],"split_type":[0,0,0,0,0,0,0,0,0,0,0,0,0],"sum_hessian":[1.7E2,6.2E1,1.08E2,4.9E1,1.3E1,6E1,4.8E1,5.3E1,7E0,4.1E1,7E0,3.9E1,1.4E1],"tree_param":{"num_deleted":"0","num_feature":"153","num_nodes":"13","size_leaf_vector":"1"}},{"base_weights":[-7.876667E-6,-4.16747E-4,2.1550402E-5,3.1874584E-5,-5.9572016E-5,-6.9017614E-7,2.4354104E-4,1.0390688E-5,5.628239E-4,-2.6673786E-5,3.3197557E-5,7.726017E-5,-4.4339595E-6],"categories":[],"categories_nodes":[],"categories_segments":[],"categories_sizes":[],"default_left":[0,0,0,0,0,0,0,0,0,0,0,0,0],"id":12,"left_children":[1,3,5,-1,-1,-1,7,9,11,-1,-1,-1,-1],"loss_changes":[2.1506512E-6,1.7694847E-6,1.0564719E-6,0E0,0E0,0E0,1.4085293E-6,1.1579946E-6,1.0532121E-6,0E0,0E0,0E0,0E0],"parents":[2147483647,0,0,1,1,2,2,6,6,7,7,8,8],"right_children":[2,4,6,-1,-1,-1,8,10,12,-1,-1,-1,-1],"split_conditions":[-2.2803941E-1,1.8021857E4,1.5608E2,3.1874584E-5,-5.9572016E-5,-6.9017614E-7,3.8228053E-1,2.39E2,2.53E2,-2.6673786E-5,3.3197557E-5,7.726017E-5,-4.4339595E-6],"split_indices":[9,150,0,0,0,0,35,5,5,0,0,0,0],"split_type":[0,0,0,0,0,0,0,0,0,0,0,0,0],"sum_hessian":[1.77E2,1.1E1,1.66E2,2E0,9E0,1.48E2,1.8E1,1.1E1,7E0,6E0,5E0,5E0,2E0],"tree_param":{"num_deleted":"0","num_feature":"153","num_nodes":"13","size_leaf_vector":"1"}},{"base_weights":[1.0306483E-5,-2.6842818E-4,3.403806E-5,4.0663796E-5,-4.1482568E-4,-1.6817061E-6,1.648581E-5,7.2867115E-6,-5.854863E-5],"categories":[],"categories_nodes":[],"categories_segments":[],"categories_sizes":[],"default_left":[0,0,0,0,0,0,0,0,0],"id":13,"left_children":[1,3,5,-1,7,-1,-1,-1,-1],"loss_changes":[1.1799586E-6,1.5522758E-6,1.0938429E-6,0E0,1.0414221E-6,0E0,0E0,0E0,0E0],"parents":[2147483647,0,0,1,1,2,2,4,4],"right_children":[2,4,6,-1,8,-1,-1,-1,-1],"split_conditions":[-1.9272287E-1,-3.9285713E-1,1.3130508E-1,4.0663796E-5,-3.942657E-1,-1.6817061E-6,1.648581E-5,7.2867115E-6,-5.854863E-5],"split_indices":[9,20,147,0,9,0,0,0,0],"split_type":[0,0,0,0,0,0,0,0,0],"sum_hessian":[1.76E2,1.3E1,1.63E2,2E0,1.1E1,1.18E2,4.5E1,3E0,8E0],"tree_param":{"num_deleted":"0","num_feature":"153","num_nodes":"9","size_leaf_vector":"1"}},{"base_weights":[-1.2356539E-7,-3.9761295E-4,1.7741821E-6,2.6024965E-5,-6.602754E-5],"categories":[],"categories_nodes":[],"categories_segments":[],"categories_sizes":[],"default_left":[0,0,0,0,0],"id":14,"left_children":[1,3,-1,-1,-1],"loss_changes":[1.3207949E-6,1.5542028E-6,0E0,0E0,0E0],"parents":[2147483647,0,0,1,1],"right_children":[2,4,-1,-1,-1],"split_conditions":[-2.5459945E-1,-3.4871167E-1,1.7741821E-6,2.6024965E-5,-6.602754E-5],"split_indices":[9,9,0,0,0],"split_type":[0,0,0,0,0],"sum_hessian":[1.84E2,7E0,1.77E2,2E0,5E0],"tree_param":{"num_deleted":"0","num_feature":"153","num_nodes":"5","size_leaf_vector":"1"}},{"base_weights":[8.287479E-6,5.837097E-5,-1.2508964E-5,-1.2728206E-6,1.9425145E-4,5.4015884E-5,9.97538E-6],"categories":[],"categories_nodes":[],"categories_segments":[],"categories_sizes":[],"default_left":[0,0,0,0,0,0,0],"id":15,"left_children":[1,3,-1,-1,5,-1,-1],"loss_changes":[1.1495802E-6,1.2100963E-6,0E0,0E0,1.351677E-6,0E0,0E0],"parents":[2147483647,0,0,1,1,4,4],"right_children":[2,4,-1,-1,6,-1,-1],"split_conditions":[7.9147026E1,1.21115156E-1,-1.2508964E-5,-1.2728206E-6,1.3374414E-1,5.4015884E-5,9.97538E-6],"split_indices":[50,147,0,0,147,0,0],"split_type":[0,0,0,0,0,0,0],"sum_hessian":[1.7E2,1.24E2,4.6E1,8.2E1,4.2E1,8E0,3.4E1],"tree_param":{"num_deleted":"0","num_feature":"153","num_nodes":"7","size_leaf_vector":"1"}},{"base_weights":[-9.978827E-6,-2.2725462E-5,2.253625E-6],"categories":[],"categories_nodes":[],"categories_segments":[],"categories_sizes":[],"default_left":[0,0,0],"id":16,"left_children":[1,-1,-1],"loss_changes":[1.2485157E-6,0E0,0E0],"parents":[2147483647,0,0],"right_children":[2,-1,-1],"split_conditions":[-1.2911685E-1,-2.2725462E-5,2.253625E-6],"split_indices":[9,0,0],"split_type":[0,0,0],"sum_hessian":[1.75E2,2.2E1,1.53E2],"tree_param":{"num_deleted":"0","num_feature":"153","num_nodes":"3","size_leaf_vector":"1"}},{"base_weights":[2.5318475E-6],"categories":[],"categories_nodes":[],"categories_segments":[],"categories_sizes":[],"default_left":[0],"id":17,"left_children":[-1],"loss_changes":[0E0],"parents":[2147483647],"right_children":[-1],"split_conditions":[2.5318477E-7],"split_indices":[0],"split_type":[0],"sum_hessian":[1.76E2],"tree_param":{"num_deleted":"0","num_feature":"153","num_nodes":"1","size_leaf_vector":"1"}},{"base_weights":[7.5471294E-6],"categories":[],"categories_nodes":[],"categories_segments":[],"categories_sizes":[],"default_left":[0],"id":18,"left_children":[-1],"loss_changes":[0E0],"parents":[2147483647],"right_children":[-1],"split_conditions":[7.5471297E-7],"split_indices":[0],"split_type":[0],"sum_hessian":[1.83E2],"tree_param":{"num_deleted":"0","num_feature":"153","num_nodes":"1","size_leaf_vector":"1"}},{"base_weights":[8.377862E-6,-8.688648E-6,8.0438454E-5,1.4319683E-5,-8.464145E-6],"categories":[],"categories_nodes":[],"categories_segments":[],"categories_sizes":[],"default_left":[0,0,0,0,0],"id":19,"left_children":[1,-1,3,-1,-1],"loss_changes":[1.2426539E-6,0E0,1.0792155E-6,0E0,0E0],"parents":[2147483647,0,0,2,2],"right_children":[2,-1,4,-1,-1],"split_conditions":[1E-2,-8.688648E-6,-8.333333E0,1.4319683E-5,-8.464145E-6],"split_indices":[36,0,53,0,0],"split_type":[0,0,0,0,0],"sum_hessian":[1.79E2,7.7E1,1.02E2,7.4E1,2.8E1],"tree_param":{"num_deleted":"0","num_feature":"153","num_nodes":"5","size_leaf_vector":"1"}},{"base_weights":[1.1143719E-5],"categories":[],"categories_nodes":[],"categories_segments":[],"categories_sizes":[],"default_left":[0],"id":20,"left_children":[-1],"loss_changes":[0E0],"parents":[2147483647],"right_children":[-1],"split_conditions":[1.1143719E-6],"split_indices":[0],"split_type":[0],"sum_hessian":[1.84E2],"tree_param":{"num_deleted":"0","num_feature":"153","num_nodes":"1","size_leaf_vector":"1"}},{"base_weights":[-9.468155E-6,7.929076E-6,-6.961288E-5,-1.0741302E-5,2.543393E-4,4.427379E-5,-2.331423E-5],"categories":[],"categories_nodes":[],"categories_segments":[],"categories_sizes":[],"default_left":[0,0,0,0,0,0,0],"id":21,"left_children":[1,-1,3,-1,5,-1,-1],"loss_changes":[1.0037967E-6,0E0,1.3988083E-6,0E0,1.205311E-6,0E0,0E0],"parents":[2147483647,0,0,2,2,4,4],"right_children":[2,-1,4,-1,6,-1,-1],"split_conditions":[5.5321053E1,7.929076E-6,1.7392908E-1,-1.0741302E-5,1.8411098E-1,4.427379E-5,-2.331423E-5],"split_indices":[52,0,147,0,147,0,0],"split_type":[0,0,0,0,0,0,0],"sum_hessian":[1.86E2,7.5E1,1.11E2,1E2,1.1E1,8E0,3E0],"tree_param":{"num_deleted":"0","num_feature":"153","num_nodes":"7","size_leaf_vector":"1"}},{"base_weights":[-1.7738352E-5],"categories":[],"categories_nodes":[],"categories_segments":[],"categories_sizes":[],"default_left":[0],"id":22,"left_children":[-1],"loss_changes":[0E0],"parents":[2147483647],"right_children":[-1],"split_conditions":[-1.7738352E-6],"split_indices":[0],"split_type":[0],"sum_hessian":[1.79E2],"tree_param":{"num_deleted":"0","num_feature":"153","num_nodes":"1","size_leaf_vector":"1"}},{"base_weights":[1.0348751E-5,-1.2585006E-5,7.953307E-6],"categories":[],"categories_nodes":[],"categories_segments":[],"categories_sizes":[],"default_left":[0,0,0],"id":23,"left_children":[1,-1,-1],"loss_changes":[1.6495802E-6,0E0,0E0],"parents":[2147483647,0,0],"right_children":[2,-1,-1],"split_conditions":[4.7221245E1,-1.2585006E-5,7.953307E-6],"split_indices":[44,0,0],"split_type":[0,0,0],"sum_hessian":[1.73E2,5.8E1,1.15E2],"tree_param":{"num_deleted":"0","num_feature":"153","num_nodes":"3","size_leaf_vector":"1"}},{"base_weights":[-5.51718E-7,-1.8335408E-6,3.0893967E-5],"categories":[],"categories_nodes":[],"categories_segments":[],"categories_sizes":[],"default_left":[0,0,0],"id":24,"left_children":[1,-1,-1],"loss_changes":[1.012878E-6,0E0,0E0],"parents":[2147483647,0,0],"right_children":[2,-1,-1],"split_conditions":[5.2E-1,-1.8335408E-6,3.0893967E-5],"split_indices":[36,0,0],"split_type":[0,0,0],"sum_hessian":[1.82E2,1.73E2,9E0],"tree_param":{"num_deleted":"0","num_feature":"153","num_nodes":"3","size_leaf_vector":"1"}},{"base_weights":[-8.948178E-6],"categories":[],"categories_nodes":[],"categories_segments":[],"categories_sizes":[],"default_left":[0],"id":25,"left_children":[-1],"loss_changes":[0E0],"parents":[2147483647],"right_children":[-1],"split_conditions":[-8.9481784E-7],"split_indices":[0],"split_type":[0],"sum_hessian":[1.72E2],"tree_param":{"num_deleted":"0","num_feature":"153","num_nodes":"1","size_leaf_vector":"1"}},{"base_weights":[1.1034353E-5,-6.127742E-6,1.0195739E-5],"categories":[],"categories_nodes":[],"categories_segments":[],"categories_sizes":[],"default_left":[0,0,0],"id":26,"left_children":[1,-1,-1],"loss_changes":[1.2028623E-6,0E0,0E0],"parents":[2147483647,0,0],"right_children":[2,-1,-1],"split_conditions":[4.2397935E-2,-6.127742E-6,1.0195739E-5],"split_indices":[9,0,0],"split_type":[0,0,0],"sum_hessian":[1.81E2,1.01E2,8E1],"tree_param":{"num_deleted":"0","num_feature":"153","num_nodes":"3","size_leaf_vector":"1"}},{"base_weights":[-1.3128171E-5],"categories":[],"categories_nodes":[],"categories_segments":[],"categories_sizes":[],"default_left":[0],"id":27,"left_children":[-1],"loss_changes":[0E0],"parents":[2147483647],"right_children":[-1],"split_conditions":[-1.3128172E-6],"split_indices":[0],"split_type":[0],"sum_hessian":[1.81E2],"tree_param":{"num_deleted":"0","num_feature":"153","num_nodes":"1","size_leaf_vector":"1"}},{"base_weights":[4.0940254E-6,-6.6982066E-6,9.678973E-5,5.483143E-6,4.3102584E-5],"categories":[],"categories_nodes":[],"categories_segments":[],"categories_sizes":[],"default_left":[0,0,0,0,0],"id":28,"left_children":[1,-1,3,-1,-1],"loss_changes":[1.2451115E-6,0E0,1.1263326E-6,0E0,0E0],"parents":[2147483647,0,0,2,2],"right_children":[2,-1,4,-1,-1],"split_conditions":[4.6520174E-2,-6.6982066E-6,1.9616795E-1,5.483143E-6,4.3102584E-5],"split_indices":[11,0,16,0,0],"split_type":[0,0,0,0,0],"sum_hessian":[1.87E2,1.06E2,8.1E1,7.3E1,8E0],"tree_param":{"num_deleted":"0","num_feature":"153","num_nodes":"5","size_leaf_vector":"1"}},{"base_weights":[8.341766E-6],"categories":[],"categories_nodes":[],"categories_segments":[],"categories_sizes":[],"default_left":[0],"id":29,"left_children":[-1],"loss_changes":[0E0],"parents":[2147483647],"right_children":[-1],"split_conditions":[8.3417666E-7],"split_indices":[0],"split_type":[0],"sum_hessian":[1.73E2],"tree_param":{"num_deleted":"0","num_feature":"153","num_nodes":"1","size_leaf_vector":"1"}},{"base_weights":[-3.7075872E-6,1.3943607E-6,-3.122327E-5],"categories":[],"categories_nodes":[],"categories_segments":[],"categories_sizes":[],"default_left":[0,0,0],"id":30,"left_children":[1,-1,-1],"loss_changes":[1.0063876E-6,0E0,0E0],"parents":[2147483647,0,0],"right_children":[2,-1,-1],"split_conditions":[2.8E-1,1.3943607E-6,-3.122327E-5],"split_indices":[149,0,0],"split_type":[0,0,0],"sum_hessian":[1.83E2,1.74E2,9E0],"tree_param":{"num_deleted":"0","num_feature":"153","num_nodes":"3","size_leaf_vector":"1"}},{"base_weights":[1.2428015E-5],"categories":[],"categories_nodes":[],"categories_segments":[],"categories_sizes":[],"default_left":[0],"id":31,"left_children":[-1],"loss_changes":[0E0],"parents":[2147483647],"right_children":[-1],"split_conditions":[1.2428015E-6],"split_indices":[0],"split_type":[0],"sum_hessian":[1.74E2],"tree_param":{"num_deleted":"0","num_feature":"153","num_nodes":"1","size_leaf_vector":"1"}},{"base_weights":[-1.6692722E-5],"categories":[],"categories_nodes":[],"categories_segments":[],"categories_sizes":[],"default_left":[0],"id":32,"left_children":[-1],"loss_changes":[0E0],"parents":[2147483647],"right_children":[-1],"split_conditions":[-1.6692723E-6],"split_indices":[0],"split_type":[0],"sum_hessian":[1.69E2],"tree_param":{"num_deleted":"0","num_feature":"153","num_nodes":"1","size_leaf_vector":"1"}},{"base_weights":[2.919805E-6],"categories":[],"categories_nodes":[],"categories_segments":[],"categories_sizes":[],"default_left":[0],"id":33,"left_children":[-1],"loss_changes":[0E0],"parents":[2147483647],"right_children":[-1],"split_conditions":[2.919805E-7],"split_indices":[0],"split_type":[0],"sum_hessian":[1.77E2],"tree_param":{"num_deleted":"0","num_feature":"153","num_nodes":"1","size_leaf_vector":"1"}},{"base_weights":[9.059113E-6],"categories":[],"categories_nodes":[],"categories_segments":[],"categories_sizes":[],"default_left":[0],"id":34,"left_children":[-1],"loss_changes":[0E0],"parents":[2147483647],"right_children":[-1],"split_conditions":[9.059113E-7],"split_indices":[0],"split_type":[0],"sum_hessian":[1.75E2],"tree_param":{"num_deleted":"0","num_feature":"153","num_nodes":"1","size_leaf_vector":"1"}},{"base_weights":[-1.4376505E-5],"categories":[],"categories_nodes":[],"categories_segments":[],"categories_sizes":[],"default_left":[0],"id":35,"left_children":[-1],"loss_changes":[0E0],"parents":[2147483647],"right_children":[-1],"split_conditions":[-1.4376504E-6],"split_indices":[0],"split_type":[0],"sum_hessian":[1.77E2],"tree_param":{"num_deleted":"0","num_feature":"153","num_nodes":"1","size_leaf_vector":"1"}},{"base_weights":[6.013911E-6,5.1998293E-5,-1.1492572E-4,3.0259152E-5,4.420857E-5,-2.3529381E-5,1.0018334E-5,-1.0822511E-4,9.215928E-6,-1.55372E-5,5.2504383E-5],"categories":[],"categories_nodes":[],"categories_segments":[],"categories_sizes":[],"default_left":[0,0,0,0,0,0,0,0,0,0,0],"id":36,"left_children":[1,3,5,7,-1,-1,-1,9,-1,-1,-1],"loss_changes":[1.0292614E-6,1.122965E-6,1.344078E-6,1.1072146E-6,0E0,0E0,0E0,1.2758435E-6,0E0,0E0,0E0],"parents":[2147483647,0,0,1,1,2,2,3,3,7,7],"right_children":[2,4,6,8,-1,-1,-1,10,-1,-1,-1],"split_conditions":[6.401174E1,7.581387E-1,3.2967035E-2,-2.2222222E-1,4.420857E-5,-2.3529381E-5,1.0018334E-5,3.230805E1,9.215928E-6,-1.55372E-5,5.2504383E-5],"split_indices":[52,38,143,20,0,0,0,7,0,0,0],"split_type":[0,0,0,0,0,0,0,0,0,0,0],"sum_hessian":[1.83E2,1.33E2,5E1,1.27E2,6E0,3.2E1,1.8E1,3.9E1,8.8E1,3.7E1,2E0],"tree_param":{"num_deleted":"0","num_feature":"153","num_nodes":"11","size_leaf_vector":"1"}},{"base_weights":[4.9304235E-6],"categories":[],"categories_nodes":[],"categories_segments":[],"categories_sizes":[],"default_left":[0],"id":37,"left_children":[-1],"loss_changes":[0E0],"parents":[2147483647],"right_children":[-1],"split_conditions":[4.9304236E-7],"split_indices":[0],"split_type":[0],"sum_hessian":[1.82E2],"tree_param":{"num_deleted":"0","num_feature":"153","num_nodes":"1","size_leaf_vector":"1"}},{"base_weights":[-6.8190934E-6,-2.9847122E-6,3.9820843E-5],"categories":[],"categories_nodes":[],"categories_segments":[],"categories_sizes":[],"default_left":[0,0,0],"id":38,"left_children":[1,-1,-1],"loss_changes":[1.560165E-6,0E0,0E0],"parents":[2147483647,0,0],"right_children":[2,-1,-1],"split_conditions":[1.831541E-1,-2.9847122E-6,3.9820843E-5],"split_indices":[30,0,0],"split_type":[0,0,0],"sum_hessian":[1.65E2,1.57E2,8E0],"tree_param":{"num_deleted":"0","num_feature":"153","num_nodes":"3","size_leaf_vector":"1"}},{"base_weights":[-6.9967905E-6],"categories":[],"categories_nodes":[],"categories_segments":[],"categories_sizes":[],"default_left":[0],"id":39,"left_children":[-1],"loss_changes":[0E0],"parents":[2147483647],"right_children":[-1],"split_conditions":[-6.9967905E-7],"split_indices":[0],"split_type":[0],"sum_hessian":[1.76E2],"tree_param":{"num_deleted":"0","num_feature":"153","num_nodes":"1","size_leaf_vector":"1"}},{"base_weights":[1.080442E-5],"categories":[],"categories_nodes":[],"categories_segments":[],"categories_sizes":[],"default_left":[0],"id":40,"left_children":[-1],"loss_changes":[0E0],"parents":[2147483647],"right_children":[-1],"split_conditions":[1.080442E-6],"split_indices":[0],"split_type":[0],"sum_hessian":[1.92E2],"tree_param":{"num_deleted":"0","num_feature":"153","num_nodes":"1","size_leaf_vector":"1"}},{"base_weights":[2.7669827E-5],"categories":[],"categories_nodes":[],"categories_segments":[],"categories_sizes":[],"default_left":[0],"id":41,"left_children":[-1],"loss_changes":[0E0],"parents":[2147483647],"right_children":[-1],"split_conditions":[2.7669828E-6],"split_indices":[0],"split_type":[0],"sum_hessian":[1.77E2],"tree_param":{"num_deleted":"0","num_feature":"153","num_nodes":"1","size_leaf_vector":"1"}},{"base_weights":[2.513641E-5,7.247813E-5,-9.417489E-5,-1.4109122E-5,1.0870849E-4,-2.1248989E-4,9.983787E-6,5.794746E-5,7.5977034E-5,-5.92364E-5,-1.2020343E-5,-3.3066284E-5,9.985443E-6],"categories":[],"categories_nodes":[],"categories_segments":[],"categories_sizes":[],"default_left":[0,0,0,0,0,0,0,0,0,0,0,0,0],"id":42,"left_children":[1,3,5,-1,7,9,-1,-1,11,-1,-1,-1,-1],"loss_changes":[1.0122412E-6,1.0057627E-6,1.1919003E-6,0E0,1.6509481E-6,1.0506274E-6,0E0,0E0,1.0428062E-6,0E0,0E0,0E0,0E0],"parents":[2147483647,0,0,1,1,2,2,4,4,5,5,8,8],"right_children":[2,4,6,-1,8,10,-1,-1,12,-1,-1,-1,-1],"split_conditions":[6.401174E1,-1.3690063E2,8.361795E1,-1.4109122E-5,-1.20386696E2,4.2847076E1,9.983787E-6,5.794746E-5,1.930794E1,-5.92364E-5,-1.2020343E-5,-3.3066284E-5,9.985443E-6],"split_indices":[52,21,46,0,21,33,0,0,37,0,0,0,0],"split_type":[0,0,0,0,0,0,0,0,0,0,0,0,0],"sum_hessian":[1.77E2,1.27E2,5E1,1.8E1,1.09E2,3.1E1,1.9E1,6E0,1.03E2,5E0,2.6E1,5E0,9.8E1],"tree_param":{"num_deleted":"0","num_feature":"153","num_nodes":"13","size_leaf_vector":"1"}},{"base_weights":[-1.685687E-5],"categories":[],"categories_nodes":[],"categories_segments":[],"categories_sizes":[],"default_left":[0],"id":43,"left_children":[-1],"loss_changes":[0E0],"parents":[2147483647],"right_children":[-1],"split_conditions":[-1.6856869E-6],"split_indices":[0],"split_type":[0],"sum_hessian":[1.77E2],"tree_param":{"num_deleted":"0","num_feature":"153","num_nodes":"1","size_leaf_vector":"1"}},{"base_weights":[3.4416703E-6],"categories":[],"categories_nodes":[],"categories_segments":[],"categories_sizes":[],"default_left":[0],"id":44,"left_children":[-1],"loss_changes":[0E0],"parents":[2147483647],"right_children":[-1],"split_conditions":[3.4416703E-7],"split_indices":[0],"split_type":[0],"sum_hessian":[1.81E2],"tree_param":{"num_deleted":"0","num_feature":"153","num_nodes":"1","size_leaf_vector":"1"}},{"base_weights":[1.8592442E-5],"categories":[],"categories_nodes":[],"categories_segments":[],"categories_sizes":[],"default_left":[0],"id":45,"left_children":[-1],"loss_changes":[0E0],"parents":[2147483647],"right_children":[-1],"split_conditions":[1.8592442E-6],"split_indices":[0],"split_type":[0],"sum_hessian":[1.72E2],"tree_param":{"num_deleted":"0","num_feature":"153","num_nodes":"1","size_leaf_vector":"1"}},{"base_weights":[6.861395E-7],"categories":[],"categories_nodes":[],"categories_segments":[],"categories_sizes":[],"default_left":[0],"id":46,"left_children":[-1],"loss_changes":[0E0],"parents":[2147483647],"right_children":[-1],"split_conditions":[6.861395E-8],"split_indices":[0],"split_type":[0],"sum_hessian":[1.76E2],"tree_param":{"num_deleted":"0","num_feature":"153","num_nodes":"1","size_leaf_vector":"1"}},{"base_weights":[-2.2498925E-6],"categories":[],"categories_nodes":[],"categories_segments":[],"categories_sizes":[],"default_left":[0],"id":47,"left_children":[-1],"loss_changes":[0E0],"parents":[2147483647],"right_children":[-1],"split_conditions":[-2.2498925E-7],"split_indices":[0],"split_type":[0],"sum_hessian":[1.7E2],"tree_param":{"num_deleted":"0","num_feature":"153","num_nodes":"1","size_leaf_vector":"1"}},{"base_weights":[9.927956E-6],"categories":[],"categories_nodes":[],"categories_segments":[],"categories_sizes":[],"default_left":[0],"id":48,"left_children":[-1],"loss_changes":[0E0],"parents":[2147483647],"right_children":[-1],"split_conditions":[9.927957E-7],"split_indices":[0],"split_type":[0],"sum_hessian":[1.78E2],"tree_param":{"num_deleted":"0","num_feature":"153","num_nodes":"1","size_leaf_vector":"1"}},{"base_weights":[-1.0484549E-5],"categories":[],"categories_nodes":[],"categories_segments":[],"categories_sizes":[],"default_left":[0],"id":49,"left_children":[-1],"loss_changes":[0E0],"parents":[2147483647],"right_children":[-1],"split_conditions":[-1.0484549E-6],"split_indices":[0],"split_type":[0],"sum_hessian":[1.76E2],"tree_param":{"num_deleted":"0","num_feature":"153","num_nodes":"1","size_leaf_vector":"1"}},{"base_weights":[-5.868694E-6],"categories":[],"categories_nodes":[],"categories_segments":[],"categories_sizes":[],"default_left":[0],"id":50,"left_children":[-1],"loss_changes":[0E0],"parents":[2147483647],"right_children":[-1],"split_conditions":[-5.868694E-7],"split_indices":[0],"split_type":[0],"sum_hessian":[1.81E2],"tree_param":{"num_deleted":"0","num_feature":"153","num_nodes":"1","size_leaf_vector":"1"}},{"base_weights":[5.7253815E-6,-1.1629268E-5,5.509033E-6],"categories":[],"categories_nodes":[],"categories_segments":[],"categories_sizes":[],"default_left":[0,0,0],"id":51,"left_children":[1,-1,-1],"loss_changes":[1.0243638E-6,0E0,0E0],"parents":[2147483647,0,0],"right_children":[2,-1,-1],"split_conditions":[3.8685783E1,-1.1629268E-5,5.509033E-6],"split_indices":[33,0,0],"split_type":[0,0,0],"sum_hessian":[1.68E2,4.8E1,1.2E2],"tree_param":{"num_deleted":"0","num_feature":"153","num_nodes":"3","size_leaf_vector":"1"}},{"base_weights":[-3.4473853E-6],"categories":[],"categories_nodes":[],"categories_segments":[],"categories_sizes":[],"default_left":[0],"id":52,"left_children":[-1],"loss_changes":[0E0],"parents":[2147483647],"right_children":[-1],"split_conditions":[-3.4473854E-7],"split_indices":[0],"split_type":[0],"sum_hessian":[1.8E2],"tree_param":{"num_deleted":"0","num_feature":"153","num_nodes":"1","size_leaf_vector":"1"}},{"base_weights":[-9.4481275E-6],"categories":[],"categories_nodes":[],"categories_segments":[],"categories_sizes":[],"default_left":[0],"id":53,"left_children":[-1],"loss_changes":[0E0],"parents":[2147483647],"right_children":[-1],"split_conditions":[-9.4481277E-7],"split_indices":[0],"split_type":[0],"sum_hessian":[1.81E2],"tree_param":{"num_deleted":"0","num_feature":"153","num_nodes":"1","size_leaf_vector":"1"}},{"base_weights":[3.2202345E-7],"categories":[],"categories_nodes":[],"categories_segments":[],"categories_sizes":[],"default_left":[0],"id":54,"left_children":[-1],"loss_changes":[0E0],"parents":[2147483647],"right_children":[-1],"split_conditions":[3.2202347E-8],"split_indices":[0],"split_type":[0],"sum_hessian":[1.83E2],"tree_param":{"num_deleted":"0","num_feature":"153","num_nodes":"1","size_leaf_vector":"1"}},{"base_weights":[-3.6711906E-5],"categories":[],"categories_nodes":[],"categories_segments":[],"categories_sizes":[],"default_left":[0],"id":55,"left_children":[-1],"loss_changes":[0E0],"parents":[2147483647],"right_children":[-1],"split_conditions":[-3.6711906E-6],"split_indices":[0],"split_type":[0],"sum_hessian":[1.87E2],"tree_param":{"num_deleted":"0","num_feature":"153","num_nodes":"1","size_leaf_vector":"1"}},{"base_weights":[4.965727E-6],"categories":[],"categories_nodes":[],"categories_segments":[],"categories_sizes":[],"default_left":[0],"id":56,"left_children":[-1],"loss_changes":[0E0],"parents":[2147483647],"right_children":[-1],"split_conditions":[4.965727E-7],"split_indices":[0],"split_type":[0],"sum_hessian":[1.85E2],"tree_param":{"num_deleted":"0","num_feature":"153","num_nodes":"1","size_leaf_vector":"1"}},{"base_weights":[-1.1241315E-5],"categories":[],"categories_nodes":[],"categories_segments":[],"categories_sizes":[],"default_left":[0],"id":57,"left_children":[-1],"loss_changes":[0E0],"parents":[2147483647],"right_children":[-1],"split_conditions":[-1.1241316E-6],"split_indices":[0],"split_type":[0],"sum_hessian":[1.86E2],"tree_param":{"num_deleted":"0","num_feature":"153","num_nodes":"1","size_leaf_vector":"1"}},{"base_weights":[-2.5869278E-6],"categories":[],"categories_nodes":[],"categories_segments":[],"categories_sizes":[],"default_left":[0],"id":58,"left_children":[-1],"loss_changes":[0E0],"parents":[2147483647],"right_children":[-1],"split_conditions":[-2.5869278E-7],"split_indices":[0],"split_type":[0],"sum_hessian":[1.76E2],"tree_param":{"num_deleted":"0","num_feature":"153","num_nodes":"1","size_leaf_vector":"1"}},{"base_weights":[4.662521E-6],"categories":[],"categories_nodes":[],"categories_segments":[],"categories_sizes":[],"default_left":[0],"id":59,"left_children":[-1],"loss_changes":[0E0],"parents":[2147483647],"right_children":[-1],"split_conditions":[4.662521E-7],"split_indices":[0],"split_type":[0],"sum_hessian":[1.79E2],"tree_param":{"num_deleted":"0","num_feature":"153","num_nodes":"1","size_leaf_vector":"1"}},{"base_weights":[1.1386792E-5],"categories":[],"categories_nodes":[],"categories_segments":[],"categories_sizes":[],"default_left":[0],"id":60,"left_children":[-1],"loss_changes":[0E0],"parents":[2147483647],"right_children":[-1],"split_conditions":[1.1386792E-6],"split_indices":[0],"split_type":[0],"sum_hessian":[1.84E2],"tree_param":{"num_deleted":"0","num_feature":"153","num_nodes":"1","size_leaf_vector":"1"}},{"base_weights":[1.542906E-5],"categories":[],"categories_nodes":[],"categories_segments":[],"categories_sizes":[],"default_left":[0],"id":61,"left_children":[-1],"loss_changes":[0E0],"parents":[2147483647],"right_children":[-1],"split_conditions":[1.5429059E-6],"split_indices":[0],"split_type":[0],"sum_hessian":[1.82E2],"tree_param":{"num_deleted":"0","num_feature":"153","num_nodes":"1","size_leaf_vector":"1"}},{"base_weights":[2.9933717E-6],"categories":[],"categories_nodes":[],"categories_segments":[],"categories_sizes":[],"default_left":[0],"id":62,"left_children":[-1],"loss_changes":[0E0],"parents":[2147483647],"right_children":[-1],"split_conditions":[2.993372E-7],"split_indices":[0],"split_type":[0],"sum_hessian":[1.75E2],"tree_param":{"num_deleted":"0","num_feature":"153","num_nodes":"1","size_leaf_vector":"1"}},{"base_weights":[-1.752084E-5],"categories":[],"categories_nodes":[],"categories_segments":[],"categories_sizes":[],"default_left":[0],"id":63,"left_children":[-1],"loss_changes":[0E0],"parents":[2147483647],"right_children":[-1],"split_conditions":[-1.7520841E-6],"split_indices":[0],"split_type":[0],"sum_hessian":[1.85E2],"tree_param":{"num_deleted":"0","num_feature":"153","num_nodes":"1","size_leaf_vector":"1"}},{"base_weights":[-1.8316177E-5],"categories":[],"categories_nodes":[],"categories_segments":[],"categories_sizes":[],"default_left":[0],"id":64,"left_children":[-1],"loss_changes":[0E0],"parents":[2147483647],"right_children":[-1],"split_conditions":[-1.8316177E-6],"split_indices":[0],"split_type":[0],"sum_hessian":[1.73E2],"tree_param":{"num_deleted":"0","num_feature":"153","num_nodes":"1","size_leaf_vector":"1"}},{"base_weights":[3.647462E-5],"categories":[],"categories_nodes":[],"categories_segments":[],"categories_sizes":[],"default_left":[0],"id":65,"left_children":[-1],"loss_changes":[0E0],"parents":[2147483647],"right_children":[-1],"split_conditions":[3.6474619E-6],"split_indices":[0],"split_type":[0],"sum_hessian":[1.57E2],"tree_param":{"num_deleted":"0","num_feature":"153","num_nodes":"1","size_leaf_vector":"1"}},{"base_weights":[7.7297324E-7],"categories":[],"categories_nodes":[],"categories_segments":[],"categories_sizes":[],"default_left":[0],"id":66,"left_children":[-1],"loss_changes":[0E0],"parents":[2147483647],"right_children":[-1],"split_conditions":[7.729732E-8],"split_indices":[0],"split_type":[0],"sum_hessian":[1.83E2],"tree_param":{"num_deleted":"0","num_feature":"153","num_nodes":"1","size_leaf_vector":"1"}},{"base_weights":[8.255907E-6],"categories":[],"categories_nodes":[],"categories_segments":[],"categories_sizes":[],"default_left":[0],"id":67,"left_children":[-1],"loss_changes":[0E0],"parents":[2147483647],"right_children":[-1],"split_conditions":[8.2559075E-7],"split_indices":[0],"split_type":[0],"sum_hessian":[1.78E2],"tree_param":{"num_deleted":"0","num_feature":"153","num_nodes":"1","size_leaf_vector":"1"}},{"base_weights":[-1.25445495E-5],"categories":[],"categories_nodes":[],"categories_segments":[],"categories_sizes":[],"default_left":[0],"id":68,"left_children":[-1],"loss_changes":[0E0],"parents":[2147483647],"right_children":[-1],"split_conditions":[-1.254455E-6],"split_indices":[0],"split_type":[0],"sum_hessian":[1.82E2],"tree_param":{"num_deleted":"0","num_feature":"153","num_nodes":"1","size_leaf_vector":"1"}},{"base_weights":[-4.5428287E-6],"categories":[],"categories_nodes":[],"categories_segments":[],"categories_sizes":[],"default_left":[0],"id":69,"left_children":[-1],"loss_changes":[0E0],"parents":[2147483647],"right_children":[-1],"split_conditions":[-4.5428288E-7],"split_indices":[0],"split_type":[0],"sum_hessian":[1.86E2],"tree_param":{"num_deleted":"0","num_feature":"153","num_nodes":"1","size_leaf_vector":"1"}},{"base_weights":[-2.7332837E-5],"categories":[],"categories_nodes":[],"categories_segments":[],"categories_sizes":[],"default_left":[0],"id":70,"left_children":[-1],"loss_changes":[0E0],"parents":[2147483647],"right_children":[-1],"split_conditions":[-2.7332837E-6],"split_indices":[0],"split_type":[0],"sum_hessian":[1.7E2],"tree_param":{"num_deleted":"0","num_feature":"153","num_nodes":"1","size_leaf_vector":"1"}},{"base_weights":[8.385841E-6],"categories":[],"categories_nodes":[],"categories_segments":[],"categories_sizes":[],"default_left":[0],"id":71,"left_children":[-1],"loss_changes":[0E0],"parents":[2147483647],"right_children":[-1],"split_conditions":[8.385841E-7],"split_indices":[0],"split_type":[0],"sum_hessian":[1.64E2],"tree_param":{"num_deleted":"0","num_feature":"153","num_nodes":"1","size_leaf_vector":"1"}},{"base_weights":[4.526755E-6],"categories":[],"categories_nodes":[],"categories_segments":[],"categories_sizes":[],"default_left":[0],"id":72,"left_children":[-1],"loss_changes":[0E0],"parents":[2147483647],"right_children":[-1],"split_conditions":[4.5267552E-7],"split_indices":[0],"split_type":[0],"sum_hessian":[1.74E2],"tree_param":{"num_deleted":"0","num_feature":"153","num_nodes":"1","size_leaf_vector":"1"}},{"base_weights":[1.8992723E-5],"categories":[],"categories_nodes":[],"categories_segments":[],"categories_sizes":[],"default_left":[0],"id":73,"left_children":[-1],"loss_changes":[0E0],"parents":[2147483647],"right_children":[-1],"split_conditions":[1.8992723E-6],"split_indices":[0],"split_type":[0],"sum_hessian":[1.81E2],"tree_param":{"num_deleted":"0","num_feature":"153","num_nodes":"1","size_leaf_vector":"1"}},{"base_weights":[2.5540161E-5],"categories":[],"categories_nodes":[],"categories_segments":[],"categories_sizes":[],"default_left":[0],"id":74,"left_children":[-1],"loss_changes":[0E0],"parents":[2147483647],"right_children":[-1],"split_conditions":[2.5540162E-6],"split_indices":[0],"split_type":[0],"sum_hessian":[1.75E2],"tree_param":{"num_deleted":"0","num_feature":"153","num_nodes":"1","size_leaf_vector":"1"}},{"base_weights":[-1.3830534E-5],"categories":[],"categories_nodes":[],"categories_segments":[],"categories_sizes":[],"default_left":[0],"id":75,"left_children":[-1],"loss_changes":[0E0],"parents":[2147483647],"right_children":[-1],"split_conditions":[-1.3830535E-6],"split_indices":[0],"split_type":[0],"sum_hessian":[1.81E2],"tree_param":{"num_deleted":"0","num_feature":"153","num_nodes":"1","size_leaf_vector":"1"}},{"base_weights":[1.6489956E-5],"categories":[],"categories_nodes":[],"categories_segments":[],"categories_sizes":[],"default_left":[0],"id":76,"left_children":[-1],"loss_changes":[0E0],"parents":[2147483647],"right_children":[-1],"split_conditions":[1.6489956E-6],"split_indices":[0],"split_type":[0],"sum_hessian":[1.82E2],"tree_param":{"num_deleted":"0","num_feature":"153","num_nodes":"1","size_leaf_vector":"1"}},{"base_weights":[9.8047985E-6],"categories":[],"categories_nodes":[],"categories_segments":[],"categories_sizes":[],"default_left":[0],"id":77,"left_children":[-1],"loss_changes":[0E0],"parents":[2147483647],"right_children":[-1],"split_conditions":[9.804799E-7],"split_indices":[0],"split_type":[0],"sum_hessian":[1.79E2],"tree_param":{"num_deleted":"0","num_feature":"153","num_nodes":"1","size_leaf_vector":"1"}},{"base_weights":[-1.533071E-5],"categories":[],"categories_nodes":[],"categories_segments":[],"categories_sizes":[],"default_left":[0],"id":78,"left_children":[-1],"loss_changes":[0E0],"parents":[2147483647],"right_children":[-1],"split_conditions":[-1.533071E-6],"split_indices":[0],"split_type":[0],"sum_hessian":[1.7E2],"tree_param":{"num_deleted":"0","num_feature":"153","num_nodes":"1","size_leaf_vector":"1"}},{"base_weights":[3.5778123E-6],"categories":[],"categories_nodes":[],"categories_segments":[],"categories_sizes":[],"default_left":[0],"id":79,"left_children":[-1],"loss_changes":[0E0],"parents":[2147483647],"right_children":[-1],"split_conditions":[3.5778123E-7],"split_indices":[0],"split_type":[0],"sum_hessian":[1.81E2],"tree_param":{"num_deleted":"0","num_feature":"153","num_nodes":"1","size_leaf_vector":"1"}},{"base_weights":[-1.508526E-5],"categories":[],"categories_nodes":[],"categories_segments":[],"categories_sizes":[],"default_left":[0],"id":80,"left_children":[-1],"loss_changes":[0E0],"parents":[2147483647],"right_children":[-1],"split_conditions":[-1.508526E-6],"split_indices":[0],"split_type":[0],"sum_hessian":[1.83E2],"tree_param":{"num_deleted":"0","num_feature":"153","num_nodes":"1","size_leaf_vector":"1"}},{"base_weights":[-2.6316573E-5,-4.10612E-6,3.755478E-5],"categories":[],"categories_nodes":[],"categories_segments":[],"categories_sizes":[],"default_left":[0,0,0],"id":81,"left_children":[1,-1,-1],"loss_changes":[1.1708613E-6,0E0,0E0],"parents":[2147483647,0,0],"right_children":[2,-1,-1],"split_conditions":[2.6522186E-1,-4.10612E-6,3.755478E-5],"split_indices":[9,0,0],"split_type":[0,0,0],"sum_hessian":[1.94E2,1.88E2,6E0],"tree_param":{"num_deleted":"0","num_feature":"153","num_nodes":"3","size_leaf_vector":"1"}},{"base_weights":[-7.889591E-6],"categories":[],"categories_nodes":[],"categories_segments":[],"categories_sizes":[],"default_left":[0],"id":82,"left_children":[-1],"loss_changes":[0E0],"parents":[2147483647],"right_children":[-1],"split_conditions":[-7.889591E-7],"split_indices":[0],"split_type":[0],"sum_hessian":[1.76E2],"tree_param":{"num_deleted":"0","num_feature":"153","num_nodes":"1","size_leaf_vector":"1"}},{"base_weights":[-1.878332E-7],"categories":[],"categories_nodes":[],"categories_segments":[],"categories_sizes":[],"default_left":[0],"id":83,"left_children":[-1],"loss_changes":[0E0],"parents":[2147483647],"right_children":[-1],"split_conditions":[-1.878332E-8],"split_indices":[0],"split_type":[0],"sum_hessian":[1.73E2],"tree_param":{"num_deleted":"0","num_feature":"153","num_nodes":"1","size_leaf_vector":"1"}},{"base_weights":[6.9122625E-6],"categories":[],"categories_nodes":[],"categories_segments":[],"categories_sizes":[],"default_left":[0],"id":84,"left_children":[-1],"loss_changes":[0E0],"parents":[2147483647],"right_children":[-1],"split_conditions":[6.9122626E-7],"split_indices":[0],"split_type":[0],"sum_hessian":[1.75E2],"tree_param":{"num_deleted":"0","num_feature":"153","num_nodes":"1","size_leaf_vector":"1"}},{"base_weights":[5.831546E-8],"categories":[],"categories_nodes":[],"categories_segments":[],"categories_sizes":[],"default_left":[0],"id":85,"left_children":[-1],"loss_changes":[0E0],"parents":[2147483647],"right_children":[-1],"split_conditions":[5.8315464E-9],"split_indices":[0],"split_type":[0],"sum_hessian":[1.73E2],"tree_param":{"num_deleted":"0","num_feature":"153","num_nodes":"1","size_leaf_vector":"1"}},{"base_weights":[-1.4631029E-5],"categories":[],"categories_nodes":[],"categories_segments":[],"categories_sizes":[],"default_left":[0],"id":86,"left_children":[-1],"loss_changes":[0E0],"parents":[2147483647],"right_children":[-1],"split_conditions":[-1.463103E-6],"split_indices":[0],"split_type":[0],"sum_hessian":[1.72E2],"tree_param":{"num_deleted":"0","num_feature":"153","num_nodes":"1","size_leaf_vector":"1"}},{"base_weights":[1.3051584E-5],"categories":[],"categories_nodes":[],"categories_segments":[],"categories_sizes":[],"default_left":[0],"id":87,"left_children":[-1],"loss_changes":[0E0],"parents":[2147483647],"right_children":[-1],"split_conditions":[1.3051584E-6],"split_indices":[0],"split_type":[0],"sum_hessian":[1.77E2],"tree_param":{"num_deleted":"0","num_feature":"153","num_nodes":"1","size_leaf_vector":"1"}},{"base_weights":[-9.134014E-7],"categories":[],"categories_nodes":[],"categories_segments":[],"categories_sizes":[],"default_left":[0],"id":88,"left_children":[-1],"loss_changes":[0E0],"parents":[2147483647],"right_children":[-1],"split_conditions":[-9.134014E-8],"split_indices":[0],"split_type":[0],"sum_hessian":[1.78E2],"tree_param":{"num_deleted":"0","num_feature":"153","num_nodes":"1","size_leaf_vector":"1"}},{"base_weights":[1.6931903E-5],"categories":[],"categories_nodes":[],"categories_segments":[],"categories_sizes":[],"default_left":[0],"id":89,"left_children":[-1],"loss_changes":[0E0],"parents":[2147483647],"right_children":[-1],"split_conditions":[1.6931903E-6],"split_indices":[0],"split_type":[0],"sum_hessian":[1.82E2],"tree_param":{"num_deleted":"0","num_feature":"153","num_nodes":"1","size_leaf_vector":"1"}},{"base_weights":[-9.743892E-6],"categories":[],"categories_nodes":[],"categories_segments":[],"categories_sizes":[],"default_left":[0],"id":90,"left_children":[-1],"loss_changes":[0E0],"parents":[2147483647],"right_children":[-1],"split_conditions":[-9.743893E-7],"split_indices":[0],"split_type":[0],"sum_hessian":[1.77E2],"tree_param":{"num_deleted":"0","num_feature":"153","num_nodes":"1","size_leaf_vector":"1"}},{"base_weights":[-1.0969263E-5],"categories":[],"categories_nodes":[],"categories_segments":[],"categories_sizes":[],"default_left":[0],"id":91,"left_children":[-1],"loss_changes":[0E0],"parents":[2147483647],"right_children":[-1],"split_conditions":[-1.0969263E-6],"split_indices":[0],"split_type":[0],"sum_hessian":[1.92E2],"tree_param":{"num_deleted":"0","num_feature":"153","num_nodes":"1","size_leaf_vector":"1"}},{"base_weights":[7.761927E-6],"categories":[],"categories_nodes":[],"categories_segments":[],"categories_sizes":[],"default_left":[0],"id":92,"left_children":[-1],"loss_changes":[0E0],"parents":[2147483647],"right_children":[-1],"split_conditions":[7.7619273E-7],"split_indices":[0],"split_type":[0],"sum_hessian":[1.8E2],"tree_param":{"num_deleted":"0","num_feature":"153","num_nodes":"1","size_leaf_vector":"1"}},{"base_weights":[-2.3397956E-6],"categories":[],"categories_nodes":[],"categories_segments":[],"categories_sizes":[],"default_left":[0],"id":93,"left_children":[-1],"loss_changes":[0E0],"parents":[2147483647],"right_children":[-1],"split_conditions":[-2.3397956E-7],"split_indices":[0],"split_type":[0],"sum_hessian":[1.84E2],"tree_param":{"num_deleted":"0","num_feature":"153","num_nodes":"1","size_leaf_vector":"1"}},{"base_weights":[6.55222E-6],"categories":[],"categories_nodes":[],"categories_segments":[],"categories_sizes":[],"default_left":[0],"id":94,"left_children":[-1],"loss_changes":[0E0],"parents":[2147483647],"right_children":[-1],"split_conditions":[6.55222E-7],"split_indices":[0],"split_type":[0],"sum_hessian":[1.92E2],"tree_param":{"num_deleted":"0","num_feature":"153","num_nodes":"1","size_leaf_vector":"1"}},{"base_weights":[-7.3628853E-6],"categories":[],"categories_nodes":[],"categories_segments":[],"categories_sizes":[],"default_left":[0],"id":95,"left_children":[-1],"loss_changes":[0E0],"parents":[2147483647],"right_children":[-1],"split_conditions":[-7.3628854E-7],"split_indices":[0],"split_type":[0],"sum_hessian":[1.8E2],"tree_param":{"num_deleted":"0","num_feature":"153","num_nodes":"1","size_leaf_vector":"1"}},{"base_weights":[-7.316314E-6],"categories":[],"categories_nodes":[],"categories_segments":[],"categories_sizes":[],"default_left":[0],"id":96,"left_children":[-1],"loss_changes":[0E0],"parents":[2147483647],"right_children":[-1],"split_conditions":[-7.316314E-7],"split_indices":[0],"split_type":[0],"sum_hessian":[1.78E2],"tree_param":{"num_deleted":"0","num_feature":"153","num_nodes":"1","size_leaf_vector":"1"}},{"base_weights":[-5.7324623E-6],"categories":[],"categories_nodes":[],"categories_segments":[],"categories_sizes":[],"default_left":[0],"id":97,"left_children":[-1],"loss_changes":[0E0],"parents":[2147483647],"right_children":[-1],"split_conditions":[-5.7324627E-7],"split_indices":[0],"split_type":[0],"sum_hessian":[1.79E2],"tree_param":{"num_deleted":"0","num_feature":"153","num_nodes":"1","size_leaf_vector":"1"}},{"base_weights":[1.4874574E-5],"categories":[],"categories_nodes":[],"categories_segments":[],"categories_sizes":[],"default_left":[0],"id":98,"left_children":[-1],"loss_changes":[0E0],"parents":[2147483647],"right_children":[-1],"split_conditions":[1.4874574E-6],"split_indices":[0],"split_type":[0],"sum_hessian":[1.78E2],"tree_param":{"num_deleted":"0","num_feature":"153","num_nodes":"1","size_leaf_vector":"1"}},{"base_weights":[7.4031436E-6],"categories":[],"categories_nodes":[],"categories_segments":[],"categories_sizes":[],"default_left":[0],"id":99,"left_children":[-1],"loss_changes":[0E0],"parents":[2147483647],"right_children":[-1],"split_conditions":[7.4031436E-7],"split_indices":[0],"split_type":[0],"sum_hessian":[1.86E2],"tree_param":{"num_deleted":"0","num_feature":"153","num_nodes":"1","size_leaf_vector":"1"}},{"base_weights":[-6.7396245E-6],"categories":[],"categories_nodes":[],"categories_segments":[],"categories_sizes":[],"default_left":[0],"id":100,"left_children":[-1],"loss_changes":[0E0],"parents":[2147483647],"right_children":[-1],"split_conditions":[-6.7396246E-7],"split_indices":[0],"split_type":[0],"sum_hessian":[1.81E2],"tree_param":{"num_deleted":"0","num_feature":"153","num_nodes":"1","size_leaf_vector":"1"}},{"base_weights":[-9.528709E-6],"categories":[],"categories_nodes":[],"categories_segments":[],"categories_sizes":[],"default_left":[0],"id":101,"left_children":[-1],"loss_changes":[0E0],"parents":[2147483647],"right_children":[-1],"split_conditions":[-9.528709E-7],"split_indices":[0],"split_type":[0],"sum_hessian":[1.72E2],"tree_param":{"num_deleted":"0","num_feature":"153","num_nodes":"1","size_leaf_vector":"1"}},{"base_weights":[-2.3239993E-5],"categories":[],"categories_nodes":[],"categories_segments":[],"categories_sizes":[],"default_left":[0],"id":102,"left_children":[-1],"loss_changes":[0E0],"parents":[2147483647],"right_children":[-1],"split_conditions":[-2.3239993E-6],"split_indices":[0],"split_type":[0],"sum_hessian":[1.78E2],"tree_param":{"num_deleted":"0","num_feature":"153","num_nodes":"1","size_leaf_vector":"1"}},{"base_weights":[1.776223E-5],"categories":[],"categories_nodes":[],"categories_segments":[],"categories_sizes":[],"default_left":[0],"id":103,"left_children":[-1],"loss_changes":[0E0],"parents":[2147483647],"right_children":[-1],"split_conditions":[1.776223E-6],"split_indices":[0],"split_type":[0],"sum_hessian":[1.84E2],"tree_param":{"num_deleted":"0","num_feature":"153","num_nodes":"1","size_leaf_vector":"1"}},{"base_weights":[-4.179758E-6],"categories":[],"categories_nodes":[],"categories_segments":[],"categories_sizes":[],"default_left":[0],"id":104,"left_children":[-1],"loss_changes":[0E0],"parents":[2147483647],"right_children":[-1],"split_conditions":[-4.179758E-7],"split_indices":[0],"split_type":[0],"sum_hessian":[1.85E2],"tree_param":{"num_deleted":"0","num_feature":"153","num_nodes":"1","size_leaf_vector":"1"}},{"base_weights":[1.67886E-6,8.602539E-5,-6.2187944E-5,-7.216267E-6,1.6645577E-5,-2.7979404E-5,-1.7975744E-5,9.528779E-6,-1.2838624E-5],"categories":[],"categories_nodes":[],"categories_segments":[],"categories_sizes":[],"default_left":[0,0,0,0,0,0,0,0,0],"id":105,"left_children":[1,3,5,-1,-1,-1,7,-1,-1],"loss_changes":[1.0127081E-6,1.042585E-6,1.0244007E-6,0E0,0E0,0E0,1.137727E-6,0E0,0E0],"parents":[2147483647,0,0,1,1,2,2,6,6],"right_children":[2,4,6,-1,-1,-1,8,-1,-1],"split_conditions":[5.25E1,-2.2222222E-1,-4.7949815E0,-7.216267E-6,1.6645577E-5,-2.7979404E-5,5.395212E-1,9.528779E-6,-1.2838624E-5],"split_indices":[45,20,22,0,0,0,38,0,0],"split_type":[0,0,0,0,0,0,0,0,0],"sum_hessian":[1.86E2,8E1,1.06E2,2.7E1,5.3E1,1.7E1,8.9E1,4.4E1,4.5E1],"tree_param":{"num_deleted":"0","num_feature":"153","num_nodes":"9","size_leaf_vector":"1"}},{"base_weights":[5.3365584E-6],"categories":[],"categories_nodes":[],"categories_segments":[],"categories_sizes":[],"default_left":[0],"id":106,"left_children":[-1],"loss_changes":[0E0],"parents":[2147483647],"right_children":[-1],"split_conditions":[5.3365585E-7],"split_indices":[0],"split_type":[0],"sum_hessian":[1.83E2],"tree_param":{"num_deleted":"0","num_feature":"153","num_nodes":"1","size_leaf_vector":"1"}},{"base_weights":[-7.5540943E-6],"categories":[],"categories_nodes":[],"categories_segments":[],"categories_sizes":[],"default_left":[0],"id":107,"left_children":[-1],"loss_changes":[0E0],"parents":[2147483647],"right_children":[-1],"split_conditions":[-7.554094E-7],"split_indices":[0],"split_type":[0],"sum_hessian":[1.82E2],"tree_param":{"num_deleted":"0","num_feature":"153","num_nodes":"1","size_leaf_vector":"1"}},{"base_weights":[1.0178057E-5],"categories":[],"categories_nodes":[],"categories_segments":[],"categories_sizes":[],"default_left":[0],"id":108,"left_children":[-1],"loss_changes":[0E0],"parents":[2147483647],"right_children":[-1],"split_conditions":[1.0178057E-6],"split_indices":[0],"split_type":[0],"sum_hessian":[1.89E2],"tree_param":{"num_deleted":"0","num_feature":"153","num_nodes":"1","size_leaf_vector":"1"}},{"base_weights":[1.640052E-5],"categories":[],"categories_nodes":[],"categories_segments":[],"categories_sizes":[],"default_left":[0],"id":109,"left_children":[-1],"loss_changes":[0E0],"parents":[2147483647],"right_children":[-1],"split_conditions":[1.640052E-6],"split_indices":[0],"split_type":[0],"sum_hessian":[1.8E2],"tree_param":{"num_deleted":"0","num_feature":"153","num_nodes":"1","size_leaf_vector":"1"}},{"base_weights":[2.5099587E-5],"categories":[],"categories_nodes":[],"categories_segments":[],"categories_sizes":[],"default_left":[0],"id":110,"left_children":[-1],"loss_changes":[0E0],"parents":[2147483647],"right_children":[-1],"split_conditions":[2.5099587E-6],"split_indices":[0],"split_type":[0],"sum_hessian":[1.72E2],"tree_param":{"num_deleted":"0","num_feature":"153","num_nodes":"1","size_leaf_vector":"1"}},{"base_weights":[-1.2649959E-5],"categories":[],"categories_nodes":[],"categories_segments":[],"categories_sizes":[],"default_left":[0],"id":111,"left_children":[-1],"loss_changes":[0E0],"parents":[2147483647],"right_children":[-1],"split_conditions":[-1.264996E-6],"split_indices":[0],"split_type":[0],"sum_hessian":[1.68E2],"tree_param":{"num_deleted":"0","num_feature":"153","num_nodes":"1","size_leaf_vector":"1"}},{"base_weights":[2.1194588E-5],"categories":[],"categories_nodes":[],"categories_segments":[],"categories_sizes":[],"default_left":[0],"id":112,"left_children":[-1],"loss_changes":[0E0],"parents":[2147483647],"right_children":[-1],"split_conditions":[2.119459E-6],"split_indices":[0],"split_type":[0],"sum_hessian":[1.84E2],"tree_param":{"num_deleted":"0","num_feature":"153","num_nodes":"1","size_leaf_vector":"1"}},{"base_weights":[1.161293E-5],"categories":[],"categories_nodes":[],"categories_segments":[],"categories_sizes":[],"default_left":[0],"id":113,"left_children":[-1],"loss_changes":[0E0],"parents":[2147483647],"right_children":[-1],"split_conditions":[1.1612931E-6],"split_indices":[0],"split_type":[0],"sum_hessian":[1.75E2],"tree_param":{"num_deleted":"0","num_feature":"153","num_nodes":"1","size_leaf_vector":"1"}},{"base_weights":[-2.2845486E-5],"categories":[],"categories_nodes":[],"categories_segments":[],"categories_sizes":[],"default_left":[0],"id":114,"left_children":[-1],"loss_changes":[0E0],"parents":[2147483647],"right_children":[-1],"split_conditions":[-2.2845486E-6],"split_indices":[0],"split_type":[0],"sum_hessian":[1.87E2],"tree_param":{"num_deleted":"0","num_feature":"153","num_nodes":"1","size_leaf_vector":"1"}},{"base_weights":[-1.5318023E-5],"categories":[],"categories_nodes":[],"categories_segments":[],"categories_sizes":[],"default_left":[0],"id":115,"left_children":[-1],"loss_changes":[0E0],"parents":[2147483647],"right_children":[-1],"split_conditions":[-1.5318022E-6],"split_indices":[0],"split_type":[0],"sum_hessian":[1.71E2],"tree_param":{"num_deleted":"0","num_feature":"153","num_nodes":"1","size_leaf_vector":"1"}},{"base_weights":[1.63616E-5],"categories":[],"categories_nodes":[],"categories_segments":[],"categories_sizes":[],"default_left":[0],"id":116,"left_children":[-1],"loss_changes":[0E0],"parents":[2147483647],"right_children":[-1],"split_conditions":[1.63616E-6],"split_indices":[0],"split_type":[0],"sum_hessian":[1.81E2],"tree_param":{"num_deleted":"0","num_feature":"153","num_nodes":"1","size_leaf_vector":"1"}},{"base_weights":[1.16037145E-5],"categories":[],"categories_nodes":[],"categories_segments":[],"categories_sizes":[],"default_left":[0],"id":117,"left_children":[-1],"loss_changes":[0E0],"parents":[2147483647],"right_children":[-1],"split_conditions":[1.1603714E-6],"split_indices":[0],"split_type":[0],"sum_hessian":[1.76E2],"tree_param":{"num_deleted":"0","num_feature":"153","num_nodes":"1","size_leaf_vector":"1"}},{"base_weights":[-6.308944E-6],"categories":[],"categories_nodes":[],"categories_segments":[],"categories_sizes":[],"default_left":[0],"id":118,"left_children":[-1],"loss_changes":[0E0],"parents":[2147483647],"right_children":[-1],"split_conditions":[-6.308944E-7],"split_indices":[0],"split_type":[0],"sum_hessian":[1.76E2],"tree_param":{"num_deleted":"0","num_feature":"153","num_nodes":"1","size_leaf_vector":"1"}},{"base_weights":[5.234199E-7],"categories":[],"categories_nodes":[],"categories_segments":[],"categories_sizes":[],"default_left":[0],"id":119,"left_children":[-1],"loss_changes":[0E0],"parents":[2147483647],"right_children":[-1],"split_conditions":[5.234199E-8],"split_indices":[0],"split_type":[0],"sum_hessian":[1.72E2],"tree_param":{"num_deleted":"0","num_feature":"153","num_nodes":"1","size_leaf_vector":"1"}},{"base_weights":[6.7805604E-7],"categories":[],"categories_nodes":[],"categories_segments":[],"categories_sizes":[],"default_left":[0],"id":120,"left_children":[-1],"loss_changes":[0E0],"parents":[2147483647],"right_children":[-1],"split_conditions":[6.780561E-8],"split_indices":[0],"split_type":[0],"sum_hessian":[1.79E2],"tree_param":{"num_deleted":"0","num_feature":"153","num_nodes":"1","size_leaf_vector":"1"}},{"base_weights":[-2.3854516E-5],"categories":[],"categories_nodes":[],"categories_segments":[],"categories_sizes":[],"default_left":[0],"id":121,"left_children":[-1],"loss_changes":[0E0],"parents":[2147483647],"right_children":[-1],"split_conditions":[-2.3854516E-6],"split_indices":[0],"split_type":[0],"sum_hessian":[1.79E2],"tree_param":{"num_deleted":"0","num_feature":"153","num_nodes":"1","size_leaf_vector":"1"}},{"base_weights":[-5.102407E-6],"categories":[],"categories_nodes":[],"categories_segments":[],"categories_sizes":[],"default_left":[0],"id":122,"left_children":[-1],"loss_changes":[0E0],"parents":[2147483647],"right_children":[-1],"split_conditions":[-5.1024074E-7],"split_indices":[0],"split_type":[0],"sum_hessian":[1.81E2],"tree_param":{"num_deleted":"0","num_feature":"153","num_nodes":"1","size_leaf_vector":"1"}},{"base_weights":[2.6113123E-6],"categories":[],"categories_nodes":[],"categories_segments":[],"categories_sizes":[],"default_left":[0],"id":123,"left_children":[-1],"loss_changes":[0E0],"parents":[2147483647],"right_children":[-1],"split_conditions":[2.6113125E-7],"split_indices":[0],"split_type":[0],"sum_hessian":[1.78E2],"tree_param":{"num_deleted":"0","num_feature":"153","num_nodes":"1","size_leaf_vector":"1"}},{"base_weights":[4.6895994E-7],"categories":[],"categories_nodes":[],"categories_segments":[],"categories_sizes":[],"default_left":[0],"id":124,"left_children":[-1],"loss_changes":[0E0],"parents":[2147483647],"right_children":[-1],"split_conditions":[4.6895995E-8],"split_indices":[0],"split_type":[0],"sum_hessian":[1.81E2],"tree_param":{"num_deleted":"0","num_feature":"153","num_nodes":"1","size_leaf_vector":"1"}},{"base_weights":[1.8158269E-5],"categories":[],"categories_nodes":[],"categories_segments":[],"categories_sizes":[],"default_left":[0],"id":125,"left_children":[-1],"loss_changes":[0E0],"parents":[2147483647],"right_children":[-1],"split_conditions":[1.815827E-6],"split_indices":[0],"split_type":[0],"sum_hessian":[1.82E2],"tree_param":{"num_deleted":"0","num_feature":"153","num_nodes":"1","size_leaf_vector":"1"}},{"base_weights":[2.7097443E-5],"categories":[],"categories_nodes":[],"categories_segments":[],"categories_sizes":[],"default_left":[0],"id":126,"left_children":[-1],"loss_changes":[0E0],"parents":[2147483647],"right_children":[-1],"split_conditions":[2.7097444E-6],"split_indices":[0],"split_type":[0],"sum_hessian":[1.77E2],"tree_param":{"num_deleted":"0","num_feature":"153","num_nodes":"1","size_leaf_vector":"1"}},{"base_weights":[-2.0757316E-6],"categories":[],"categories_nodes":[],"categories_segments":[],"categories_sizes":[],"default_left":[0],"id":127,"left_children":[-1],"loss_changes":[0E0],"parents":[2147483647],"right_children":[-1],"split_conditions":[-2.0757317E-7],"split_indices":[0],"split_type":[0],"sum_hessian":[1.85E2],"tree_param":{"num_deleted":"0","num_feature":"153","num_nodes":"1","size_leaf_vector":"1"}},{"base_weights":[1.4815895E-5],"categories":[],"categories_nodes":[],"categories_segments":[],"categories_sizes":[],"default_left":[0],"id":128,"left_children":[-1],"loss_changes":[0E0],"parents":[2147483647],"right_children":[-1],"split_conditions":[1.4815895E-6],"split_indices":[0],"split_type":[0],"sum_hessian":[1.58E2],"tree_param":{"num_deleted":"0","num_feature":"153","num_nodes":"1","size_leaf_vector":"1"}},{"base_weights":[-2.4009945E-5],"categories":[],"categories_nodes":[],"categories_segments":[],"categories_sizes":[],"default_left":[0],"id":129,"left_children":[-1],"loss_changes":[0E0],"parents":[2147483647],"right_children":[-1],"split_conditions":[-2.4009946E-6],"split_indices":[0],"split_type":[0],"sum_hessian":[1.75E2],"tree_param":{"num_deleted":"0","num_feature":"153","num_nodes":"1","size_leaf_vector":"1"}},{"base_weights":[7.024974E-6],"categories":[],"categories_nodes":[],"categories_segments":[],"categories_sizes":[],"default_left":[0],"id":130,"left_children":[-1],"loss_changes":[0E0],"parents":[2147483647],"right_children":[-1],"split_conditions":[7.024974E-7],"split_indices":[0],"split_type":[0],"sum_hessian":[1.7E2],"tree_param":{"num_deleted":"0","num_feature":"153","num_nodes":"1","size_leaf_vector":"1"}},{"base_weights":[-1.3293297E-5],"categories":[],"categories_nodes":[],"categories_segments":[],"categories_sizes":[],"default_left":[0],"id":131,"left_children":[-1],"loss_changes":[0E0],"parents":[2147483647],"right_children":[-1],"split_conditions":[-1.3293297E-6],"split_indices":[0],"split_type":[0],"sum_hessian":[1.72E2],"tree_param":{"num_deleted":"0","num_feature":"153","num_nodes":"1","size_leaf_vector":"1"}},{"base_weights":[-4.6151204E-6],"categories":[],"categories_nodes":[],"categories_segments":[],"categories_sizes":[],"default_left":[0],"id":132,"left_children":[-1],"loss_changes":[0E0],"parents":[2147483647],"right_children":[-1],"split_conditions":[-4.6151203E-7],"split_indices":[0],"split_type":[0],"sum_hessian":[1.76E2],"tree_param":{"num_deleted":"0","num_feature":"153","num_nodes":"1","size_leaf_vector":"1"}},{"base_weights":[1.140657E-5],"categories":[],"categories_nodes":[],"categories_segments":[],"categories_sizes":[],"default_left":[0],"id":133,"left_children":[-1],"loss_changes":[0E0],"parents":[2147483647],"right_children":[-1],"split_conditions":[1.140657E-6],"split_indices":[0],"split_type":[0],"sum_hessian":[1.79E2],"tree_param":{"num_deleted":"0","num_feature":"153","num_nodes":"1","size_leaf_vector":"1"}},{"base_weights":[2.4197774E-5],"categories":[],"categories_nodes":[],"categories_segments":[],"categories_sizes":[],"default_left":[0],"id":134,"left_children":[-1],"loss_changes":[0E0],"parents":[2147483647],"right_children":[-1],"split_conditions":[2.4197775E-6],"split_indices":[0],"split_type":[0],"sum_hessian":[1.81E2],"tree_param":{"num_deleted":"0","num_feature":"153","num_nodes":"1","size_leaf_vector":"1"}},{"base_weights":[-1.2048817E-5],"categories":[],"categories_nodes":[],"categories_segments":[],"categories_sizes":[],"default_left":[0],"id":135,"left_children":[-1],"loss_changes":[0E0],"parents":[2147483647],"right_children":[-1],"split_conditions":[-1.2048816E-6],"split_indices":[0],"split_type":[0],"sum_hessian":[1.85E2],"tree_param":{"num_deleted":"0","num_feature":"153","num_nodes":"1","size_leaf_vector":"1"}},{"base_weights":[-7.790602E-7],"categories":[],"categories_nodes":[],"categories_segments":[],"categories_sizes":[],"default_left":[0],"id":136,"left_children":[-1],"loss_changes":[0E0],"parents":[2147483647],"right_children":[-1],"split_conditions":[-7.790602E-8],"split_indices":[0],"split_type":[0],"sum_hessian":[1.74E2],"tree_param":{"num_deleted":"0","num_feature":"153","num_nodes":"1","size_leaf_vector":"1"}},{"base_weights":[1.4571462E-5],"categories":[],"categories_nodes":[],"categories_segments":[],"categories_sizes":[],"default_left":[0],"id":137,"left_children":[-1],"loss_changes":[0E0],"parents":[2147483647],"right_children":[-1],"split_conditions":[1.4571463E-6],"split_indices":[0],"split_type":[0],"sum_hessian":[1.77E2],"tree_param":{"num_deleted":"0","num_feature":"153","num_nodes":"1","size_leaf_vector":"1"}},{"base_weights":[1.747192E-5],"categories":[],"categories_nodes":[],"categories_segments":[],"categories_sizes":[],"default_left":[0],"id":138,"left_children":[-1],"loss_changes":[0E0],"parents":[2147483647],"right_children":[-1],"split_conditions":[1.7471921E-6],"split_indices":[0],"split_type":[0],"sum_hessian":[1.78E2],"tree_param":{"num_deleted":"0","num_feature":"153","num_nodes":"1","size_leaf_vector":"1"}},{"base_weights":[1.0606051E-6],"categories":[],"categories_nodes":[],"categories_segments":[],"categories_sizes":[],"default_left":[0],"id":139,"left_children":[-1],"loss_changes":[0E0],"parents":[2147483647],"right_children":[-1],"split_conditions":[1.0606051E-7],"split_indices":[0],"split_type":[0],"sum_hessian":[1.82E2],"tree_param":{"num_deleted":"0","num_feature":"153","num_nodes":"1","size_leaf_vector":"1"}},{"base_weights":[-3.686608E-6],"categories":[],"categories_nodes":[],"categories_segments":[],"categories_sizes":[],"default_left":[0],"id":140,"left_children":[-1],"loss_changes":[0E0],"parents":[2147483647],"right_children":[-1],"split_conditions":[-3.686608E-7],"split_indices":[0],"split_type":[0],"sum_hessian":[1.8E2],"tree_param":{"num_deleted":"0","num_feature":"153","num_nodes":"1","size_leaf_vector":"1"}},{"base_weights":[-1.4791653E-5],"categories":[],"categories_nodes":[],"categories_segments":[],"categories_sizes":[],"default_left":[0],"id":141,"left_children":[-1],"loss_changes":[0E0],"parents":[2147483647],"right_children":[-1],"split_conditions":[-1.4791652E-6],"split_indices":[0],"split_type":[0],"sum_hessian":[1.71E2],"tree_param":{"num_deleted":"0","num_feature":"153","num_nodes":"1","size_leaf_vector":"1"}},{"base_weights":[-2.174207E-5],"categories":[],"categories_nodes":[],"categories_segments":[],"categories_sizes":[],"default_left":[0],"id":142,"left_children":[-1],"loss_changes":[0E0],"parents":[2147483647],"right_children":[-1],"split_conditions":[-2.1742069E-6],"split_indices":[0],"split_type":[0],"sum_hessian":[1.83E2],"tree_param":{"num_deleted":"0","num_feature":"153","num_nodes":"1","size_leaf_vector":"1"}},{"base_weights":[3.0386927E-6],"categories":[],"categories_nodes":[],"categories_segments":[],"categories_sizes":[],"default_left":[0],"id":143,"left_children":[-1],"loss_changes":[0E0],"parents":[2147483647],"right_children":[-1],"split_conditions":[3.0386929E-7],"split_indices":[0],"split_type":[0],"sum_hessian":[1.96E2],"tree_param":{"num_deleted":"0","num_feature":"153","num_nodes":"1","size_leaf_vector":"1"}},{"base_weights":[-1.102714E-5],"categories":[],"categories_nodes":[],"categories_segments":[],"categories_sizes":[],"default_left":[0],"id":144,"left_children":[-1],"loss_changes":[0E0],"parents":[2147483647],"right_children":[-1],"split_conditions":[-1.102714E-6],"split_indices":[0],"split_type":[0],"sum_hessian":[1.82E2],"tree_param":{"num_deleted":"0","num_feature":"153","num_nodes":"1","size_leaf_vector":"1"}},{"base_weights":[-1.8378094E-5],"categories":[],"categories_nodes":[],"categories_segments":[],"categories_sizes":[],"default_left":[0],"id":145,"left_children":[-1],"loss_changes":[0E0],"parents":[2147483647],"right_children":[-1],"split_conditions":[-1.8378095E-6],"split_indices":[0],"split_type":[0],"sum_hessian":[1.79E2],"tree_param":{"num_deleted":"0","num_feature":"153","num_nodes":"1","size_leaf_vector":"1"}},{"base_weights":[-3.018596E-6],"categories":[],"categories_nodes":[],"categories_segments":[],"categories_sizes":[],"default_left":[0],"id":146,"left_children":[-1],"loss_changes":[0E0],"parents":[2147483647],"right_children":[-1],"split_conditions":[-3.0185961E-7],"split_indices":[0],"split_type":[0],"sum_hessian":[1.75E2],"tree_param":{"num_deleted":"0","num_feature":"153","num_nodes":"1","size_leaf_vector":"1"}},{"base_weights":[1.5537977E-5],"categories":[],"categories_nodes":[],"categories_segments":[],"categories_sizes":[],"default_left":[0],"id":147,"left_children":[-1],"loss_changes":[0E0],"parents":[2147483647],"right_children":[-1],"split_conditions":[1.5537977E-6],"split_indices":[0],"split_type":[0],"sum_hessian":[1.86E2],"tree_param":{"num_deleted":"0","num_feature":"153","num_nodes":"1","size_leaf_vector":"1"}},{"base_weights":[-1.7310756E-6],"categories":[],"categories_nodes":[],"categories_segments":[],"categories_sizes":[],"default_left":[0],"id":148,"left_children":[-1],"loss_changes":[0E0],"parents":[2147483647],"right_children":[-1],"split_conditions":[-1.7310757E-7],"split_indices":[0],"split_type":[0],"sum_hessian":[1.75E2],"tree_param":{"num_deleted":"0","num_feature":"153","num_nodes":"1","size_leaf_vector":"1"}},{"base_weights":[7.5231283E-6],"categories":[],"categories_nodes":[],"categories_segments":[],"categories_sizes":[],"default_left":[0],"id":149,"left_children":[-1],"loss_changes":[0E0],"parents":[2147483647],"right_children":[-1],"split_conditions":[7.523128E-7],"split_indices":[0],"split_type":[0],"sum_hessian":[1.75E2],"tree_param":{"num_deleted":"0","num_feature":"153","num_nodes":"1","size_leaf_vector":"1"}},{"base_weights":[2.8833485E-6],"categories":[],"categories_nodes":[],"categories_segments":[],"categories_sizes":[],"default_left":[0],"id":150,"left_children":[-1],"loss_changes":[0E0],"parents":[2147483647],"right_children":[-1],"split_conditions":[2.8833486E-7],"split_indices":[0],"split_type":[0],"sum_hessian":[1.78E2],"tree_param":{"num_deleted":"0","num_feature":"153","num_nodes":"1","size_leaf_vector":"1"}},{"base_weights":[2.7560924E-5],"categories":[],"categories_nodes":[],"categories_segments":[],"categories_sizes":[],"default_left":[0],"id":151,"left_children":[-1],"loss_changes":[0E0],"parents":[2147483647],"right_children":[-1],"split_conditions":[2.7560925E-6],"split_indices":[0],"split_type":[0],"sum_hessian":[1.76E2],"tree_param":{"num_deleted":"0","num_feature":"153","num_nodes":"1","size_leaf_vector":"1"}},{"base_weights":[-4.4269646E-6],"categories":[],"categories_nodes":[],"categories_segments":[],"categories_sizes":[],"default_left":[0],"id":152,"left_children":[-1],"loss_changes":[0E0],"parents":[2147483647],"right_children":[-1],"split_conditions":[-4.4269646E-7],"split_indices":[0],"split_type":[0],"sum_hessian":[1.69E2],"tree_param":{"num_deleted":"0","num_feature":"153","num_nodes":"1","size_leaf_vector":"1"}},{"base_weights":[-9.538138E-6],"categories":[],"categories_nodes":[],"categories_segments":[],"categories_sizes":[],"default_left":[0],"id":153,"left_children":[-1],"loss_changes":[0E0],"parents":[2147483647],"right_children":[-1],"split_conditions":[-9.538138E-7],"split_indices":[0],"split_type":[0],"sum_hessian":[1.8E2],"tree_param":{"num_deleted":"0","num_feature":"153","num_nodes":"1","size_leaf_vector":"1"}},{"base_weights":[-2.4359919E-5],"categories":[],"categories_nodes":[],"categories_segments":[],"categories_sizes":[],"default_left":[0],"id":154,"left_children":[-1],"loss_changes":[0E0],"parents":[2147483647],"right_children":[-1],"split_conditions":[-2.435992E-6],"split_indices":[0],"split_type":[0],"sum_hessian":[1.72E2],"tree_param":{"num_deleted":"0","num_feature":"153","num_nodes":"1","size_leaf_vector":"1"}},{"base_weights":[-3.7941873E-6],"categories":[],"categories_nodes":[],"categories_segments":[],"categories_sizes":[],"default_left":[0],"id":155,"left_children":[-1],"loss_changes":[0E0],"parents":[2147483647],"right_children":[-1],"split_conditions":[-3.7941874E-7],"split_indices":[0],"split_type":[0],"sum_hessian":[1.81E2],"tree_param":{"num_deleted":"0","num_feature":"153","num_nodes":"1","size_leaf_vector":"1"}},{"base_weights":[-8.848882E-6],"categories":[],"categories_nodes":[],"categories_segments":[],"categories_sizes":[],"default_left":[0],"id":156,"left_children":[-1],"loss_changes":[0E0],"parents":[2147483647],"right_children":[-1],"split_conditions":[-8.8488827E-7],"split_indices":[0],"split_type":[0],"sum_hessian":[1.71E2],"tree_param":{"num_deleted":"0","num_feature":"153","num_nodes":"1","size_leaf_vector":"1"}},{"base_weights":[6.791703E-6],"categories":[],"categories_nodes":[],"categories_segments":[],"categories_sizes":[],"default_left":[0],"id":157,"left_children":[-1],"loss_changes":[0E0],"parents":[2147483647],"right_children":[-1],"split_conditions":[6.7917034E-7],"split_indices":[0],"split_type":[0],"sum_hessian":[1.75E2],"tree_param":{"num_deleted":"0","num_feature":"153","num_nodes":"1","size_leaf_vector":"1"}},{"base_weights":[-1.0696441E-5],"categories":[],"categories_nodes":[],"categories_segments":[],"categories_sizes":[],"default_left":[0],"id":158,"left_children":[-1],"loss_changes":[0E0],"parents":[2147483647],"right_children":[-1],"split_conditions":[-1.0696441E-6],"split_indices":[0],"split_type":[0],"sum_hessian":[1.84E2],"tree_param":{"num_deleted":"0","num_feature":"153","num_nodes":"1","size_leaf_vector":"1"}},{"base_weights":[1.2900103E-5],"categories":[],"categories_nodes":[],"categories_segments":[],"categories_sizes":[],"default_left":[0],"id":159,"left_children":[-1],"loss_changes":[0E0],"parents":[2147483647],"right_children":[-1],"split_conditions":[1.2900103E-6],"split_indices":[0],"split_type":[0],"sum_hessian":[1.73E2],"tree_param":{"num_deleted":"0","num_feature":"153","num_nodes":"1","size_leaf_vector":"1"}},{"base_weights":[1.33831E-5],"categories":[],"categories_nodes":[],"categories_segments":[],"categories_sizes":[],"default_left":[0],"id":160,"left_children":[-1],"loss_changes":[0E0],"parents":[2147483647],"right_children":[-1],"split_conditions":[1.33831E-6],"split_indices":[0],"split_type":[0],"sum_hessian":[1.77E2],"tree_param":{"num_deleted":"0","num_feature":"153","num_nodes":"1","size_leaf_vector":"1"}},{"base_weights":[-2.3135506E-6],"categories":[],"categories_nodes":[],"categories_segments":[],"categories_sizes":[],"default_left":[0],"id":161,"left_children":[-1],"loss_changes":[0E0],"parents":[2147483647],"right_children":[-1],"split_conditions":[-2.3135506E-7],"split_indices":[0],"split_type":[0],"sum_hessian":[1.73E2],"tree_param":{"num_deleted":"0","num_feature":"153","num_nodes":"1","size_leaf_vector":"1"}},{"base_weights":[1.4453138E-6],"categories":[],"categories_nodes":[],"categories_segments":[],"categories_sizes":[],"default_left":[0],"id":162,"left_children":[-1],"loss_changes":[0E0],"parents":[2147483647],"right_children":[-1],"split_conditions":[1.4453138E-7],"split_indices":[0],"split_type":[0],"sum_hessian":[1.8E2],"tree_param":{"num_deleted":"0","num_feature":"153","num_nodes":"1","size_leaf_vector":"1"}},{"base_weights":[-1.7020086E-5,1.2948394E-6,-2.2084754E-5],"categories":[],"categories_nodes":[],"categories_segments":[],"categories_sizes":[],"default_left":[0,0,0],"id":163,"left_children":[1,-1,-1],"loss_changes":[1.096263E-6,0E0,0E0],"parents":[2147483647,0,0],"right_children":[2,-1,-1],"split_conditions":[1.5534709E2,1.2948394E-6,-2.2084754E-5],"split_indices":[67,0,0],"split_type":[0,0,0],"sum_hessian":[1.78E2,1.56E2,2.2E1],"tree_param":{"num_deleted":"0","num_feature":"153","num_nodes":"3","size_leaf_vector":"1"}},{"base_weights":[-8.519448E-6],"categories":[],"categories_nodes":[],"categories_segments":[],"categories_sizes":[],"default_left":[0],"id":164,"left_children":[-1],"loss_changes":[0E0],"parents":[2147483647],"right_children":[-1],"split_conditions":[-8.519448E-7],"split_indices":[0],"split_type":[0],"sum_hessian":[1.85E2],"tree_param":{"num_deleted":"0","num_feature":"153","num_nodes":"1","size_leaf_vector":"1"}},{"base_weights":[-1.8553412E-5],"categories":[],"categories_nodes":[],"categories_segments":[],"categories_sizes":[],"default_left":[0],"id":165,"left_children":[-1],"loss_changes":[0E0],"parents":[2147483647],"right_children":[-1],"split_conditions":[-1.8553412E-6],"split_indices":[0],"split_type":[0],"sum_hessian":[1.67E2],"tree_param":{"num_deleted":"0","num_feature":"153","num_nodes":"1","size_leaf_vector":"1"}},{"base_weights":[-2.9941066E-6],"categories":[],"categories_nodes":[],"categories_segments":[],"categories_sizes":[],"default_left":[0],"id":166,"left_children":[-1],"loss_changes":[0E0],"parents":[2147483647],"right_children":[-1],"split_conditions":[-2.9941066E-7],"split_indices":[0],"split_type":[0],"sum_hessian":[1.82E2],"tree_param":{"num_deleted":"0","num_feature":"153","num_nodes":"1","size_leaf_vector":"1"}},{"base_weights":[-4.2731117E-6],"categories":[],"categories_nodes":[],"categories_segments":[],"categories_sizes":[],"default_left":[0],"id":167,"left_children":[-1],"loss_changes":[0E0],"parents":[2147483647],"right_children":[-1],"split_conditions":[-4.2731116E-7],"split_indices":[0],"split_type":[0],"sum_hessian":[1.84E2],"tree_param":{"num_deleted":"0","num_feature":"153","num_nodes":"1","size_leaf_vector":"1"}},{"base_weights":[3.4478333E-6],"categories":[],"categories_nodes":[],"categories_segments":[],"categories_sizes":[],"default_left":[0],"id":168,"left_children":[-1],"loss_changes":[0E0],"parents":[2147483647],"right_children":[-1],"split_conditions":[3.4478333E-7],"split_indices":[0],"split_type":[0],"sum_hessian":[1.87E2],"tree_param":{"num_deleted":"0","num_feature":"153","num_nodes":"1","size_leaf_vector":"1"}},{"base_weights":[9.455438E-6],"categories":[],"categories_nodes":[],"categories_segments":[],"categories_sizes":[],"default_left":[0],"id":169,"left_children":[-1],"loss_changes":[0E0],"parents":[2147483647],"right_children":[-1],"split_conditions":[9.4554383E-7],"split_indices":[0],"split_type":[0],"sum_hessian":[1.77E2],"tree_param":{"num_deleted":"0","num_feature":"153","num_nodes":"1","size_leaf_vector":"1"}},{"base_weights":[-1.5510504E-5],"categories":[],"categories_nodes":[],"categories_segments":[],"categories_sizes":[],"default_left":[0],"id":170,"left_children":[-1],"loss_changes":[0E0],"parents":[2147483647],"right_children":[-1],"split_conditions":[-1.5510504E-6],"split_indices":[0],"split_type":[0],"sum_hessian":[1.75E2],"tree_param":{"num_deleted":"0","num_feature":"153","num_nodes":"1","size_leaf_vector":"1"}},{"base_weights":[1.6452776E-5],"categories":[],"categories_nodes":[],"categories_segments":[],"categories_sizes":[],"default_left":[0],"id":171,"left_children":[-1],"loss_changes":[0E0],"parents":[2147483647],"right_children":[-1],"split_conditions":[1.6452776E-6],"split_indices":[0],"split_type":[0],"sum_hessian":[1.8E2],"tree_param":{"num_deleted":"0","num_feature":"153","num_nodes":"1","size_leaf_vector":"1"}},{"base_weights":[-3.2064922E-6],"categories":[],"categories_nodes":[],"categories_segments":[],"categories_sizes":[],"default_left":[0],"id":172,"left_children":[-1],"loss_changes":[0E0],"parents":[2147483647],"right_children":[-1],"split_conditions":[-3.2064924E-7],"split_indices":[0],"split_type":[0],"sum_hessian":[1.74E2],"tree_param":{"num_deleted":"0","num_feature":"153","num_nodes":"1","size_leaf_vector":"1"}},{"base_weights":[-1.71578E-5],"categories":[],"categories_nodes":[],"categories_segments":[],"categories_sizes":[],"default_left":[0],"id":173,"left_children":[-1],"loss_changes":[0E0],"parents":[2147483647],"right_children":[-1],"split_conditions":[-1.71578E-6],"split_indices":[0],"split_type":[0],"sum_hessian":[1.78E2],"tree_param":{"num_deleted":"0","num_feature":"153","num_nodes":"1","size_leaf_vector":"1"}},{"base_weights":[9.728493E-6],"categories":[],"categories_nodes":[],"categories_segments":[],"categories_sizes":[],"default_left":[0],"id":174,"left_children":[-1],"loss_changes":[0E0],"parents":[2147483647],"right_children":[-1],"split_conditions":[9.728493E-7],"split_indices":[0],"split_type":[0],"sum_hessian":[1.72E2],"tree_param":{"num_deleted":"0","num_feature":"153","num_nodes":"1","size_leaf_vector":"1"}},{"base_weights":[3.2330987E-5],"categories":[],"categories_nodes":[],"categories_segments":[],"categories_sizes":[],"default_left":[0],"id":175,"left_children":[-1],"loss_changes":[0E0],"parents":[2147483647],"right_children":[-1],"split_conditions":[3.2330988E-6],"split_indices":[0],"split_type":[0],"sum_hessian":[1.74E2],"tree_param":{"num_deleted":"0","num_feature":"153","num_nodes":"1","size_leaf_vector":"1"}},{"base_weights":[-4.0405976E-6],"categories":[],"categories_nodes":[],"categories_segments":[],"categories_sizes":[],"default_left":[0],"id":176,"left_children":[-1],"loss_changes":[0E0],"parents":[2147483647],"right_children":[-1],"split_conditions":[-4.0405976E-7],"split_indices":[0],"split_type":[0],"sum_hessian":[1.86E2],"tree_param":{"num_deleted":"0","num_feature":"153","num_nodes":"1","size_leaf_vector":"1"}},{"base_weights":[-2.1391648E-5],"categories":[],"categories_nodes":[],"categories_segments":[],"categories_sizes":[],"default_left":[0],"id":177,"left_children":[-1],"loss_changes":[0E0],"parents":[2147483647],"right_children":[-1],"split_conditions":[-2.139165E-6],"split_indices":[0],"split_type":[0],"sum_hessian":[1.74E2],"tree_param":{"num_deleted":"0","num_feature":"153","num_nodes":"1","size_leaf_vector":"1"}},{"base_weights":[-1.0440837E-5],"categories":[],"categories_nodes":[],"categories_segments":[],"categories_sizes":[],"default_left":[0],"id":178,"left_children":[-1],"loss_changes":[0E0],"parents":[2147483647],"right_children":[-1],"split_conditions":[-1.0440838E-6],"split_indices":[0],"split_type":[0],"sum_hessian":[1.77E2],"tree_param":{"num_deleted":"0","num_feature":"153","num_nodes":"1","size_leaf_vector":"1"}},{"base_weights":[2.421396E-5],"categories":[],"categories_nodes":[],"categories_segments":[],"categories_sizes":[],"default_left":[0],"id":179,"left_children":[-1],"loss_changes":[0E0],"parents":[2147483647],"right_children":[-1],"split_conditions":[2.421396E-6],"split_indices":[0],"split_type":[0],"sum_hessian":[1.77E2],"tree_param":{"num_deleted":"0","num_feature":"153","num_nodes":"1","size_leaf_vector":"1"}},{"base_weights":[1.5932552E-5],"categories":[],"categories_nodes":[],"categories_segments":[],"categories_sizes":[],"default_left":[0],"id":180,"left_children":[-1],"loss_changes":[0E0],"parents":[2147483647],"right_children":[-1],"split_conditions":[1.5932552E-6],"split_indices":[0],"split_type":[0],"sum_hessian":[1.74E2],"tree_param":{"num_deleted":"0","num_feature":"153","num_nodes":"1","size_leaf_vector":"1"}},{"base_weights":[-1.8482488E-5],"categories":[],"categories_nodes":[],"categories_segments":[],"categories_sizes":[],"default_left":[0],"id":181,"left_children":[-1],"loss_changes":[0E0],"parents":[2147483647],"right_children":[-1],"split_conditions":[-1.8482488E-6],"split_indices":[0],"split_type":[0],"sum_hessian":[1.75E2],"tree_param":{"num_deleted":"0","num_feature":"153","num_nodes":"1","size_leaf_vector":"1"}},{"base_weights":[1.103044E-5],"categories":[],"categories_nodes":[],"categories_segments":[],"categories_sizes":[],"default_left":[0],"id":182,"left_children":[-1],"loss_changes":[0E0],"parents":[2147483647],"right_children":[-1],"split_conditions":[1.103044E-6],"split_indices":[0],"split_type":[0],"sum_hessian":[1.75E2],"tree_param":{"num_deleted":"0","num_feature":"153","num_nodes":"1","size_leaf_vector":"1"}},{"base_weights":[-7.301395E-6],"categories":[],"categories_nodes":[],"categories_segments":[],"categories_sizes":[],"default_left":[0],"id":183,"left_children":[-1],"loss_changes":[0E0],"parents":[2147483647],"right_children":[-1],"split_conditions":[-7.301395E-7],"split_indices":[0],"split_type":[0],"sum_hessian":[1.76E2],"tree_param":{"num_deleted":"0","num_feature":"153","num_nodes":"1","size_leaf_vector":"1"}},{"base_weights":[1.888495E-5],"categories":[],"categories_nodes":[],"categories_segments":[],"categories_sizes":[],"default_left":[0],"id":184,"left_children":[-1],"loss_changes":[0E0],"parents":[2147483647],"right_children":[-1],"split_conditions":[1.888495E-6],"split_indices":[0],"split_type":[0],"sum_hessian":[1.84E2],"tree_param":{"num_deleted":"0","num_feature":"153","num_nodes":"1","size_leaf_vector":"1"}},{"base_weights":[1.5758145E-5],"categories":[],"categories_nodes":[],"categories_segments":[],"categories_sizes":[],"default_left":[0],"id":185,"left_children":[-1],"loss_changes":[0E0],"parents":[2147483647],"right_children":[-1],"split_conditions":[1.5758145E-6],"split_indices":[0],"split_type":[0],"sum_hessian":[1.89E2],"tree_param":{"num_deleted":"0","num_feature":"153","num_nodes":"1","size_leaf_vector":"1"}},{"base_weights":[-2.1176915E-5],"categories":[],"categories_nodes":[],"categories_segments":[],"categories_sizes":[],"default_left":[0],"id":186,"left_children":[-1],"loss_changes":[0E0],"parents":[2147483647],"right_children":[-1],"split_conditions":[-2.1176916E-6],"split_indices":[0],"split_type":[0],"sum_hessian":[1.81E2],"tree_param":{"num_deleted":"0","num_feature":"153","num_nodes":"1","size_leaf_vector":"1"}},{"base_weights":[2.3061068E-6],"categories":[],"categories_nodes":[],"categories_segments":[],"categories_sizes":[],"default_left":[0],"id":187,"left_children":[-1],"loss_changes":[0E0],"parents":[2147483647],"right_children":[-1],"split_conditions":[2.3061068E-7],"split_indices":[0],"split_type":[0],"sum_hessian":[1.77E2],"tree_param":{"num_deleted":"0","num_feature":"153","num_nodes":"1","size_leaf_vector":"1"}},{"base_weights":[-7.142445E-6],"categories":[],"categories_nodes":[],"categories_segments":[],"categories_sizes":[],"default_left":[0],"id":188,"left_children":[-1],"loss_changes":[0E0],"parents":[2147483647],"right_children":[-1],"split_conditions":[-7.1424455E-7],"split_indices":[0],"split_type":[0],"sum_hessian":[1.86E2],"tree_param":{"num_deleted":"0","num_feature":"153","num_nodes":"1","size_leaf_vector":"1"}},{"base_weights":[-2.2833972E-5],"categories":[],"categories_nodes":[],"categories_segments":[],"categories_sizes":[],"default_left":[0],"id":189,"left_children":[-1],"loss_changes":[0E0],"parents":[2147483647],"right_children":[-1],"split_conditions":[-2.2833972E-6],"split_indices":[0],"split_type":[0],"sum_hessian":[1.82E2],"tree_param":{"num_deleted":"0","num_feature":"153","num_nodes":"1","size_leaf_vector":"1"}},{"base_weights":[1.9649337E-5],"categories":[],"categories_nodes":[],"categories_segments":[],"categories_sizes":[],"default_left":[0],"id":190,"left_children":[-1],"loss_changes":[0E0],"parents":[2147483647],"right_children":[-1],"split_conditions":[1.9649337E-6],"split_indices":[0],"split_type":[0],"sum_hessian":[1.71E2],"tree_param":{"num_deleted":"0","num_feature":"153","num_nodes":"1","size_leaf_vector":"1"}},{"base_weights":[-6.6968864E-6],"categories":[],"categories_nodes":[],