{"learner":{"attributes":{"scikit_learn":"{\"_estimator_type\": \"regressor\"}"},"feature_names":["open","high","low","close","volume","trade_count","vwap","HT_DCPERIOD","HT_DCPHASE","HT_PHASOR_0","HT_PHASOR_1","HT_SINE_0","HT_SINE_1","HT_TRENDMODE","ADX","ADXR","APO","AROON_0","AROON_1","AROONOSC","BOP","CCI","CMO","DX","MACD_0","MACD_1","MACD_2","MACDEXT_0","MACDEXT_1","MACDEXT_2","MACDFIX_0","MACDFIX_1","MACDFIX_2","MFI","MINUS_DI","MINUS_DM","MOM","PLUS_DI","PLUS_DM","PPO","ROC","ROCP","ROCR","ROCR100","RSI","STOCH_0","STOCH_1","STOCHF_0","STOCHF_1","STOCHRSI_0","STOCHRSI_1","TRIX","ULTOSC","WILLR","BBANDS_0","BBANDS_1","BBANDS_2","DEMA","EMA","HT_TRENDLINE","KAMA","MA","MAMA_0","MAMA_1","MIDPOINT","MIDPRICE","SAR","SAREXT","SMA","T3","TEMA","TRIMA","WMA","CDL2CROWS","CDL3BLACKCROWS","CDL3INSIDE","CDL3LINESTRIKE","CDL3OUTSIDE","CDL3STARSINSOUTH","CDL3WHITESOLDIERS","CDLABANDONEDBABY","CDLADVANCEBLOCK","CDLBELTHOLD","CDLBREAKAWAY","CDLCLOSINGMARUBOZU","CDLCONCEALBABYSWALL","CDLCOUNTERATTACK","CDLDARKCLOUDCOVER","CDLDOJI","CDLDOJISTAR","CDLDRAGONFLYDOJI","CDLENGULFING","CDLEVENINGDOJISTAR","CDLEVENINGSTAR","CDLGAPSIDESIDEWHITE","CDLGRAVESTONEDOJI","CDLHAMMER","CDLHANGINGMAN","CDLHARAMI","CDLHARAMICROSS","CDLHIGHWAVE","CDLHIKKAKE","CDLHIKKAKEMOD","CDLHOMINGPIGEON","CDLIDENTICAL3CROWS","CDLINNECK","CDLINVERTEDHAMMER","CDLKICKING","CDLKICKINGBYLENGTH","CDLLADDERBOTTOM","CDLLONGLEGGEDDOJI","CDLLONGLINE","CDLMARUBOZU","CDLMATCHINGLOW","CDLMATHOLD","CDLMORNINGDOJISTAR","CDLMORNINGSTAR","CDLONNECK","CDLPIERCING","CDLRICKSHAWMAN","CDLRISEFALL3METHODS","CDLSEPARATINGLINES","CDLSHOOTINGSTAR","CDLSHORTLINE","CDLSPINNINGTOP","CDLSTALLEDPATTERN","CDLSTICKSANDWICH","CDLTAKURI","CDLTASUKIGAP","CDLTHRUSTING","CDLTRISTAR","CDLUNIQUE3RIVER","CDLUPSIDEGAP2CROWS","CDLXSIDEGAP3METHODS","AVGPRICE","MEDPRICE","TYPPRICE","WCLPRICE","BETA","CORREL","LINEARREG","LINEARREG_ANGLE","LINEARREG_INTERCEPT","LINEARREG_SLOPE","STDDEV","TSF","VAR","ATR","NATR","TRANGE","AD","ADOSC","OBV"],"feature_types":["float","float","float","float","float","float","float","float","float","float","float","float","float","float","float","float","float","float","float","float","float","float","float","float","float","float","float","float","float","float","float","float","float","float","float","float","float","float","float","float","float","float","float","float","float","float","float","float","float","float","float","float","float","float","float","float","float","float","float","float","float","float","float","float","float","float","float","float","float","float","float","float","float","float","float","float","float","float","float","float","float","float","float","float","float","float","float","float","float","float","float","float","float","float","float","float","float","float","float","float","float","float","float","float","float","float","float","float","float","float","float","float","float","float","float","float","float","float","float","float","float","float","float","float","float","float","float","float","float","float","float","float","float","float","float","float","float","float","float","float","float","float","float","float","float","float","float","float","float","float","float","float","float"],"gradient_booster":{"model":{"gbtree_model_param":{"num_parallel_tree":"1","num_trees":"200"},"iteration_indptr":[0,1,2,3,4,5,6,7,8,9,10,11,12,13,14,15,16,17,18,19,20,21,22,23,24,25,26,27,28,29,30,31,32,33,34,35,36,37,38,39,40,41,42,43,44,45,46,47,48,49,50,51,52,53,54,55,56,57,58,59,60,61,62,63,64,65,66,67,68,69,70,71,72,73,74,75,76,77,78,79,80,81,82,83,84,85,86,87,88,89,90,91,92,93,94,95,96,97,98,99,100,101,102,103,104,105,106,107,108,109,110,111,112,113,114,115,116,117,118,119,120,121,122,123,124,125,126,127,128,129,130,131,132,133,134,135,136,137,138,139,140,141,142,143,144,145,146,147,148,149,150,151,152,153,154,155,156,157,158,159,160,161,162,163,164,165,166,167,168,169,170,171,172,173,174,175,176,177,178,179,180,181,182,183,184,185,186,187,188,189,190,191,192,193,194,195,196,197,198,199,200],"tree_info":[0,0,0,0,0,0,0,0,0,0,0,0,0,0,0,0,0,0,0,0,0,0,0,0,0,0,0,0,0,0,0,0,0,0,0,0,0,0,0,0,0,0,0,0,0,0,0,0,0,0,0,0,0,0,0,0,0,0,0,0,0,0,0,0,0,0,0,0,0,0,0,0,0,0,0,0,0,0,0,0,0,0,0,0,0,0,0,0,0,0,0,0,0,0,0,0,0,0,0,0,0,0,0,0,0,0,0,0,0,0,0,0,0,0,0,0,0,0,0,0,0,0,0,0,0,0,0,0,0,0,0,0,0,0,0,0,0,0,0,0,0,0,0,0,0,0,0,0,0,0,0,0,0,0,0,0,0,0,0,0,0,0,0,0,0,0,0,0,0,0,0,0,0,0,0,0,0,0,0,0,0,0,0,0,0,0,0,0,0,0,0,0,0,0,0,0,0,0,0,0],"trees":[{"base_weights":[-4.3483597E-6,-8.4052846E-4,9.9608194E-5,-4.0395855E-5,-1.06114276E-4,9.045286E-6,6.252218E-5,-7.77702E-5,1.8770428E-4,-5.1753992E-5,-4.0312618E-5,2.5125773E-4,-1.2973457E-5,-8.6125965E-6,-5.143775E-5,-6.6628877E-6,3.5267946E-4,-3.1663625E-5,3.3324104E-5,4.0797473E-4,-3.1783296E-5,3.8217473E-5,-4.8398024E-6,5.2376465E-5,2.408182E-6,1.9832222E-4,-7.3683346E-5,3.071821E-5,-2.866978E-5,-1.4461191E-5,2.670492E-4,4.8111655E-5,-1.743309E-5],"categories":[],"categories_nodes":[],"categories_segments":[],"categories_sizes":[],"default_left":[0,0,0,0,0,0,0,0,0,0,0,0,0,0,0,0,0,0,0,0,0,0,0,0,0,0,0,0,0,0,0,0,0],"id":0,"left_children":[1,3,5,-1,-1,7,-1,9,11,-1,13,15,-1,17,-1,-1,19,-1,21,23,-1,-1,25,-1,-1,27,29,-1,-1,-1,31,-1,-1],"loss_changes":[1.7295153E-5,1.6902395E-6,8.41974E-6,0E0,0E0,2.3721736E-6,0E0,1.6758256E-6,1.0413137E-6,0E0,1.4382451E-6,1.3776043E-6,0E0,1.1860437E-6,0E0,0E0,1.3161048E-6,0E0,1.0802434E-6,1.3209146E-6,0E0,0E0,1.0496062E-6,0E0,0E0,1.0912534E-6,1.3920079E-6,0E0,0E0,0E0,1.0287242E-6,0E0,0E0],"parents":[2147483647,0,0,1,1,2,2,5,5,7,7,8,8,10,10,11,11,13,13,16,16,18,18,19,19,22,22,25,25,26,26,30,30],"right_children":[2,4,6,-1,-1,8,-1,10,12,-1,14,16,-1,18,-1,-1,20,-1,22,24,-1,-1,26,-1,-1,28,30,-1,-1,-1,32,-1,-1],"split_conditions":[-1.10667035E-1,-7.2108835E-2,9.903017E-2,-4.0395855E-5,-1.06114276E-4,1.8321915E-2,6.252218E-5,1.4966629E-2,8.6069934E-2,-5.1753992E-5,6.081939E-1,1.6557787E1,-1.2973457E-5,3.6973045E1,-5.143775E-5,-6.6628877E-6,1E2,-3.1663625E-5,-1.5985614E-1,1E2,-3.1783296E-5,3.8217473E-5,7.8269E1,5.2376465E-5,2.408182E-6,5.957099E-1,7.8585E1,3.071821E-5,-2.866978E-5,-1.4461191E-5,8.8022E4,4.8111655E-5,-1.743309E-5],"split_indices":[9,29,9,0,0,9,0,144,10,0,141,23,0,33,0,0,96,0,10,123,0,0,134,0,0,138,1,0,0,0,152,0,0],"split_type":[0,0,0,0,0,0,0,0,0,0,0,0,0,0,0,0,0,0,0,0,0,0,0,0,0,0,0,0,0,0,0,0,0],"sum_hessian":[1.97E2,2.1E1,1.76E2,8E0,1.3E1,1.51E2,2.5E1,1.02E2,4.9E1,7E0,9.5E1,4.1E1,8E0,9E1,5E0,1E1,3.1E1,1E1,8E1,2.9E1,2E0,7E0,7.3E1,2.2E1,7E0,1.8E1,5.5E1,1.5E1,3E0,4.6E1,9E0,6E0,3E0],"tree_param":{"num_deleted":"0","num_feature":"153","num_nodes":"33","size_leaf_vector":"1"}},{"base_weights":[4.140195E-6,-5.718855E-4,1.1399399E-4,-4.190595E-4,-1.1897591E-4,2.3400406E-5,4.050904E-4,-7.521584E-5,-2.7220949E-5,5.0165738E-5,-1.12213E-5,3.883132E-6,5.0688727E-4,2.9825364E-5,-3.6714835E-5,8.641442E-5,3.2951968E-4,-3.8866547E-5,2.0491634E-4,1.7047909E-5,8.6797E-5,3.2681241E-6,-3.3604374E-4,-1.7892622E-5,3.1954932E-4,-4.434559E-6,-5.579928E-5,2.1087978E-6,4.5876124E-5],"categories":[],"categories_nodes":[],"categories_segments":[],"categories_sizes":[],"default_left":[0,0,0,0,0,0,0,0,0,0,0,0,0,0,0,0,0,0,0,0,0,0,0,0,0,0,0,0,0],"id":1,"left_children":[1,3,5,7,-1,9,11,-1,-1,-1,13,-1,15,17,-1,-1,19,21,23,-1,-1,-1,25,-1,27,-1,-1,-1,-1],"loss_changes":[1.30373055E-5,2.6175157E-6,4.552784E-6,1.1648913E-6,0E0,2.2078527E-6,1.5089622E-6,0E0,0E0,0E0,1.8371525E-6,0E0,1.7429538E-6,1.3670531E-6,0E0,0E0,1.8216449E-6,1.7544968E-6,1.4652079E-6,0E0,0E0,0E0,1.0111295E-6,0E0,1.0290603E-6,0E0,0E0,0E0,0E0],"parents":[2147483647,0,0,1,1,2,2,3,3,5,5,6,6,10,10,12,12,13,13,16,16,17,17,18,18,22,22,24,24],"right_children":[2,4,6,8,-1,10,12,-1,-1,-1,14,-1,16,18,-1,-1,20,22,24,-1,-1,-1,26,-1,28,-1,-1,-1,-1],"split_conditions":[-7.192103E-2,-5.088613E-1,6.9712E-2,-1.4583035E-1,-1.1897591E-4,-1.5985614E-1,-7.178101E-2,-7.521584E-5,-2.7220949E-5,5.0165738E-5,9.25E-2,3.883132E-6,1.009E-1,1.766E-3,-3.6714835E-5,8.641442E-5,3.05E-1,8.139717E-2,3.25E-2,1.7047909E-5,8.6797E-5,3.2681241E-6,5.4131645E1,-1.7892622E-5,1.2336127E1,-4.434559E-6,-5.579928E-5,2.1087978E-6,4.5876124E-5],"split_indices":[9,141,9,9,0,10,10,0,0,0,149,0,36,146,0,0,36,10,149,0,0,0,52,0,23,0,0,0,0],"split_type":[0,0,0,0,0,0,0,0,0,0,0,0,0,0,0,0,0,0,0,0,0,0,0,0,0,0,0,0,0],"sum_hessian":[2.04E2,3.2E1,1.72E2,2.7E1,5E0,1.32E2,4E1,7E0,2E1,8E0,1.24E2,9E0,3.1E1,1.12E2,1.2E1,9E0,2.2E1,8.1E1,3.1E1,1.8E1,4E0,6.6E1,1.5E1,7E0,2.4E1,7E0,8E0,8E0,1.6E1],"tree_param":{"num_deleted":"0","num_feature":"153","num_nodes":"29","size_leaf_vector":"1"}},{"base_weights":[3.7482614E-6,-2.6057177E-4,1.7993114E-4,-5.708925E-4,-1.3727263E-4,1.072627E-4,5.488105E-4,6.6901202E-6,-6.699066E-4,-1.9743662E-5,2.7847282E-5,1.3923456E-4,-4.3815005E-5,-1.9216654E-6,6.920184E-5,2.0603775E-6,-7.477747E-5,8.638905E-5,3.7223992E-5,1.3452506E-4,-2.3653654E-5,6.4998494E-6,3.5564048E-5],"categories":[],"categories_nodes":[],"categories_segments":[],"categories_sizes":[],"default_left":[0,0,0,0,0,0,0,0,0,0,0,0,0,0,0,0,0,0,0,0,0,0,0],"id":2,"left_children":[1,3,5,7,9,11,13,-1,15,-1,-1,17,-1,-1,-1,-1,-1,19,-1,21,-1,-1,-1],"loss_changes":[9.546893E-6,3.059139E-6,3.2382577E-6,1.4972811E-6,1.5557547E-6,1.8745429E-6,1.6402169E-6,0E0,1.0907797E-6,0E0,0E0,1.1868578E-6,0E0,0E0,0E0,0E0,0E0,1.3064567E-6,0E0,1.0837686E-6,0E0,0E0,0E0],"parents":[2147483647,0,0,1,1,2,2,3,3,4,4,5,5,6,6,8,8,11,11,17,17,19,19],"right_children":[2,4,6,8,10,12,14,-1,16,-1,-1,18,-1,-1,-1,-1,-1,20,-1,22,-1,-1,-1],"split_conditions":[-1.9765541E-2,-1.1183188E-1,1.01344146E-1,1.2E1,2.8010672E1,1.7194064E-1,2.5377154E-2,6.6901202E-6,-9.922878E-1,-1.9743662E-5,2.7847282E-5,1E2,-4.3815005E-5,-1.9216654E-6,6.920184E-5,2.0603775E-6,-7.477747E-5,7.252922E-1,3.7223992E-5,5.6793906E-2,-2.3653654E-5,6.4998494E-6,3.5564048E-5],"split_indices":[9,9,9,5,7,10,144,0,12,0,0,82,0,0,0,0,0,138,0,9,0,0,0],"split_type":[0,0,0,0,0,0,0,0,0,0,0,0,0,0,0,0,0,0,0,0,0,0,0],"sum_hessian":[2.03E2,8.1E1,1.22E2,2.2E1,5.9E1,1.03E2,1.9E1,3E0,1.9E1,5.2E1,7E0,9.8E1,5E0,4E0,1.5E1,2E0,1.7E1,8.1E1,1.7E1,7.1E1,1E1,5.5E1,1.6E1],"tree_param":{"num_deleted":"0","num_feature":"153","num_nodes":"23","size_leaf_vector":"1"}},{"base_weights":[-4.821647E-6,-2.399782E-4,1.666045E-4,-5.3266436E-4,-1.3104443E-4,1.324456E-4,7.8216304E-5,-7.892096E-4,-1.8105051E-5,3.3893336E-6,-3.31276E-4,1.6188128E-4,-4.1947118E-5,-1.9356469E-6,-9.2742324E-5,-4.3218644E-4,1.2757846E-5,9.632773E-5,4.137576E-5,-5.7989702E-5,-6.4278197E-6,-1.3472543E-7,2.2835737E-5],"categories":[],"categories_nodes":[],"categories_segments":[],"categories_sizes":[],"default_left":[0,0,0,0,0,0,0,0,0,0,0,0,0,0,0,0,0,0,0,0,0,0,0],"id":3,"left_children":[1,3,5,7,9,11,-1,13,-1,-1,15,17,-1,-1,-1,19,-1,21,-1,-1,-1,-1,-1],"loss_changes":[8.223314E-6,2.67217E-6,2.3775688E-6,1.9318245E-6,2.1248761E-6,1.9037088E-6,0E0,1.3653034E-6,0E0,0E0,1.3979306E-6,1.7433738E-6,0E0,0E0,0E0,1.2669798E-6,0E0,1.1222589E-6,0E0,0E0,0E0,0E0,0E0],"parents":[2147483647,0,0,1,1,2,2,3,3,4,4,5,5,7,7,10,10,11,11,15,15,17,17],"right_children":[2,4,6,8,10,12,-1,14,-1,-1,16,18,-1,-1,-1,20,-1,22,-1,-1,-1,-1,-1],"split_conditions":[-1.2946045E-2,-1.10667035E-1,3.8267747E-3,9.484585E-1,4.84465E1,1.8936445E-1,7.8216304E-5,-1.577627E-1,-1.8105051E-5,3.3893336E-6,4.8340204E-1,3.557736E1,-4.1947118E-5,-1.9356469E-6,-9.2742324E-5,1.9566027E1,1.2757846E-5,-2.3076923E1,4.137576E-5,-5.7989702E-5,-6.4278197E-6,-1.3472543E-7,2.2835737E-5],"split_indices":[9,9,41,139,52,10,0,10,0,0,138,34,0,0,0,15,0,53,0,0,0,0,0],"split_type":[0,0,0,0,0,0,0,0,0,0,0,0,0,0,0,0,0,0,0,0,0,0,0],"sum_hessian":[2.02E2,8.5E1,1.17E2,2.2E1,6.3E1,1.12E2,5E0,1.2E1,1E1,3.5E1,2.8E1,1.07E2,5E0,2E0,1E1,2.3E1,5E0,8.6E1,2.1E1,1.6E1,7E0,5E1,3.6E1],"tree_param":{"num_deleted":"0","num_feature":"153","num_nodes":"23","size_leaf_vector":"1"}},{"base_weights":[-3.191713E-5,-5.8581325E-4,4.294481E-5,-2.5160783E-5,-8.0655946E-4,1.6456262E-4,-1.115454E-4,-3.355834E-5,-1.0309258E-4,1.9633598E-4,-3.659428E-5,1.6743017E-5,-1.8505396E-4,1.4655248E-4,4.3298252E-5,-2.5308675E-5,2.512634E-5,1.7509815E-4,-3.16652E-5,1.2932929E-4,5.0145183E-5,7.5518033E-6,4.338828E-5],"categories":[],"categories_nodes":[],"categories_segments":[],"categories_sizes":[],"default_left":[0,0,0,0,0,0,0,0,0,0,0,0,0,0,0,0,0,0,0,0,0,0,0],"id":4,"left_children":[1,3,5,-1,7,9,11,-1,-1,13,-1,-1,15,17,-1,-1,-1,19,-1,21,-1,-1,-1],"loss_changes":[8.359771E-6,1.5676533E-6,3.3627557E-6,0E0,1.133435E-6,1.7574416E-6,1.651044E-6,0E0,0E0,1.0557496E-6,0E0,0E0,1.9336755E-6,1.1132435E-6,0E0,0E0,0E0,1.0703468E-6,0E0,1.0816459E-6,0E0,0E0,0E0],"parents":[2147483647,0,0,1,1,2,2,4,4,5,5,6,6,9,9,12,12,13,13,17,17,19,19],"right_children":[2,4,6,-1,8,10,12,-1,-1,14,-1,-1,16,18,-1,-1,-1,20,-1,22,-1,-1,-1],"split_conditions":[-1.10667035E-1,-7.0587106E-2,5.7142857E1,-2.5160783E-5,1.8540052E1,1.8936445E-1,-8.846154E1,-3.355834E-5,-1.0309258E-4,4.3712032E1,-3.659428E-5,1.6743017E-5,2.7728031E1,4.246083E1,4.3298252E-5,-2.5308675E-5,2.512634E-5,1.0117866E-1,-3.16652E-5,4.5493247E3,5.0145183E-5,7.5518033E-6,4.338828E-5],"split_indices":[9,29,17,0,15,10,53,0,0,37,0,0,7,37,0,0,0,10,0,151,0,0,0],"split_type":[0,0,0,0,0,0,0,0,0,0,0,0,0,0,0,0,0,0,0,0,0,0,0],"sum_hessian":[2E2,2.3E1,1.77E2,1E1,1.3E1,9.9E1,7.8E1,5E0,8E0,9.4E1,5E0,1.6E1,6.2E1,7.9E1,1.5E1,5.4E1,8E0,7.5E1,4E0,6.7E1,8E0,5.8E1,9E0],"tree_param":{"num_deleted":"0","num_feature":"153","num_nodes":"23","size_leaf_vector":"1"}},{"base_weights":[-8.8466695E-6,-2.1842291E-4,1.2859698E-4,-1.6883475E-4,-6.972693E-4,9.84011E-5,6.8088586E-5,-3.97736E-6,-3.95644E-4,-1.559693E-5,-1.0642519E-4,1.4036328E-4,-2.1135469E-5,5.253356E-6,-4.795187E-5,1.6380593E-4,-3.4249704E-5,-2.510262E-5,1.9391603E-4,9.286397E-6,3.5294608E-5],"categories":[],"categories_nodes":[],"categories_segments":[],"categories_sizes":[],"default_left":[0,0,0,0,0,0,0,0,0,0,0,0,0,0,0,0,0,0,0,0,0],"id":5,"left_children":[1,3,5,7,9,11,-1,-1,13,-1,-1,15,-1,-1,-1,17,-1,-1,19,-1,-1],"loss_changes":[5.6738536E-6,1.7343953E-6,1.917545E-6,2.0918665E-6,1.2245428E-6,1.5114415E-6,0E0,0E0,1.002551E-6,0E0,0E0,1.1993757E-6,0E0,0E0,0E0,1.2602698E-6,0E0,0E0,1.4296224E-6,0E0,0E0],"parents":[2147483647,0,0,1,1,2,2,3,3,4,4,5,5,8,8,11,11,15,15,18,18],"right_children":[2,4,6,8,10,12,-1,-1,14,-1,-1,16,-1,-1,-1,18,-1,-1,20,-1,-1],"split_conditions":[-1.9765541E-2,4.4768795E1,3.8358265E-1,4.84465E1,-9.0163743E-1,9.5E-2,6.8088586E-5,-3.97736E-6,1.9E1,-1.559693E-5,-1.0642519E-4,1.8936445E-1,-2.1135469E-5,5.253356E-6,-4.795187E-5,0E0,-3.4249704E-5,-2.510262E-5,2.041097E1,9.286397E-6,3.5294608E-5],"split_indices":[9,34,40,52,11,149,0,0,5,0,0,10,0,0,0,98,0,0,15,0,0],"split_type":[0,0,0,0,0,0,0,0,0,0,0,0,0,0,0,0,0,0,0,0,0],"sum_hessian":[1.95E2,7.7E1,1.18E2,7.1E1,6E0,1.13E2,5E0,4.6E1,2.5E1,3E0,3E0,1E2,1.3E1,4E0,2.1E1,9.6E1,4E0,6E0,9E1,5.6E1,3.4E1],"tree_param":{"num_deleted":"0","num_feature":"153","num_nodes":"21","size_leaf_vector":"1"}},{"base_weights":[-1.52769E-5,-1.1243417E-4,2.0477196E-4,-3.8324224E-4,-5.494002E-5,2.523435E-4,-1.9825777E-5,-2.1911015E-4,-7.5054726E-5,-1.5170785E-4,8.829232E-5,3.3813692E-6,3.4112978E-5,-4.9112186E-5,-1.3643432E-7,-7.464355E-7,-3.163704E-5,-1.8076575E-5,1.7552578E-5,-1.2831198E-5,2.1799066E-5],"categories":[],"categories_nodes":[],"categories_segments":[],"categories_sizes":[],"default_left":[0,0,0,0,0,0,0,0,0,0,0,0,0,0,0,0,0,0,0,0,0],"id":6,"left_children":[1,3,5,7,9,11,-1,13,-1,15,17,-1,-1,-1,-1,19,-1,-1,-1,-1,-1],"loss_changes":[4.2561337E-6,2.1275882E-6,1.2195671E-6,1.2824239E-6,1.6073272E-6,1.0555993E-6,0E0,1.0654592E-6,0E0,1.7149446E-6,1.1348596E-6,0E0,0E0,0E0,0E0,1.0603935E-6,0E0,0E0,0E0,0E0,0E0],"parents":[2147483647,0,0,1,1,2,2,3,3,4,4,5,5,7,7,9,9,10,10,15,15],"right_children":[2,4,6,8,10,12,-1,14,-1,16,18,-1,-1,-1,-1,20,-1,-1,-1,-1,-1],"split_conditions":[4.2116854E-2,-1.10667035E-1,9.198394E1,-1.06525645E-2,3.8157567E-2,1.6588476E1,-1.9825777E-5,-1.4583035E-1,-7.5054726E-5,4.8489315E1,3.5714287E1,3.3813692E-6,3.4112978E-5,-4.9112186E-5,-1.3643432E-7,-1.4285714E1,-3.163704E-5,-1.8076575E-5,1.7552578E-5,-1.2831198E-5,2.1799066E-5],"split_indices":[9,9,46,29,144,23,0,9,0,52,17,0,0,0,0,19,0,0,0,0,0],"split_type":[0,0,0,0,0,0,0,0,0,0,0,0,0,0,0,0,0,0,0,0,0],"sum_hessian":[1.97E2,1.37E2,6E1,2.3E1,1.14E2,5.4E1,6E0,1.7E1,6E0,6.8E1,4.6E1,1.6E1,3.8E1,7E0,1E1,3.6E1,3.2E1,1.1E1,3.5E1,2.3E1,1.3E1],"tree_param":{"num_deleted":"0","num_feature":"153","num_nodes":"21","size_leaf_vector":"1"}},{"base_weights":[-1.7015587E-5,1.0318565E-4,-1.382591E-4,2.5029798E-5,3.34642E-6,-4.237395E-5,-6.516076E-5,-9.793349E-6,-6.411647E-5,-5.3343625E-5,3.588275E-6],"categories":[],"categories_nodes":[],"categories_segments":[],"categories_sizes":[],"default_left":[0,0,0,0,0,0,0,0,0,0,0],"id":7,"left_children":[1,3,5,-1,-1,-1,7,9,-1,-1,-1],"loss_changes":[2.8998431E-6,1.0173125E-6,2.038335E-6,0E0,0E0,0E0,2.5450686E-6,1.7890703E-6,0E0,0E0,0E0],"parents":[2147483647,0,0,1,1,2,2,6,6,7,7],"right_children":[2,4,6,-1,-1,-1,8,10,-1,-1,-1],"split_conditions":[5.7142857E1,4.4670815E1,7.142857E1,2.5029798E-5,3.34642E-6,-4.237395E-5,2.98473E1,3.2344765E1,-6.411647E-5,-5.3343625E-5,3.588275E-6],"split_indices":[17,50,17,0,0,0,7,52,0,0,0],"split_type":[0,0,0,0,0,0,0,0,0,0,0],"sum_hessian":[1.97E2,9.9E1,9.8E1,3.1E1,6.8E1,1.9E1,7.9E1,7.3E1,6E0,5E0,6.8E1],"tree_param":{"num_deleted":"0","num_feature":"153","num_nodes":"11","size_leaf_vector":"1"}},{"base_weights":[-1.3481842E-5,-3.6215212E-4,2.6672682E-5,-3.7945617E-6,-5.338059E-4,-4.87856E-5,1.293026E-4,-3.0080297E-5,-9.82862E-5,-8.1289036E-5,4.794003E-5,-1.9465085E-6,2.495172E-4,4.378914E-6,-1.8796652E-4,1.1515436E-5,4.52262E-5,-1.6227907E-6,-3.2361342E-5],"categories":[],"categories_nodes":[],"categories_segments":[],"categories_sizes":[],"default_left":[0,0,0,0,0,0,0,0,0,0,0,0,0,0,0,0,0,0,0],"id":8,"left_children":[1,3,5,-1,7,9,11,-1,-1,13,-1,-1,15,-1,17,-1,-1,-1,-1],"loss_changes":[2.7117926E-6,1.0927699E-6,1.3538124E-6,0E0,1.0645604E-6,1.7729235E-6,1.3282767E-6,0E0,0E0,1.2891612E-6,0E0,0E0,1.0648162E-6,0E0,1.2061305E-6,0E0,0E0,0E0,0E0],"parents":[2147483647,0,0,1,1,2,2,4,4,5,5,6,6,9,9,12,12,14,14],"right_children":[2,4,6,-1,8,10,12,-1,-1,14,-1,-1,16,-1,18,-1,-1,-1,-1],"split_conditions":[-1.1183188E-1,-7.248383E-2,3.8157567E-2,-3.7945617E-6,7.858847E1,1.221713E-1,1.9838106E1,-3.0080297E-5,-9.82862E-5,4.779425E1,4.794003E-5,-1.9465085E-6,3.3333334E-1,4.378914E-6,3.5714287E1,1.1515436E-5,4.52262E-5,-1.6227907E-6,-3.2361342E-5],"split_indices":[9,29,144,0,54,9,23,0,0,52,0,0,20,0,17,0,0,0,0],"split_type":[0,0,0,0,0,0,0,0,0,0,0,0,0,0,0,0,0,0,0],"sum_hessian":[1.92E2,1.9E1,1.73E2,7E0,1.2E1,1E2,7.3E1,9E0,3E0,9.5E1,5E0,3.3E1,4E1,4.4E1,5.1E1,2.5E1,1.5E1,2.3E1,2.8E1],"tree_param":{"num_deleted":"0","num_feature":"153","num_nodes":"19","size_leaf_vector":"1"}},{"base_weights":[1.1033721E-5,-9.247216E-5,1.7313707E-4,-3.4953252E-4,-3.5276953E-5,1.1362726E-4,4.4363487E-4,-5.58808E-5,-8.4088026E-7,-7.479155E-5,2.4755785E-5,4.4701497E-5,3.6998583E-5,6.47808E-5,-1.2603667E-6,-1.1560908E-5,2.4290082E-5,1.9874298E-5,-1.3045773E-5],"categories":[],"categories_nodes":[],"categories_segments":[],"categories_sizes":[],"default_left":[0,0,0,0,0,0,0,0,0,0,0,0,0,0,0,0,0,0,0],"id":9,"left_children":[1,3,5,7,9,11,13,-1,-1,15,-1,17,-1,-1,-1,-1,-1,-1,-1],"loss_changes":[3.1871753E-6,1.6931734E-6,1.1407892E-6,1.494466E-6,1.091421E-6,1.078983E-6,1.2191358E-6,0E0,0E0,1.1303121E-6,0E0,1.3750168E-6,0E0,0E0,0E0,0E0,0E0,0E0,0E0],"parents":[2147483647,0,0,1,1,2,2,3,3,4,4,5,5,6,6,9,9,11,11],"right_children":[2,4,6,8,10,12,14,-1,-1,16,-1,18,-1,-1,-1,-1,-1,-1,-1],"split_conditions":[1.8321915E-2,-1.10667035E-1,1.1329559E-1,7.844037E1,9.41394E1,3.5955763E-1,7.740535E-1,-5.58808E-5,-8.4088026E-7,4.3693176E1,2.4755785E-5,1.8531196E-2,3.6998583E-5,6.47808E-5,-1.2603667E-6,-1.1560908E-5,2.4290082E-5,1.9874298E-5,-1.3045773E-5],"split_indices":[9,9,9,56,50,38,11,0,0,34,0,29,0,0,0,0,0,0,0],"split_type":[0,0,0,0,0,0,0,0,0,0,0,0,0,0,0,0,0,0,0],"sum_hessian":[1.88E2,1.15E2,7.3E1,2E1,9.5E1,6.1E1,1.2E1,1.2E1,8E0,8.4E1,1.1E1,4.9E1,1.2E1,8E0,4E0,7.5E1,9E0,2.6E1,2.3E1],"tree_param":{"num_deleted":"0","num_feature":"153","num_nodes":"19","size_leaf_vector":"1"}},{"base_weights":[-5.4812363E-6,-1.0175153E-4,1.2741677E-4,-4.6649866E-6,-3.1753312E-4,9.275611E-5,6.218434E-5,-7.3133335E-5,-1.849479E-5,1.1935883E-5,-4.0928175E-5],"categories":[],"categories_nodes":[],"categories_segments":[],"categories_sizes":[],"default_left":[0,0,0,0,0,0,0,0,0,0,0],"id":10,"left_children":[1,3,5,-1,7,9,-1,-1,-1,-1,-1],"loss_changes":[2.4054673E-6,1.2811889E-6,1.2961556E-6,0E0,1.0717449E-6,1.0505191E-6,0E0,0E0,0E0,0E0,0E0],"parents":[2147483647,0,0,1,1,2,2,4,4,5,5],"right_children":[2,4,6,-1,8,10,-1,-1,-1,-1,-1],"split_conditions":[1.8321915E-2,7.601686E-2,7.866876E1,-4.6649866E-6,5.9964843E-2,1.8936445E-1,6.218434E-5,-7.3133335E-5,-1.849479E-5,1.1935883E-5,-4.0928175E-5],"split_indices":[9,148,71,0,147,10,0,0,0,0,0],"split_type":[0,0,0,0,0,0,0,0,0,0,0],"sum_hessian":[1.86E2,1.08E2,7.8E1,8.7E1,2.1E1,7.4E1,4E0,4E0,1.7E1,7.1E1,3E0],"tree_param":{"num_deleted":"0","num_feature":"153","num_nodes":"11","size_leaf_vector":"1"}},{"base_weights":[3.2553974E-6,-4.2252723E-5,2.395155E-6],"categories":[],"categories_nodes":[],"categories_segments":[],"categories_sizes":[],"default_left":[0,0,0],"id":11,"left_children":[1,-1,-1],"loss_changes":[1.7108482E-6,0E0,0E0],"parents":[2147483647,0,0],"right_children":[2,-1,-1],"split_conditions":[-1.4583035E-1,-4.2252723E-5,2.395155E-6],"split_indices":[9,0,0],"split_type":[0,0,0],"sum_hessian":[1.92E2,8E0,1.84E2],"tree_param":{"num_deleted":"0","num_feature":"153","num_nodes":"3","size_leaf_vector":"1"}},{"base_weights":[2.6249221E-5,-4.5977085E-5,1.3292709E-5,-6.4313303E-7,-2.697124E-4,-6.521539E-5,-2.4145477E-6],"categories":[],"categories_nodes":[],"categories_segments":[],"categories_sizes":[],"default_left":[0,0,0,0,0,0,0],"id":12,"left_children":[1,3,-1,-1,5,-1,-1],"loss_changes":[1.5471011E-6,1.0599991E-6,0E0,0E0,1.6747231E-6,0E0,0E0],"parents":[2147483647,0,0,1,1,4,4],"right_children":[2,4,-1,-1,6,-1,-1],"split_conditions":[1.8321915E-2,5.5371105E1,1.3292709E-5,-6.4313303E-7,7.83348E1,-6.521539E-5,-2.4145477E-6],"split_indices":[9,52,0,0,66,0,0],"split_type":[0,0,0,0,0,0,0],"sum_hessian":[1.99E2,1.19E2,8E1,1.02E2,1.7E1,6E0,1.1E1],"tree_param":{"num_deleted":"0","num_feature":"153","num_nodes":"7","size_leaf_vector":"1"}},{"base_weights":[-1.0638059E-5,-1.3720384E-4,9.5918556E-5,-1.9759806E-5,4.7318357E-5,4.954392E-6,3.080988E-5,2.587293E-5,-1.6803579E-5],"categories":[],"categories_nodes":[],"categories_segments":[],"categories_sizes":[],"default_left":[0,0,0,0,0,0,0,0,0],"id":13,"left_children":[1,3,5,-1,7,-1,-1,-1,-1],"loss_changes":[2.656499E-6,1.0123165E-6,1.0375923E-6,0E0,1.0906249E-6,0E0,0E0,0E0,0E0],"parents":[2147483647,0,0,1,1,2,2,4,4],"right_children":[2,4,6,-1,8,-1,-1,-1,-1],"split_conditions":[-4.529679E-3,7.530007E-1,2.8175277E-1,-1.9759806E-5,8.6979E4,4.954392E-6,3.080988E-5,2.587293E-5,-1.6803579E-5],"split_indices":[9,12,35,0,152,0,0,0,0],"split_type":[0,0,0,0,0,0,0,0,0],"sum_hessian":[1.95E2,8.9E1,1.06E2,6.7E1,2.2E1,8.8E1,1.8E1,1.1E1,1.1E1],"tree_param":{"num_deleted":"0","num_feature":"153","num_nodes":"9","size_leaf_vector":"1"}},{"base_weights":[-1.597575E-5,7.497724E-6,-3.6323763E-5,2.5933698E-5,-3.7229704E-5,-4.936777E-5,3.7211237E-6],"categories":[],"categories_nodes":[],"categories_segments":[],"categories_sizes":[],"default_left":[0,0,0,0,0,0,0],"id":14,"left_children":[1,3,-1,5,-1,-1,-1],"loss_changes":[1.6737691E-6,1.361019E-6,0E0,1.1024588E-6,0E0,0E0,0E0],"parents":[2147483647,0,0,1,1,3,3],"right_children":[2,4,-1,6,-1,-1,-1],"split_conditions":[1.0343305E0,1.8936445E-1,-3.6323763E-5,-3.4E-1,-3.7229704E-5,-4.936777E-5,3.7211237E-6],"split_indices":[138,10,0,36,0,0,0],"split_type":[0,0,0,0,0,0,0],"sum_hessian":[2.04E2,1.92E2,1.2E1,1.84E2,8E0,3E0,1.81E2],"tree_param":{"num_deleted":"0","num_feature":"153","num_nodes":"7","size_leaf_vector":"1"}},{"base_weights":[1.7494147E-5,-2.867907E-5,4.9052716E-5,3.600806E-6,5.9118756E-5],"categories":[],"categories_nodes":[],"categories_segments":[],"categories_sizes":[],"default_left":[0,0,0,0,0],"id":15,"left_children":[1,-1,3,-1,-1],"loss_changes":[1.8385988E-6,0E0,1.2021624E-6,0E0,0E0],"parents":[2147483647,0,0,2,2],"right_children":[2,-1,4,-1,-1],"split_conditions":[-1.10667035E-1,-2.867907E-5,3.8267747E-1,3.600806E-6,5.9118756E-5],"split_indices":[9,0,40,0,0],"split_type":[0,0,0,0,0],"sum_hessian":[1.89E2,1.7E1,1.72E2,1.69E2,3E0],"tree_param":{"num_deleted":"0","num_feature":"153","num_nodes":"5","size_leaf_vector":"1"}},{"base_weights":[-8.342795E-6,-2.5369836E-5,2.6344712E-6],"categories":[],"categories_nodes":[],"categories_segments":[],"categories_sizes":[],"default_left":[0,0,0],"id":16,"left_children":[1,-1,-1],"loss_changes":[1.6492627E-6,0E0,0E0],"parents":[2147483647,0,0],"right_children":[2,-1,-1],"split_conditions":[-1.10667035E-1,-2.5369836E-5,2.6344712E-6],"split_indices":[9,0,0],"split_type":[0,0,0],"sum_hessian":[1.92E2,2.3E1,1.69E2],"tree_param":{"num_deleted":"0","num_feature":"153","num_nodes":"3","size_leaf_vector":"1"}},{"base_weights":[-3.5276064E-6,7.179489E-5,-7.3646326E-5,9.552187E-5,-3.743951E-5,-3.1251235E-5,-2.2196516E-6,6.2143913E-6,4.340502E-5],"categories":[],"categories_nodes":[],"categories_segments":[],"categories_sizes":[],"default_left":[0,0,0,0,0,0,0,0,0],"id":17,"left_children":[1,3,5,7,-1,-1,-1,-1,-1],"loss_changes":[1.0404648E-6,1.0415033E-6,1.2466035E-6,1.0012704E-6,0E0,0E0,0E0,0E0,0E0],"parents":[2147483647,0,0,1,1,2,2,3,3],"right_children":[2,4,6,8,-1,-1,-1,-1,-1],"split_conditions":[5.7142857E1,1.8936445E-1,7.142857E1,1.4394285E-1,-3.743951E-5,-3.1251235E-5,-2.2196516E-6,6.2143913E-6,4.340502E-5],"split_indices":[17,10,17,10,0,0,0,0,0],"split_type":[0,0,0,0,0,0,0,0,0],"sum_hessian":[1.95E2,9.4E1,1.01E2,9E1,4E0,1.7E1,8.4E1,8.3E1,7E0],"tree_param":{"num_deleted":"0","num_feature":"153","num_nodes":"9","size_leaf_vector":"1"}},{"base_weights":[-4.6927257E-6,-2.1721842E-5,2.2489405E-6],"categories":[],"categories_nodes":[],"categories_segments":[],"categories_sizes":[],"default_left":[0,0,0],"id":18,"left_children":[1,-1,-1],"loss_changes":[1.1718191E-6,0E0,0E0],"parents":[2147483647,0,0],"right_children":[2,-1,-1],"split_conditions":[-1.10667035E-1,-2.1721842E-5,2.2489405E-6],"split_indices":[9,0,0],"split_type":[0,0,0],"sum_hessian":[2.01E2,2.2E1,1.79E2],"tree_param":{"num_deleted":"0","num_feature":"153","num_nodes":"3","size_leaf_vector":"1"}},{"base_weights":[2.009987E-7],"categories":[],"categories_nodes":[],"categories_segments":[],"categories_sizes":[],"default_left":[0],"id":19,"left_children":[-1],"loss_changes":[0E0],"parents":[2147483647],"right_children":[-1],"split_conditions":[2.009987E-8],"split_indices":[0],"split_type":[0],"sum_hessian":[1.97E2],"tree_param":{"num_deleted":"0","num_feature":"153","num_nodes":"1","size_leaf_vector":"1"}},{"base_weights":[-8.330906E-6,-3.2445694E-6,2.0106063E-4,5.6162997E-5,5.328084E-5,-1.0790747E-5,4.294766E-5],"categories":[],"categories_nodes":[],"categories_segments":[],"categories_sizes":[],"default_left":[0,0,0,0,0,0,0],"id":20,"left_children":[1,-1,3,-1,5,-1,-1],"loss_changes":[1.0265089E-6,0E0,1.089058E-6,0E0,1.0165576E-6,0E0,0E0],"parents":[2147483647,0,0,2,2,4,4],"right_children":[2,-1,4,-1,6,-1,-1],"split_conditions":[1.0652059E-1,-3.2445694E-6,-6.666667E-1,5.6162997E-5,7.854127E1,-1.0790747E-5,4.294766E-5],"split_indices":[9,0,20,0,58,0,0],"split_type":[0,0,0,0,0,0,0],"sum_hessian":[2.01E2,1.81E2,2E1,5E0,1.5E1,1.1E1,4E0],"tree_param":{"num_deleted":"0","num_feature":"153","num_nodes":"7","size_leaf_vector":"1"}},{"base_weights":[-9.628964E-6,9.809575E-6,-2.5909625E-5,-3.541497E-7,4.2650823E-5],"categories":[],"categories_nodes":[],"categories_segments":[],"categories_sizes":[],"default_left":[0,0,0,0,0],"id":21,"left_children":[1,3,-1,-1,-1],"loss_changes":[1.0063425E-6,1.0752416E-6,0E0,0E0,0E0],"parents":[2147483647,0,0,1,1],"right_children":[2,4,-1,-1,-1],"split_conditions":[1.0343305E0,6.864137E-2,-2.5909625E-5,-3.541497E-7,4.2650823E-5],"split_indices":[138,147,0,0,0],"split_type":[0,0,0,0,0],"sum_hessian":[2.06E2,1.92E2,1.4E1,1.87E2,5E0],"tree_param":{"num_deleted":"0","num_feature":"153","num_nodes":"5","size_leaf_vector":"1"}},{"base_weights":[1.1272839E-5],"categories":[],"categories_nodes":[],"categories_segments":[],"categories_sizes":[],"default_left":[0],"id":22,"left_children":[-1],"loss_changes":[0E0],"parents":[2147483647],"right_children":[-1],"split_conditions":[1.127284E-6],"split_indices":[0],"split_type":[0],"sum_hessian":[1.97E2],"tree_param":{"num_deleted":"0","num_feature":"153","num_nodes":"1","size_leaf_vector":"1"}},{"base_weights":[1.4458999E-5,6.260032E-7,4.477886E-5,-5.8473433E-5,1.0013463E-6],"categories":[],"categories_nodes":[],"categories_segments":[],"categories_sizes":[],"default_left":[0,0,0,0,0],"id":23,"left_children":[1,3,-1,-1,-1],"loss_changes":[1.1626034E-6,1.044419E-6,0E0,0E0,0E0],"parents":[2147483647,0,0,1,1],"right_children":[2,4,-1,-1,-1],"split_conditions":[3.8358265E-1,-1.795826E-1,4.477886E-5,-5.8473433E-5,1.0013463E-6],"split_indices":[40,9,0,0,0],"split_type":[0,0,0,0,0],"sum_hessian":[1.93E2,1.88E2,5E0,2E0,1.86E2],"tree_param":{"num_deleted":"0","num_feature":"153","num_nodes":"5","size_leaf_vector":"1"}},{"base_weights":[-5.1833977E-6,-1.231593E-4,4.470208E-6,3.5196679E-6,-2.6282069E-5],"categories":[],"categories_nodes":[],"categories_segments":[],"categories_sizes":[],"default_left":[0,0,0,0,0],"id":24,"left_children":[1,3,-1,-1,-1],"loss_changes":[1.1884476E-6,1.336223E-6,0E0,0E0,0E0],"parents":[2147483647,0,0,1,1],"right_children":[2,4,-1,-1,-1],"split_conditions":[-8.410401E1,-1.2330125E2,4.470208E-6,3.5196679E-6,-2.6282069E-5],"split_indices":[21,21,0,0,0],"split_type":[0,0,0,0,0],"sum_hessian":[2E2,5.9E1,1.41E2,2.8E1,3.1E1],"tree_param":{"num_deleted":"0","num_feature":"153","num_nodes":"5","size_leaf_vector":"1"}},{"base_weights":[-3.669238E-6],"categories":[],"categories_nodes":[],"categories_segments":[],"categories_sizes":[],"default_left":[0],"id":25,"left_children":[-1],"loss_changes":[0E0],"parents":[2147483647],"right_children":[-1],"split_conditions":[-3.6692379E-7],"split_indices":[0],"split_type":[0],"sum_hessian":[1.89E2],"tree_param":{"num_deleted":"0","num_feature":"153","num_nodes":"1","size_leaf_vector":"1"}},{"base_weights":[-1.0978818E-5,-2.371971E-6,4.070534E-5],"categories":[],"categories_nodes":[],"categories_segments":[],"categories_sizes":[],"default_left":[0,0,0],"id":26,"left_children":[1,-1,-1],"loss_changes":[1.0802019E-6,0E0,0E0],"parents":[2147483647,0,0],"right_children":[2,-1,-1],"split_conditions":[3.8358265E-1,-2.371971E-6,4.070534E-5],"split_indices":[40,0,0],"split_type":[0,0,0],"sum_hessian":[2E2,1.95E2,5E0],"tree_param":{"num_deleted":"0","num_feature":"153","num_nodes":"3","size_leaf_vector":"1"}},{"base_weights":[2.0000012E-5],"categories":[],"categories_nodes":[],"categories_segments":[],"categories_sizes":[],"default_left":[0],"id":27,"left_children":[-1],"loss_changes":[0E0],"parents":[2147483647],"right_children":[-1],"split_conditions":[2.0000014E-6],"split_indices":[0],"split_type":[0],"sum_hessian":[1.98E2],"tree_param":{"num_deleted":"0","num_feature":"153","num_nodes":"1","size_leaf_vector":"1"}},{"base_weights":[2.0570828E-6],"categories":[],"categories_nodes":[],"categories_segments":[],"categories_sizes":[],"default_left":[0],"id":28,"left_children":[-1],"loss_changes":[0E0],"parents":[2147483647],"right_children":[-1],"split_conditions":[2.0570829E-7],"split_indices":[0],"split_type":[0],"sum_hessian":[2.07E2],"tree_param":{"num_deleted":"0","num_feature":"153","num_nodes":"1","size_leaf_vector":"1"}},{"base_weights":[-5.8367677E-6],"categories":[],"categories_nodes":[],"categories_segments":[],"categories_sizes":[],"default_left":[0],"id":29,"left_children":[-1],"loss_changes":[0E0],"parents":[2147483647],"right_children":[-1],"split_conditions":[-5.836768E-7],"split_indices":[0],"split_type":[0],"sum_hessian":[1.91E2],"tree_param":{"num_deleted":"0","num_feature":"153","num_nodes":"1","size_leaf_vector":"1"}},{"base_weights":[8.806401E-6],"categories":[],"categories_nodes":[],"categories_segments":[],"categories_sizes":[],"default_left":[0],"id":30,"left_children":[-1],"loss_changes":[0E0],"parents":[2147483647],"right_children":[-1],"split_conditions":[8.806401E-7],"split_indices":[0],"split_type":[0],"sum_hessian":[2.03E2],"tree_param":{"num_deleted":"0","num_feature":"153","num_nodes":"1","size_leaf_vector":"1"}},{"base_weights":[-1.3415969E-5],"categories":[],"categories_nodes":[],"categories_segments":[],"categories_sizes":[],"default_left":[0],"id":31,"left_children":[-1],"loss_changes":[0E0],"parents":[2147483647],"right_children":[-1],"split_conditions":[-1.3415969E-6],"split_indices":[0],"split_type":[0],"sum_hessian":[1.92E2],"tree_param":{"num_deleted":"0","num_feature":"153","num_nodes":"1","size_leaf_vector":"1"}},{"base_weights":[4.1502582E-7,1.569518E-5,-3.285163E-5,-4.8317735E-5,3.7216476E-5,2.58699E-5,-6.901534E-6],"categories":[],"categories_nodes":[],"categories_segments":[],"categories_sizes":[],"default_left":[0,0,0,0,0,0,0],"id":32,"left_children":[1,-1,3,5,-1,-1,-1],"loss_changes":[1.010195E-6,0E0,1.0202263E-6,1.0028032E-6,0E0,0E0,0E0],"parents":[2147483647,0,0,2,2,3,3],"right_children":[2,-1,4,6,-1,-1,-1],"split_conditions":[-6.183206E-1,1.569518E-5,3.8358265E-1,-1.5962622E-1,3.7216476E-5,2.58699E-5,-6.901534E-6],"split_indices":[20,0,40,10,0,0,0],"split_type":[0,0,0,0,0,0,0],"sum_hessian":[1.92E2,3.3E1,1.59E2,1.54E2,5E0,9E0,1.45E2],"tree_param":{"num_deleted":"0","num_feature":"153","num_nodes":"7","size_leaf_vector":"1"}},{"base_weights":[5.771307E-6,-2.8384106E-6,1.9684925E-5],"categories":[],"categories_nodes":[],"categories_segments":[],"categories_sizes":[],"default_left":[0,0,0],"id":33,"left_children":[1,-1,-1],"loss_changes":[1.2912775E-6,0E0,0E0],"parents":[2147483647,0,0],"right_children":[2,-1,-1],"split_conditions":[3.808E3,-2.8384106E-6,1.9684925E-5],"split_indices":[4,0,0],"split_type":[0,0,0],"sum_hessian":[1.96E2,1.67E2,2.9E1],"tree_param":{"num_deleted":"0","num_feature":"153","num_nodes":"3","size_leaf_vector":"1"}},{"base_weights":[2.0079546E-5],"categories":[],"categories_nodes":[],"categories_segments":[],"categories_sizes":[],"default_left":[0],"id":34,"left_children":[-1],"loss_changes":[0E0],"parents":[2147483647],"right_children":[-1],"split_conditions":[2.0079547E-6],"split_indices":[0],"split_type":[0],"sum_hessian":[1.92E2],"tree_param":{"num_deleted":"0","num_feature":"153","num_nodes":"1","size_leaf_vector":"1"}},{"base_weights":[1.611505E-5],"categories":[],"categories_nodes":[],"categories_segments":[],"categories_sizes":[],"default_left":[0],"id":35,"left_children":[-1],"loss_changes":[0E0],"parents":[2147483647],"right_children":[-1],"split_conditions":[1.6115049E-6],"split_indices":[0],"split_type":[0],"sum_hessian":[1.98E2],"tree_param":{"num_deleted":"0","num_feature":"153","num_nodes":"1","size_leaf_vector":"1"}},{"base_weights":[-6.408232E-6],"categories":[],"categories_nodes":[],"categories_segments":[],"categories_sizes":[],"default_left":[0],"id":36,"left_children":[-1],"loss_changes":[0E0],"parents":[2147483647],"right_children":[-1],"split_conditions":[-6.408232E-7],"split_indices":[0],"split_type":[0],"sum_hessian":[2.01E2],"tree_param":{"num_deleted":"0","num_feature":"153","num_nodes":"1","size_leaf_vector":"1"}},{"base_weights":[-1.9052268E-5],"categories":[],"categories_nodes":[],"categories_segments":[],"categories_sizes":[],"default_left":[0],"id":37,"left_children":[-1],"loss_changes":[0E0],"parents":[2147483647],"right_children":[-1],"split_conditions":[-1.9052268E-6],"split_indices":[0],"split_type":[0],"sum_hessian":[2E2],"tree_param":{"num_deleted":"0","num_feature":"153","num_nodes":"1","size_leaf_vector":"1"}},{"base_weights":[-2.11984E-6,7.013626E-6,-8.779429E-5,2.2691613E-6,-2.6592897E-4,7.0968454E-6,-3.7657486E-5],"categories":[],"categories_nodes":[],"categories_segments":[],"categories_sizes":[],"default_left":[0,0,0,0,0,0,0],"id":38,"left_children":[1,-1,3,-1,5,-1,-1],"loss_changes":[1.1637812E-6,0E0,1.6986322E-6,0E0,1.2568435E-6,0E0,0E0],"parents":[2147483647,0,0,2,2,4,4],"right_children":[2,-1,4,-1,6,-1,-1],"split_conditions":[5.7142857E1,7.013626E-6,4.8489315E1,2.2691613E-6,-3.7214187E-1,7.0968454E-6,-3.7657486E-5],"split_indices":[17,0,52,0,11,0,0],"split_type":[0,0,0,0,0,0,0],"sum_hessian":[1.86E2,1.01E2,8.5E1,5.3E1,3.2E1,8E0,2.4E1],"tree_param":{"num_deleted":"0","num_feature":"153","num_nodes":"7","size_leaf_vector":"1"}},{"base_weights":[-1.4271276E-6,-2.0239711E-5,2.4286632E-5,-5.007542E-5,1.3077456E-5,6.563495E-7,-2.2478582E-4,-5.602005E-5,-8.9381165E-6],"categories":[],"categories_nodes":[],"categories_segments":[],"categories_sizes":[],"default_left":[0,0,0,0,0,0,0,0,0],"id":39,"left_children":[1,-1,3,5,-1,-1,7,-1,-1],"loss_changes":[1.0022803E-6,0E0,1.3685583E-6,1.0108072E-6,0E0,0E0,1.0853462E-6,0E0,0E0],"parents":[2147483647,0,0,2,2,3,3,6,6],"right_children":[2,-1,4,6,-1,-1,8,-1,-1],"split_conditions":[-1.10667035E-1,-2.0239711E-5,3.8E-2,5.5753025E1,1.3077456E-5,6.563495E-7,6.832558E1,-5.602005E-5,-8.9381165E-6],"split_indices":[9,0,144,52,0,0,33,0,0],"split_type":[0,0,0,0,0,0,0,0,0],"sum_hessian":[1.92E2,2.1E1,1.71E2,1.01E2,7E1,7.7E1,2.4E1,6E0,1.8E1],"tree_param":{"num_deleted":"0","num_feature":"153","num_nodes":"9","size_leaf_vector":"1"}},{"base_weights":[6.2889208E-6],"categories":[],"categories_nodes":[],"categories_segments":[],"categories_sizes":[],"default_left":[0],"id":40,"left_children":[-1],"loss_changes":[0E0],"parents":[2147483647],"right_children":[-1],"split_conditions":[6.288921E-7],"split_indices":[0],"split_type":[0],"sum_hessian":[2.12E2],"tree_param":{"num_deleted":"0","num_feature":"153","num_nodes":"1","size_leaf_vector":"1"}},{"base_weights":[-1.4072336E-5],"categories":[],"categories_nodes":[],"categories_segments":[],"categories_sizes":[],"default_left":[0],"id":41,"left_children":[-1],"loss_changes":[0E0],"parents":[2147483647],"right_children":[-1],"split_conditions":[-1.4072336E-6],"split_indices":[0],"split_type":[0],"sum_hessian":[1.91E2],"tree_param":{"num_deleted":"0","num_feature":"153","num_nodes":"1","size_leaf_vector":"1"}},{"base_weights":[8.130411E-6],"categories":[],"categories_nodes":[],"categories_segments":[],"categories_sizes":[],"default_left":[0],"id":42,"left_children":[-1],"loss_changes":[0E0],"parents":[2147483647],"right_children":[-1],"split_conditions":[8.130411E-7],"split_indices":[0],"split_type":[0],"sum_hessian":[1.95E2],"tree_param":{"num_deleted":"0","num_feature":"153","num_nodes":"1","size_leaf_vector":"1"}},{"base_weights":[1.0597143E-5],"categories":[],"categories_nodes":[],"categories_segments":[],"categories_sizes":[],"default_left":[0],"id":43,"left_children":[-1],"loss_changes":[0E0],"parents":[2147483647],"right_children":[-1],"split_conditions":[1.0597144E-6],"split_indices":[0],"split_type":[0],"sum_hessian":[2E2],"tree_param":{"num_deleted":"0","num_feature":"153","num_nodes":"1","size_leaf_vector":"1"}},{"base_weights":[-1.127554E-5],"categories":[],"categories_nodes":[],"categories_segments":[],"categories_sizes":[],"default_left":[0],"id":44,"left_children":[-1],"loss_changes":[0E0],"parents":[2147483647],"right_children":[-1],"split_conditions":[-1.127554E-6],"split_indices":[0],"split_type":[0],"sum_hessian":[2.01E2],"tree_param":{"num_deleted":"0","num_feature":"153","num_nodes":"1","size_leaf_vector":"1"}},{"base_weights":[-9.220808E-6],"categories":[],"categories_nodes":[],"categories_segments":[],"categories_sizes":[],"default_left":[0],"id":45,"left_children":[-1],"loss_changes":[0E0],"parents":[2147483647],"right_children":[-1],"split_conditions":[-9.2208086E-7],"split_indices":[0],"split_type":[0],"sum_hessian":[1.93E2],"tree_param":{"num_deleted":"0","num_feature":"153","num_nodes":"1","size_leaf_vector":"1"}},{"base_weights":[-7.981395E-6],"categories":[],"categories_nodes":[],"categories_segments":[],"categories_sizes":[],"default_left":[0],"id":46,"left_children":[-1],"loss_changes":[0E0],"parents":[2147483647],"right_children":[-1],"split_conditions":[-7.981395E-7],"split_indices":[0],"split_type":[0],"sum_hessian":[1.93E2],"tree_param":{"num_deleted":"0","num_feature":"153","num_nodes":"1","size_leaf_vector":"1"}},{"base_weights":[-1.9143135E-6],"categories":[],"categories_nodes":[],"categories_segments":[],"categories_sizes":[],"default_left":[0],"id":47,"left_children":[-1],"loss_changes":[0E0],"parents":[2147483647],"right_children":[-1],"split_conditions":[-1.9143135E-7],"split_indices":[0],"split_type":[0],"sum_hessian":[1.88E2],"tree_param":{"num_deleted":"0","num_feature":"153","num_nodes":"1","size_leaf_vector":"1"}},{"base_weights":[-7.4947175E-6],"categories":[],"categories_nodes":[],"categories_segments":[],"categories_sizes":[],"default_left":[0],"id":48,"left_children":[-1],"loss_changes":[0E0],"parents":[2147483647],"right_children":[-1],"split_conditions":[-7.494718E-7],"split_indices":[0],"split_type":[0],"sum_hessian":[1.98E2],"tree_param":{"num_deleted":"0","num_feature":"153","num_nodes":"1","size_leaf_vector":"1"}},{"base_weights":[-2.576867E-5],"categories":[],"categories_nodes":[],"categories_segments":[],"categories_sizes":[],"default_left":[0],"id":49,"left_children":[-1],"loss_changes":[0E0],"parents":[2147483647],"right_children":[-1],"split_conditions":[-2.576867E-6],"split_indices":[0],"split_type":[0],"sum_hessian":[1.95E2],"tree_param":{"num_deleted":"0","num_feature":"153","num_nodes":"1","size_leaf_vector":"1"}},{"base_weights":[4.8213897E-6],"categories":[],"categories_nodes":[],"categories_segments":[],"categories_sizes":[],"default_left":[0],"id":50,"left_children":[-1],"loss_changes":[0E0],"parents":[2147483647],"right_children":[-1],"split_conditions":[4.82139E-7],"split_indices":[0],"split_type":[0],"sum_hessian":[1.99E2],"tree_param":{"num_deleted":"0","num_feature":"153","num_nodes":"1","size_leaf_vector":"1"}},{"base_weights":[2.422396E-5],"categories":[],"categories_nodes":[],"categories_segments":[],"categories_sizes":[],"default_left":[0],"id":51,"left_children":[-1],"loss_changes":[0E0],"parents":[2147483647],"right_children":[-1],"split_conditions":[2.4223962E-6],"split_indices":[0],"split_type":[0],"sum_hessian":[1.82E2],"tree_param":{"num_deleted":"0","num_feature":"153","num_nodes":"1","size_leaf_vector":"1"}},{"base_weights":[7.345741E-6],"categories":[],"categories_nodes":[],"categories_segments":[],"categories_sizes":[],"default_left":[0],"id":52,"left_children":[-1],"loss_changes":[0E0],"parents":[2147483647],"right_children":[-1],"split_conditions":[7.345741E-7],"split_indices":[0],"split_type":[0],"sum_hessian":[1.96E2],"tree_param":{"num_deleted":"0","num_feature":"153","num_nodes":"1","size_leaf_vector":"1"}},{"base_weights":[4.525377E-6],"categories":[],"categories_nodes":[],"categories_segments":[],"categories_sizes":[],"default_left":[0],"id":53,"left_children":[-1],"loss_changes":[0E0],"parents":[2147483647],"right_children":[-1],"split_conditions":[4.525377E-7],"split_indices":[0],"split_type":[0],"sum_hessian":[1.98E2],"tree_param":{"num_deleted":"0","num_feature":"153","num_nodes":"1","size_leaf_vector":"1"}},{"base_weights":[1.2232185E-6],"categories":[],"categories_nodes":[],"categories_segments":[],"categories_sizes":[],"default_left":[0],"id":54,"left_children":[-1],"loss_changes":[0E0],"parents":[2147483647],"right_children":[-1],"split_conditions":[1.2232185E-7],"split_indices":[0],"split_type":[0],"sum_hessian":[2.04E2],"tree_param":{"num_deleted":"0","num_feature":"153","num_nodes":"1","size_leaf_vector":"1"}},{"base_weights":[7.376678E-6],"categories":[],"categories_nodes":[],"categories_segments":[],"categories_sizes":[],"default_left":[0],"id":55,"left_children":[-1],"loss_changes":[0E0],"parents":[2147483647],"right_children":[-1],"split_conditions":[7.376678E-7],"split_indices":[0],"split_type":[0],"sum_hessian":[2.04E2],"tree_param":{"num_deleted":"0","num_feature":"153","num_nodes":"1","size_leaf_vector":"1"}},{"base_weights":[-2.248254E-5],"categories":[],"categories_nodes":[],"categories_segments":[],"categories_sizes":[],"default_left":[0],"id":56,"left_children":[-1],"loss_changes":[0E0],"parents":[2147483647],"right_children":[-1],"split_conditions":[-2.248254E-6],"split_indices":[0],"split_type":[0],"sum_hessian":[2.05E2],"tree_param":{"num_deleted":"0","num_feature":"153","num_nodes":"1","size_leaf_vector":"1"}},{"base_weights":[1.7961127E-5],"categories":[],"categories_nodes":[],"categories_segments":[],"categories_sizes":[],"default_left":[0],"id":57,"left_children":[-1],"loss_changes":[0E0],"parents":[2147483647],"right_children":[-1],"split_conditions":[1.7961128E-6],"split_indices":[0],"split_type":[0],"sum_hessian":[2.02E2],"tree_param":{"num_deleted":"0","num_feature":"153","num_nodes":"1","size_leaf_vector":"1"}},{"base_weights":[8.165915E-7],"categories":[],"categories_nodes":[],"categories_segments":[],"categories_sizes":[],"default_left":[0],"id":58,"left_children":[-1],"loss_changes":[0E0],"parents":[2147483647],"right_children":[-1],"split_conditions":[8.165915E-8],"split_indices":[0],"split_type":[0],"sum_hessian":[1.96E2],"tree_param":{"num_deleted":"0","num_feature":"153","num_nodes":"1","size_leaf_vector":"1"}},{"base_weights":[1.3129959E-5],"categories":[],"categories_nodes":[],"categories_segments":[],"categories_sizes":[],"default_left":[0],"id":59,"left_children":[-1],"loss_changes":[0E0],"parents":[2147483647],"right_children":[-1],"split_conditions":[1.312996E-6],"split_indices":[0],"split_type":[0],"sum_hessian":[1.98E2],"tree_param":{"num_deleted":"0","num_feature":"153","num_nodes":"1","size_leaf_vector":"1"}},{"base_weights":[-1.6582324E-5],"categories":[],"categories_nodes":[],"categories_segments":[],"categories_sizes":[],"default_left":[0],"id":60,"left_children":[-1],"loss_changes":[0E0],"parents":[2147483647],"right_children":[-1],"split_conditions":[-1.6582325E-6],"split_indices":[0],"split_type":[0],"sum_hessian":[2.07E2],"tree_param":{"num_deleted":"0","num_feature":"153","num_nodes":"1","size_leaf_vector":"1"}},{"base_weights":[8.545025E-6],"categories":[],"categories_nodes":[],"categories_segments":[],"categories_sizes":[],"default_left":[0],"id":61,"left_children":[-1],"loss_changes":[0E0],"parents":[2147483647],"right_children":[-1],"split_conditions":[8.545025E-7],"split_indices":[0],"split_type":[0],"sum_hessian":[2.05E2],"tree_param":{"num_deleted":"0","num_feature":"153","num_nodes":"1","size_leaf_vector":"1"}},{"base_weights":[-6.07801E-6],"categories":[],"categories_nodes":[],"categories_segments":[],"categories_sizes":[],"default_left":[0],"id":62,"left_children":[-1],"loss_changes":[0E0],"parents":[2147483647],"right_children":[-1],"split_conditions":[-6.07801E-7],"split_indices":[0],"split_type":[0],"sum_hessian":[1.95E2],"tree_param":{"num_deleted":"0","num_feature":"153","num_nodes":"1","size_leaf_vector":"1"}},{"base_weights":[-9.338342E-6],"categories":[],"categories_nodes":[],"categories_segments":[],"categories_sizes":[],"default_left":[0],"id":63,"left_children":[-1],"loss_changes":[0E0],"parents":[2147483647],"right_children":[-1],"split_conditions":[-9.3383426E-7],"split_indices":[0],"split_type":[0],"sum_hessian":[2.04E2],"tree_param":{"num_deleted":"0","num_feature":"153","num_nodes":"1","size_leaf_vector":"1"}},{"base_weights":[-4.0946566E-6],"categories":[],"categories_nodes":[],"categories_segments":[],"categories_sizes":[],"default_left":[0],"id":64,"left_children":[-1],"loss_changes":[0E0],"parents":[2147483647],"right_children":[-1],"split_conditions":[-4.0946566E-7],"split_indices":[0],"split_type":[0],"sum_hessian":[1.92E2],"tree_param":{"num_deleted":"0","num_feature":"153","num_nodes":"1","size_leaf_vector":"1"}},{"base_weights":[3.6551824E-6,2.2585766E-6,-3.9907663E-5],"categories":[],"categories_nodes":[],"categories_segments":[],"categories_sizes":[],"default_left":[0,0,0],"id":65,"left_children":[1,-1,-1],"loss_changes":[1.3584522E-6,0E0,0E0],"parents":[2147483647,0,0],"right_children":[2,-1,-1],"split_conditions":[1.8936445E-1,2.2585766E-6,-3.9907663E-5],"split_indices":[10,0,0],"split_type":[0,0,0],"sum_hessian":[1.76E2,1.69E2,7E0],"tree_param":{"num_deleted":"0","num_feature":"153","num_nodes":"3","size_leaf_vector":"1"}},{"base_weights":[2.2019633E-6],"categories":[],"categories_nodes":[],"categories_segments":[],"categories_sizes":[],"default_left":[0],"id":66,"left_children":[-1],"loss_changes":[0E0],"parents":[2147483647],"right_children":[-1],"split_conditions":[2.2019633E-7],"split_indices":[0],"split_type":[0],"sum_hessian":[2.02E2],"tree_param":{"num_deleted":"0","num_feature":"153","num_nodes":"1","size_leaf_vector":"1"}},{"base_weights":[1.6464912E-6],"categories":[],"categories_nodes":[],"categories_segments":[],"categories_sizes":[],"default_left":[0],"id":67,"left_children":[-1],"loss_changes":[0E0],"parents":[2147483647],"right_children":[-1],"split_conditions":[1.6464912E-7],"split_indices":[0],"split_type":[0],"sum_hessian":[1.97E2],"tree_param":{"num_deleted":"0","num_feature":"153","num_nodes":"1","size_leaf_vector":"1"}},{"base_weights":[6.9619873E-6],"categories":[],"categories_nodes":[],"categories_segments":[],"categories_sizes":[],"default_left":[0],"id":68,"left_children":[-1],"loss_changes":[0E0],"parents":[2147483647],"right_children":[-1],"split_conditions":[6.9619875E-7],"split_indices":[0],"split_type":[0],"sum_hessian":[2.02E2],"tree_param":{"num_deleted":"0","num_feature":"153","num_nodes":"1","size_leaf_vector":"1"}},{"base_weights":[1.490827E-5],"categories":[],"categories_nodes":[],"categories_segments":[],"categories_sizes":[],"default_left":[0],"id":69,"left_children":[-1],"loss_changes":[0E0],"parents":[2147483647],"right_children":[-1],"split_conditions":[1.490827E-6],"split_indices":[0],"split_type":[0],"sum_hessian":[2.04E2],"tree_param":{"num_deleted":"0","num_feature":"153","num_nodes":"1","size_leaf_vector":"1"}},{"base_weights":[-5.3237636E-6],"categories":[],"categories_nodes":[],"categories_segments":[],"categories_sizes":[],"default_left":[0],"id":70,"left_children":[-1],"loss_changes":[0E0],"parents":[2147483647],"right_children":[-1],"split_conditions":[-5.3237636E-7],"split_indices":[0],"split_type":[0],"sum_hessian":[1.84E2],"tree_param":{"num_deleted":"0","num_feature":"153","num_nodes":"1","size_leaf_vector":"1"}},{"base_weights":[2.5171801E-5],"categories":[],"categories_nodes":[],"categories_segments":[],"categories_sizes":[],"default_left":[0],"id":71,"left_children":[-1],"loss_changes":[0E0],"parents":[2147483647],"right_children":[-1],"split_conditions":[2.51718E-6],"split_indices":[0],"split_type":[0],"sum_hessian":[1.83E2],"tree_param":{"num_deleted":"0","num_feature":"153","num_nodes":"1","size_leaf_vector":"1"}},{"base_weights":[4.852869E-6,3.1118852E-5,-1.3688588E-6],"categories":[],"categories_nodes":[],"categories_segments":[],"categories_sizes":[],"default_left":[0,0,0],"id":72,"left_children":[1,-1,-1],"loss_changes":[1.0948022E-6,0E0,0E0],"parents":[2147483647,0,0],"right_children":[2,-1,-1],"split_conditions":[0E0,3.1118852E-5,-1.3688588E-6],"split_indices":[123,0,0],"split_type":[0,0,0],"sum_hessian":[1.91E2,1E1,1.81E2],"tree_param":{"num_deleted":"0","num_feature":"153","num_nodes":"3","size_leaf_vector":"1"}},{"base_weights":[-2.8239135E-6],"categories":[],"categories_nodes":[],"categories_segments":[],"categories_sizes":[],"default_left":[0],"id":73,"left_children":[-1],"loss_changes":[0E0],"parents":[2147483647],"right_children":[-1],"split_conditions":[-2.8239137E-7],"split_indices":[0],"split_type":[0],"sum_hessian":[2E2],"tree_param":{"num_deleted":"0","num_feature":"153","num_nodes":"1","size_leaf_vector":"1"}},{"base_weights":[1.7108237E-5],"categories":[],"categories_nodes":[],"categories_segments":[],"categories_sizes":[],"default_left":[0],"id":74,"left_children":[-1],"loss_changes":[0E0],"parents":[2147483647],"right_children":[-1],"split_conditions":[1.7108238E-6],"split_indices":[0],"split_type":[0],"sum_hessian":[1.95E2],"tree_param":{"num_deleted":"0","num_feature":"153","num_nodes":"1","size_leaf_vector":"1"}},{"base_weights":[-1.3775435E-5],"categories":[],"categories_nodes":[],"categories_segments":[],"categories_sizes":[],"default_left":[0],"id":75,"left_children":[-1],"loss_changes":[0E0],"parents":[2147483647],"right_children":[-1],"split_conditions":[-1.3775435E-6],"split_indices":[0],"split_type":[0],"sum_hessian":[2.03E2],"tree_param":{"num_deleted":"0","num_feature":"153","num_nodes":"1","size_leaf_vector":"1"}},{"base_weights":[1.5679443E-6],"categories":[],"categories_nodes":[],"categories_segments":[],"categories_sizes":[],"default_left":[0],"id":76,"left_children":[-1],"loss_changes":[0E0],"parents":[2147483647],"right_children":[-1],"split_conditions":[1.5679443E-7],"split_indices":[0],"split_type":[0],"sum_hessian":[2.03E2],"tree_param":{"num_deleted":"0","num_feature":"153","num_nodes":"1","size_leaf_vector":"1"}},{"base_weights":[-3.2377073E-5],"categories":[],"categories_nodes":[],"categories_segments":[],"categories_sizes":[],"default_left":[0],"id":77,"left_children":[-1],"loss_changes":[0E0],"parents":[2147483647],"right_children":[-1],"split_conditions":[-3.2377072E-6],"split_indices":[0],"split_type":[0],"sum_hessian":[1.95E2],"tree_param":{"num_deleted":"0","num_feature":"153","num_nodes":"1","size_leaf_vector":"1"}},{"base_weights":[-1.5782001E-5],"categories":[],"categories_nodes":[],"categories_segments":[],"categories_sizes":[],"default_left":[0],"id":78,"left_children":[-1],"loss_changes":[0E0],"parents":[2147483647],"right_children":[-1],"split_conditions":[-1.5782001E-6],"split_indices":[0],"split_type":[0],"sum_hessian":[1.9E2],"tree_param":{"num_deleted":"0","num_feature":"153","num_nodes":"1","size_leaf_vector":"1"}},{"base_weights":[1.33500525E-5],"categories":[],"categories_nodes":[],"categories_segments":[],"categories_sizes":[],"default_left":[0],"id":79,"left_children":[-1],"loss_changes":[0E0],"parents":[2147483647],"right_children":[-1],"split_conditions":[1.3350053E-6],"split_indices":[0],"split_type":[0],"sum_hessian":[2.03E2],"tree_param":{"num_deleted":"0","num_feature":"153","num_nodes":"1","size_leaf_vector":"1"}},{"base_weights":[-1.1609225E-6],"categories":[],"categories_nodes":[],"categories_segments":[],"categories_sizes":[],"default_left":[0],"id":80,"left_children":[-1],"loss_changes":[0E0],"parents":[2147483647],"right_children":[-1],"split_conditions":[-1.16092245E-7],"split_indices":[0],"split_type":[0],"sum_hessian":[1.99E2],"tree_param":{"num_deleted":"0","num_feature":"153","num_nodes":"1","size_leaf_vector":"1"}},{"base_weights":[4.4120275E-6],"categories":[],"categories_nodes":[],"categories_segments":[],"categories_sizes":[],"default_left":[0],"id":81,"left_children":[-1],"loss_changes":[0E0],"parents":[2147483647],"right_children":[-1],"split_conditions":[4.4120276E-7],"split_indices":[0],"split_type":[0],"sum_hessian":[2.16E2],"tree_param":{"num_deleted":"0","num_feature":"153","num_nodes":"1","size_leaf_vector":"1"}},{"base_weights":[-2.5256877E-5],"categories":[],"categories_nodes":[],"categories_segments":[],"categories_sizes":[],"default_left":[0],"id":82,"left_children":[-1],"loss_changes":[0E0],"parents":[2147483647],"right_children":[-1],"split_conditions":[-2.5256877E-6],"split_indices":[0],"split_type":[0],"sum_hessian":[1.96E2],"tree_param":{"num_deleted":"0","num_feature":"153","num_nodes":"1","size_leaf_vector":"1"}},{"base_weights":[5.4196935E-6],"categories":[],"categories_nodes":[],"categories_segments":[],"categories_sizes":[],"default_left":[0],"id":83,"left_children":[-1],"loss_changes":[0E0],"parents":[2147483647],"right_children":[-1],"split_conditions":[5.4196937E-7],"split_indices":[0],"split_type":[0],"sum_hessian":[1.92E2],"tree_param":{"num_deleted":"0","num_feature":"153","num_nodes":"1","size_leaf_vector":"1"}},{"base_weights":[-2.7473354E-6],"categories":[],"categories_nodes":[],"categories_segments":[],"categories_sizes":[],"default_left":[0],"id":84,"left_children":[-1],"loss_changes":[0E0],"parents":[2147483647],"right_children":[-1],"split_conditions":[-2.7473354E-7],"split_indices":[0],"split_type":[0],"sum_hessian":[1.96E2],"tree_param":{"num_deleted":"0","num_feature":"153","num_nodes":"1","size_leaf_vector":"1"}},{"base_weights":[1.0036107E-5],"categories":[],"categories_nodes":[],"categories_segments":[],"categories_sizes":[],"default_left":[0],"id":85,"left_children":[-1],"loss_changes":[0E0],"parents":[2147483647],"right_children":[-1],"split_conditions":[1.0036107E-6],"split_indices":[0],"split_type":[0],"sum_hessian":[1.93E2],"tree_param":{"num_deleted":"0","num_feature":"153","num_nodes":"1","size_leaf_vector":"1"}},{"base_weights":[1.0227767E-5],"categories":[],"categories_nodes":[],"categories_segments":[],"categories_sizes":[],"default_left":[0],"id":86,"left_children":[-1],"loss_changes":[0E0],"parents":[2147483647],"right_children":[-1],"split_conditions":[1.0227767E-6],"split_indices":[0],"split_type":[0],"sum_hessian":[1.87E2],"tree_param":{"num_deleted":"0","num_feature":"153","num_nodes":"1","size_leaf_vector":"1"}},{"base_weights":[-2.354928E-6],"categories":[],"categories_nodes":[],"categories_segments":[],"categories_sizes":[],"default_left":[0],"id":87,"left_children":[-1],"loss_changes":[0E0],"parents":[2147483647],"right_children":[-1],"split_conditions":[-2.354928E-7],"split_indices":[0],"split_type":[0],"sum_hessian":[1.96E2],"tree_param":{"num_deleted":"0","num_feature":"153","num_nodes":"1","size_leaf_vector":"1"}},{"base_weights":[-1.0610743E-5,-5.7760735E-5,1.062096E-5,3.8804777E-5,-1.3852695E-5,1.2872881E-5,-2.2267064E-5],"categories":[],"categories_nodes":[],"categories_segments":[],"categories_sizes":[],"default_left":[0,0,0,0,0,0,0],"id":88,"left_children":[1,3,-1,5,-1,-1,-1],"loss_changes":[1.0912261E-6,1.1050669E-6,0E0,1.557004E-6,0E0,0E0,0E0],"parents":[2147483647,0,0,1,1,3,3],"right_children":[2,4,-1,6,-1,-1,-1],"split_conditions":[7.8350716E1,2.8571428E1,1.062096E-5,8.7082855E-2,-1.3852695E-5,1.2872881E-5,-2.2267064E-5],"split_indices":[67,18,0,10,0,0,0],"split_type":[0,0,0,0,0,0,0],"sum_hessian":[1.96E2,1.4E2,5.6E1,6.4E1,7.6E1,4.8E1,1.6E1],"tree_param":{"num_deleted":"0","num_feature":"153","num_nodes":"7","size_leaf_vector":"1"}},{"base_weights":[-3.2088167E-6,2.6391359E-5,-2.246915E-6],"categories":[],"categories_nodes":[],"categories_segments":[],"categories_sizes":[],"default_left":[0,0,0],"id":89,"left_children":[1,-1,-1],"loss_changes":[1.0709173E-6,0E0,0E0],"parents":[2147483647,0,0],"right_children":[2,-1,-1],"split_conditions":[-1.577627E-1,2.6391359E-5,-2.246915E-6],"split_indices":[10,0,0],"split_type":[0,0,0],"sum_hessian":[2.06E2,1.3E1,1.93E2],"tree_param":{"num_deleted":"0","num_feature":"153","num_nodes":"3","size_leaf_vector":"1"}},{"base_weights":[1.1681934E-5],"categories":[],"categories_nodes":[],"categories_segments":[],"categories_sizes":[],"default_left":[0],"id":90,"left_children":[-1],"loss_changes":[0E0],"parents":[2147483647],"right_children":[-1],"split_conditions":[1.1681934E-6],"split_indices":[0],"split_type":[0],"sum_hessian":[1.97E2],"tree_param":{"num_deleted":"0","num_feature":"153","num_nodes":"1","size_leaf_vector":"1"}},{"base_weights":[1.3976866E-5],"categories":[],"categories_nodes":[],"categories_segments":[],"categories_sizes":[],"default_left":[0],"id":91,"left_children":[-1],"loss_changes":[0E0],"parents":[2147483647],"right_children":[-1],"split_conditions":[1.3976867E-6],"split_indices":[0],"split_type":[0],"sum_hessian":[2.13E2],"tree_param":{"num_deleted":"0","num_feature":"153","num_nodes":"1","size_leaf_vector":"1"}},{"base_weights":[-1.4827149E-5],"categories":[],"categories_nodes":[],"categories_segments":[],"categories_sizes":[],"default_left":[0],"id":92,"left_children":[-1],"loss_changes":[0E0],"parents":[2147483647],"right_children":[-1],"split_conditions":[-1.482715E-6],"split_indices":[0],"split_type":[0],"sum_hessian":[2E2],"tree_param":{"num_deleted":"0","num_feature":"153","num_nodes":"1","size_leaf_vector":"1"}},{"base_weights":[-2.4304306E-6],"categories":[],"categories_nodes":[],"categories_segments":[],"categories_sizes":[],"default_left":[0],"id":93,"left_children":[-1],"loss_changes":[0E0],"parents":[2147483647],"right_children":[-1],"split_conditions":[-2.4304308E-7],"split_indices":[0],"split_type":[0],"sum_hessian":[2.04E2],"tree_param":{"num_deleted":"0","num_feature":"153","num_nodes":"1","size_leaf_vector":"1"}},{"base_weights":[-1.98947E-5],"categories":[],"categories_nodes":[],"categories_segments":[],"categories_sizes":[],"default_left":[0],"id":94,"left_children":[-1],"loss_changes":[0E0],"parents":[2147483647],"right_children":[-1],"split_conditions":[-1.98947E-6],"split_indices":[0],"split_type":[0],"sum_hessian":[2.09E2],"tree_param":{"num_deleted":"0","num_feature":"153","num_nodes":"1","size_leaf_vector":"1"}},{"base_weights":[7.8862143E-7],"categories":[],"categories_nodes":[],"categories_segments":[],"categories_sizes":[],"default_left":[0],"id":95,"left_children":[-1],"loss_changes":[0E0],"parents":[2147483647],"right_children":[-1],"split_conditions":[7.886214E-8],"split_indices":[0],"split_type":[0],"sum_hessian":[2.01E2],"tree_param":{"num_deleted":"0","num_feature":"153","num_nodes":"1","size_leaf_vector":"1"}},{"base_weights":[4.222131E-6],"categories":[],"categories_nodes":[],"categories_segments":[],"categories_sizes":[],"default_left":[0],"id":96,"left_children":[-1],"loss_changes":[0E0],"parents":[2147483647],"right_children":[-1],"split_conditions":[4.222131E-7],"split_indices":[0],"split_type":[0],"sum_hessian":[1.96E2],"tree_param":{"num_deleted":"0","num_feature":"153","num_nodes":"1","size_leaf_vector":"1"}},{"base_weights":[2.294217E-6],"categories":[],"categories_nodes":[],"categories_segments":[],"categories_sizes":[],"default_left":[0],"id":97,"left_children":[-1],"loss_changes":[0E0],"parents":[2147483647],"right_children":[-1],"split_conditions":[2.294217E-7],"split_indices":[0],"split_type":[0],"sum_hessian":[2E2],"tree_param":{"num_deleted":"0","num_feature":"153","num_nodes":"1","size_leaf_vector":"1"}},{"base_weights":[-7.346366E-6],"categories":[],"categories_nodes":[],"categories_segments":[],"categories_sizes":[],"default_left":[0],"id":98,"left_children":[-1],"loss_changes":[0E0],"parents":[2147483647],"right_children":[-1],"split_conditions":[-7.346366E-7],"split_indices":[0],"split_type":[0],"sum_hessian":[1.98E2],"tree_param":{"num_deleted":"0","num_feature":"153","num_nodes":"1","size_leaf_vector":"1"}},{"base_weights":[-8.852384E-6],"categories":[],"categories_nodes":[],"categories_segments":[],"categories_sizes":[],"default_left":[0],"id":99,"left_children":[-1],"loss_changes":[0E0],"parents":[2147483647],"right_children":[-1],"split_conditions":[-8.852384E-7],"split_indices":[0],"split_type":[0],"sum_hessian":[2.02E2],"tree_param":{"num_deleted":"0","num_feature":"153","num_nodes":"1","size_leaf_vector":"1"}},{"base_weights":[-7.975376E-6],"categories":[],"categories_nodes":[],"categories_segments":[],"categories_sizes":[],"default_left":[0],"id":100,"left_children":[-1],"loss_changes":[0E0],"parents":[2147483647],"right_children":[-1],"split_conditions":[-7.9753767E-7],"split_indices":[0],"split_type":[0],"sum_hessian":[2.04E2],"tree_param":{"num_deleted":"0","num_feature":"153","num_nodes":"1","size_leaf_vector":"1"}},{"base_weights":[3.82156E-6],"categories":[],"categories_nodes":[],"categories_segments":[],"categories_sizes":[],"default_left":[0],"id":101,"left_children":[-1],"loss_changes":[0E0],"parents":[2147483647],"right_children":[-1],"split_conditions":[3.82156E-7],"split_indices":[0],"split_type":[0],"sum_hessian":[1.93E2],"tree_param":{"num_deleted":"0","num_feature":"153","num_nodes":"1","size_leaf_vector":"1"}},{"base_weights":[1.1464772E-6,-2.1749258E-5,2.8315476E-6],"categories":[],"categories_nodes":[],"categories_segments":[],"categories_sizes":[],"default_left":[0,0,0],"id":102,"left_children":[1,-1,-1],"loss_changes":[1.1823189E-6,0E0,0E0],"parents":[2147483647,0,0],"right_children":[2,-1,-1],"split_conditions":[0E0,-2.1749258E-5,2.8315476E-6],"split_indices":[82,0,0],"split_type":[0,0,0],"sum_hessian":[1.97E2,2.1E1,1.76E2],"tree_param":{"num_deleted":"0","num_feature":"153","num_nodes":"3","size_leaf_vector":"1"}},{"base_weights":[3.0648628E-6],"categories":[],"categories_nodes":[],"categories_segments":[],"categories_sizes":[],"default_left":[0],"id":103,"left_children":[-1],"loss_changes":[0E0],"parents":[2147483647],"right_children":[-1],"split_conditions":[3.0648627E-7],"split_indices":[0],"split_type":[0],"sum_hessian":[2.06E2],"tree_param":{"num_deleted":"0","num_feature":"153","num_nodes":"1","size_leaf_vector":"1"}},{"base_weights":[-9.8036735E-6],"categories":[],"categories_nodes":[],"categories_segments":[],"categories_sizes":[],"default_left":[0],"id":104,"left_children":[-1],"loss_changes":[0E0],"parents":[2147483647],"right_children":[-1],"split_conditions":[-9.803674E-7],"split_indices":[0],"split_type":[0],"sum_hessian":[2.01E2],"tree_param":{"num_deleted":"0","num_feature":"153","num_nodes":"1","size_leaf_vector":"1"}},{"base_weights":[1.5397116E-5],"categories":[],"categories_nodes":[],"categories_segments":[],"categories_sizes":[],"default_left":[0],"id":105,"left_children":[-1],"loss_changes":[0E0],"parents":[2147483647],"right_children":[-1],"split_conditions":[1.5397117E-6],"split_indices":[0],"split_type":[0],"sum_hessian":[2.06E2],"tree_param":{"num_deleted":"0","num_feature":"153","num_nodes":"1","size_leaf_vector":"1"}},{"base_weights":[1.4342439E-5],"categories":[],"categories_nodes":[],"categories_segments":[],"categories_sizes":[],"default_left":[0],"id":106,"left_children":[-1],"loss_changes":[0E0],"parents":[2147483647],"right_children":[-1],"split_conditions":[1.4342439E-6],"split_indices":[0],"split_type":[0],"sum_hessian":[2.04E2],"tree_param":{"num_deleted":"0","num_feature":"153","num_nodes":"1","size_leaf_vector":"1"}},{"base_weights":[-2.5076754E-6],"categories":[],"categories_nodes":[],"categories_segments":[],"categories_sizes":[],"default_left":[0],"id":107,"left_children":[-1],"loss_changes":[0E0],"parents":[2147483647],"right_children":[-1],"split_conditions":[-2.5076756E-7],"split_indices":[0],"split_type":[0],"sum_hessian":[2.01E2],"tree_param":{"num_deleted":"0","num_feature":"153","num_nodes":"1","size_leaf_vector":"1"}},{"base_weights":[1.5553003E-5],"categories":[],"categories_nodes":[],"categories_segments":[],"categories_sizes":[],"default_left":[0],"id":108,"left_children":[-1],"loss_changes":[0E0],"parents":[2147483647],"right_children":[-1],"split_conditions":[1.5553004E-6],"split_indices":[0],"split_type":[0],"sum_hessian":[2.11E2],"tree_param":{"num_deleted":"0","num_feature":"153","num_nodes":"1","size_leaf_vector":"1"}},{"base_weights":[-5.8934586E-7],"categories":[],"categories_nodes":[],"categories_segments":[],"categories_sizes":[],"default_left":[0],"id":109,"left_children":[-1],"loss_changes":[0E0],"parents":[2147483647],"right_children":[-1],"split_conditions":[-5.8934585E-8],"split_indices":[0],"split_type":[0],"sum_hessian":[2.01E2],"tree_param":{"num_deleted":"0","num_feature":"153","num_nodes":"1","size_leaf_vector":"1"}},{"base_weights":[1.0733584E-5],"categories":[],"categories_nodes":[],"categories_segments":[],"categories_sizes":[],"default_left":[0],"id":110,"left_children":[-1],"loss_changes":[0E0],"parents":[2147483647],"right_children":[-1],"split_conditions":[1.0733584E-6],"split_indices":[0],"split_type":[0],"sum_hessian":[1.91E2],"tree_param":{"num_deleted":"0","num_feature":"153","num_nodes":"1","size_leaf_vector":"1"}},{"base_weights":[1.0926225E-5],"categories":[],"categories_nodes":[],"categories_segments":[],"categories_sizes":[],"default_left":[0],"id":111,"left_children":[-1],"loss_changes":[0E0],"parents":[2147483647],"right_children":[-1],"split_conditions":[1.0926225E-6],"split_indices":[0],"split_type":[0],"sum_hessian":[1.83E2],"tree_param":{"num_deleted":"0","num_feature":"153","num_nodes":"1","size_leaf_vector":"1"}},{"base_weights":[2.3198177E-6],"categories":[],"categories_nodes":[],"categories_segments":[],"categories_sizes":[],"default_left":[0],"id":112,"left_children":[-1],"loss_changes":[0E0],"parents":[2147483647],"right_children":[-1],"split_conditions":[2.3198177E-7],"split_indices":[0],"split_type":[0],"sum_hessian":[2.04E2],"tree_param":{"num_deleted":"0","num_feature":"153","num_nodes":"1","size_leaf_vector":"1"}},{"base_weights":[5.080396E-6],"categories":[],"categories_nodes":[],"categories_segments":[],"categories_sizes":[],"default_left":[0],"id":113,"left_children":[-1],"loss_changes":[0E0],"parents":[2147483647],"right_children":[-1],"split_conditions":[5.080396E-7],"split_indices":[0],"split_type":[0],"sum_hessian":[1.95E2],"tree_param":{"num_deleted":"0","num_feature":"153","num_nodes":"1","size_leaf_vector":"1"}},{"base_weights":[2.2189101E-6],"categories":[],"categories_nodes":[],"categories_segments":[],"categories_sizes":[],"default_left":[0],"id":114,"left_children":[-1],"loss_changes":[0E0],"parents":[2147483647],"right_children":[-1],"split_conditions":[2.2189101E-7],"split_indices":[0],"split_type":[0],"sum_hessian":[2.05E2],"tree_param":{"num_deleted":"0","num_feature":"153","num_nodes":"1","size_leaf_vector":"1"}},{"base_weights":[-6.7345513E-7],"categories":[],"categories_nodes":[],"categories_segments":[],"categories_sizes":[],"default_left":[0],"id":115,"left_children":[-1],"loss_changes":[0E0],"parents":[2147483647],"right_children":[-1],"split_conditions":[-6.734552E-8],"split_indices":[0],"split_type":[0],"sum_hessian":[1.87E2],"tree_param":{"num_deleted":"0","num_feature":"153","num_nodes":"1","size_leaf_vector":"1"}},{"base_weights":[9.681025E-6],"categories":[],"categories_nodes":[],"categories_segments":[],"categories_sizes":[],"default_left":[0],"id":116,"left_children":[-1],"loss_changes":[0E0],"parents":[2147483647],"right_children":[-1],"split_conditions":[9.681025E-7],"split_indices":[0],"split_type":[0],"sum_hessian":[2.01E2],"tree_param":{"num_deleted":"0","num_feature":"153","num_nodes":"1","size_leaf_vector":"1"}},{"base_weights":[2.7830342E-6],"categories":[],"categories_nodes":[],"categories_segments":[],"categories_sizes":[],"default_left":[0],"id":117,"left_children":[-1],"loss_changes":[0E0],"parents":[2147483647],"right_children":[-1],"split_conditions":[2.7830342E-7],"split_indices":[0],"split_type":[0],"sum_hessian":[1.92E2],"tree_param":{"num_deleted":"0","num_feature":"153","num_nodes":"1","size_leaf_vector":"1"}},{"base_weights":[1.7675804E-6],"categories":[],"categories_nodes":[],"categories_segments":[],"categories_sizes":[],"default_left":[0],"id":118,"left_children":[-1],"loss_changes":[0E0],"parents":[2147483647],"right_children":[-1],"split_conditions":[1.7675805E-7],"split_indices":[0],"split_type":[0],"sum_hessian":[1.98E2],"tree_param":{"num_deleted":"0","num_feature":"153","num_nodes":"1","size_leaf_vector":"1"}},{"base_weights":[-1.2905181E-5],"categories":[],"categories_nodes":[],"categories_segments":[],"categories_sizes":[],"default_left":[0],"id":119,"left_children":[-1],"loss_changes":[0E0],"parents":[2147483647],"right_children":[-1],"split_conditions":[-1.2905182E-6],"split_indices":[0],"split_type":[0],"sum_hessian":[1.9E2],"tree_param":{"num_deleted":"0","num_feature":"153","num_nodes":"1","size_leaf_vector":"1"}},{"base_weights":[-1.8035706E-6],"categories":[],"categories_nodes":[],"categories_segments":[],"categories_sizes":[],"default_left":[0],"id":120,"left_children":[-1],"loss_changes":[0E0],"parents":[2147483647],"right_children":[-1],"split_conditions":[-1.8035706E-7],"split_indices":[0],"split_type":[0],"sum_hessian":[1.98E2],"tree_param":{"num_deleted":"0","num_feature":"153","num_nodes":"1","size_leaf_vector":"1"}},{"base_weights":[2.1832517E-5],"categories":[],"categories_nodes":[],"categories_segments":[],"categories_sizes":[],"default_left":[0],"id":121,"left_children":[-1],"loss_changes":[0E0],"parents":[2147483647],"right_children":[-1],"split_conditions":[2.1832518E-6],"split_indices":[0],"split_type":[0],"sum_hessian":[1.98E2],"tree_param":{"num_deleted":"0","num_feature":"153","num_nodes":"1","size_leaf_vector":"1"}},{"base_weights":[1.2604205E-5],"categories":[],"categories_nodes":[],"categories_segments":[],"categories_sizes":[],"default_left":[0],"id":122,"left_children":[-1],"loss_changes":[0E0],"parents":[2147483647],"right_children":[-1],"split_conditions":[1.2604205E-6],"split_indices":[0],"split_type":[0],"sum_hessian":[2E2],"tree_param":{"num_deleted":"0","num_feature":"153","num_nodes":"1","size_leaf_vector":"1"}},{"base_weights":[-5.2916303E-6],"categories":[],"categories_nodes":[],"categories_segments":[],"categories_sizes":[],"default_left":[0],"id":123,"left_children":[-1],"loss_changes":[0E0],"parents":[2147483647],"right_children":[-1],"split_conditions":[-5.2916306E-7],"split_indices":[0],"split_type":[0],"sum_hessian":[1.99E2],"tree_param":{"num_deleted":"0","num_feature":"153","num_nodes":"1","size_leaf_vector":"1"}},{"base_weights":[1.0028487E-5,5.6470635E-6,-1.1428105E-5],"categories":[],"categories_nodes":[],"categories_segments":[],"categories_sizes":[],"default_left":[0,0,0],"id":124,"left_children":[1,-1,-1],"loss_changes":[1.1668669E-6,0E0,0E0],"parents":[2147483647,0,0],"right_children":[2,-1,-1],"split_conditions":[7.601686E-2,5.6470635E-6,-1.1428105E-5],"split_indices":[148,0,0],"split_type":[0,0,0],"sum_hessian":[2E2,1.46E2,5.4E1],"tree_param":{"num_deleted":"0","num_feature":"153","num_nodes":"3","size_leaf_vector":"1"}},{"base_weights":[9.2781096E-7],"categories":[],"categories_nodes":[],"categories_segments":[],"categories_sizes":[],"default_left":[0],"id":125,"left_children":[-1],"loss_changes":[0E0],"parents":[2147483647],"right_children":[-1],"split_conditions":[9.27811E-8],"split_indices":[0],"split_type":[0],"sum_hessian":[1.99E2],"tree_param":{"num_deleted":"0","num_feature":"153","num_nodes":"1","size_leaf_vector":"1"}},{"base_weights":[2.1793567E-6],"categories":[],"categories_nodes":[],"categories_segments":[],"categories_sizes":[],"default_left":[0],"id":126,"left_children":[-1],"loss_changes":[0E0],"parents":[2147483647],"right_children":[-1],"split_conditions":[2.1793566E-7],"split_indices":[0],"split_type":[0],"sum_hessian":[1.99E2],"tree_param":{"num_deleted":"0","num_feature":"153","num_nodes":"1","size_leaf_vector":"1"}},{"base_weights":[-6.7530877E-6],"categories":[],"categories_nodes":[],"categories_segments":[],"categories_sizes":[],"default_left":[0],"id":127,"left_children":[-1],"loss_changes":[0E0],"parents":[2147483647],"right_children":[-1],"split_conditions":[-6.753088E-7],"split_indices":[0],"split_type":[0],"sum_hessian":[2.05E2],"tree_param":{"num_deleted":"0","num_feature":"153","num_nodes":"1","size_leaf_vector":"1"}},{"base_weights":[-1.4521043E-5],"categories":[],"categories_nodes":[],"categories_segments":[],"categories_sizes":[],"default_left":[0],"id":128,"left_children":[-1],"loss_changes":[0E0],"parents":[2147483647],"right_children":[-1],"split_conditions":[-1.4521044E-6],"split_indices":[0],"split_type":[0],"sum_hessian":[1.76E2],"tree_param":{"num_deleted":"0","num_feature":"153","num_nodes":"1","size_leaf_vector":"1"}},{"base_weights":[1.8155768E-6,1.932445E-6,-2.9281688E-5],"categories":[],"categories_nodes":[],"categories_segments":[],"categories_sizes":[],"default_left":[0,0,0],"id":129,"left_children":[1,-1,-1],"loss_changes":[1.0116015E-6,0E0,0E0],"parents":[2147483647,0,0],"right_children":[2,-1,-1],"split_conditions":[7.882E1,1.932445E-6,-2.9281688E-5],"split_indices":[1,0,0],"split_type":[0,0,0],"sum_hessian":[1.94E2,1.84E2,1E1],"tree_param":{"num_deleted":"0","num_feature":"153","num_nodes":"3","size_leaf_vector":"1"}},{"base_weights":[1.3996591E-5],"categories":[],"categories_nodes":[],"categories_segments":[],"categories_sizes":[],"default_left":[0],"id":130,"left_children":[-1],"loss_changes":[0E0],"parents":[2147483647],"right_children":[-1],"split_conditions":[1.3996591E-6],"split_indices":[0],"split_type":[0],"sum_hessian":[1.89E2],"tree_param":{"num_deleted":"0","num_feature":"153","num_nodes":"1","size_leaf_vector":"1"}},{"base_weights":[-3.6974568E-6],"categories":[],"categories_nodes":[],"categories_segments":[],"categories_sizes":[],"default_left":[0],"id":131,"left_children":[-1],"loss_changes":[0E0],"parents":[2147483647],"right_children":[-1],"split_conditions":[-3.697457E-7],"split_indices":[0],"split_type":[0],"sum_hessian":[1.9E2],"tree_param":{"num_deleted":"0","num_feature":"153","num_nodes":"1","size_leaf_vector":"1"}},{"base_weights":[8.213896E-6],"categories":[],"categories_nodes":[],"categories_segments":[],"categories_sizes":[],"default_left":[0],"id":132,"left_children":[-1],"loss_changes":[0E0],"parents":[2147483647],"right_children":[-1],"split_conditions":[8.213896E-7],"split_indices":[0],"split_type":[0],"sum_hessian":[1.96E2],"tree_param":{"num_deleted":"0","num_feature":"153","num_nodes":"1","size_leaf_vector":"1"}},{"base_weights":[-1.66816E-5],"categories":[],"categories_nodes":[],"categories_segments":[],"categories_sizes":[],"default_left":[0],"id":133,"left_children":[-1],"loss_changes":[0E0],"parents":[2147483647],"right_children":[-1],"split_conditions":[-1.66816E-6],"split_indices":[0],"split_type":[0],"sum_hessian":[2E2],"tree_param":{"num_deleted":"0","num_feature":"153","num_nodes":"1","size_leaf_vector":"1"}},{"base_weights":[-3.3733609E-6],"categories":[],"categories_nodes":[],"categories_segments":[],"categories_sizes":[],"default_left":[0],"id":134,"left_children":[-1],"loss_changes":[0E0],"parents":[2147483647],"right_children":[-1],"split_conditions":[-3.373361E-7],"split_indices":[0],"split_type":[0],"sum_hessian":[2.02E2],"tree_param":{"num_deleted":"0","num_feature":"153","num_nodes":"1","size_leaf_vector":"1"}},{"base_weights":[9.606752E-6],"categories":[],"categories_nodes":[],"categories_segments":[],"categories_sizes":[],"default_left":[0],"id":135,"left_children":[-1],"loss_changes":[0E0],"parents":[2147483647],"right_children":[-1],"split_conditions":[9.606753E-7],"split_indices":[0],"split_type":[0],"sum_hessian":[2.04E2],"tree_param":{"num_deleted":"0","num_feature":"153","num_nodes":"1","size_leaf_vector":"1"}},{"base_weights":[-4.8898596E-6],"categories":[],"categories_nodes":[],"categories_segments":[],"categories_sizes":[],"default_left":[0],"id":136,"left_children":[-1],"loss_changes":[0E0],"parents":[2147483647],"right_children":[-1],"split_conditions":[-4.8898596E-7],"split_indices":[0],"split_type":[0],"sum_hessian":[1.93E2],"tree_param":{"num_deleted":"0","num_feature":"153","num_nodes":"1","size_leaf_vector":"1"}},{"base_weights":[8.9253945E-6],"categories":[],"categories_nodes":[],"categories_segments":[],"categories_sizes":[],"default_left":[0],"id":137,"left_children":[-1],"loss_changes":[0E0],"parents":[2147483647],"right_children":[-1],"split_conditions":[8.9253945E-7],"split_indices":[0],"split_type":[0],"sum_hessian":[1.97E2],"tree_param":{"num_deleted":"0","num_feature":"153","num_nodes":"1","size_leaf_vector":"1"}},{"base_weights":[-1.201884E-5],"categories":[],"categories_nodes":[],"categories_segments":[],"categories_sizes":[],"default_left":[0],"id":138,"left_children":[-1],"loss_changes":[0E0],"parents":[2147483647],"right_children":[-1],"split_conditions":[-1.201884E-6],"split_indices":[0],"split_type":[0],"sum_hessian":[1.99E2],"tree_param":{"num_deleted":"0","num_feature":"153","num_nodes":"1","size_leaf_vector":"1"}},{"base_weights":[-2.6407275E-5],"categories":[],"categories_nodes":[],"categories_segments":[],"categories_sizes":[],"default_left":[0],"id":139,"left_children":[-1],"loss_changes":[0E0],"parents":[2147483647],"right_children":[-1],"split_conditions":[-2.6407276E-6],"split_indices":[0],"split_type":[0],"sum_hessian":[2.01E2],"tree_param":{"num_deleted":"0","num_feature":"153","num_nodes":"1","size_leaf_vector":"1"}},{"base_weights":[-1.1110128E-5,1.1747175E-5,-5.5644592E-5,-3.0630574E-5,-1.6044065E-6],"categories":[],"categories_nodes":[],"categories_segments":[],"categories_sizes":[],"default_left":[0,0,0,0,0],"id":140,"left_children":[1,-1,3,-1,-1],"loss_changes":[1.1346226E-6,0E0,1.4542536E-6,0E0,0E0],"parents":[2147483647,0,0,2,2],"right_children":[2,-1,4,-1,-1],"split_conditions":[2.5E1,1.1747175E-5,3.977007E1,-3.0630574E-5,-1.6044065E-6],"split_indices":[5,0,44,0,0],"split_type":[0,0,0,0,0],"sum_hessian":[1.96E2,5E1,1.46E2,1.9E1,1.27E2],"tree_param":{"num_deleted":"0","num_feature":"153","num_nodes":"5","size_leaf_vector":"1"}},{"base_weights":[-6.231909E-6,1.4314218E-6,-3.139045E-5],"categories":[],"categories_nodes":[],"categories_segments":[],"categories_sizes":[],"default_left":[0,0,0],"id":141,"left_children":[1,-1,-1],"loss_changes":[1.211896E-6,0E0,0E0],"parents":[2147483647,0,0],"right_children":[2,-1,-1],"split_conditions":[1.0083805E0,1.4314218E-6,-3.139045E-5],"split_indices":[138,0,0],"split_type":[0,0,0],"sum_hessian":[1.9E2,1.79E2,1.1E1],"tree_param":{"num_deleted":"0","num_feature":"153","num_nodes":"3","size_leaf_vector":"1"}},{"base_weights":[3.298145E-6],"categories":[],"categories_nodes":[],"categories_segments":[],"categories_sizes":[],"default_left":[0],"id":142,"left_children":[-1],"loss_changes":[0E0],"parents":[2147483647],"right_children":[-1],"split_conditions":[3.298145E-7],"split_indices":[0],"split_type":[0],"sum_hessian":[2.01E2],"tree_param":{"num_deleted":"0","num_feature":"153","num_nodes":"1","size_leaf_vector":"1"}},{"base_weights":[8.15841E-7],"categories":[],"categories_nodes":[],"categories_segments":[],"categories_sizes":[],"default_left":[0],"id":143,"left_children":[-1],"loss_changes":[0E0],"parents":[2147483647],"right_children":[-1],"split_conditions":[8.1584105E-8],"split_indices":[0],"split_type":[0],"sum_hessian":[2.18E2],"tree_param":{"num_deleted":"0","num_feature":"153","num_nodes":"1","size_leaf_vector":"1"}},{"base_weights":[2.7765014E-5],"categories":[],"categories_nodes":[],"categories_segments":[],"categories_sizes":[],"default_left":[0],"id":144,"left_children":[-1],"loss_changes":[0E0],"parents":[2147483647],"right_children":[-1],"split_conditions":[2.7765016E-6],"split_indices":[0],"split_type":[0],"sum_hessian":[2.04E2],"tree_param":{"num_deleted":"0","num_feature":"153","num_nodes":"1","size_leaf_vector":"1"}},{"base_weights":[-4.841203E-6],"categories":[],"categories_nodes":[],"categories_segments":[],"categories_sizes":[],"default_left":[0],"id":145,"left_children":[-1],"loss_changes":[0E0],"parents":[2147483647],"right_children":[-1],"split_conditions":[-4.8412033E-7],"split_indices":[0],"split_type":[0],"sum_hessian":[1.96E2],"tree_param":{"num_deleted":"0","num_feature":"153","num_nodes":"1","size_leaf_vector":"1"}},{"base_weights":[-8.012497E-6],"categories":[],"categories_nodes":[],"categories_segments":[],"categories_sizes":[],"default_left":[0],"id":146,"left_children":[-1],"loss_changes":[0E0],"parents":[2147483647],"right_children":[-1],"split_conditions":[-8.0124977E-7],"split_indices":[0],"split_type":[0],"sum_hessian":[1.96E2],"tree_param":{"num_deleted":"0","num_feature":"153","num_nodes":"1","size_leaf_vector":"1"}},{"base_weights":[-7.0276116E-7],"categories":[],"categories_nodes":[],"categories_segments":[],"categories_sizes":[],"default_left":[0],"id":147,"left_children":[-1],"loss_changes":[0E0],"parents":[2147483647],"right_children":[-1],"split_conditions":[-7.0276116E-8],"split_indices":[0],"split_type":[0],"sum_hessian":[2.07E2],"tree_param":{"num_deleted":"0","num_feature":"153","num_nodes":"1","size_leaf_vector":"1"}},{"base_weights":[-1.4132206E-5],"categories":[],"categories_nodes":[],"categories_segments":[],"categories_sizes":[],"default_left":[0],"id":148,"left_children":[-1],"loss_changes":[0E0],"parents":[2147483647],"right_children":[-1],"split_conditions":[-1.4132206E-6],"split_indices":[0],"split_type":[0],"sum_hessian":[1.95E2],"tree_param":{"num_deleted":"0","num_feature":"153","num_nodes":"1","size_leaf_vector":"1"}},{"base_weights":[1.4519041E-5],"categories":[],"categories_nodes":[],"categories_segments":[],"categories_sizes":[],"default_left":[0],"id":149,"left_children":[-1],"loss_changes":[0E0],"parents":[2147483647],"right_children":[-1],"split_conditions":[1.451904E-6],"split_indices":[0],"split_type":[0],"sum_hessian":[1.91E2],"tree_param":{"num_deleted":"0","num_feature":"153","num_nodes":"1","size_leaf_vector":"1"}},{"base_weights":[7.7378445E-6],"categories":[],"categories_nodes":[],"categories_segments":[],"categories_sizes":[],"default_left":[0],"id":150,"left_children":[-1],"loss_changes":[0E0],"parents":[2147483647],"right_children":[-1],"split_conditions":[7.7378445E-7],"split_indices":[0],"split_type":[0],"sum_hessian":[1.98E2],"tree_param":{"num_deleted":"0","num_feature":"153","num_nodes":"1","size_leaf_vector":"1"}},{"base_weights":[1.1673523E-5],"categories":[],"categories_nodes":[],"categories_segments":[],"categories_sizes":[],"default_left":[0],"id":151,"left_children":[-1],"loss_changes":[0E0],"parents":[2147483647],"right_children":[-1],"split_conditions":[1.1673523E-6],"split_indices":[0],"split_type":[0],"sum_hessian":[1.95E2],"tree_param":{"num_deleted":"0","num_feature":"153","num_nodes":"1","size_leaf_vector":"1"}},{"base_weights":[-4.08949E-6],"categories":[],"categories_nodes":[],"categories_segments":[],"categories_sizes":[],"default_left":[0],"id":152,"left_children":[-1],"loss_changes":[0E0],"parents":[2147483647],"right_children":[-1],"split_conditions":[-4.0894903E-7],"split_indices":[0],"split_type":[0],"sum_hessian":[1.88E2],"tree_param":{"num_deleted":"0","num_feature":"153","num_nodes":"1","size_leaf_vector":"1"}},{"base_weights":[-7.1072977E-6],"categories":[],"categories_nodes":[],"categories_segments":[],"categories_sizes":[],"default_left":[0],"id":153,"left_children":[-1],"loss_changes":[0E0],"parents":[2147483647],"right_children":[-1],"split_conditions":[-7.107298E-7],"split_indices":[0],"split_type":[0],"sum_hessian":[2.01E2],"tree_param":{"num_deleted":"0","num_feature":"153","num_nodes":"1","size_leaf_vector":"1"}},{"base_weights":[-2.6765174E-6],"categories":[],"categories_nodes":[],"categories_segments":[],"categories_sizes":[],"default_left":[0],"id":154,"left_children":[-1],"loss_changes":[0E0],"parents":[2147483647],"right_children":[-1],"split_conditions":[-2.6765176E-7],"split_indices":[0],"split_type":[0],"sum_hessian":[1.9E2],"tree_param":{"num_deleted":"0","num_feature":"153","num_nodes":"1","size_leaf_vector":"1"}},{"base_weights":[-1.2832565E-7],"categories":[],"categories_nodes":[],"categories_segments":[],"categories_sizes":[],"default_left":[0],"id":155,"left_children":[-1],"loss_changes":[0E0],"parents":[2147483647],"right_children":[-1],"split_conditions":[-1.2832565E-8],"split_indices":[0],"split_type":[0],"sum_hessian":[2.03E2],"tree_param":{"num_deleted":"0","num_feature":"153","num_nodes":"1","size_leaf_vector":"1"}},{"base_weights":[1.121309E-5],"categories":[],"categories_nodes":[],"categories_segments":[],"categories_sizes":[],"default_left":[0],"id":156,"left_children":[-1],"loss_changes":[0E0],"parents":[2147483647],"right_children":[-1],"split_conditions":[1.1213091E-6],"split_indices":[0],"split_type":[0],"sum_hessian":[1.9E2],"tree_param":{"num_deleted":"0","num_feature":"153","num_nodes":"1","size_leaf_vector":"1"}},{"base_weights":[-1.2749731E-5,-2.0456934E-4,1.9106476E-5,5.4330376E-6,-3.5142086E-5,-5.1829147E-6,1.1310166E-5],"categories":[],"categories_nodes":[],"categories_segments":[],"categories_sizes":[],"default_left":[0,0,0,0,0,0,0],"id":157,"left_children":[1,3,5,-1,-1,-1,-1],"loss_changes":[1.2015951E-6,1.0836476E-6,1.1326877E-6,0E0,0E0,0E0,0E0],"parents":[2147483647,0,0,1,1,2,2],"right_children":[2,4,6,-1,-1,-1,-1],"split_conditions":[7.828E1,1.285105E-1,1.25E-1,5.4330376E-6,-3.5142086E-5,-5.1829147E-6,1.1310166E-5],"split_indices":[55,38,20,0,0,0,0],"split_type":[0,0,0,0,0,0,0],"sum_hessian":[1.95E2,2.7E1,1.68E2,1E1,1.7E1,9.6E1,7.2E1],"tree_param":{"num_deleted":"0","num_feature":"153","num_nodes":"7","size_leaf_vector":"1"}},{"base_weights":[-1.4089016E-5],"categories":[],"categories_nodes":[],"categories_segments":[],"categories_sizes":[],"default_left":[0],"id":158,"left_children":[-1],"loss_changes":[0E0],"parents":[2147483647],"right_children":[-1],"split_conditions":[-1.4089017E-6],"split_indices":[0],"split_type":[0],"sum_hessian":[2.03E2],"tree_param":{"num_deleted":"0","num_feature":"153","num_nodes":"1","size_leaf_vector":"1"}},{"base_weights":[8.934794E-7],"categories":[],"categories_nodes":[],"categories_segments":[],"categories_sizes":[],"default_left":[0],"id":159,"left_children":[-1],"loss_changes":[0E0],"parents":[2147483647],"right_children":[-1],"split_conditions":[8.934794E-8],"split_indices":[0],"split_type":[0],"sum_hessian":[1.9E2],"tree_param":{"num_deleted":"0","num_feature":"153","num_nodes":"1","size_leaf_vector":"1"}},{"base_weights":[2.1565924E-5],"categories":[],"categories_nodes":[],"categories_segments":[],"categories_sizes":[],"default_left":[0],"id":160,"left_children":[-1],"loss_changes":[0E0],"parents":[2147483647],"right_children":[-1],"split_conditions":[2.1565925E-6],"split_indices":[0],"split_type":[0],"sum_hessian":[1.94E2],"tree_param":{"num_deleted":"0","num_feature":"153","num_nodes":"1","size_leaf_vector":"1"}},{"base_weights":[3.242547E-6],"categories":[],"categories_nodes":[],"categories_segments":[],"categories_sizes":[],"default_left":[0],"id":161,"left_children":[-1],"loss_changes":[0E0],"parents":[2147483647],"right_children":[-1],"split_conditions":[3.2425473E-7],"split_indices":[0],"split_type":[0],"sum_hessian":[1.95E2],"tree_param":{"num_deleted":"0","num_feature":"153","num_nodes":"1","size_leaf_vector":"1"}},{"base_weights":[-1.295028E-5],"categories":[],"categories_nodes":[],"categories_segments":[],"categories_sizes":[],"default_left":[0],"id":162,"left_children":[-1],"loss_changes":[0E0],"parents":[2147483647],"right_children":[-1],"split_conditions":[-1.295028E-6],"split_indices":[0],"split_type":[0],"sum_hessian":[1.99E2],"tree_param":{"num_deleted":"0","num_feature":"153","num_nodes":"1","size_leaf_vector":"1"}},{"base_weights":[3.3780186E-6],"categories":[],"categories_nodes":[],"categories_segments":[],"categories_sizes":[],"default_left":[0],"id":163,"left_children":[-1],"loss_changes":[0E0],"parents":[2147483647],"right_children":[-1],"split_conditions":[3.3780188E-7],"split_indices":[0],"split_type":[0],"sum_hessian":[1.97E2],"tree_param":{"num_deleted":"0","num_feature":"153","num_nodes":"1","size_leaf_vector":"1"}},{"base_weights":[-1.0854304E-6],"categories":[],"categories_nodes":[],"categories_segments":[],"categories_sizes":[],"default_left":[0],"id":164,"left_children":[-1],"loss_changes":[0E0],"parents":[2147483647],"right_children":[-1],"split_conditions":[-1.0854304E-7],"split_indices":[0],"split_type":[0],"sum_hessian":[2.04E2],"tree_param":{"num_deleted":"0","num_feature":"153","num_nodes":"1","size_leaf_vector":"1"}},{"base_weights":[2.8024838E-6],"categories":[],"categories_nodes":[],"categories_segments":[],"categories_sizes":[],"default_left":[0],"id":165,"left_children":[-1],"loss_changes":[0E0],"parents":[2147483647],"right_children":[-1],"split_conditions":[2.8024837E-7],"split_indices":[0],"split_type":[0],"sum_hessian":[1.86E2],"tree_param":{"num_deleted":"0","num_feature":"153","num_nodes":"1","size_leaf_vector":"1"}},{"base_weights":[1.1992279E-5],"categories":[],"categories_nodes":[],"categories_segments":[],"categories_sizes":[],"default_left":[0],"id":166,"left_children":[-1],"loss_changes":[0E0],"parents":[2147483647],"right_children":[-1],"split_conditions":[1.1992279E-6],"split_indices":[0],"split_type":[0],"sum_hessian":[1.98E2],"tree_param":{"num_deleted":"0","num_feature":"153","num_nodes":"1","size_leaf_vector":"1"}},{"base_weights":[1.17049085E-5],"categories":[],"categories_nodes":[],"categories_segments":[],"categories_sizes":[],"default_left":[0],"id":167,"left_children":[-1],"loss_changes":[0E0],"parents":[2147483647],"right_children":[-1],"split_conditions":[1.1704909E-6],"split_indices":[0],"split_type":[0],"sum_hessian":[2.03E2],"tree_param":{"num_deleted":"0","num_feature":"153","num_nodes":"1","size_leaf_vector":"1"}},{"base_weights":[6.091777E-6],"categories":[],"categories_nodes":[],"categories_segments":[],"categories_sizes":[],"default_left":[0],"id":168,"left_children":[-1],"loss_changes":[0E0],"parents":[2147483647],"right_children":[-1],"split_conditions":[6.091777E-7],"split_indices":[0],"split_type":[0],"sum_hessian":[2.03E2],"tree_param":{"num_deleted":"0","num_feature":"153","num_nodes":"1","size_leaf_vector":"1"}},{"base_weights":[2.2020974E-6],"categories":[],"categories_nodes":[],"categories_segments":[],"categories_sizes":[],"default_left":[0],"id":169,"left_children":[-1],"loss_changes":[0E0],"parents":[2147483647],"right_children":[-1],"split_conditions":[2.2020974E-7],"split_indices":[0],"split_type":[0],"sum_hessian":[1.96E2],"tree_param":{"num_deleted":"0","num_feature":"153","num_nodes":"1","size_leaf_vector":"1"}},{"base_weights":[1.4997228E-6],"categories":[],"categories_nodes":[],"categories_segments":[],"categories_sizes":[],"default_left":[0],"id":170,"left_children":[-1],"loss_changes":[0E0],"parents":[2147483647],"right_children":[-1],"split_conditions":[1.4997228E-7],"split_indices":[0],"split_type":[0],"sum_hessian":[1.96E2],"tree_param":{"num_deleted":"0","num_feature":"153","num_nodes":"1","size_leaf_vector":"1"}},{"base_weights":[-1.2551671E-5],"categories":[],"categories_nodes":[],"categories_segments":[],"categories_sizes":[],"default_left":[0],"id":171,"left_children":[-1],"loss_changes":[0E0],"parents":[2147483647],"right_children":[-1],"split_conditions":[-1.2551671E-6],"split_indices":[0],"split_type":[0],"sum_hessian":[2.01E2],"tree_param":{"num_deleted":"0","num_feature":"153","num_nodes":"1","size_leaf_vector":"1"}},{"base_weights":[-3.418187E-6],"categories":[],"categories_nodes":[],"categories_segments":[],"categories_sizes":[],"default_left":[0],"id":172,"left_children":[-1],"loss_changes":[0E0],"parents":[2147483647],"right_children":[-1],"split_conditions":[-3.418187E-7],"split_indices":[0],"split_type":[0],"sum_hessian":[1.95E2],"tree_param":{"num_deleted":"0","num_feature":"153","num_nodes":"1","size_leaf_vector":"1"}},{"base_weights":[2.5512378E-5],"categories":[],"categories_nodes":[],"categories_segments":[],"categories_sizes":[],"default_left":[0],"id":173,"left_children":[-1],"loss_changes":[0E0],"parents":[2147483647],"right_children":[-1],"split_conditions":[2.551238E-6],"split_indices":[0],"split_type":[0],"sum_hessian":[1.97E2],"tree_param":{"num_deleted":"0","num_feature":"153","num_nodes":"1","size_leaf_vector":"1"}},{"base_weights":[-1.5521817E-5],"categories":[],"categories_nodes":[],"categories_segments":[],"categories_sizes":[],"default_left":[0],"id":174,"left_children":[-1],"loss_changes":[0E0],"parents":[2147483647],"right_children":[-1],"split_conditions":[-1.5521817E-6],"split_indices":[0],"split_type":[0],"sum_hessian":[1.85E2],"tree_param":{"num_deleted":"0","num_feature":"153","num_nodes":"1","size_leaf_vector":"1"}},{"base_weights":[-1.2524729E-5,-2.3770817E-5,1.1582069E-6],"categories":[],"categories_nodes":[],"categories_segments":[],"categories_sizes":[],"default_left":[0,0,0],"id":175,"left_children":[1,-1,-1],"loss_changes":[1.0667296E-6,0E0,0E0],"parents":[2147483647,0,0],"right_children":[2,-1,-1],"split_conditions":[0E0,-2.3770817E-5,1.1582069E-6],"split_indices":[82,0,0],"split_type":[0,0,0],"sum_hessian":[1.95E2,1.8E1,1.77E2],"tree_param":{"num_deleted":"0","num_feature":"153","num_nodes":"3","size_leaf_vector":"1"}},{"base_weights":[-1.603387E-5],"categories":[],"categories_nodes":[],"categories_segments":[],"categories_sizes":[],"default_left":[0],"id":176,"left_children":[-1],"loss_changes":[0E0],"parents":[2147483647],"right_children":[-1],"split_conditions":[-1.603387E-6],"split_indices":[0],"split_type":[0],"sum_hessian":[2.07E2],"tree_param":{"num_deleted":"0","num_feature":"153","num_nodes":"1","size_leaf_vector":"1"}},{"base_weights":[1.8267905E-5],"categories":[],"categories_nodes":[],"categories_segments":[],"categories_sizes":[],"default_left":[0],"id":177,"left_children":[-1],"loss_changes":[0E0],"parents":[2147483647],"right_children":[-1],"split_conditions":[1.8267905E-6],"split_indices":[0],"split_type":[0],"sum_hessian":[1.93E2],"tree_param":{"num_deleted":"0","num_feature":"153","num_nodes":"1","size_leaf_vector":"1"}},{"base_weights":[-1.1121729E-6],"categories":[],"categories_nodes":[],"categories_segments":[],"categories_sizes":[],"default_left":[0],"id":178,"left_children":[-1],"loss_changes":[0E0],"parents":[2147483647],"right_children":[-1],"split_conditions":[-1.1121729E-7],"split_indices":[0],"split_type":[0],"sum_hessian":[1.95E2],"tree_param":{"num_deleted":"0","num_feature":"153","num_nodes":"1","size_leaf_vector":"1"}},{"base_weights":[-2.8189304E-5],"categories":[],"categories_nodes":[],"categories_segments":[],"categories_sizes":[],"default_left":[0],"id":179,"left_children":[-1],"loss_changes":[0E0],"parents":[2147483647],"right_children":[-1],"split_conditions":[-2.8189304E-6],"split_indices":[0],"split_type":[0],"sum_hessian":[1.99E2],"tree_param":{"num_deleted":"0","num_feature":"153","num_nodes":"1","size_leaf_vector":"1"}},{"base_weights":[-7.0698234E-6],"categories":[],"categories_nodes":[],"categories_segments":[],"categories_sizes":[],"default_left":[0],"id":180,"left_children":[-1],"loss_changes":[0E0],"parents":[2147483647],"right_children":[-1],"split_conditions":[-7.0698235E-7],"split_indices":[0],"split_type":[0],"sum_hessian":[1.92E2],"tree_param":{"num_deleted":"0","num_feature":"153","num_nodes":"1","size_leaf_vector":"1"}},{"base_weights":[2.9941027E-6],"categories":[],"categories_nodes":[],"categories_segments":[],"categories_sizes":[],"default_left":[0],"id":181,"left_children":[-1],"loss_changes":[0E0],"parents":[2147483647],"right_children":[-1],"split_conditions":[2.994103E-7],"split_indices":[0],"split_type":[0],"sum_hessian":[1.94E2],"tree_param":{"num_deleted":"0","num_feature":"153","num_nodes":"1","size_leaf_vector":"1"}},{"base_weights":[-8.071459E-6],"categories":[],"categories_nodes":[],"categories_segments":[],"categories_sizes":[],"default_left":[0],"id":182,"left_children":[-1],"loss_changes":[0E0],"parents":[2147483647],"right_children":[-1],"split_conditions":[-8.071459E-7],"split_indices":[0],"split_type":[0],"sum_hessian":[1.94E2],"tree_param":{"num_deleted":"0","num_feature":"153","num_nodes":"1","size_leaf_vector":"1"}},{"base_weights":[1.3868718E-5],"categories":[],"categories_nodes":[],"categories_segments":[],"categories_sizes":[],"default_left":[0],"id":183,"left_children":[-1],"loss_changes":[0E0],"parents":[2147483647],"right_children":[-1],"split_conditions":[1.3868719E-6],"split_indices":[0],"split_type":[0],"sum_hessian":[1.92E2],"tree_param":{"num_deleted":"0","num_feature":"153","num_nodes":"1","size_leaf_vector":"1"}},{"base_weights":[-2.1919752E-6],"categories":[],"categories_nodes":[],"categories_segments":[],"categories_sizes":[],"default_left":[0],"id":184,"left_children":[-1],"loss_changes":[0E0],"parents":[2147483647],"right_children":[-1],"split_conditions":[-2.1919753E-7],"split_indices":[0],"split_type":[0],"sum_hessian":[2.05E2],"tree_param":{"num_deleted":"0","num_feature":"153","num_nodes":"1","size_leaf_vector":"1"}},{"base_weights":[-7.477175E-6],"categories":[],"categories_nodes":[],"categories_segments":[],"categories_sizes":[],"default_left":[0],"id":185,"left_children":[-1],"loss_changes":[0E0],"parents":[2147483647],"right_children":[-1],"split_conditions":[-7.4771754E-7],"split_indices":[0],"split_type":[0],"sum_hessian":[2.09E2],"tree_param":{"num_deleted":"0","num_feature":"153","num_nodes":"1",