{"learner":{"attributes":{"scikit_learn":"{\"_estimator_type\": \"regressor\"}"},"feature_names":["open","high","low","close","volume","trade_count","vwap","HT_DCPERIOD","HT_DCPHASE","HT_PHASOR_0","HT_PHASOR_1","HT_SINE_0","HT_SINE_1","HT_TRENDMODE","ADX","ADXR","APO","AROON_0","AROON_1","AROONOSC","BOP","CCI","CMO","DX","MACD_0","MACD_1","MACD_2","MACDEXT_0","MACDEXT_1","MACDEXT_2","MACDFIX_0","MACDFIX_1","MACDFIX_2","MFI","MINUS_DI","MINUS_DM","MOM","PLUS_DI","PLUS_DM","PPO","ROC","ROCP","ROCR","ROCR100","RSI","STOCH_0","STOCH_1","STOCHF_0","STOCHF_1","STOCHRSI_0","STOCHRSI_1","TRIX","ULTOSC","WILLR","BBANDS_0","BBANDS_1","BBANDS_2","DEMA","EMA","HT_TRENDLINE","KAMA","MA","MAMA_0","MAMA_1","MIDPOINT","MIDPRICE","SAR","SAREXT","SMA","T3","TEMA","TRIMA","WMA","CDL2CROWS","CDL3BLACKCROWS","CDL3INSIDE","CDL3LINESTRIKE","CDL3OUTSIDE","CDL3STARSINSOUTH","CDL3WHITESOLDIERS","CDLABANDONEDBABY","CDLADVANCEBLOCK","CDLBELTHOLD","CDLBREAKAWAY","CDLCLOSINGMARUBOZU","CDLCONCEALBABYSWALL","CDLCOUNTERATTACK","CDLDARKCLOUDCOVER","CDLDOJI","CDLDOJISTAR","CDLDRAGONFLYDOJI","CDLENGULFING","CDLEVENINGDOJISTAR","CDLEVENINGSTAR","CDLGAPSIDESIDEWHITE","CDLGRAVESTONEDOJI","CDLHAMMER","CDLHANGINGMAN","CDLHARAMI","CDLHARAMICROSS","CDLHIGHWAVE","CDLHIKKAKE","CDLHIKKAKEMOD","CDLHOMINGPIGEON","CDLIDENTICAL3CROWS","CDLINNECK","CDLINVERTEDHAMMER","CDLKICKING","CDLKICKINGBYLENGTH","CDLLADDERBOTTOM","CDLLONGLEGGEDDOJI","CDLLONGLINE","CDLMARUBOZU","CDLMATCHINGLOW","CDLMATHOLD","CDLMORNINGDOJISTAR","CDLMORNINGSTAR","CDLONNECK","CDLPIERCING","CDLRICKSHAWMAN","CDLRISEFALL3METHODS","CDLSEPARATINGLINES","CDLSHOOTINGSTAR","CDLSHORTLINE","CDLSPINNINGTOP","CDLSTALLEDPATTERN","CDLSTICKSANDWICH","CDLTAKURI","CDLTASUKIGAP","CDLTHRUSTING","CDLTRISTAR","CDLUNIQUE3RIVER","CDLUPSIDEGAP2CROWS","CDLXSIDEGAP3METHODS","AVGPRICE","MEDPRICE","TYPPRICE","WCLPRICE","BETA","CORREL","LINEARREG","LINEARREG_ANGLE","LINEARREG_INTERCEPT","LINEARREG_SLOPE","STDDEV","TSF","VAR","ATR","NATR","TRANGE","AD","ADOSC","OBV"],"feature_types":["float","float","float","float","float","float","float","float","float","float","float","float","float","float","float","float","float","float","float","float","float","float","float","float","float","float","float","float","float","float","float","float","float","float","float","float","float","float","float","float","float","float","float","float","float","float","float","float","float","float","float","float","float","float","float","float","float","float","float","float","float","float","float","float","float","float","float","float","float","float","float","float","float","float","float","float","float","float","float","float","float","float","float","float","float","float","float","float","float","float","float","float","float","float","float","float","float","float","float","float","float","float","float","float","float","float","float","float","float","float","float","float","float","float","float","float","float","float","float","float","float","float","float","float","float","float","float","float","float","float","float","float","float","float","float","float","float","float","float","float","float","float","float","float","float","float","float","float","float","float","float","float","float"],"gradient_booster":{"model":{"gbtree_model_param":{"num_parallel_tree":"1","num_trees":"200"},"iteration_indptr":[0,1,2,3,4,5,6,7,8,9,10,11,12,13,14,15,16,17,18,19,20,21,22,23,24,25,26,27,28,29,30,31,32,33,34,35,36,37,38,39,40,41,42,43,44,45,46,47,48,49,50,51,52,53,54,55,56,57,58,59,60,61,62,63,64,65,66,67,68,69,70,71,72,73,74,75,76,77,78,79,80,81,82,83,84,85,86,87,88,89,90,91,92,93,94,95,96,97,98,99,100,101,102,103,104,105,106,107,108,109,110,111,112,113,114,115,116,117,118,119,120,121,122,123,124,125,126,127,128,129,130,131,132,133,134,135,136,137,138,139,140,141,142,143,144,145,146,147,148,149,150,151,152,153,154,155,156,157,158,159,160,161,162,163,164,165,166,167,168,169,170,171,172,173,174,175,176,177,178,179,180,181,182,183,184,185,186,187,188,189,190,191,192,193,194,195,196,197,198,199,200],"tree_info":[0,0,0,0,0,0,0,0,0,0,0,0,0,0,0,0,0,0,0,0,0,0,0,0,0,0,0,0,0,0,0,0,0,0,0,0,0,0,0,0,0,0,0,0,0,0,0,0,0,0,0,0,0,0,0,0,0,0,0,0,0,0,0,0,0,0,0,0,0,0,0,0,0,0,0,0,0,0,0,0,0,0,0,0,0,0,0,0,0,0,0,0,0,0,0,0,0,0,0,0,0,0,0,0,0,0,0,0,0,0,0,0,0,0,0,0,0,0,0,0,0,0,0,0,0,0,0,0,0,0,0,0,0,0,0,0,0,0,0,0,0,0,0,0,0,0,0,0,0,0,0,0,0,0,0,0,0,0,0,0,0,0,0,0,0,0,0,0,0,0,0,0,0,0,0,0,0,0,0,0,0,0,0,0,0,0,0,0,0,0,0,0,0,0,0,0,0,0,0,0],"trees":[{"base_weights":[4.377141E-5,-1.0780182E-2,4.4356333E-4,-5.664335E-3,-2.9355453E-3,-1.1875355E-3,2.0486286E-3,-8.185493E-3,5.468021E-4,-1.4880272E-3,7.3958817E-3,2.0276725E-3,1.7691561E-3,-1.0093085E-2,2.6577993E-4,-1.6978071E-3,5.4379716E-3,2.4976952E-3,1.3094232E-3,1.4710808E-3,1.3278721E-2,-4.7801758E-4,-1.1952844E-3,-3.521726E-5,7.508425E-5,-1.1830758E-3,-7.658449E-3,9.905822E-4,7.275909E-4,3.5527014E-4,-8.611648E-5,-5.668507E-3,1.8391061E-3,2.2633178E-3,-5.019767E-4,-1.490058E-3,6.4850706E-3,3.4655535E-4,-1.4706148E-2,-5.408066E-5,2.2663917E-4,-1.1692251E-3,2.9603156E-4,2.1208408E-3,-4.8354655E-3,-1.6222602E-4,8.692952E-5,-2.1615815E-3,2.7575408E-4,1.1471084E-4,8.390834E-4,-5.62154E-3,5.0517204E-3,-8.7136694E-5,-1.6558064E-2,-1.2324412E-3,2.2353181E-4,1.4946276E-3,5.8447206E-3,-1.367551E-3,3.904674E-4,-4.8741186E-3,-1.4956165E-3,3.63805E-3,-7.047988E-4,-1.4074004E-4,-6.55712E-4,6.926511E-4,-1.2237205E-4,-1.8036589E-3,-3.8434574E-4,6.1345877E-6,-1.6841522E-4,3.577282E-3,7.8201573E-4,7.973348E-3,2.2171973E-3,-2.3627088E-4,1.4136444E-3,-6.1445823E-3,1.1825594E-3,3.9006139E-3,-1.9389594E-3,4.6389056E-3,7.2682604E-5,-2.253401E-3,5.2388484E-4,5.537365E-4,5.5699064E-3,4.1155834E-4,4.381819E-3,1.4284275E-4,8.806306E-3,3.1991585E-3,-1.4677523E-4,1.8088832E-4,-8.365521E-6,-6.1745115E-4,-7.0836376E-3,2.203942E-3,-1.4514853E-4,4.420654E-4,5.88733E-4,2.2010466E-3,-2.2973625E-3,1.3110583E-4,4.9270183E-4,-2.7731532E-4,-3.979109E-3,1.6927151E-3,-2.875115E-3,-1.7165329E-3,1.6427265E-3,4.1058515E-3,9.277764E-4,9.327129E-4,-2.1061588E-3,6.340757E-3,7.6294225E-4,9.526067E-4,2.9918266E-4,4.3354952E-4,6.94864E-4,1.1887413E-5,-1.4132136E-4,-3.6316975E-3,-9.136826E-3,4.094212E-5,2.665642E-4,1.0514412E-4,-1.11540285E-5,4.4103232E-4,-1.110811E-3,-2.82793E-3,5.3675245E-5,9.5593656E-5,-7.662354E-4,-3.2668104E-6,-4.4683306E-3,4.5197125E-4,3.400639E-3,-5.6412555E-5,-3.2244876E-4,-2.3044573E-5,-2.401965E-4,2.304626E-3,-1.1111804E-3,4.6616015E-3,8.5638865E-5,-6.730402E-4,1.6946464E-3,-8.608726E-4,-4.117953E-3,7.4820424E-4,2.3250301E-4,1.5124373E-4,-2.4086685E-5,1.11354086E-4,-2.8058314E-5,-1.8243874E-4,-4.3512063E-4,-1.6002485E-4,-9.796418E-4,-1.4847878E-4,5.5596973E-7,-2.0733685E-3,-4.4143E-3,-1.2789649E-3,4.704497E-3,2.1643833E-5,-1.20259254E-4,-5.312048E-4,-2.2966019E-4,-1.13211885E-4,1.1875199E-3,3.715073E-4,7.570173E-5,3.2273558E-4,1.1515802E-3,-1.5831155E-4,-8.365521E-6,1.4831689E-4,5.2809957E-3,6.067964E-4,-2.9388305E-3,2.2414436E-3,-1.6808104E-4,2.9533283E-5,-2.871669E-4,-4.5246034E-4,-8.390247E-5,2.1087916E-3,-2.482878E-3,-5.6087333E-3,-1.6229498E-3,1.7783822E-3,-2.679742E-3,-1.6649154E-5,6.383657E-4,5.5207278E-5,2.0625743E-4,-8.365521E-6,1.4153584E-4,2.2785271E-4,5.9538838E-3,2.016599E-3,-1.0046662E-3,-1.2796103E-4,-3.7041548E-4,2.6115046E-3,-1.4633815E-3,7.364495E-4,-1.6476184E-3,-1.1591058E-3,1.0151437E-4,-4.714578E-5,2.8717183E-4,-1.1490161E-3,-3.2251757E-3,-8.3908037E-4,-6.277981E-3,-4.2783338E-4,-2.4766203E-5,2.1859088E-4,7.413791E-6,-3.480607E-4,3.491456E-5,6.495478E-4,2.5250064E-4,2.6507294E-3,2.4418865E-5,-2.2398062E-4,6.78435E-4,2.005928E-3,4.7436436E-3,8.133457E-5,-2.2358997E-4,1.2958813E-3,-1.000852E-4,-2.0474869E-4,-5.6525427E-5,-2.1265194E-4,-3.8562262E-5,-4.4195214E-4,-4.639829E-4,-5.089824E-4,-4.0662833E-3,3.8584208E-6,-1.2972047E-4,-7.756485E-4,-3.902623E-4,-1.303022E-4,9.401171E-4,3.112907E-4,8.427983E-5,1.2592207E-4,-1.2849577E-5,-3.9974696E-4,2.3191294E-3,5.711934E-4,9.030854E-5,1.5821644E-4,2.9135508E-5,8.9832814E-4,-1.6233724E-3,-1.3098154E-3,1.2623446E-4,-4.762694E-3,-7.459507E-5,1.8512475E-5,1.6025471E-4,8.957E-5,-9.475337E-5,9.3292154E-4,2.742327E-3,-4.2689767E-6,1.8500186E-4,-1.3685487E-5,-2.343822E-3,-1.5239818E-4,-1.1949237E-5,-5.2708373E-3,-4.6502883E-4,-1.1091721E-5,1.2470064E-4,2.9123952E-3,-5.8462007E-5,-1.1172654E-4,-3.1979568E-4,-1.06200656E-4,-5.4806256E-4,2.78722E-5,-9.762652E-5,3.2318502E-3,5.8702135E-4,3.4212773E-3,1.0180046E-4,-4.2581403E-5,1.8127638E-4,3.7638802E-4,1.777734E-4],"categories":[],"categories_nodes":[],"categories_segments":[],"categories_sizes":[],"default_left":[0,0,0,0,0,0,0,0,0,0,0,0,0,0,0,0,0,0,0,0,0,0,0,0,0,0,0,0,0,0,0,0,0,0,0,0,0,0,0,0,0,0,0,0,0,0,0,0,0,0,0,0,0,0,0,0,0,0,0,0,0,0,0,0,0,0,0,0,0,0,0,0,0,0,0,0,0,0,0,0,0,0,0,0,0,0,0,0,0,0,0,0,0,0,0,0,0,0,0,0,0,0,0,0,0,0,0,0,0,0,0,0,0,0,0,0,0,0,0,0,0,0,0,0,0,0,0,0,0,0,0,0,0,0,0,0,0,0,0,0,0,0,0,0,0,0,0,0,0,0,0,0,0,0,0,0,0,0,0,0,0,0,0,0,0,0,0,0,0,0,0,0,0,0,0,0,0,0,0,0,0,0,0,0,0,0,0,0,0,0,0,0,0,0,0,0,0,0,0,0,0,0,0,0,0,0,0,0,0,0,0,0,0,0,0,0,0,0,0,0,0,0,0,0,0,0,0,0,0,0,0,0,0,0,0,0,0,0,0,0,0,0,0,0,0,0,0,0,0,0,0,0,0,0,0,0,0,0,0,0,0,0,0,0,0,0,0,0,0,0,0,0,0,0,0,0,0,0,0,0,0,0,0,0,0,0,0,0,0,0,0,0,0,0,0,0,0,0,0,0,0],"id":0,"left_children":[1,3,5,7,-1,9,11,13,-1,15,17,-1,19,21,23,25,27,29,-1,31,33,-1,-1,-1,-1,35,37,-1,39,-1,-1,41,43,-1,45,47,49,51,53,-1,-1,-1,55,57,59,-1,-1,61,63,-1,-1,65,67,-1,69,71,-1,73,75,-1,77,79,81,83,85,-1,-1,-1,-1,-1,-1,-1,-1,87,89,91,93,-1,95,97,99,101,103,105,-1,107,109,111,113,115,117,-1,119,121,-1,-1,-1,123,125,127,-1,129,-1,131,133,-1,-1,135,137,139,141,143,145,147,-1,149,151,153,155,-1,-1,-1,157,-1,-1,159,161,-1,-1,-1,-1,-1,163,165,167,-1,169,-1,171,173,175,-1,-1,-1,-1,177,179,181,-1,183,185,187,189,-1,-1,-1,-1,-1,-1,-1,-1,-1,-1,-1,-1,191,193,195,197,-1,-1,-1,-1,-1,199,-1,-1,-1,201,-1,-1,-1,203,205,207,209,211,213,-1,-1,-1,215,217,219,221,223,225,-1,-1,-1,-1,-1,-1,-1,227,229,231,-1,-1,233,235,237,239,241,-1,-1,-1,243,245,247,249,-1,251,-1,-1,-1,-1,-1,-1,253,-1,-1,255,257,259,-1,-1,261,-1,-1,-1,-1,-1,-1,263,265,267,-1,-1,-1,-1,-1,269,-1,-1,-1,-1,271,273,-1,-1,-1,-1,275,277,279,-1,281,-1,-1,-1,-1,-1,283,285,-1,-1,-1,287,-1,-1,289,291,-1,-1,293,-1,-1,-1,-1,-1,-1,-1,295,297,299,-1,-1,-1,-1,-1],"loss_changes":[1.8222599E-3,1.2591444E-3,1.065349E-3,4.0962198E-4,0E0,5.32013E-4,1.0084489E-3,1.8002E-4,0E0,2.9400803E-4,1.6267563E-4,0E0,6.769014E-4,3.1789765E-5,1.163663E-6,5.7695206E-4,1.1906428E-4,2.0777552E-5,0E0,5.333071E-4,6.5591594E-4,0E0,0E0,0E0,0E0,4.2631832E-4,8.513494E-4,0E0,9.032923E-6,0E0,0E0,3.6274982E-4,3.675425E-4,0E0,6.0188627E-6,2.0336514E-4,6.158507E-5,2.5304544E-4,1.905387E-4,0E0,0E0,0E0,2.0539777E-5,4.1801E-4,3.7491968E-4,0E0,0E0,2.1671061E-4,1.6081572E-4,0E0,0E0,6.5421773E-6,6.730179E-5,0E0,6.2268926E-5,2.4409874E-6,0E0,2.3169411E-4,1.8308434E-4,0E0,2.024195E-5,1.9194133E-4,2.4919352E-4,2.8679176E-5,7.3484734E-5,0E0,0E0,0E0,0E0,0E0,0E0,0E0,0E0,2.379074E-4,1.5689188E-4,7.4647134E-5,4.4498825E-5,0E0,3.1102763E-6,9.943184E-5,1.6650825E-5,5.2366646E-5,1.4453303E-4,1.2107485E-6,0E0,5.6869038E-5,9.2269525E-5,4.4848905E-5,9.219104E-5,1.4498549E-4,7.314309E-5,0E0,3.0090101E-5,2.2598906E-5,0E0,0E0,0E0,2.5117547E-6,8.7304914E-5,2.2227505E-6,0E0,1.4666934E-6,0E0,6.3433516E-5,1.086742E-4,0E0,0E0,6.1591268E-6,1.723018E-5,3.4487643E-5,3.0253686E-6,5.5581495E-6,2.4434565E-5,3.031976E-5,0E0,1.12476984E-4,4.4054897E-5,1.4685647E-5,4.1260455E-6,0E0,0E0,0E0,1.9460292E-6,0E0,0E0,2.464716E-6,3.403402E-5,0E0,0E0,0E0,0E0,0E0,1.6782424E-6,7.583544E-5,1.113807E-4,0E0,3.2618636E-6,0E0,2.4589535E-6,1.4161344E-5,3.0063384E-6,0E0,0E0,0E0,0E0,6.9229354E-6,1.3223396E-6,2.3666653E-5,0E0,8.877852E-5,6.352586E-5,2.3360339E-5,5.5373894E-6,0E0,0E0,0E0,0E0,0E0,0E0,0E0,0E0,0E0,0E0,0E0,0E0,9.086756E-5,6.424714E-5,6.4722866E-5,3.37795E-5,0E0,0E0,0E0,0E0,0E0,3.3097158E-6,0E0,0E0,0E0,2.0733705E-6,0E0,0E0,0E0,1.2698147E-5,4.7462894E-5,9.228366E-6,6.963014E-5,2.128769E-5,1.2892009E-5,0E0,0E0,0E0,1.11966E-5,4.18399E-5,4.261351E-5,3.384437E-5,3.3105644E-6,2.5472546E-5,0E0,0E0,0E0,0E0,0E0,0E0,0E0,2.1694577E-6,1.1716056E-5,2.2308219E-5,0E0,0E0,4.7296227E-5,1.0612624E-5,1.1016002E-5,1.4394682E-6,2.9213566E-6,0E0,0E0,0E0,3.82767E-5,6.4184074E-5,1.2562903E-6,1.5385041E-5,0E0,8.625199E-6,0E0,0E0,0E0,0E0,0E0,0E0,4.061123E-6,0E0,0E0,2.505074E-6,2.8051654E-5,2.8310606E-5,0E0,0E0,1.8396577E-6,0E0,0E0,0E0,0E0,0E0,0E0,2.6729507E-5,1.3001737E-5,4.7318114E-5,0E0,0E0,0E0,0E0,0E0,1.7038469E-6,0E0,0E0,0E0,0E0,4.396849E-6,1.6214093E-5,0E0,0E0,0E0,0E0,7.2434377E-6,9.317884E-6,1.3474573E-6,0E0,3.6857906E-5,0E0,0E0,0E0,0E0,0E0,3.0890014E-6,1.5282028E-5,0E0,0E0,0E0,2.7129026E-6,0E0,0E0,8.306961E-6,1.4128043E-6,0E0,0E0,1.5188445E-5,0E0,0E0,0E0,0E0,0E0,0E0,0E0,4.9043592E-6,5.737801E-6,3.444322E-6,0E0,0E0,0E0,0E0,0E0],"parents":[2147483647,0,0,1,1,2,2,3,3,5,5,6,6,7,7,9,9,10,10,12,12,13,13,14,14,15,15,16,16,17,17,19,19,20,20,25,25,26,26,28,28,31,31,32,32,34,34,35,35,36,36,37,37,38,38,42,42,43,43,44,44,47,47,48,48,51,51,52,52,54,54,55,55,57,57,58,58,60,60,61,61,62,62,63,63,64,64,73,73,74,74,75,75,76,76,78,78,79,79,80,80,81,81,82,82,83,83,85,85,86,86,87,87,88,88,89,89,90,90,92,92,93,93,97,97,98,98,99,99,101,101,103,103,104,104,107,107,108,108,109,109,110,110,111,111,112,112,113,113,115,115,116,116,117,117,118,118,122,122,125,125,126,126,132,132,133,133,134,134,136,136,138,138,139,139,140,140,145,145,146,146,147,147,149,149,150,150,151,151,152,152,165,165,166,166,167,167,168,168,174,174,178,178,182,182,183,183,184,184,185,185,186,186,187,187,191,191,192,192,193,193,194,194,195,195,196,196,204,204,205,205,206,206,209,209,210,210,211,211,212,212,213,213,217,217,218,218,219,219,220,220,222,222,229,229,232,232,233,233,234,234,237,237,244,244,245,245,246,246,252,252,257,257,258,258,263,263,264,264,265,265,267,267,273,273,274,274,278,278,281,281,282,282,285,285,293,293,294,294,295,295],"right_children":[2,4,6,8,-1,10,12,14,-1,16,18,-1,20,22,24,26,28,30,-1,32,34,-1,-1,-1,-1,36,38,-1,40,-1,-1,42,44,-1,46,48,50,52,54,-1,-1,-1,56,58,60,-1,-1,62,64,-1,-1,66,68,-1,70,72,-1,74,76,-1,78,80,82,84,86,-1,-1,-1,-1,-1,-1,-1,-1,88,90,92,94,-1,96,98,100,102,104,106,-1,108,110,112,114,116,118,-1,120,122,-1,-1,-1,124,126,128,-1,130,-1,132,134,-1,-1,136,138,140,142,144,146,148,-1,150,152,154,156,-1,-1,-1,158,-1,-1,160,162,-1,-1,-1,-1,-1,164,166,168,-1,170,-1,172,174,176,-1,-1,-1,-1,178,180,182,-1,184,186,188,190,-1,-1,-1,-1,-1,-1,-1,-1,-1,-1,-1,-1,192,194,196,198,-1,-1,-1,-1,-1,200,-1,-1,-1,202,-1,-1,-1,204,206,208,210,212,214,-1,-1,-1,216,218,220,222,224,226,-1,-1,-1,-1,-1,-1,-1,228,230,232,-1,-1,234,236,238,240,242,-1,-1,-1,244,246,248,250,-1,252,-1,-1,-1,-1,-1,-1,254,-1,-1,256,258,260,-1,-1,262,-1,-1,-1,-1,-1,-1,264,266,268,-1,-1,-1,-1,-1,270,-1,-1,-1,-1,272,274,-1,-1,-1,-1,276,278,280,-1,282,-1,-1,-1,-1,-1,284,286,-1,-1,-1,288,-1,-1,290,292,-1,-1,294,-1,-1,-1,-1,-1,-1,-1,296,298,300,-1,-1,-1,-1,-1],"split_conditions":[-3.3419468E0,1E2,3.020783E-1,2.585E0,-2.9355453E-3,9.6431607E-1,-3.0751715E1,3.669173E1,5.468021E-4,2.00956E1,2.4731E2,2.0276725E-3,7.81318E5,-1.2159299E0,2.4146E2,3.2163942E0,1.3648518E1,2.1869832E-1,1.3094232E-3,-1.0198586E0,1.225625E6,-4.7801758E-4,-1.1952844E-3,-3.521726E-5,7.508425E-5,1.077444E0,-2.75E0,9.905822E-4,1.9865E5,3.5527014E-4,-8.611648E-5,2.2685272E1,4.463114E6,2.2633178E-3,2.675E2,-8.981093E-2,9.2441E4,3.645085E1,-2.1179525E1,-5.408066E-5,2.2663917E-4,-1.1692251E-3,5.275938E1,2.6399171E0,2.669466E1,-1.6222602E-4,8.692952E-5,-8.522427E1,-2.5791E2,1.1471084E-4,8.390834E-4,1.1E2,2.18756E1,-8.7136694E-5,9.79439E-1,2.7395E2,2.2353181E-4,5.0829224E1,8.599148E1,-1.367551E-3,-9.92126E-1,-5.42316E-1,-4.522179E-1,6.428571E1,4.5606865E1,-1.4074004E-4,-6.55712E-4,6.926511E-4,-1.2237205E-4,-1.8036589E-3,-3.8434574E-4,6.1345877E-6,-1.6841522E-4,-3.478261E-1,2.8460263E2,5.187363E-1,8.85036E1,-2.3627088E-4,2.9665E2,-3.0751715E1,2.539E2,-5.212017E6,1.4548405E1,-9.974642E-1,7.2682604E-5,-5.294987E-1,7.579276E1,-1.6901178E5,1.60514E5,2.7480502E2,1.3846205E0,1.4284275E-4,1.520488E1,5.078281E0,-1.4677523E-4,1.8088832E-4,-8.365521E-6,1.84902E5,2.5301515E2,1.6734049E1,-1.4514853E-4,2.4924E2,5.88733E-4,1.3207675E0,8.7434555E1,1.3110583E-4,4.9270183E-4,7.142857E0,7.142857E0,1.66E0,1.32E2,2.10473E5,9.956469E-1,1.8003274E-2,9.277764E-4,5.2145214E1,5.580064E1,1.8729016E2,2.8501273E2,9.526067E-4,2.9918266E-4,4.3354952E-4,2.5792597E1,1.1887413E-5,-1.4132136E-4,-1.6516817E0,1.06E2,4.094212E-5,2.665642E-4,1.0514412E-4,-1.11540285E-5,4.4103232E-4,4E0,5.0176647E1,3.6934778E-1,9.5593656E-5,8.798832E-2,-3.2668104E-6,1.8003274E-2,1.9024498E1,5.04454E5,-5.6412555E-5,-3.2244876E-4,-2.3044573E-5,-2.401965E-4,1.6493376E-1,2.522E2,8.97942E0,8.5638865E-5,2.8491682E-1,1.6913904E0,1.5309135E0,2.202E3,7.4820424E-4,2.3250301E-4,1.5124373E-4,-2.4086685E-5,1.11354086E-4,-2.8058314E-5,-1.8243874E-4,-4.3512063E-4,-1.6002485E-4,-9.796418E-4,-1.4847878E-4,5.5596973E-7,7.142857E0,1.5807486E0,-2.6715115E-1,2.4453E2,2.1643833E-5,-1.20259254E-4,-5.312048E-4,-2.2966019E-4,-1.13211885E-4,1.4107584E1,3.715073E-4,7.570173E-5,3.2273558E-4,2.0403954E1,-1.5831155E-4,-8.365521E-6,1.4831689E-4,2.030785E1,1.26533E5,2.3132764E-1,3.365E0,1.9226814E1,9.405213E0,-2.871669E-4,-4.5246034E-4,-8.390247E-5,8.3902E4,2.4029724E1,-5.772871E-1,2.039E3,4.6298E4,2.07586E5,-1.6649154E-5,6.383657E-4,5.5207278E-5,2.0625743E-4,-8.365521E-6,1.4153584E-4,2.2785271E-4,1.4470197E0,3.485131E1,4.969807E1,-1.2796103E-4,-3.7041548E-4,1.8310845E5,2.56E2,3.4845686E0,6.6E1,2.7756E2,1.0151437E-4,-4.714578E-5,2.8717183E-4,-8.518519E-1,-5.7142857E1,2.4413E2,6.808186E-1,-4.2783338E-4,-5.070994E-1,2.1859088E-4,7.413791E-6,-3.480607E-4,3.491456E-5,6.495478E-4,2.5250064E-4,5.258273E1,2.4418865E-5,-2.2398062E-4,2.725E3,-5.674932E6,1.5690697E0,8.133457E-5,-2.2358997E-4,1.77163E0,-1.000852E-4,-2.0474869E-4,-5.6525427E-5,-2.1265194E-4,-3.8562262E-5,-4.4195214E-4,2.679368E1,1E0,2.82014E2,3.8584208E-6,-1.2972047E-4,-7.756485E-4,-3.902623E-4,-1.303022E-4,2.6184E2,3.112907E-4,8.427983E-5,1.2592207E-4,-1.2849577E-5,8E0,7.887462E-1,5.711934E-4,9.030854E-5,1.5821644E-4,2.9135508E-5,5.2916668E1,-8.124502E-1,2.4638E2,1.2623446E-4,4.8432217E1,-7.459507E-5,1.8512475E-5,1.6025471E-4,8.957E-5,-9.475337E-5,-3.0780429E-2,3.5714287E1,-4.2689767E-6,1.8500186E-4,-1.3685487E-5,2.561E2,-1.5239818E-4,-1.1949237E-5,6.6760883E0,2.4953E2,-1.1091721E-5,1.2470064E-4,1.9396683E0,-5.8462007E-5,-1.1172654E-4,-3.1979568E-4,-1.06200656E-4,-5.4806256E-4,2.78722E-5,-9.762652E-5,7.484E3,2.613E2,1.9228173E0,1.0180046E-4,-4.2581403E-5,1.8127638E-4,3.7638802E-4,1.777734E-4],"split_indices":[9,124,9,149,0,20,141,34,0,38,1,0,4,24,1,147,14,10,0,24,4,0,0,0,0,148,36,0,4,0,0,7,152,0,1,9,4,46,8,0,0,0,52,9,14,0,0,53,67,0,0,4,7,0,11,1,0,52,21,0,20,9,26,18,33,0,0,0,0,0,0,0,0,20,145,148,33,0,1,141,1,152,47,11,0,141,33,151,4,69,10,0,38,10,0,0,0,4,66,7,0,1,0,24,47,0,0,18,17,36,4,4,138,20,0,47,33,8,6,0,0,0,7,0,0,9,4,0,0,0,0,0,5,33,11,0,9,0,20,34,4,0,0,0,0,138,1,23,0,11,10,144,5,0,0,0,0,0,0,0,0,0,0,0,0,17,24,10,1,0,0,0,0,0,14,0,0,0,7,0,0,0,7,4,29,149,14,23,0,0,0,4,34,20,5,4,4,0,0,0,0,0,0,0,9,23,45,0,0,151,4,10,5,1,0,0,0,20,19,1,144,0,20,0,0,0,0,0,0,45,0,0,5,152,147,0,0,9,0,0,0,0,0,0,23,13,66,0,0,0,0,0,1,0,0,0,0,5,9,0,0,0,0,45,9,1,0,33,0,0,0,0,0,138,17,0,0,0,1,0,0,8,1,0,0,147,0,0,0,0,0,0,0,5,1,9,0,0,0,0,0],"split_type":[0,0,0,0,0,0,0,0,0,0,0,0,0,0,0,0,0,0,0,0,0,0,0,0,0,0,0,0,0,0,0,0,0,0,0,0,0,0,0,0,0,0,0,0,0,0,0,0,0,0,0,0,0,0,0,0,0,0,0,0,0,0,0,0,0,0,0,0,0,0,0,0,0,0,0,0,0,0,0,0,0,0,0,0,0,0,0,0,0,0,0,0,0,0,0,0,0,0,0,0,0,0,0,0,0,0,0,0,0,0,0,0,0,0,0,0,0,0,0,0,0,0,0,0,0,0,0,0,0,0,0,0,0,0,0,0,0,0,0,0,0,0,0,0,0,0,0,0,0,0,0,0,0,0,0,0,0,0,0,0,0,0,0,0,0,0,0,0,0,0,0,0,0,0,0,0,0,0,0,0,0,0,0,0,0,0,0,0,0,0,0,0,0,0,0,0,0,0,0,0,0,0,0,0,0,0,0,0,0,0,0,0,0,0,0,0,0,0,0,0,0,0,0,0,0,0,0,0,0,0,0,0,0,0,0,0,0,0,0,0,0,0,0,0,0,0,0,0,0,0,0,0,0,0,0,0,0,0,0,0,0,0,0,0,0,0,0,0,0,0,0,0,0,0,0,0,0,0,0,0,0,0,0,0,0,0,0,0,0,0,0,0,0,0,0,0,0,0,0,0,0],"sum_hessian":[4.19E2,1.4E1,4.05E2,1.2E1,2E0,2.01E2,2.04E2,1E1,2E0,1.95E2,6E0,2E0,2.02E2,8E0,2E0,1.9E2,5E0,4E0,2E0,1.98E2,4E0,3E0,5E0,1E0,1E0,1.76E2,1.4E1,2E0,3E0,3E0,1E0,9E0,1.89E2,2E0,2E0,1.7E2,6E0,7E0,7E0,2E0,1E0,4E0,5E0,1.82E2,7E0,1E0,1E0,1.23E2,4.7E1,2E0,4E0,3E0,4E0,1E0,6E0,3E0,2E0,1.57E2,2.5E1,2E0,5E0,2.3E1,1E2,1E1,3.7E1,1E0,2E0,3E0,1E0,5E0,1E0,1E0,2E0,3.9E1,1.18E2,1.5E1,1E1,1E0,4E0,1.9E1,4E0,7E0,9.3E1,7E0,3E0,1.6E1,2.1E1,1.6E1,2.3E1,1.08E2,1E1,2E0,1.3E1,8E0,2E0,3E0,1E0,3E0,1.6E1,3E0,1E0,3E0,4E0,7E0,8.6E1,1E0,6E0,8E0,8E0,1.6E1,5E0,5E0,1.1E1,1.8E1,5E0,9E1,1.8E1,6E0,4E0,1.1E1,2E0,5E0,3E0,2E0,1E0,7E0,9E0,1E0,2E0,1E0,2E0,4E0,3E0,7E1,1.6E1,2E0,6E0,1E0,7E0,1E1,6E0,1E0,4E0,2E0,3E0,9E0,2E0,1.5E1,3E0,2.9E1,6.1E1,1.2E1,6E0,4E0,2E0,2E0,2E0,2E0,1E0,3E0,4E0,1E0,8E0,2E0,1E0,4.9E1,2.1E1,1.3E1,3E0,2E0,4E0,4E0,3E0,3E0,7E0,5E0,1E0,4E0,5E0,1E0,1E0,3E0,1.2E1,1.9E1,1E1,4.7E1,1.4E1,9E0,3E0,5E0,1E0,4E0,4.5E1,1.4E1,7E0,4E0,9E0,1E0,2E0,5E0,2E0,1E0,4E0,3E0,9E0,1E1,9E0,4E0,6E0,4.3E1,4E0,9E0,5E0,4E0,5E0,1E0,3E0,1.7E1,2.8E1,2E0,1.2E1,2E0,5E0,3E0,1E0,7E0,2E0,7E0,2E0,7E0,3E0,5E0,4E0,3.5E1,8E0,1E0,3E0,7E0,2E0,3E0,2E0,1E0,3E0,2E0,1.5E1,7E0,2.1E1,1E0,1E0,6E0,6E0,2E0,3E0,5E0,2E0,2E0,2E0,4E0,3.1E1,6E0,2E0,5E0,2E0,7E0,8E0,5E0,2E0,1.7E1,4E0,2E0,1E0,1E0,3E0,8E0,2.3E1,4E0,3E0,3E0,5E0,4E0,1E0,1.5E1,2E0,2E0,6E0,2.2E1,1E0,3E0,2E0,1E0,1.4E1,1E0,1E0,1.9E1,3E0,1.7E1,2E0,2E0,1E0,1.3E1,4E0],"tree_param":{"num_deleted":"0","num_feature":"153","num_nodes":"301","size_leaf_vector":"1"}},{"base_weights":[2.3189392E-5,-1.2044448E-2,4.9753586E-4,-6.657537E-3,-2.2564147E-2,-1.0253172E-3,2.2081542E-3,-7.537366E-3,1.5102903E-4,-2.6664552E-3,-3.0812653E-4,-1.2462275E-3,6.914247E-3,1.8978565E-3,2.11243E-3,-1.8261366E-4,-7.9258755E-3,-9.852397E-3,-9.895128E-4,1.2054074E-3,1.2221284E-3,1.9826249E-3,1.6980965E-3,-2.290525E-4,-8.2975224E-4,-3.874487E-3,-1.4538812E-3,9.730101E-4,-1.7286746E-3,2.1526143E-4,-8.181066E-5,9.47933E-3,1.346734E-3,-4.6141172E-4,-8.277986E-5,4.7686837E-5,5.902769E-3,-1.2585955E-3,-7.0297024E-3,4.6286473E-4,1.146401E-3,1.5380487E-3,-7.551284E-3,4.1660885E-3,-9.831057E-4,7.989023E-3,-9.327463E-4,-1.4969436E-3,7.1598927E-4,3.437008E-4,-9.466745E-3,1.2198704E-3,5.8643753E-3,-2.6655398E-5,-9.890676E-4,1.1869746E-3,6.9078075E-4,1.3218613E-3,-3.6002726E-3,2.9906942E-4,9.390215E-4,-1.7310298E-4,3.3191027E-5,-1.2587166E-3,-9.04376E-3,-4.3876832E-3,-1.2121507E-3,1.3861139E-3,-4.4768937E-3,7.0543936E-3,1.7207403E-4,1.7118745E-4,9.1449765E-6,-9.091805E-4,2.6616838E-3,-6.9253347E-3,-1.5329106E-3,-1.610419E-3,2.4218187E-3,-4.155726E-5,-1.1781299E-3,-8.4349966E-5,-5.062854E-4,1.2685753E-5,2.1577291E-3,-2.4538225E-4,-6.284589E-4,2.503501E-4,7.997006E-4,-1.9154203E-3,1.7417726E-3,4.2967056E-4,4.128469E-4,-1.6663765E-4,-8.6956425E-4,1.8094627E-3,-3.2194613E-3,-2.3519837E-3,2.2642917E-4,5.887333E-3,-4.6855144E-5,3.172459E-4,-4.3304674E-3,2.4949105E-3,-2.2424615E-3,-3.6727328E-5,-2.4612245E-4,2.5144097E-4,9.8249275E-6,1.4868308E-3,-7.643487E-5,5.2817126E-7,2.2591875E-4,-5.224791E-4,5.933983E-4,-6.900776E-4,-2.1637676E-3,-1.0837096E-3,1.2138479E-3,5.8991638E-5,7.064208E-4,-6.0562533E-4,1.9322682E-4,-1.8795338E-3,7.6829904E-4,-4.544033E-5,-5.471021E-4,2.14966E-3,1.0070886E-3,2.269968E-4,-3.2113753E-3,2.5457342E-5,1.8127255E-4,-6.357043E-6,1.2821522E-4,7.606818E-4,-2.5638365E-3,-2.5686733E-3,3.5667018E-4,1.702927E-3,-1.2904704E-4,-2.011006E-4,-3.6227573E-6,1.2730973E-4,-2.8268285E-3,-3.6096125E-4,1.0371128E-3,7.350931E-3,1.9001518E-3,-4.2223805E-4,-4.5590856E-5,-4.2661792E-4,4.0690205E-4,-3.2215496E-4,-2.9037544E-3,-3.2816836E-4,-1.0352424E-4,7.3298055E-5,-2.9696292E-5,7.2366185E-4,2.413973E-3,-3.476624E-4,-5.8496204E-5,2.2216877E-3,4.04518E-5,1.5131058E-4,8.792504E-4,5.5036196E-3,1.629796E-3,-1.7591589E-4,5.328458E-5,-2.0135967E-4,5.6383526E-4,1.9087608E-4,-3.0087745E-3,1.0969943E-4,-3.886676E-5,1.00999605E-4,2.8713924E-4,5.0755544E-4,2.725632E-3,-9.6655794E-4,2.9118436E-3,-1.1429113E-4,7.0615084E-4,-1.8942355E-3,1.9142211E-3,1.243819E-4,-4.2710304E-5,1.559148E-4,-3.1060295E-3,9.964534E-5,-3.1349355E-5,3.150828E-3,-1.6715983E-5,1.6452776E-3,-1.7223466E-3,3.367945E-4,8.761819E-6,-3.4371982E-4,1.2228599E-5,1.1160345E-3,3.1015682E-3,-3.5840746E-3,-1.7118013E-3,3.4514822E-3,-3.788384E-5,2.1321719E-5,2.5289122E-4,-2.612135E-3,1.959895E-4,6.6963286E-4,3.7625537E-3,-5.2313606E-4,3.6380666E-3,-2.8380838E-3,-5.4612085E-3,-2.8455872E-3,4.7637496E-4,8.920713E-5,3.835732E-4,-2.892477E-3,9.564311E-6,-2.3673992E-5,7.076322E-5,-3.1587987E-3,1.0268058E-3,4.31145E-4,2.345882E-5,-2.086523E-4,3.893414E-5,4.7273426E-3,1.5248812E-3,-3.3775384E-3,-1.1516932E-3,-5.789054E-4,-9.27452E-5,-2.778112E-5,-3.6706447E-4,2.0331846E-4,-1.1995282E-3,-3.086376E-4,-5.736941E-5,-7.3393356E-5,-3.7224425E-4,1.4229754E-3,-7.852656E-4,3.028858E-3,6.963696E-4,1.9714814E-3,-3.2321303E-4,-3.7265255E-3,-5.264791E-5,3.6842262E-5,-1.8558032E-3,-1.5390637E-4,-9.046106E-6,1.6305323E-3,-1.26529E-4,-1.7107903E-3,1.3275392E-4,5.395104E-5,3.4727764E-4,9.101715E-5,2.3504412E-4,3.1225394E-5,-7.970735E-5,-1.6406528E-5,-4.0579946E-3,-2.1826071E-4,5.2510136E-6,-3.377124E-4,1.8457891E-3,-1.893171E-5,-1.9772215E-4,-4.2206724E-3,-4.022213E-5,6.7973236E-4,-1.6950234E-4,2.7452363E-3,9.4341114E-4,-4.3366125E-4,-1.0089062E-4,-9.586465E-6,1.11546324E-4,8.9781795E-4,3.3944217E-3,-2.9143554E-4,1.5311993E-3,1.2683646E-4,-2.9218403E-5,3.7944748E-4,1.1961395E-4,-1.19235476E-4,4.5711274E-4,1.9362009E-4,8.709979E-5,-3.3056208E-6,9.638098E-5],"categories":[],"categories_nodes":[],"categories_segments":[],"categories_sizes":[],"default_left":[0,0,0,0,0,0,0,0,0,0,0,0,0,0,0,0,0,0,0,0,0,0,0,0,0,0,0,0,0,0,0,0,0,0,0,0,0,0,0,0,0,0,0,0,0,0,0,0,0,0,0,0,0,0,0,0,0,0,0,0,0,0,0,0,0,0,0,0,0,0,0,0,0,0,0,0,0,0,0,0,0,0,0,0,0,0,0,0,0,0,0,0,0,0,0,0,0,0,0,0,0,0,0,0,0,0,0,0,0,0,0,0,0,0,0,0,0,0,0,0,0,0,0,0,0,0,0,0,0,0,0,0,0,0,0,0,0,0,0,0,0,0,0,0,0,0,0,0,0,0,0,0,0,0,0,0,0,0,0,0,0,0,0,0,0,0,0,0,0,0,0,0,0,0,0,0,0,0,0,0,0,0,0,0,0,0,0,0,0,0,0,0,0,0,0,0,0,0,0,0,0,0,0,0,0,0,0,0,0,0,0,0,0,0,0,0,0,0,0,0,0,0,0,0,0,0,0,0,0,0,0,0,0,0,0,0,0,0,0,0,0,0,0,0,0,0,0,0,0,0,0,0,0,0,0,0,0,0,0,0,0,0,0,0,0,0,0,0,0,0,0,0,0,0,0,0,0,0,0,0,0,0,0,0,0,0,0,0,0,0,0,0,0,0,0,0,0,0,0],"id":1,"left_children":[1,3,5,7,9,11,13,15,-1,-1,-1,17,19,21,-1,-1,23,25,27,29,-1,-1,31,-1,-1,33,-1,35,37,-1,-1,39,41,-1,-1,43,45,47,49,-1,-1,51,53,55,57,59,61,63,-1,-1,65,67,69,-1,-1,71,-1,73,75,-1,-1,-1,-1,77,79,81,-1,83,85,87,-1,-1,-1,89,91,93,95,97,99,-1,-1,-1,-1,101,103,-1,-1,-1,-1,105,107,-1,109,-1,-1,111,113,115,117,119,121,123,125,127,129,-1,-1,-1,-1,131,-1,-1,-1,-1,133,-1,135,137,139,-1,-1,141,-1,143,145,-1,-1,147,-1,-1,149,-1,-1,-1,-1,151,153,155,157,159,-1,-1,-1,-1,161,-1,163,165,167,-1,-1,169,-1,171,173,-1,-1,-1,-1,175,177,-1,-1,179,181,-1,-1,183,185,-1,-1,-1,187,-1,189,-1,-1,-1,-1,191,193,195,197,-1,-1,199,201,-1,-1,-1,203,-1,-1,205,-1,207,209,-1,-1,-1,-1,211,213,215,217,219,-1,-1,-1,221,223,225,227,229,231,233,235,237,239,-1,-1,241,-1,-1,-1,243,245,-1,-1,-1,-1,247,249,251,253,-1,-1,-1,-1,-1,255,-1,-1,-1,-1,257,259,261,-1,263,265,267,-1,-1,269,-1,-1,271,-1,273,-1,-1,-1,-1,-1,-1,-1,-1,275,-1,-1,277,279,-1,-1,281,-1,283,-1,285,287,-1,-1,-1,-1,289,291,293,295,-1,-1,-1,-1,-1,297,-1,-1,-1,-1],"loss_changes":[2.4216224E-3,7.564775E-4,1.0625075E-3,9.761908E-5,3.1727785E-4,3.8746584E-4,1.0868798E-3,9.933836E-6,0E0,0E0,0E0,4.5641972E-4,1.6705049E-4,6.467945E-4,0E0,0E0,1.9379077E-6,1.1175941E-4,3.005102E-4,9.427812E-6,0E0,0E0,5.0396606E-4,0E0,0E0,5.1941242E-6,0E0,2.5973088E-4,3.6493785E-4,0E0,0E0,2.3953558E-5,3.2143685E-4,0E0,0E0,2.1211138E-4,1.3579737E-4,2.8962584E-4,3.3863116E-4,0E0,0E0,2.3924751E-4,6.5530985E-5,7.347955E-5,2.4605842E-4,2.0942069E-5,3.6032093E-6,2.3312497E-4,0E0,0E0,8.165161E-5,1.6530996E-4,4.7033245E-5,0E0,0E0,3.293695E-6,0E0,6.818236E-5,1.19992095E-4,0E0,0E0,0E0,0E0,1.7606244E-4,8.9584006E-5,7.694136E-6,0E0,1.7377295E-4,2.8642244E-6,1.8586987E-5,0E0,0E0,0E0,2.7343676E-5,4.9702685E-5,5.0679606E-5,7.9107565E-5,1.6671381E-4,1.02938546E-4,0E0,0E0,0E0,0E0,8.073891E-5,1.6137934E-4,0E0,0E0,0E0,0E0,5.010952E-6,3.5625017E-6,0E0,9.986481E-6,0E0,0E0,4.0449922E-6,7.191474E-5,5.9553888E-5,4.788706E-5,2.7004688E-5,1.0017232E-5,5.7923313E-5,1.5197387E-5,2.3468083E-4,4.2266962E-5,0E0,0E0,0E0,0E0,1.1448719E-6,0E0,0E0,0E0,0E0,1.8914661E-6,0E0,1.0139868E-4,3.5138757E-5,2.7918584E-5,0E0,0E0,5.52869E-6,0E0,3.346354E-5,6.0232036E-5,0E0,0E0,1.09319255E-4,0E0,0E0,1.757552E-5,0E0,0E0,0E0,0E0,4.49438E-5,5.62137E-5,5.349477E-6,2.4313883E-6,1.0786545E-5,0E0,0E0,0E0,0E0,9.620337E-6,0E0,5.4218635E-5,2.0358624E-5,8.065833E-5,0E0,0E0,1.2444084E-5,0E0,1.7619946E-5,3.8594648E-5,0E0,0E0,0E0,0E0,4.1637836E-6,3.5219637E-6,0E0,0E0,1.6756952E-5,7.799397E-5,0E0,0E0,7.0198E-5,9.082808E-5,0E0,0E0,0E0,5.9218128E-6,0E0,3.327499E-5,0E0,0E0,0E0,0E0,2.7208362E-6,2.020676E-5,4.2313655E-5,8.721832E-6,0E0,0E0,2.2200244E-5,7.3304225E-5,0E0,0E0,0E0,3.585458E-5,0E0,0E0,1.6164471E-5,0E0,5.7878824E-6,2.7822563E-5,0E0,0E0,0E0,0E0,5.6550984E-5,6.413189E-5,4.8915565E-5,4.6012192E-5,9.363153E-6,0E0,0E0,0E0,8.626783E-6,1.495942E-6,6.340962E-5,1.2543998E-5,7.9451465E-6,5.7242985E-5,2.7950708E-5,1.2467412E-5,2.4403016E-5,2.0702295E-5,0E0,0E0,2.7254573E-6,0E0,0E0,0E0,2.7350216E-6,3.0550804E-5,0E0,0E0,0E0,0E0,4.7279376E-5,9.716161E-6,2.3907603E-5,1.1387009E-5,0E0,0E0,0E0,0E0,0E0,1.3670451E-6,0E0,0E0,0E0,0E0,2.1034008E-5,1.7914765E-5,1.1387216E-5,0E0,1.4804391E-6,1.1522574E-6,2.6493683E-5,0E0,0E0,4.48012E-6,0E0,0E0,1.4181045E-5,0E0,2.0578882E-6,0E0,0E0,0E0,0E0,0E0,0E0,0E0,0E0,1.0791322E-5,0E0,0E0,6.6761177E-6,2.09477E-5,0E0,0E0,3.0722294E-6,0E0,1.1207882E-6,0E0,1.3742865E-5,1.2059497E-5,0E0,0E0,0E0,0E0,2.5753516E-6,4.255584E-6,4.59133E-6,1.2547789E-6,0E0,0E0,0E0,0E0,0E0,1.0253285E-6,0E0,0E0,0E0,0E0],"parents":[2147483647,0,0,1,1,2,2,3,3,4,4,5,5,6,6,7,7,11,11,12,12,13,13,16,16,17,17,18,18,19,19,22,22,25,25,27,27,28,28,31,31,32,32,35,35,36,36,37,37,38,38,41,41,42,42,43,43,44,44,45,45,46,46,47,47,50,50,51,51,52,52,55,55,57,57,58,58,63,63,64,64,65,65,67,67,68,68,69,69,73,73,74,74,75,75,76,76,77,77,78,78,83,83,84,84,89,89,90,90,92,92,95,95,96,96,97,97,98,98,99,99,100,100,101,101,102,102,103,103,104,104,109,109,114,114,116,116,117,117,118,118,121,121,123,123,124,124,127,127,130,130,135,135,136,136,137,137,138,138,139,139,144,144,146,146,147,147,148,148,151,151,153,153,154,154,159,159,160,160,163,163,164,164,167,167,168,168,172,172,174,174,179,179,180,180,181,181,182,182,185,185,186,186,190,190,193,193,195,195,196,196,201,201,202,202,203,203,204,204,205,205,209,209,210,210,211,211,212,212,213,213,214,214,215,215,216,216,217,217,218,218,221,221,225,225,226,226,231,231,232,232,233,233,234,234,240,240,245,245,246,246,247,247,249,249,250,250,251,251,254,254,257,257,259,259,268,268,271,271,272,272,275,275,277,277,279,279,280,280,285,285,286,286,287,287,288,288,294,294],"right_children":[2,4,6,8,10,12,14,16,-1,-1,-1,18,20,22,-1,-1,24,26,28,30,-1,-1,32,-1,-1,34,-1,36,38,-1,-1,40,42,-1,-1,44,46,48,50,-1,-1,52,54,56,58,60,62,64,-1,-1,66,68,70,-1,-1,72,-1,74,76,-1,-1,-1,-1,78,80,82,-1,84,86,88,-1,-1,-1,90,92,94,96,98,100,-1,-1,-1,-1,102,104,-1,-1,-1,-1,106,108,-1,110,-1,-1,112,114,116,118,120,122,124,126,128,130,-1,-1,-1,-1,132,-1,-1,-1,-1,134,-1,136,138,140,-1,-1,142,-1,144,146,-1,-1,148,-1,-1,150,-1,-1,-1,-1,152,154,156,158,160,-1,-1,-1,-1,162,-1,164,166,168,-1,-1,170,-1,172,174,-1,-1,-1,-1,176,178,-1,-1,180,182,-1,-1,184,186,-1,-1,-1,188,-1,190,-1,-1,-1,-1,192,194,196,198,-1,-1,200,202,-1,-1,-1,204,-1,-1,206,-1,208,210,-1,-1,-1,-1,212,214,216,218,220,-1,-1,-1,222,224,226,228,230,232,234,236,238,240,-1,-1,242,-1,-1,-1,244,246,-1,-1,-1,-1,248,250,252,254,-1,-1,-1,-1,-1,256,-1,-1,-1,-1,258,260,262,-1,264,266,268,-1,-1,270,-1,-1,272,-1,274,-1,-1,-1,-1,-1,-1,-1,-1,276,-1,-1,278,280,-1,-1,282,-1,284,-1,286,288,-1,-1,-1,-1,290,292,294,296,-1,-1,-1,-1,-1,298,-1,-1,-1,-1],"split_conditions":[-3.3419468E0,6.4613843E0,3.978003E-1,2.8221E2,2.722E2,9.6431607E-1,1E2,-2.1122107E1,1.5102903E-4,-2.6664552E-3,-3.0812653E-4,3.9419627E-1,2.4318E2,-2.4384046E0,2.11243E-3,-1.8261366E-4,1.8492685E1,-3.8457704E-1,-1.5698543E0,2.4139E2,1.2221284E-3,1.9826249E-3,-6.0576563E0,-2.290525E-4,-8.2975224E-4,2.5092E2,-1.4538812E-3,2.8033157E2,3.94109E5,2.1526143E-4,-8.181066E-5,4.54E2,8.468688E0,-4.6141172E-4,-8.277986E-5,1.01E0,2.8306E2,1.7893682E1,-9.7698706E-1,4.6286473E-4,1.146401E-3,3.429765E0,2.5955E2,3.569092E1,2.190644E1,2.976201E1,2.8581E2,6.0323685E-1,7.1598927E-4,3.437008E-4,1.3262853E1,1E2,6.687958E1,-2.6655398E-5,-9.890676E-4,2.947E3,6.9078075E-4,2.3992987E1,-1.8159897E0,2.9906942E-4,9.390215E-4,-1.7310298E-4,3.3191027E-5,4.902E3,2.5538E2,2.4376E2,-1.2121507E-3,1.0124375E1,8.5144E4,1.08486E5,1.7207403E-4,1.7118745E-4,9.1449765E-6,4.244856E-1,5.1428722E1,-1.5196542E0,-1.75143E1,-1.8024135E-1,7.6523094E0,-4.155726E-5,-1.1781299E-3,-8.4349966E-5,-5.062854E-4,9.252252E-1,2.4627523E0,-2.4538225E-4,-6.284589E-4,2.503501E-4,7.997006E-4,-1.9472274E0,2.5233E2,4.2967056E-4,5.6221703E1,-1.6663765E-4,-8.6956425E-4,1.05E2,9.2882216E-1,-1.4780182E0,7.04493E-1,1.9961525E1,2.4433894E0,-1.27E0,2.4302E2,7.703264E-1,2.4696E2,-3.6727328E-5,-2.4612245E-4,2.5144097E-4,9.8249275E-6,2.4836E2,-7.643487E-5,5.2817126E-7,2.2591875E-4,-5.224791E-4,4.45792E5,-6.900776E-4,1.1910643E1,6.211526E-1,4.3693222E1,5.8991638E-5,7.064208E-4,-2.026188E0,1.9322682E-4,7.7243E4,-5.6255984E0,-4.544033E-5,-5.471021E-4,3.0551468E1,1.0070886E-3,2.269968E-4,2.9394304E1,2.5457342E-5,1.8127255E-4,-6.357043E-6,1.2821522E-4,1.2547E5,-6.079893E-1,6.89115E-1,-2.6781997E-4,1.8055155E1,-1.2904704E-4,-2.011006E-4,-3.6227573E-6,1.2730973E-4,3.4725428E-1,-3.6096125E-4,2.685275E-1,7.9394E4,2.4508267E2,-4.2223805E-4,-4.5590856E-5,2.02E2,4.0690205E-4,2.9055754E1,-3.0304436E1,-3.2816836E-4,-1.0352424E-4,7.3298055E-5,-2.9696292E-5,2.1822514E1,0E0,-3.476624E-4,-5.8496204E-5,2.56E2,2.845E0,1.5131058E-4,8.792504E-4,2.3985E2,2.9176085E1,-1.7591589E-4,5.328458E-5,-2.0135967E-4,8.04776E-1,1.9087608E-4,-3.1509354E1,1.0969943E-4,-3.886676E-5,1.00999605E-4,2.8713924E-4,2.5819E2,2.8651E2,-6.1996217E0,9.801554E-1,-1.1429113E-4,7.0615084E-4,-2.75E0,2.4506756E1,1.243819E-4,-4.2710304E-5,1.559148E-4,2.68451E2,9.964534E-5,-3.1349355E-5,1.7132972E0,-1.6715983E-5,7.0226E4,8.436603E-1,3.367945E-4,8.761819E-6,-3.4371982E-4,1.2228599E-5,3.5850758E1,5.8225477E-1,2.5612558E2,6.280976E-1,1.656029E-2,-3.788384E-5,2.1321719E-5,2.5289122E-4,9.392556E0,7.0014114E1,7E0,3.16591E5,4E0,3.3425415E-1,2.4995262E2,-1.06231555E-1,5.2916668E1,2.7636E2,8.920713E-5,3.835732E-4,4.46904E5,9.564311E-6,-2.3673992E-5,7.076322E-5,2.749E2,3.05364E5,4.31145E-4,2.345882E-5,-2.086523E-4,3.893414E-5,1.873916E1,1.8883018E1,1.10715614E2,-5.906913E1,-5.789054E-4,-9.27452E-5,-2.778112E-5,-3.6706447E-4,2.0331846E-4,2.838E2,-3.086376E-4,-5.736941E-5,-7.3393356E-5,-3.7224425E-4,8.0950386E1,9.69E3,5.0612053E1,6.963696E-4,-1.6597108E0,2.5385E2,-5.1097427E-2,-5.264791E-5,3.6842262E-5,3.779E3,-1.5390637E-4,-9.046106E-6,0E0,-1.26529E-4,4.127584E-1,1.3275392E-4,5.395104E-5,3.4727764E-4,9.101715E-5,2.3504412E-4,3.1225394E-5,-7.970735E-5,-1.6406528E-5,2.51E2,-2.1826071E-4,5.2510136E-6,1.08486E5,6.3296436E1,-1.893171E-5,-1.9772215E-4,8.784714E1,-4.022213E-5,2.55055E2,-1.6950234E-4,7.0706167E0,-2.5328398E2,-4.3366125E-4,-1.0089062E-4,-9.586465E-6,1.11546324E-4,2.141715E1,2.2801521E1,5.2054443E1,6.2761204E1,1.2683646E-4,-2.9218403E-5,3.7944748E-4,1.1961395E-4,-1.19235476E-4,2.5643E2,1.9362009E-4,8.709979E-5,-3.3056208E-6,9.638098E-5],"split_indices":[9,10,9,2,2,20,95,22,0,0,0,139,2,24,0,0,7,11,10,2,0,0,10,0,0,2,0,61,4,0,0,4,10,0,0,149,2,38,12,0,0,9,2,46,7,37,2,26,0,0,15,96,52,0,0,5,0,37,22,0,0,0,0,5,2,2,0,23,4,4,0,0,0,25,52,24,21,9,23,0,0,0,0,139,40,0,0,0,0,9,2,0,8,0,0,4,139,10,139,7,10,36,2,26,2,0,0,0,0,2,0,0,0,0,4,0,47,148,23,0,0,9,0,4,10,0,0,8,0,0,14,0,0,0,0,4,10,10,11,23,0,0,0,0,12,0,11,4,6,0,0,4,0,46,22,0,0,0,0,7,101,0,0,4,36,0,0,2,46,0,0,0,146,0,8,0,0,0,0,2,66,21,12,0,0,36,34,0,0,0,55,0,0,25,0,4,30,0,0,0,0,22,148,142,148,51,0,0,0,35,21,5,4,5,20,59,11,45,2,0,0,4,0,0,0,2,4,0,0,0,0,14,23,21,53,0,0,0,0,0,2,0,0,0,0,46,5,46,0,10,2,51,0,0,5,0,0,100,0,9,0,0,0,0,0,0,0,0,6,0,0,4,33,0,0,46,0,2,0,141,67,0,0,0,0,7,34,45,46,0,0,0,0,0,2,0,0,0,0],"split_type":[0,0,0,0,0,0,0,0,0,0,0,0,0,0,0,0,0,0,0,0,0,0,0,0,0,0,0,0,0,0,0,0,0,0,0,0,0,0,0,0,0,0,0,0,0,0,0,0,0,0,0,0,0,0,0,0,0,0,0,0,0,0,0,0,0,0,0,0,0,0,0,0,0,0,0,0,0,0,0,0,0,0,0,0,0,0,0,0,0,0,0,0,0,0,0,0,0,0,0,0,0,0,0,0,0,0,0,0,0,0,0,0,0,0,0,0,0,0,0,0,0,0,0,0,0,0,0,0,0,0,0,0,0,0,0,0,0,0,0,0,0,0,0,0,0,0,0,0,0,0,0,0,0,0,0,0,0,0,0,0,0,0,0,0,0,0,0,0,0,0,0,0,0,0,0,0,0,0,0,0,0,0,0,0,0,0,0,0,0,0,0,0,0,0,0,0,0,0,0,0,0,0,0,0,0,0,0,0,0,0,0,0,0,0,0,0,0,0,0,0,0,0,0,0,0,0,0,0,0,0,0,0,0,0,0,0,0,0,0,0,0,0,0,0,0,0,0,0,0,0,0,0,0,0,0,0,0,0,0,0,0,0,0,0,0,0,0,0,0,0,0,0,0,0,0,0,0,0,0,0,0,0,0,0,0,0,0,0,0,0,0,0,0,0,0,0,0,0,0],"sum_hessian":[4.21E2,1.5E1,4.06E2,1.1E1,4E0,2.15E2,1.91E2,1E1,1E0,3E0,1E0,2.1E2,5E0,1.89E2,2E0,1E0,9E0,5E0,2.05E2,3E0,2E0,1E0,1.88E2,1E0,8E0,3E0,2E0,5.6E1,1.49E2,2E0,1E0,7E0,1.81E2,2E0,1E0,4.8E1,8E0,1.38E2,1.1E1,3E0,4E0,1.78E2,3E0,9E0,3.9E1,6E0,2E0,1.35E2,3E0,2E0,9E0,1.67E2,1.1E1,1E0,2E0,5E0,4E0,2.1E1,1.8E1,2E0,4E0,1E0,1E0,1.32E2,3E0,4E0,5E0,1.63E2,4E0,8E0,3E0,3E0,2E0,8E0,1.3E1,6E0,1.2E1,1.21E2,1.1E1,1E0,2E0,1E0,3E0,5.9E1,1.04E2,3E0,1E0,2E0,6E0,6E0,2E0,7E0,6E0,2E0,4E0,4E0,8E0,8.6E1,3.5E1,4E0,7E0,5.6E1,3E0,9.7E1,7E0,2E0,4E0,1E0,1E0,3E0,3E0,1E0,3E0,5E0,3E0,2E0,8.4E1,1.5E1,2E1,1E0,3E0,6E0,1E0,9E0,4.7E1,1E0,2E0,9.4E1,3E0,1E0,6E0,1E0,2E0,2E0,1E0,1E1,7.4E1,7E0,8E0,1.7E1,3E0,1E0,5E0,2E0,7E0,2E0,4.5E1,3E0,9.1E1,4E0,2E0,8E0,2E0,1E1,6.4E1,4E0,3E0,5E0,3E0,8E0,9E0,5E0,2E0,2E1,2.5E1,1E0,2E0,5E0,8.6E1,3E0,5E0,3E0,7E0,1E0,6.3E1,6E0,2E0,3E0,6E0,5E0,1.5E1,1.9E1,6E0,1E0,4E0,6E0,8E1,4E0,3E0,1E0,6.2E1,3E0,2E0,1.3E1,2E0,4E0,1.5E1,5E0,1E0,3E0,3E0,4.9E1,3.1E1,4.5E1,1.7E1,1.2E1,1E0,2E0,2E0,1E1,5E0,4.3E1,6E0,4E0,2.7E1,3.4E1,1.1E1,1.1E1,6E0,2E0,1E1,9E0,1E0,3E0,2E0,3E0,4E1,5E0,1E0,1E0,3E0,1.7E1,1E1,2.5E1,9E0,1E1,1E0,3E0,8E0,3E0,3E0,8E0,1E0,1E0,2E0,3.3E1,7E0,1.1E1,6E0,8E0,2E0,2.2E1,3E0,3E0,6E0,2E0,1E0,3.1E1,2E0,5E0,2E0,2E0,9E0,3E0,5E0,1E0,1E0,2E0,2E1,5E0,1E0,3E0,2.8E1,1E0,4E0,1.9E1,1E0,2E0,1E0,1.3E1,1.5E1,1.8E1,1E0,1E0,1E0,4E0,9E0,5E0,1E1,3E0,1E0,7E0,2E0,2E0,3E0,5E0,5E0,2E0,1E0],"tree_param":{"num_deleted":"0","num_feature":"153","num_nodes":"299","size_leaf_vector":"1"}},{"base_weights":[-2.1815116E-5,-9.100824E-3,4.299311E-4,-2.7980495E-3,-1.8205227E-2,-1.0271391E-3,2.269318E-3,5.1199365E-3,-4.703132E-3,-6.213848E-4,-2.4157285E-3,-1.3047525E-3,3.250088E-3,1.9590373E-3,1.9716013E-3,6.236246E-4,1.4436591E-4,-6.3178176E-3,1.7086348E-4,-1.0061611E-3,-8.7930625E-3,-1.636559E-3,8.370529E-3,1.9941444E-3,1.7423296E-3,-1.7348297E-4,-6.673837E-4,-1.1673633E-3,1.0237234E-3,-3.0745685E-3,-1.3742916E-3,-4.9444083E-3,1.3370323E-3,9.2699047E-4,1.4871398E-4,1.8834936E-3,1.5358495E-3,-3.3247273E-3,-7.7403575E-4,-7.864087E-5,-3.4500062E-4,-5.873068E-4,-1.0792156E-4,2.5390403E-4,-1.7354997E-4,4.49877E-3,5.2894605E-4,-7.653434E-3,-1.4863323E-3,3.1414762E-4,-9.5807225E-4,3.3812195E-3,1.1013052E-3,-4.2286445E-3,1.0442379E-3,-1.1375612E-4,-8.325723E-4,-2.3658508E-3,5.1657425E-4,-1.6377841E-3,1.2329202E-4,3.9330292E-3,-2.4303715E-3,-4.9339916E-4,-1.25095965E-2,-6.3285544E-3,1.2894701E-3,6.2447315E-4,-3.603612E-3,-1.814071E-3,3.1347608E-3,8.1133284E-4,-2.4410947E-3,2.382471E-3,5.054352E-3,-3.9196774E-4,1.0187728E-4,-1.8439612E-3,1.9934341E-4,-3.8133687E-4,-1.4137216E-3,-8.232862E-4,-3.0781684E-5,1.0222921E-3,4.768587E-3,-1.6941344E-4,1.890743E-3,-6.8602856E-4,-2.574871E-3,-1.534245E-3,-5.272606E-3,9.333681E-6,4.1174563E-4,1.190442E-3,-2.2935774E-3,-7.2400895E-4,-4.740881E-4,5.007215E-4,1.4623678E-3,3.9066337E-3,7.0812553E-4,-1.9400824E-5,-2.0866188E-4,4.1052876E-3,7.3744793E-4,7.116498E-4,1.9365416E-3,3.867781E-5,2.1700398E-4,2.6229469E-5,-2.8331596E-3,4.2342168E-4,-1.6429697E-3,-3.5955873E-5,-7.165913E-4,1.7874251E-3,-2.0228374E-4,-4.3168315E-5,-2.5796198E-4,3.1379762E-4,-1.9313376E-4,1.7101056E-3,-8.791111E-5,9.495913E-5,4.288518E-3,1.2402992E-3,7.376449E-4,-8.4568514E-4,1.2151113E-3,3.1303061E-6,2.4050256E-4,-4.9674574E-5,-3.2507678E-4,-3.3973574E-3,-1.2289229E-3,3.4096984E-3,1.0370018E-3,1.2663478E-3,-1.3220768E-3,-4.5387575E-4,1.19494E-4,1.9755252E-3,1.6686512E-5,2.0022236E-4,5.0821796E-4,2.132468E-3,-1.6102723E-4,1.6352984E-3,-1.7635295E-3,1.5485947E-3,-7.480964E-4,-5.2307895E-3,-1.590876E-3,5.5959355E-4,-1.6778957E-3,1.7057292E-4,5.53922E-4,2.829896E-3,4.1624575E-4,-2.1968843E-5,2.4357972E-4,-5.011759E-4,-2.222909E-4,1.0814384E-5,-8.646034E-5,6.425025E-5,2.2003632E-4,1.1291892E-4,3.0727914E-4,3.4721292E-4,2.0614028E-4,1.2411275E-4,-2.216682E-3,2.3553278E-3,5.357649E-4,-2.0109517E-3,8.4991753E-4,-1.348417E-4,-6.300178E-4,-1.0821747E-4,-2.5612789E-3,-3.8395778E-4,2.712198E-3,-2.3072998E-3,-1.651444E-4,8.008857E-6,3.36384E-4,1.0714529E-3,-6.185957E-4,-7.4574775E-5,3.6084177E-5,-4.7780482E-5,8.2137194E-5,-3.5883448E-4,-1.0348503E-3,1.988664E-3,4.304243E-3,5.841E-5,2.1640661E-4,-5.6305475E-5,-2.4774994E-4,-4.224112E-5,1.5916848E-4,-5.3314037E-5,3.5277797E-5,-2.9129983E-4,-4.013412E-5,-1.3748086E-3,1.9414461E-3,3.721353E-5,3.20418E-4,-9.860664E-4,-3.31219E-3,3.2113583E-4,-1.2796356E-3,1.5074108E-3,1.5962969E-5,-1.9351127E-4,5.583371E-4,-2.3963927E-4,2.7224346E-4,1.6253026E-3,3.6984283E-4,5.317594E-4,1.2541919E-5,-1.3013225E-3,1.0516532E-3,-5.840251E-5,-2.023278E-3,3.6230784E-5,2.3470563E-4,-1.6899866E-3,2.8106204E-4,-3.858913E-3,-4.6285999E-4,-3.2251396E-3,1.5630347E-5,1.7599411E-4,4.9987982E-5,3.5300466E-6,1.3252418E-4,1.03061764E-4,-8.2966995E-5,5.3213193E-4,2.0164088E-3,-1.6967811E-3,3.1882788E-5,2.2054456E-4,2.542123E-4,6.6183646E-5,-5.1909436E-5,-2.3893337E-4,-9.649933E-6,-4.8594404E-4,-2.1711228E-4,7.525382E-5,-7.555776E-5,-7.897813E-5,-4.3540666E-4,-1.08616325E-4,3.1472995E-5,-8.593801E-6,-3.8357923E-4,1.4914364E-4,-5.397507E-4,9.0365193E-4,-5.1212537E-5,2.653087E-3,8.727174E-4,-2.4576415E-5,-2.0762482E-4,-5.908772E-5,7.008045E-4,-9.750183E-5,1.651115E-5,2.4475626E-4,-1.3854468E-3,-8.558675E-6,1.0827895E-4,2.9674545E-4,6.1604405E-5,1.21783734E-4,1.3685821E-5,1.0018577E-4,-3.4552286E-6,-2.6043328E-5,6.683604E-5,-1.1135321E-5,-1.7730267E-4],"categories":[],"categories_nodes":[],"categories_segments":[],"categories_sizes":[],"default_left":[0,0,0,0,0,0,0,0,0,0,0,0,0,0,0,0,0,0,0,0,0,0,0,0,0,0,0,0,0,0,0,0,0,0,0,0,0,0,0,0,0,0,0,0,0,0,0,0,0,0,0,0,0,0,0,0,0,0,0,0,0,0,0,0,0,0,0,0,0,0,0,0,0,0,0,0,0,0,0,0,0,0,0,0,0,0,0,0,0,0,0,0,0,0,0,0,0,0,0,0,0,0,0,0,0,0,0,0,0,0,0,0,0,0,0,0,0,0,0,0,0,0,0,0,0,0,0,0,0,0,0,0,0,0,0,0,0,0,0,0,0,0,0,0,0,0,0,0,0,0,0,0,0,0,0,0,0,0,0,0,0,0,0,0,0,0,0,0,0,0,0,0,0,0,0,0,0,0,0,0,0,0,0,0,0,0,0,0,0,0,0,0,0,0,0,0,0,0,0,0,0,0,0,0,0,0,0,0,0,0,0,0,0,0,0,0,0,0,0,0,0,0,0,0,0,0,0,0,0,0,0,0,0,0,0,0,0,0,0,0,0,0,0,0,0,0,0,0,0,0,0,0,0,0,0,0,0,0,0,0,0,0,0,0,0,0,0,0,0,0,0,0,0,0,0,0,0,0,0,0,0,0,0,0,0,0,0,0,0],"id":2,"left_children":[1,3,5,7,9,11,13,15,17,-1,-1,19,21,23,-1,-1,-1,25,-1,27,29,31,33,-1,35,-1,-1,37,-1,39,-1,41,43,-1,-1,-1,45,47,49,-1,-1,-1,-1,-1,-1,51,53,55,57,-1,59,61,-1,63,65,-1,-1,67,-1,69,71,73,75,77,79,81,83,85,87,89,91,93,95,97,99,-1,-1,101,-1,-1,-1,-1,-1,103,105,-1,107,-1,109,111,113,-1,-1,115,117,-1,119,-1,121,123,-1,-1,-1,125,127,-1,129,-1,-1,-1,131,-1,133,-1,-1,135,137,-1,-1,139,-1,141,-1,-1,143,145,-1,147,149,-1,-1,-1,-1,151,153,155,157,159,161,163,-1,165,-1,-1,-1,167,-1,169,171,173,175,177,179,181,183,-1,-1,185,187,-1,-1,189,-1,-1,-1,-1,-1,-1,-1,-1,191,-1,193,195,197,199,201,-1,-1,203,205,207,209,211,213,-1,-1,215,217,-1,-1,-1,-1,-1,219,221,223,225,-1,-1,-1,-1,-1,-1,-1,-1,-1,227,229,-1,-1,231,233,-1,235,237,-1,-1,239,-1,241,243,-1,-1,-1,245,247,249,251,-1,-1,253,255,257,259,261,263,-1,-1,-1,-1,-1,-1,265,267,269,-1,-1,271,-1,-1,-1,-1,273,-1,-1,-1,-1,-1,-1,-1,-1,-1,-1,275,277,-1,279,281,-1,-1,-1,283,-1,-1,285,287,-1,-1,-1,-1,-1,-1,-1,-1,-1,-1,-1,-1],"loss_changes":[1.7306054E-3,1.0967208E-3,1.0797374E-3,2.2017716E-4,4.2087748E-4,2.7140905E-4,9.249558E-4,3.3085744E-6,1.2467768E-4,0E0,0E0,4.6517316E-4,3.6400394E-4,6.5111445E-4,0E0,0E0,0E0,3.1067466E-6,0E0,3.8350464E-4,1.8419209E-4,8.530037E-5,2.9549527E-5,0E0,5.886969E-4,0E0,0E0,1.6968229E-4,0E0,1.5821897E-6,0E0,8.019473E-6,2.2872544E-5,0E0,0E0,0E0,5.1672757E-4,2.353185E-4,1.2767303E-4,0E0,0E0,0E0,0E0,0E0,0E0,2.830841E-4,3.2556846E-4,2.9953953E-5,1.4678571E-4,0E0,1.2221457E-4,1.3462754E-4,0E0,3.959358E-4,2.2331795E-4,0E0,0E0,7.997781E-5,0E0,9.1503054E-5,1.1666672E-4,5.05505E-5,2.4540584E-5,3.726204E-5,2.7061906E-6,4.332712E-5,1.02952166E-4,2.3755054E-5,3.258974E-5,8.7721535E-5,1.1570864E-5,6.393956E-5,1.2872274E-4,3.373321E-5,1.8862367E-5,0E0,0E0,2.3977918E-6,0E0,0E0,0E0,0E0,0E0,9.269343E-5,3.9413717E-5,0E0,1.260938E-6,0E0,1.0269614E-5,6.528391E-5,6.253677E-5,0E0,0E0,3.9438957E-5,2.0819025E-6,0E0,1.3235655E-5,0E0,9.6243875E-6,1.2866381E-5,0E0,0E0,0E0,7.5197546E-5,7.7404286E-5,0E0,4.3875825E-6,0E0,0E0,0E0,1.00936595E-5,0E0,6.265362E-5,0E0,0E0,3.6638063E-5,2.6342661E-5,0E0,0E0,5.95379E-6,0E0,4.995236E-6,0E0,0E0,1.34134025E-5,1.8692997E-5,0E0,5.753566E-5,5.2224852E-5,0E0,0E0,0E0,0E0,4.7983485E-5,6.196659E-5,2.683798E-5,2.5532867E-5,1.2700024E-5,5.5413766E-6,1.2476866E-6,0E0,1.8831197E-6,0E0,0E0,0E0,1.2472701E-6,0E0,1.7660102E-5,2.7259415E-5,5.3482698E-5,2.5925867E-5,2.4718829E-5,1.4110588E-5,3.3538858E-5,5.7699013E-5,0E0,0E0,8.54005E-6,1.3545471E-5,0E0,0E0,1.5340485E-6,0E0,0E0,0E0,0E0,0E0,0E0,0E0,0E0,2.4963786E-6,0E0,2.2223787E-5,1.7880346E-5,2.3969198E-5,3.3336237E-6,6.334976E-6,0E0,0E0,1.1675178E-6,3.3890428E-6,3.0318657E-5,4.5639536E-6,5.3824813E-5,7.560793E-5,0E0,0E0,4.52957E-6,1.3476061E-5,0E0,0E0,0E0,0E0,0E0,1.8449036E-5,1.4490608E-5,2.0506151E-5,3.513216E-5,0E0,0E0,0E0,0E0,0E0,0E0,0E0,0E0,0E0,7.5646767E-6,1.7117027E-6,0E0,0E0,1.8314138E-5,3.560094E-5,0E0,3.7849582E-5,1.1556986E-6,0E0,0E0,1.9588147E-6,0E0,5.8690484E-6,1.1325836E-5,0E0,0E0,0E0,7.588709E-6,1.3240569E-5,1.6707884E-6,4.0012837E-6,0E0,0E0,6.475966E-6,4.478608E-6,2.6955066E-5,2.76522E-6,1.1172131E-5,9.001351E-6,0E0,0E0,0E0,0E0,0E0,0E0,3.9544457E-6,1.2976037E-5,4.4452518E-6,0E0,0E0,4.1881935E-6,0E0,0E0,0E0,0E0,1.753059E-6,0E0,0E0,0E0,0E0,0E0,0E0,0E0,0E0,0E0,0E0,5.6467325E-6,1.3331405E-6,0E0,6.4968553E-6,2.1189653E-6,0E0,0E0,0E0,1.5842872E-6,0E0,0E0,1.2440651E-6,1.7778202E-6,0E0,0E0,0E0,0E0,0E0,0E0,0E0,0E0,0E0,0E0,0E0,0E0],"parents":[2147483647,0,0,1,1,2,2,3,3,4,4,5,5,6,6,7,7,8,8,11,11,12,12,13,13,17,17,19,19,20,20,21,21,22,22,24,24,27,27,29,29,31,31,32,32,36,36,37,37,38,38,45,45,46,46,47,47,48,48,50,50,51,51,53,53,54,54,57,57,59,59,60,60,61,61,62,62,63,63,64,64,65,65,66,66,67,67,68,68,69,69,70,70,71,71,72,72,73,73,74,74,77,77,83,83,84,84,86,86,88,88,89,89,90,90,93,93,94,94,96,96,98,98,99,99,103,103,104,104,106,106,110,110,112,112,115,115,116,116,119,119,121,121,124,124,125,125,127,127,128,128,133,133,134,134,135,135,136,136,137,137,138,138,139,139,141,141,145,145,147,147,148,148,149,149,150,150,151,151,152,152,153,153,154,154,157,157,158,158,161,161,170,170,172,172,173,173,174,174,175,175,176,176,179,179,180,180,181,181,182,182,183,183,184,184,187,187,188,188,194,194,195,195,196,196,197,197,207,207,208,208,211,211,212,212,214,214,215,215,218,218,220,220,221,221,225,225,226,226,227,227,228,228,231,231,232,232,233,233,234,234,235,235,236,236,243,243,244,244,245,245,248,248,253,253,264,264,265,265,267,267,268,268,272,272,275,275,276,276],"right_children":[2,4,6,8,10,12,14,16,18,-1,-1,20,22,24,-1,-1,-1,26,-1,28,30,32,34,-1,36,-1,-1,38,-1,40,-1,42,44,-1,-1,-1,46,48,50,-1,-1,-1,-1,-1,-1,52,54,56,58,-1,60,62,-1,64,66,-1,-1,68,-1,70,72,74,76,78,80,82,84,86,88,90,92,94,96,98,100,-1,-1,102,-1,-1,-1,-1,-1,104,106,-1,108,-1,110,112,114,-1,-1,116,118,-1,120,-1,122,124,-1,-1,-1,126,128,-1,130,-1,-1,-1,132,-1,134,-1,-1,136,138,-1,-1,140,-1,142,-1,-1,144,146,-1,148,150,-1,-1,-1,-1,152,154,156,158,160,162,164,-1,166,-1,-1,-1,168,-1,170,172,174,176,178,180,182,184,-1,-1,186,188,-1,-1,190,-1,-1,-1,-1,-1,-1,-1,-1,192,-1,194,196,198,200,202,-1,-1,204,206,208,210,212,214,-1,-1,216,218,-1,-1,-1,-1,-1,220,222,224,226,-1,-1,-1,-1,-1,-1,-1,-1,-1,228,230,-1,-1,232,234,-1,236,238,-1,-1,240,-1,242,244,-1,-1,-1,246,248,250,252,-1,-1,254,256,258,260,262,264,-1,-1,-1,-1,-1,-1,266,268,270,-1,-1,272,-1,-1,-1,-1,274,-1,-1,-1,-1,-1,-1,-1,-1,-1,-1,276,278,-1,280,282,-1,-1,-1,284,-1,-1,286,288,-1,-1,-1,-1,-1,-1,-1,-1,-1,-1,-1,-1],"split_conditions":[-3.3419468E0,1.6446402E0,4.793443E-1,-1.0394826E1,1.449E3,1.4538897E0,1E2,2.6511E2,-4.147916E-1,-6.213848E-4,-2.4157285E-3,1.2145947E0,2.7028543E2,-1.7713379E0,1.9716013E-3,6.236246E-4,1.4436591E-4,2.54E2,1.7086348E-4,1.1896082E0,-3.6129138E-1,2.7309E2,1.225625E6,1.9941444E-3,-2.4384046E0,-1.7348297E-4,-6.673837E-4,-1.6516817E0,1.0237234E-3,-2.8908436E0,-1.3742916E-3,2.35399E5,2.77E2,9.2699047E-4,1.4871398E-4,1.8834936E-3,-1.8281902E0,1.4285714E1,-1.5456737E0,-7.864087E-5,-3.4500062E-4,-5.873068E-4,-1.0792156E-4,2.5390403E-4,-1.7354997E-4,3.25197E5,-1.2200589E5,-3.0843468E1,9.622061E5,3.1414762E-4,-8.981093E-2,2.801835E2,1.1013052E-3,2.1621622E-1,1.5000112E1,-1.1375612E-4,-8.325723E-4,1.1E-1,5.1657425E-4,1.647946E0,9.793934E0,1.7742193E1,5.5E2,1.692449E0,9.482E4,5.076E3,1.468165E1,1.4126872E1,-2.9650247E0,2.75559E5,2.6048E2,9.8768586E-1,1.0345484E1,-1.915705E-1,2.555E3,-3.9196774E-4,1.0187728E-4,8.42275E1,1.9934341E-4,-3.8133687E-4,-1.4137216E-3,-8.232862E-4,-3.0781684E-5,-6.157524E4,1E0,-1.6941344E-4,1.2547E5,-6.8602856E-4,-2.4858597E1,2.406E2,4.1739254E0,9.333681E-6,4.1174563E-4,8.2301337E-1,2.4346E2,-7.2400895E-4,2.8312E2,5.007215E-4,3.117636E1,4.0628464E1,7.0812553E-4,-1.9400824E-5,-2.0866188E-4,1.641685E1,9.4E-1,7.116498E-4,2.7382E2,3.867781E-5,2.1700398E-4,2.6229469E-5,4.4951797E0,4.2342168E-4,-8.265735E-1,-3.5955873E-5,-7.165913E-4,-3.4679487E-2,5.633418E-1,-4.3168315E-5,-2.5796198E-4,2.53625E2,-1.9313376E-4,1.638629E0,-8.791111E-5,9.495913E-5,-2.6504143E4,2.6669912E1,7.376449E-4,7E-2,1.9119608E0,3.1303061E-6,2.4050256E-4,-4.9674574E-5,-3.2507678E-4,2.6323718E-1,-8.22304E-1,3.1001972E1,-2.3033595E0,2.3993142E0,1.8522874E0,2.4895E2,1.19494E-4,2.4261206E2,1.6686512E-5,2.0022236E-4,5.0821796E-4,2.276306E1,-1.6102723E-4,2.9164723E-1,1.7258835E1,6.5551764E-1,1.8054074E0,5.3567E4,-6.079893E-1,2.592002E1,2.6934E2,1.7057292E-4,5.53922E-4,2.421E2,5.1174725E1,-2.1968843E-5,2.4357972E-4,2.4233913E1,-2.222909E-4,1.0814384E-5,-8.646034E-5,6.425025E-5,2.2003632E-4,1.1291892E-4,3.0727914E-4,3.4721292E-4,2.5607E2,1.2411275E-4,2.0682806E1,8.179018E1,1.2933416E0,1.4582051E0,3.697E3,-1.348417E-4,-6.300178E-4,7.857143E1,2.84254E2,-5.709815E-1,6.53E2,4.2857143E1,2.7231E2,8.008857E-6,3.36384E-4,2.8091654E1,-4.935484E-1,-7.4574775E-5,3.6084177E-5,-4.7780482E-5,8.2137194E-5,-3.5883448E-4,5.600671E0,2.767165E2,2.2184834E1,2.5804578E2,2.1640661E-4,-5.6305475E-5,-2.4774994E-4,-4.224112E-5,1.5916848E-4,-5.3314037E-5,3.5277797E-5,-2.9129983E-4,-4.013412E-5,1.6624704E1,1.6734049E1,3.721353E-5,3.20418E-4,2.8295176E1,1.5582439E0,3.2113583E-4,6.587564E-1,6.6059697E-1,1.5962969E-5,-1.9351127E-4,3.22803E5,-2.3963927E-4,9.992696E1,5.580064E1,3.6984283E-4,5.317594E-4,1.2541919E-5,5.944195E1,6.630586E0,2.486499E2,1.9150665E0,3.6230784E-5,2.3470563E-4,3.0369505E1,-6.432373E-1,3.919855E1,2.597E2,1.46E2,1.9045763E2,1.7599411E-4,4.9987982E-5,3.5300466E-6,1.3252418E-4,1.03061764E-4,-8.2966995E-5,4.746313E1,7.6509345E-1,-1.7033001E-2,3.1882788E-5,2.2054456E-4,8.610252E3,6.6183646E-5,-5.1909436E-5,-2.3893337E-4,-9.649933E-6,2.4976E2,-2.1711228E-4,7.525382E-5,-7.555776E-5,-7.897813E-5,-4.3540666E-4,-1.08616325E-4,3.1472995E-5,-8.593801E-6,-3.8357923E-4,1.4914364E-4,4.8027737E1,2.4633E2,-5.1212537E-5,3.302107E-1,7.319728E1,-2.4576415E-5,-2.0762482E-4,-5.908772E-5,2.77815E2,-9.750183E-5,1.651115E-5,1.799905E1,2.7902E2,-8.558675E-6,1.0827895E-4,2.9674545E-4,6.1604405E-5,1.21783734E-4,1.3685821E-5,1.0018577E-4,-3.4552286E-6,-2.6043328E-5,6.683604E-5,-1.1135321E-5,-1.7730267E-4],"split_indices":[9,10,9,9,5,148,95,0,11,0,0,148,56,138,0,0,0,3,0,148,11,3,4,0,24,0,0,9,0,9,0,4,3,0,0,0,10,18,9,0,0,0,0,0,0,4,151,22,150,0,9,60,0,20,7,0,0,149,0,25,38,15,4,25,4,5,35,15,10,4,0,12,38,16,5,0,0,8,0,0,0,0,0,151,13,0,4,0,8,3,35,0,0,10,3,0,135,0,7,33,0,0,0,21,149,0,3,0,0,0,35,0,11,0,0,16,148,0,0,65,0,24,0,0,151,7,0,149,40,0,0,0,0,16,40,37,10,10,10,0,0,59,0,0,0,7,0,40,7,10,24,4,10,7,0,0,0,0,52,0,0,7,0,0,0,0,0,0,0,0,0,0,7,33,40,16,5,0,0,17,3,9,4,18,0,0,0,34,20,0,0,0,0,0,38,58,15,66,0,0,0,0,0,0,0,0,0,7,7,0,0,37,40,0,144,148,0,0,4,0,21,33,0,0,0,52,38,0,10,0,0,33,9,8,0,4,8,0,0,0,0,0,0,45,138,26,0,0,151,0,0,0,0,0,0,0,0,0,0,0,0,0,0,0,33,0,0,26,33,0,0,0,3,0,0,7,0,0,0,0,0,0,0,0,0,0,0,0,0],"split_type":[0,0,0,0,0,0,0,0,0,0,0,0,0,0,0,0,0,0,0,0,0,0,0,0,0,0,0,0,0,0,0,0,0,0,0,0,0,0,0,0,0,0,0,0,0,0,0,0,0,0,0,0,0,0,0,0,0,0,0,0,0,0,0,0,0,0,0,0,0,0,0,0,0,0,0,0,0,0,0,0,0,0,0,0,0,0,0,0,0,0,0,0,0,0,0,0,0,0,0,0,0,0,0,0,0,0,0,0,0,0,0,0,0,0,0,0,0,0,0,0,0,0,0,0,0,0,0,0,0,0,0,0,0,0,0,0,0,0,0,0,0,0,0,0,0,0,0,0,0,0,0,0,0,0,0,0,0,0,0,0,0,0,0,0,0,0,0,0,0,0,0,0,0,0,0,0,0,0,0,0,0,0,0,0,0,0,0,0,0,0,0,0,0,0,0,0,0,0,0,0,0,0,0,0,0,0,0,0,0,0,0,0,0,0,0,0,0,0,0,0,0,0,0,0,0,0,0,0,0,0,0,0,0,0,0,0,0,0,0,0,0,0,0,0,0,0,0,0,0,0,0,0,0,0,0,0,0,0,0,0,0,0,0,0,0,0,0,0,0,0,0,0,0,0,0,0,0,0,0,0,0,0,0,0,0,0,0,0,0],"sum_hessian":[4.2E2,1.9E1,4.01E2,1.2E1,7E0,2.24E2,1.77E2,2E0,1E1,3E0,4E0,2.11E2,1.3E1,1.75E2,2E0,1E0,1E0,8E0,2E0,2.04E2,7E0,7E0,6E0,1E0,1.74E2,1E0,7E0,2.02E2,2E0,4E0,3E0,3E0,4E0,5E0,1E0,1E0,1.73E2,3E1,1.72E2,1E0,3E0,2E0,1E0,3E0,1E0,4.3E1,1.3E2,8E0,2.2E1,7E0,1.65E2,3.8E1,5E0,1.2E1,1.18E2,1E0,7E0,2E1,2E0,1.01E2,6.4E1,3.5E1,3E0,9E0,3E0,3E0,1.15E2,6E0,1.4E1,9.8E1,3E0,5.1E1,1.3E1,1.6E1,1.9E1,2E0,1E0,6E0,3E0,1E0,2E0,2E0,1E0,1.08E2,7E0,2E0,4E0,2E0,1.2E1,9.2E1,6E0,1E0,2E0,4.6E1,5E0,3E0,1E1,3E0,1.3E1,1.4E1,5E0,1E0,5E0,8E0,1E2,3E0,4E0,1E0,3E0,1E0,1.1E1,1E0,9.1E1,2E0,4E0,3.2E1,1.4E1,1E0,4E0,7E0,3E0,1.2E1,1E0,2E0,1.2E1,5E0,3E0,2.3E1,7.7E1,1E0,3E0,2E0,9E0,1.6E1,7.5E1,9E0,2.3E1,6E0,8E0,4E0,3E0,1E1,2E0,4E0,8E0,4E0,1E0,6E0,1.7E1,6.6E1,1.1E1,7E0,9E0,1.5E1,6E1,6E0,3E0,5E0,1.8E1,3E0,3E0,5E0,3E0,2E0,2E0,2E0,8E0,3E0,1E0,2E0,4E0,2E0,1.5E1,3.6E1,3E1,6E0,5E0,2E0,5E0,4E0,5E0,1.1E1,4E0,4.2E1,1.8E1,1E0,4E0,1.1E1,7E0,4E0,1E0,2E0,2E0,6E0,9E0,3.2E1,4E0,2.4E1,6E0,2E0,4E0,2E0,3E0,2E0,2E0,4E0,1E0,8E0,3E0,1E0,3E0,1.9E1,2.3E1,4E0,1.4E1,7E0,4E0,3E0,4E0,4E0,5E0,2.8E1,4E0,3E0,1E0,1E1,1.4E1,3E0,5E0,1E0,2E0,1.2E1,7E0,1.9E1,4E0,5E0,9E0,5E0,2E0,3E0,1E0,3E0,2E0,8E0,2E1,8E0,2E0,5E0,9E0,1E0,2E0,4E0,1E0,4E0,8E0,5E0,2E0,3E0,1.6E1,2E0,2E0,1E0,4E0,2E0,7E0,6E0,2E0,1.2E1,8E0,2E0,6E0,3E0,6E0,2E0,2E0,4E0,3E0,1E0,5E0,1E1,2E0,5E0,3E0,4E0,2E0,2E0,2E0,1E0,2E0],"tree_param":{"num_deleted":"0","num_feature":"153","num_nodes":"289","size_leaf_vector":"1"}},{"base_weights":[3.132383E-5,-1.7875461E-3,1.6086122E-3,-7.3329606E-3,-1.2199203E-3,1.3765247E-3,1.8401612E-3,-1.5290541E-4,-1.1888186E-2,-1.4750182E-3,5.258914E-3,1.0386924E-3,6.779904E-3,2.5746687E-3,-5.5570854E-4,-5.5378554E-3,-2.1616803E-3,-8.342811E-3,-1.22096E-3,8.3875125E-3,-1.7083883E-4,1.1846346E-2,8.7935117E-4,7.9035606E-5,7.991059E-3,3.8751995E-3,-1.9639927E-4,-5.119568E-7,-6.327515E-4,-1.2653363E-3,-3.0241944E-3,-1.4069224E-3,6.755229E-4,3.2228947E-4,1.0756294E-3,-1.1748531E-4,1.8944371E-3,1.0187061E-3,-9.075707E-3,-8.359339E-5,9.544873E-5,8.66597E-3,6.2097235E-5,5.924434E-4,1.8817825E-4,-3.5342004E-4,-7.470883E-5,-1.1822634E-3,-1.0153882E-2,-1.0064204E-3,1.120866E-3,-1.4528603E-3,9.150416E-5,3.867202E-4,1.0170127E-3,9.241916E-4,-1.3044131E-3,-5.0407045E-5,-1.3202464E-3,2.4567288E-3,5.3272664E-4,-1.5409943E-3,3.4128272E-3,1.7745619E-3,6.9248057E-3,2.6510836E-4,3.476737E-3,-3.996481E-3,-8.3828723E-4,-1.1580775E-4,5.129475E-3,-2.811333E-3,2.381096E-3,2.754356E-4,7.855896E-4,8.684033E-4,-1.6850319E-3,1.2190158E-3,6.393744E-3,-5.5689774E-3,-1.8793623E-3,1.2397282E-3,-1.3125909E-3,5.590257E-4,1.412783E-4,1.0965266E-3,-4.593782E-4,3.66431E-4,3.3183962E-3,-2.8739052E-4,1.0094116E-3,-2.753663E-3,1.3518772E-3,-1.8374706E-4,1.9181526E-3,1.19519165E-4,7.394584E-4,1.0129514E-4,-6.402907E-3,5.308821E-4,-3.8129836E-3,3.434457E-3,-4.164871E-4,-1.6007915E-3,2.7038718E-3,1.8290977E-4,-1.8430785E-5,3.4917332E-4,-5.526861E-4,8.895401E-4,2.6918522E-3,-8.96019E-4,1.3300168E-3,-5.055761E-3,-7.481819E-4,4.0915885E-4,-1.5410096E-5,2.4807066E-4,8.7606015E-5,-7.00836E-3,-1.2413428E-4,1.6425822E-3,-9.914635E-4,-5.050761E-3,-1.0030715E-3,-6.6471857E-4,6.278027E-3,6.031871E-4,-1.5223308E-3,-2.031485E-3,-2.7390273E-5,3.183813E-4,1.0026793E-4,5.1125324E-5,-1.6497718E-3,3.0392576E-3,2.080119E-4,4.114197E-4,-2.9257468E-3,5.1109114E-4,1.1791514E-3,-6.2521175E-3,-2.3697095E-4,-2.430552E-3,1.2814099E-3,6.6649125E-5,-1.14677554E-4,-3.4474826E-4,-7.9898164E-4,2.4917996E-5,1.9286378E-4,-1.5667327E-5,-1.7479173E-4,-5.9444486E-4,-2.1755912E-4,-1.5751431E-4,3.565716E-5,-2.3391377E-4,1.2312735E-4,1.063132E-4,7.1083795E-4,1.3517721E-4,1.28363345E-5,-2.101926E-4,-4.8895427E-6,-1.3305954E-5,-2.4685354E-3,2.270246E-3,-1.6159546E-3,-1.2062094E-4,7.622987E-4,-1.9894913E-4,-1.4544675E-5,2.611155E-4,3.4914014E-3,-9.157581E-5,1.2624446E-4,1.0610615E-3,-8.283084E-5,-3.3744876E-4,-3.4102166E-5,1.8083777E-3,4.417929E-4,-2.1366608E-4,-7.470968E-4,-5.9411406E-5,-4.1184612E-4,2.121537E-4,1.2093029E-5,2.2190288E-3,-1.1281427E-3,-1.3458843E-3,-3.3462837E-3,3.4161732E-3,-1.6206407E-6,6.134177E-4,-2.346108E-3,-5.2626797E-6,1.0987943E-4,9.642743E-5,-1.2757599E-4,1.2640153E-4,3.873678E-3,1.9123052E-4,-5.5447476E-6,7.061554E-4,2.4523642E-3,-1.8476915E-4,2.1104354E-3,5.2916737E-5,2.5092025E-4,-1.5097387E-3,2.654943E-5,-2.3571947E-3,-1.6620294E-4,-3.765341E-3,-2.4649524E-4,3.8026788E-3,7.418222E-5,1.3074854E-4,-5.376661E-6,-2.7733112E-3,7.493606E-5,6.1349984E-4,2.9249103E-3,1.2952589E-3,-1.6795214E-4,8.90439E-4,2.9306042E-3,1.2634433E-3,-7.688211E-4,3.49337E-4,3.7576162E-4,1.8952704E-5,-1.7795664E-4,-4.126288E-4,-1.5710639E-3,-2.55414E-4,4.4463153E-4,-4.395033E-3,-6.19017E-4,5.253739E-5,-9.3619936E-5,8.349505E-5,4.3358732E-4,-3.179871E-4,-9.002344E-5,3.1181506E-3,1.3153069E-6,2.0282858E-3,1.6775855E-4,1.21946585E-4,-7.0637434E-5,3.3785326E-3,1.5520996E-3,-5.0578452E-5,1.5478198E-4,8.680293E-4,-1.1807894E-3,-4.5868312E-4,1.3631007E-4,-7.9609315E-5,-2.2133526E-4,-2.9323743E-5,1.2313733E-4,-4.6843863E-3,1.1300475E-4,1.6978162E-5,-8.107331E-5,1.5251373E-4,3.7621436E-4,4.3947948E-5,2.4194478E-4,-5.6846064E-5,1.338871E-4,1.8586557E-4,3.9526056E-3,1.7486599E-4,1.8636898E-5,-1.9232723E-6,1.4659482E-4,-2.3402814E-3,-2.3017814E-4,-1.0447209E-4,8.4903095E-6,-2.5829035E-3,-5.4423534E-3,1.05604064E-4,4.1571082E-4,-1.0897487E-4,-2.8726514E-4,7.9389945E-5,-7.134446E-5,-4.766523E-5,-3.2055454E-4,-6.571116E-4,-3.4922018E-4],"categories":[],"categories_nodes":[],"categories_segments":[],"categories_sizes":[],"default_left":[0,0,0,0,0,0,0,0,0,0,0,0,0,0,0,0,0,0,0,0,0,0,0,0,0,0,0,0,0,0,0,0,0,0,0,0,0,0,0,0,0,0,0,0,0,0,0,0,0,0,0,0,0,0,0,0,0,0,0,0,0,0,0,0,0,0,0,0,0,0,0,0,0,0,0,0,0,0,0,0,0,0,0,0,0,0,0,0,0,0,0,0,0,0,0,0,0,0,0,0,0,0,0,0,0,0,0,0,0,0,0,0,0,0,0,0,0,0,0,0,0,0,0,0,0,0,0,0,0,0,0,0,0,0,0,0,0,0,0,0,0,0,0,0,0,0,0,0,0,0,0,0,0,0,0,0,0,0,0,0,0,0,0,0,0,0,0,0,0,0,0,0,0,0,0,0,0,0,0,0,0,0,0,0,0,0,0,0,0,0,0,0,0,0,0,0,0,0,0,0,0,0,0,0,0,0,0,0,0,0,0,0,0,0,0,0,0,0,0,0,0,0,0,0,0,0,0,0,0,0,0,0,0,0,0,0,0,0,0,0,0,0,0,0,0,0,0,0,0,0,0,0,0,0,0,0,0,0,0,0,0,0,0,0,0,0,0,0,0,0,0,0,0,0,0,0,0,0,0,0,0,0,0,0,0,0,0,0,0,0,0,0,0,0,0,0,0],"id":3,"left_children":[1,3,5,7,9,11,-1,13,15,17,19,21,23,25,-1,27,-1,29,31,33,-1,35,37,39,41,43,-1,-1,-1,-1,45,47,-1,-1,-1,-1,-1,49,51,-1,-1,53,-1,-1,-1,-1,-1,55,57,-1,59,-1,-1,-1,-1,-1,61,-1,-1,63,65,67,69,71,73,75,77,79,81,-1,83,85,87,-1,-1,89,91,93,95,97,99,101,103,-1,-1,105,-1,107,109,-1,111,113,115,-1,117,-1,-1,-1,119,121,123,125,127,129,131,-1,-1,-1,133,-1,135,137,139,141,143,-1,145,-1,-1,147,-1,149,151,153,155,157,159,161,163,165,167,-1,-1,169,171,173,175,177,179,-1,181,183,-1,185,187,-1,-1,-1,-1,-1,-1,-1,-1,-1,-1,-1,-1,-1,-1,-1,-1,-1,-1,-1,-1,189,191,193,195,-1,197,-1,-1,199,201,-1,-1,203,-1,-1,-1,205,207,-1,-1,-1,-1,-1,-1,209,211,213,215,217,-1,219,221,-1,-1,-1,-1,-1,223,-1,-1,225,227,229,231,-1,-1,233,-1,235,237,239,241,243,-1,-1,-1,245,-1,-1,247,249,-1,251,253,255,257,-1,259,-1,-1,-1,261,-1,263,265,267,-1,-1,-1,-1,-1,-1,269,-1,271,273,-1,-1,275,277,-1,-1,279,281,283,-1,-1,-1,-1,-1,285,-1,-1,-1,-1,-1,-1,-1,-1,-1,-1,287,-1,-1,-1,-1,289,291,-1,-1,293,295,-1,-1,-1,-1,-1,-1,-1,-1,-1,-1],"loss_changes":[1.2106751E-3,6.080075E-4,8.5549254E-4,5.869042E-4,3.0359678E-4,4.0185548E-4,0E0,1.3223008E-4,5.598684E-4,2.9166747E-4,1.669144E-4,3.54669E-4,1.04873674E-4,4.302688E-5,0E0,3.4919416E-5,0E0,9.929083E-5,2.5869368E-4,2.6502821E-5,0E0,2.9953124E-4,3.0057563E-4,3.2009232E-6,4.933437E-5,9.276395E-6,0E0,0E0,0E0,0E0,2.004992E-6,3.122342E-4,0E0,0E0,0E0,0E0,0E0,2.467844E-4,1.7672981E-4,0E0,0E0,3.2851065E-5,0E0,0E0,0E0,0E0,0E0,2.183315E-4,1.1101793E-4,0E0,1.6132562E-4,0E0,0E0,0E0,0E0,0E0,1.8493686E-4,0E0,0E0,1.7973388E-4,1.13319606E-4,2.6237496E-4,6.87134E-5,1.6245815E-4,9.426585E-6,1.5911559E-4,7.1235394E-5,1.02725346E-4,1.2088611E-4,0E0,2.377681E-6,5.3796135E-5,9.320132E-5,0E0,0E0,5.7253696E-5,1.07573374E-4,2.061976E-5,1.7176644E-5,1.107743E-4,7.6592245E-5,8.5034095E-5,1.18925454E-4,0E0,0E0,3.1520242E-6,0E0,5.076265E-5,9.485902E-5,0E0,6.228081E-5,1.070209E-4,3.37768E-5,0E0,1.930388E-6,0E0,0E0,0E0,4.442659E-5,1.5167694E-5,2.6236143E-5,1.20736055E-4,1.6704655E-5,6.296612E-5,2.5229601E-6,0E0,0E0,0E0,9.358406E-6,0E0,2.698059E-5,4.100988E-5,4.3028413E-5,2.0532549E-5,5.0917875E-5,0E0,6.164673E-6,0E0,0E0,2.4877954E-5,0E0,1.512376E-6,2.252069E-6,2.4843175E-6,3.6729039E-6,1.8753546E-5,1.8424049E-5,2.6700493E-6,5.8751975E-6,6.4356514E-5,8.031741E-5,0E0,0E0,9.861321E-6,2.2658787E-6,3.425969E-5,7.0807923E-6,8.932679E-6,5.808455E-6,0E0,3.8174163E-5,1.9149971E-5,0E0,2.2351087E-5,6.568095E-6,0E0,0E0,0E0,0E0,0E0,0E0,0E0,0E0,0E0,0E0,0E0,0E0,0E0,0E0,0E0,0E0,0E0,0E0,0E0,0E0,3.7345028E-5,5.4620643E-5,2.363633E-5,2.2600332E-5,0E0,1.9773574E-6,0E0,0E0,6.63352E-6,1.5539059E-5,0E0,0E0,6.75898E-6,0E0,0E0,0E0,3.020998E-5,4.2210268E-5,0E0,0E0,0E0,0E0,0E0,0E0,1.1239772E-6,5.71889E-6,3.301289E-5,4.1938445E-5,3.3809993E-6,0E0,1.9225834E-6,1.530215E-5,0E0,0E0,0E0,0E0,0E0,2.4965033E-5,0E0,0E0,2.7472803E-5,1.8305771E-5,2.63463E-5,2.5075675E-5,0E0,0E0,4.0053455E-6,0E0,1.437842E-5,2.1556529E-5,5.4734614E-5,3.1536615E-6,4.2916436E-6,0E0,0E0,0E0,3.9910374E-6,0E0,0E0,8.961695E-6,1.205706E-5,0E0,5.064555E-6,7.72308E-6,5.311005E-6,1.5860234E-5,0E0,5.568511E-6,0E0,0E0,0E0,4.2110223E-6,0E0,7.327233E-6,4.366241E-5,1.0449996E-6,0E0,0E0,0E0,0E0,0E0,0E0,9.650539E-6,0E0,4.5300294E-6,6.796463E-6,0E0,0E0,5.741269E-6,1.5532423E-6,0E0,0E0,2.680748E-6,1.9301386E-5,1.3629482E-6,0E0,0E0,0E0,0E0,0E0,2.2578577E-5,0E0,0E0,0E0,0E0,0E0,0E0,0E0,0E0,0E0,0E0,1.5334808E-6,0E0,0E0,0E0,0E0,2.1954984E-6,6.0103293E-6,0E0,0E0,8.9635905E-6,1.2272445E-5,0E0,0E0,0E0,0E0,0E0,0E0,0E0,0E0,0E0,0E0],"parents":[2147483647,0,0,1,1,2,2,3,3,4,4,5,5,7,7,8,8,9,9,10,10,11,11,12,12,13,13,15,15,17,17,18,18,19,19,21,21,22,22,23,23,24,24,25,25,30,30,31,31,37,37,38,38,41,41,47,47,48,48,50,50,56,56,59,59,60,60,61,61,62,62,63,63,64,64,65,65,66,66,67,67,68,68,70,70,71,71,72,72,75,75,76,76,77,77,78,78,79,79,80,80,81,81,82,82,85,85,87,87,88,88,90,90,91,91,92,92,94,94,98,98,99,99,100,100,101,101,102,102,103,103,104,104,108,108,110,110,111,111,112,112,113,113,114,114,116,116,119,119,121,121,122,122,123,123,124,124,125,125,126,126,127,127,128,128,129,129,130,130,133,133,134,134,135,135,136,136,137,137,138,138,140,140,141,141,143,143,144,144,165,165,166,166,167,167,168,168,170,170,173,173,174,174,177,177,181,181,182,182,189,189,190,190,191,191,192,192,193,193,195,195,196,196,202,202,205,205,206,206,207,207,208,208,211,211,213,213,214,214,215,215,216,216,217,217,221,221,224,224,225,225,227,227,228,228,229,229,230,230,232,232,236,236,238,238,239,239,240,240,247,247,249,249,250,250,253,253,254,254,257,257,258,258,259,259,265,265,276,276,281,281,282,282,285,285,286,286],"right_children":[2,4,6,8,10,12,-1,14,16,18,20,22,24,26,-1,28,-1,30,32,34,-1,36,38,40,42,44,-1,-1,-1,-1,46,48,-1,-1,-1,-1,-1,50,52,-1,-1,54,-1,-1,-1,-1,-1,56,58,-1,60,-1,-1,-1,-1,-1,62,-1,-1,64,66,68,70,72,74,76,78,80,82,-1,84,86,88,-1,-1,90,92,94,96,98,100,102,104,-1,-1,106,-1,108,110,-1,112,114,116,-1,118,-1,-1,-1,120,122,124,126,128,130,132,-1,-1,-1,134,-1,136,138,140,142,144,-1,146,-1,-1,148,-1,150,152,154,156,158,160,162,164,166,168,-1,-1,170,172,174,176,178,180,-1,182,184,-1,186,188,-1,-1,-1,-1,-1,-1,-1,-1,-1,-1,-1,-1,-1,-1,-1,-1,-1,-1,-1,-1,190,192,194,196,-1,198,-1,-1,200,202,-1,-1,204,-1,-1,-1,206,208,-1,-1,-1,-1,-1,-1,210,212,214,216,218,-1,220,222,-1,-1,-1,-1,-1,224,-1,-1,226,228,230,232,-1,-1,234,-1,236,238,240,242,244,-1,-1,-1,246,-1,-1,248,250,-1,252,254,256,258,-1,260,-1,-1,-1,262,-1,264,266,268,-1,-1,-1,-1,-1,-1,270,-1,272,274,-1,-1,276,278,-1,-1,280,282,284,-1,-1,-1,-1,-1,286,-1,-1,-1,-1,-1,-1,-1,-1,-1,-1,288,-1,-1,-1,-1,290,292,-1,-1,294,296,-1,-1,-1,-1,-1,-1,-1,-1,-1,-1],"split_conditions":[1.2490545E-1,-3.3419468E0,1E2,-9.528627E-1,9.4024926E-1,4.180196E0,1.8401612E-3,2.79357E2,-1.8287505E-1,3.8943562E-1,3.306731E-2,-1.7713379E0,2.563499E2,2.6276571E1,-5.5570854E-4,2.4146E2,-2.1616803E-3,2.5325E2,1.7804811E0,2.4731E2,-1.7083883E-4,2.4218E2,1E2,2.5587E2,4.378705E0,1.09E2,-1.9639927E-4,-5.119568E-7,-6.327515E-4,-1.2653363E-3,2.5458E2,6.375E0,6.755229E-4,3.2228947E-4,1.0756294E-3,-1.1748531E-4,1.8944371E-3,-1.2369666E0,2.4901E2,-8.359339E-5,9.544873E-5,1.17563E5,6.2097235E-5,5.924434E-4,1.8817825E-4,-3.5342004E-4,-7.470883E-5,-3.1455448E0,2.5716E2,-1.0064204E-3,5.0829224E1,-1.4528603E-3,9.150416E-5,3.867202E-4,1.0170127E-3,9.241916E-4,5.26606E5,-5.0407045E-5,-1.3202464E-3,1.2458456E1,2.8533E2,-1.6516817E0,2.4453E2,-9.5039886E-1,5.0715E4,2.7480502E2,-7.7544427E0,4.4146633E-1,-1.1178485E0,-1.1580775E-4,6.80532E5,1.19364E5,-4.368687E-1,2.754356E-4,7.855896E-4,-1.6901178E5,1.3023256E-1,4E0,2.8541E2,4E-2,8.905287E0,1.5941676E1,6.480594E-2,5.590257E-4,1.412783E-4,2.4791E2,-4.593782E-4,-2.7718794E0,-1.2043304E0,-2.8739052E-4,-1.9634728E-1,2.7725134E2,1.8704418E1,-1.8374706E-4,2.8751E2,1.19519165E-4,7.394584E-4,1.0129514E-4,2.7791028E2,-2.4117708E0,3.1646156E1,1.1815517E1,2.8911725E-2,2.656938E2,2.7802E2,1.8290977E-4,-1.8430785E-5,3.4917332E-4,1.6246474E0,8.895401E-4,8.835316E4,2.6184E2,3E0,2.0604942E1,-1.6928463E-1,4.0915885E-4,-5.8774244E-2,2.4807066E-4,8.7606015E-5,3.5173854E-1,-1.2413428E-4,7.6842E4,2.5791E2,-5.0002776E-2,2.4195E2,2.4407E2,1.20103E5,6.1939645E-1,-1.2460387E0,2.1111189E1,-9.8454416E-2,3.183813E-4,1.0026793E-4,1.065E3,2.5495E2,-8.219124E-1,2.680569E2,2.3544546E1,2.6985E2,5.1109114E-4,2.266069E-1,2.7756E2,-2.3697095E-4,2.8571428E1,2.0493284E-1,6.6649125E-5,-1.14677554E-4,-3.4474826E-4,-7.9898164E-4,2.4917996E-5,1.9286378E-4,-1.5667327E-5,-1.7479173E-4,-5.9444486E-4,-2.1755912E-4,-1.5751431E-4,3.565716E-5,-2.3391377E-4,1.2312735E-4,1.063132E-4,7.1083795E-4,1.3517721E-4,1.28363345E-5,-2.101926E-4,-4.8895427E-6,-1.2892485E2,2.50296E2,8.6704266E-1,-6.980676E-1,-1.2062094E-4,-4.2735067E-1,-1.9894913E-4,-1.4544675E-5,2.141715E1,9.793342E0,-9.157581E-5,1.2624446E-4,1.44835E5,-8.283084E-5,-3.3744876E-4,-3.4102166E-5,1.6565088E1,-6.4994297E0,-2.1366608E-4,-7.470968E-4,-5.9411406E-5,-4.1184612E-4,2.121537E-4,1.2093029E-5,2.42581E2,2.5593E2,2.666E3,2.3179896E0,2.8444E2,-1.6206407E-6,2.7139E2,3.51E0,-5.2626797E-6,1.0987943E-4,9.642743E-5,-1.2757599E-4,1.2640153E-4,2.2021E-1,1.9123052E-4,-5.5447476E-6,9.440256E1,3.9186E4,1.3792673E-1,7.690246E-1,5.2916737E-5,2.5092025E-4,-8.8990825E-1,2.654943E-5,2.3876665E1,1.0582817E1,2.7985E2,2.5587E2,2.687E2,7.418222E-5,1.3074854E-4,-5.376661E-6,7.144329E-1,7.493606E-5,6.1349984E-4,1.33E0,4.6436787E-1,-1.6795214E-4,3.6804E4,2.15E0,5.8E1,7.142857E1,3.49337E-4,2.5675317E2,1.8952704E-5,-1.7795664E-4,-4.126288E-4,5.670061E1,-2.55414E-4,2.8934562E-1,3.38683E5,5.4895E4,5.253739E-5,-9.3619936E-5,8.349505E-5,4.3358732E-4,-3.179871E-4,-9.002344E-5,-5.15E-1,1.3153069E-6,1.91E0,2.7197E2,1.21946585E-4,-7.0637434E-5,-5.5116728E-2,1.8724985E0,-5.0578452E-5,1.5478198E-4,1.28065E5,5.625448E1,1.7E2,1.3631007E-4,-7.9609315E-5,-2.2133526E-4,-2.9323743E-5,1.2313733E-4,8.3228E4,1.1300475E-4,1.6978162E-5,-8.107331E-5,1.5251373E-4,3.7621436E-4,4.3947948E-5,2.4194478E-4,-5.6846064E-5,1.338871E-4,1.8586557E-4,-5.265983E0,1.7486599E-4,1.8636898E-5,-1.9232723E-6,1.4659482E-4,1.2318933E1,2.7232403E1,-1.0447209E-4,8.4903095E-6,-1.585E0,5.089117E-1,1.05604064E-4,4.1571082E-4,-1.0897487E-4,-2.8726514E-4,7.9389945E-5,-7.134446E-5,-4.766523E-5,-3.2055454E-4,-6.571116E-4,-3.4922018E-4],"split_indices":[9,9,95,10,20,9,0,55,25,139,16,138,1,7,0,1,0,1,24,1,0,1,121,1,10,4,0,0,0,0,1,36,0,0,0,0,0,26,1,0,0,4,0,0,0,0,0,16,1,0,52,0,0,0,0,0,4,0,0,141,3,9,1,28,4,69,53,138,9,0,4,4,20,0,0,151,20,5,3,149,23,15,51,0,0,1,0,10,29,0,138,71,7,0,3,0,0,0,142,9,23,15,51,67,1,0,0,0,28,0,151,1,5,22,26,0,10,0,0,144,0,4,3,20,1,1,4,10,9,37,29,0,0,5,1,28,1,7,1,0,11,1,0,18,11,0,0,0,0,0,0,0,0,0,0,0,0,0,0,0,0,0,0,0,0,21,61,139,20,0,24,0,0,7,15,0,0,4,0,0,0,34,53,0,0,0,0,0,0,1,1,5,28,1,0,1,36,0,0,0,0,0,24,0,0,50,4,138,139,0,0,20,0,50,14,1,1,1,0,0,0,10,0,0,36,138,0,4,149,5,18,0,71,0,0,0,45,0,138,4,4,0,0,0,0,0,0,36,0,36,1,0,0,26,9,0,0,4,50,4,0,0,0,0,0,4,0,0,0,0,0,0,0,0,0,0,10,0,0,0,0,21,37,0,0,36,10,0,0,0,0,0,0,0,0,0,0],"split_type":[0,0,0,0,0,0,0,0,0,0,0,0,0,0,0,0,0,0,0,0,0,0,0,0,0,0,0,0,0,0,0,0,0,0,0,0,0,0,0,0,0,0,0,0,0,0,0,0,0,0,0,0,0,0,0,0,0,0,0,0,0,0,0,0,0,0,0,0,0,0,0,0,0,0,0,0,0,0,0,0,0,0,0,0,0,0,0,0,0,0,0,0,0,0,0,0,0,0,0,0,0,0,0,0,0,0,0,0,0,0,0,0,0,0,0,0,0,0,0,0,0,0,0,0,0,0,0,0,0,0,0,0,0,0,0,0,0,0,0,0,0,0,0,0,0,0,0,0,0,0,0,0,0,0,0,0,0,0,0,0,0,0,0,0,0,0,0,0,0,0,0,0,0,0,0,0,0,0,0,0,0,0,0,0,0,0,0,0,0,0,0,0,0,0,0,0,0,0,0,0,0,0,0,0,0,0,0,0,0,0,0,0,0,0,0,0,0,0,0,0,0,0,0,0,0,0,0,0,0,0,0,0,0,0,0,0,0,0,0,0,0,0,0,0,0,0,0,0,0,0,0,0,0,0,0,0,0,0,0,0,0,0,0,0,0,0,0,0,0,0,0,0,0,0,0,0,0,0,0,0,0,0,0,0,0,0,0,0,0,0,0,0,0,0,0,0,0],"sum_hessian":[4.2E2,1.95E2,2.25E2,1.7E1,1.78E2,2.23E2,2E0,7E0,1E1,1.72E2,6E0,2.11E2,1.2E1,5E0,2E0,7E0,3E0,5E0,1.67E2,4E0,2E0,2E0,2.09E2,2E0,1E1,4E0,1E0,1E0,6E0,2E0,3E0,1.64E2,3E0,2E0,2E0,1E0,1E0,2.07E2,2E0,1E0,1E0,9E0,1E0,1E0,3E0,2E0,1E0,1.61E2,3E0,1E0,2.06E2,1E0,1E0,3E0,6E0,1E0,1.6E2,1E0,2E0,6.2E1,1.44E2,1.53E2,7E0,5.5E1,7E0,1.33E2,1.1E1,3.3E1,1.2E2,2E0,5E0,6E0,4.9E1,2E0,5E0,1.02E2,3.1E1,7E0,4E0,1.8E1,1.5E1,2.2E1,9.8E1,4E0,1E0,2E0,4E0,1.6E1,3.3E1,3E0,9.9E1,2.3E1,8E0,1E0,6E0,1E0,3E0,2E0,1.6E1,7E0,8E0,9E0,1.3E1,9.2E1,6E0,1E0,1E0,3E0,1.3E1,2E0,3.1E1,1.4E1,8.5E1,1E1,1.3E1,2E0,6E0,3E0,3E0,1.4E1,2E0,4E0,3E0,5E0,3E0,4E0,5E0,7E0,6E0,7.2E1,2E1,4E0,2E0,9E0,4E0,2.7E1,4E0,9E0,5E0,2E0,8.3E1,6E0,4E0,7E0,6E0,4E0,2E0,4E0,1E1,1E0,3E0,2E0,1E0,3E0,2E0,2E0,1E0,2E0,2E0,1E0,4E0,2E0,5E0,4E0,2E0,1.3E1,5.9E1,8E0,1.2E1,3E0,6E0,3E0,1E0,4E0,2.3E1,2E0,2E0,6E0,3E0,4E0,1E0,4.4E1,3.9E1,2E0,4E0,4E0,3E0,3E0,3E0,4E0,9E0,2.7E1,3.2E1,5E0,3E0,3E0,9E0,2E0,4E0,3E0,1E0,4E0,1.9E1,3E0,3E0,1.7E1,2.7E1,2.9E1,1E1,1E0,3E0,7E0,2E0,1.4E1,1.3E1,2.8E1,4E0,4E0,1E0,1E0,2E0,8E0,1E0,4E0,1.5E1,1.4E1,3E0,7E0,2E1,8E0,2.1E1,5E0,5E0,1E0,6E0,3E0,1.1E1,2E0,1.1E1,2.3E1,5E0,2E0,2E0,1E0,3E0,6E0,2E0,1.4E1,1E0,8E0,6E0,6E0,1E0,1.4E1,6E0,1E0,7E0,4E0,1.7E1,3E0,2E0,6E0,5E0,6E0,5E0,2.2E1,1E0,1E0,4E0,5E0,9E0,2E0,6E0,4E0,2E0,5E0,9E0,5E0,1E0,2E0,2E0,7E0,1E1,1E0,2E0,7E0,1.5E1,1E0,8E0,3E0,4E0,3E0,7E0,2E0,5E0,8E0,7E0],"tree_param":{"num_deleted":"0","num_feature":"153","num_nodes":"297","size_leaf_vector":"1"}},{"base_weights":[-1.3038488E-5,-7.7025006E-3,3.4952434E-4,-8.889419E-4,-1.1602998E-2,-9.0642186E-4,1.8344037E-3,-3.4797448E-3,4.588978E-3,-4.7047716E-3,-1.7717097E-2,-1.0789861E-3,5.399442E-3,1.7662207E-3,1.5649075E-3,9.4865565E-5,-4.555156E-4,5.628212E-4,1.255255E-4,-4.8635997E-7,-5.487279E-4,-1.9746032E-3,-3.7862104E-4,-6.9114927E-4,-5.5326754E-3,9.3481765E-4,-1.6653518E-3,1.2975335E-3,1.7174839E-3,-1.0072287E-3,5.351868E-3,-9.388095E-3,-1.062514E-3,9.56022E-5,-3.4540496E-4,-4.488704E-3,1.5910513E-3,4.1350775E-4,-1.4540805E-3,1.5177691E-3,8.882414E-4,-2.828807E-3,-1.2196271E-2,-3.2246583E-3,1.312133E-3,-1.032672E-2,1.5142407E-4,4.4182185E-3,8.93089E-4,1.4331408E-3,-4.608892E-3,-6.7796004E-3,-1.2137409E-3,3.3516964E-4,4.8064432E-4,-3.298587E-4,-7.097338E-5,-3.4855548E-4,-1.3241303E-3,-1.7088233E-4,-4.643999E-4,-7.508607E-5,2.0155967E-4,-1.3802173E-3,-4.567511E-4,1.6996932E-4,-1.0476338E-3,3.199603E-3,9.571825E-3,6.4258155E-4,1.21187335E-2,3.7819427E-3,4.9279735E-4,-6.644846E-4,9.993147E-5,-5.227438E-5,-7.926423E-4,-1.8234912E-3,1.004818E-4,8.893463E-5,-8.827239E-6,2.369139E-6,-1.4126392E-4,4.8176637E-3,1.583825E-3,1.2610729E-4,1.0981761E-3,8.8042975E-4,-5.8602667E-3,1.809473E-5,1.7997153E-3,-4.4820237E-4,4.771775E-3,-1.8693067E-3,1.4816611E-3,-2.9660366E-3,-1.076073E-3,3.043217E-4,-4.4342372E-4,1.9504837E-4,6.193821E-3,-1.1514822E-3,2.0568317E-3,-9.560993E-4,1.0308239E-3,-1.0397279E-4,-8.7273837E-4,-1.0110466E-4,3.3874305E-5,1.3086326E-4,5.574297E-4,-3.1177257E-4,-2.4702622E-5,2.1280127E-3,-1.0122668E-3,-1.2382823E-3,-3.7458276E-3,1.7134928E-3,-1.6124648E-3,6.1903684E-4,-2.2742637E-4,1.6814342E-4,6.54769E-4,1.8373597E-6,-1.745597E-4,9.979965E-4,2.9730962E-3,7.4195006E-4,4.509777E-3,3.068551E-3,3.4602228E-4,2.3256407E-5,-1.9196756E-4,-2.1801717E-3,7.0477516E-4,-4.8520095E-3,-2.3515052E-3,-6.5972557E-4,4.2186567E-4,-4.3968437E-4,-1.2053817E-3,1.3937531E-3,-4.0526927E-4,1.5101774E-4,1.0827145E-5,3.2508638E-4,6.532453E-5,1.3333682E-3,-6.8471895E-4,5.1873378E-3,-7.941372E-5,8.710289E-4,3.7837433E-4,-4.0312265E-5,1.0086617E-4,-2.579508E-4,-1.0361245E-4,-6.236766E-5,1.19280725E-4,-1.6710072E-4,-5.6392094E-3,-6.952389E-5,-2.7788612E-3,-1.5076461E-4,1.4114611E-5,8.777623E-4,-1.6795145E-3,2.6422744E-3,4.023983E-4,-1.0392404E-3,1.0358796E-4,-1.1047944E-3,1.5909945E-3,-1.6928167E-3,7.442103E-4,6.2418096E-3,9.977912E-5,1.8640379E-4,-8.132006E-6,-1.2077152E-4,-5.997407E-4,-3.1007078E-4,-9.943163E-5,-6.1860315E-5,2.7776277E-4,-3.5303032E-3,-8.632852E-4,2.5320876E-5,3.20789E-4,1.44914E-3,-5.6380045E-4,-1.434394E-3,2.0845398E-5,-2.1983134E-3,8.116827E-4,-3.9585284E-4,1.8484237E-3,-2.360135E-3,3.320245E-3,1.390912E-3,-1.5436226E-4,6.811554E-4,1.4116714E-4,-4.7051064E-5,6.3984364E-5,-3.8818447E-3,-1.2989106E-4,-1.2915764E-3,8.5099664E-4,8.0861246E-5,2.6461526E-4,2.0086352E-5,-8.521657E-5,-1.7773361E-3,-4.7564678E-5,-2.7047252E-4,-7.9032674E-5,1.2078495E-4,-1.8840872E-5,-1.3412344E-3,2.2571157E-4,-1.6023531E-4,1.9716688E-3,-1.2378518E-3,-4.7724876E-3,4.4290372E-4,5.5133023E-5,1.9081121E-3,-9.691257E-5,-4.321057E-4,-1.5630687E-4,-4.6282086E-5,-1.7556691E-3,1.6690213E-4,-5.2336847E-5,-1.9809778E-3,-2.777431E-5,-1.6557814E-4,4.30297E-5,2.371667E-3,6.086353E-4,1.1018766E-4,-1.6825699E-3,-5.990932E-4,6.598671E-5,1.1432192E-4,2.9608698E-4,5.2308136E-5,-9.7979384E-5,-2.0336595E-3,1.2684274E-5,-2.2475852E-4,-3.2397056E-5,5.458166E-4,2.6376483E-3,1.2264226E-4,-2.3967837E-4,-5.84116E-5,-1.9536943E-4,-5.7913283E-5,-2.2278198E-4,1.0337549E-3,-6.119989E-5,2.8963406E-3,4.303087E-4,1.633661E-5,-6.8356436E-5,-7.867608E-6,1.2719764E-4,3.5489134E-3,1.7663018E-3,-1.4788136E-5,1.0577925E-4,1.7955469E-3,4.598121E-3,2.6035854E-3,4.9890945E-4,4.6898524E-5,2.2343844E-4,2.580627E-4,6.535168E-4,5.8298578E-5,3.386273E-3,-5.7025045E-5,1.2544554E-4,3.6427812E-4,9.236123E-5],"categories":[],"categories_nodes":[],"categories_segments":[],"categories_sizes":[],"default_left":[0,0,0,0,0,0,0,0,0,0,0,0,0,0,0,0,0,0,0,0,0,0,0,0,0,0,0,0,0,0,0,0,0,0,0,0,0,0,0,0,0,0,0,0,0,0,0,0,0,0,0,0,0,0,0,0,0,0,0,0,0,0,0,0,0,0,0,0,0,0,0,0,0,0,0,0,0,0,0,0,0,0,0,0,0,0,0,0,0,0,0,0,0,0,0,0,0,0,0,0,0,0,0,0,0,0,0,0,0,0,0,0,0,0,0,0,0,0,0,0,0,0,0,0,0,0,0,0,0,0,0,0,0,0,0,0,0,0,0,0,0,0,0,0,0,0,0,0,0,0,0,0,0,0,0,0,0,0,0,0,0,0,0,0,0,0,0,0,0,0,0,0,0,0,0,0,0,0,0,0,0,0,0,0,0,0,0,0,0,0,0,0,0,0,0,0,0,0,0,0,0,0,0,0,0,0,0,0,0,0,0,0,0,0,0,0,0,0,0,0,0,0,0,0,0,0,0,0,0,0,0,0,0,0,0,0,0,0,0,0,0,0,0,0,0,0,0,0,0,0,0,0,0,0,0,0,0,0,0,0,0,0,0,0,0,0,0,0,0,0,0,0,0,0,0,0,0,0,0,0,0,0,0,0,0,0,0],"id":4,"left_children":[1,3,5,7,9,11,13,15,17,19,21,23,25,-1,27,-1,-1,-1,-1,-1,-1,-1,-1,29,31,-1,33,35,-1,37,39,41,43,-1,-1,45,47,49,51,53,-1,55,57,59,61,63,65,67,69,71,73,75,77,-1,79,-1,-1,-1,-1,-1,-1,-1,-1,-1,-1,-1,81,83,85,87,89,91,93,-1,-1,-1,-1,95,97,-1,-1,-1,-1,99,101,-1,-1,103,105,-1,-1,107,109,111,113,115,117,119,-1,-1,121,123,125,-1,127,-1,-1,-1,-1,-1,-1,-1,-1,129,131,133,135,137,139,141,-1,-1,-1,-1,-1,143,145,147,149,151,153,-1,-1,155,157,159,161,163,-1,-1,165,167,169,-1,-1,-1,-1,171,173,175,-1,177,-1,-1,-1,-1,-1,-1,-1,-1,179,-1,181,-1,-1,183,185,187,189,191,-1,193,195,197,199,201,-1,-1,-1,-1,-1,-1,-1,203,-1,205,207,-1,-1,209,211,213,-1,215,217,219,221,223,225,227,-1,-1,-1,-1,-1,229,-1,231,233,-1,-1,-1,-1,235,-1,-1,-1,-1,-1,237,-1,-1,239,241,243,-1,-1,245,-1,-1,-1,247,249,-1,-1,251,-1,-1,-1,253,255,-1,257,-1,-1,-1,-1,-1,-1,259,-1,-1,-1,261,263,-1,265,-1,-1,-1,-1,267,-1,269,271,-1,-1,-1,-1,273,275,-1,-1,277,279,281,283,-1,-1,-1,-1,-1,285,-1,-1,-1,-1],"loss_changes":[1.1764036E-3,4.946346E-4,7.53229E-4,1.2950615E-4,4.2276236E-4,2.4413447E-4,7.614839E-4,3.2895383E-5,3.3287142E-6,2.5717294E-5,9.482668E-5,3.658194E-4,1.8295001E-4,0E0,7.415002E-4,0E0,0E0,0E0,0E0,0E0,0E0,0E0,0E0,3.8358523E-4,2.830089E-4,0E0,1.7368682E-5,3.1454573E-4,0E0,1.2058954E-4,1.21883146E-4,1.3127585E-4,5.0440143E-5,0E0,0E0,2.4536595E-4,3.374275E-4,2.421714E-4,1.760817E-4,9.801095E-6,0E0,1.640874E-6,8.464616E-6,2.8216637E-6,8.769639E-6,1.702187E-5,1.2919441E-5,1.8290296E-4,3.8590777E-4,8.427482E-5,9.7984754E-5,3.8909522E-5,1.1157055E-4,0E0,1.2410914E-6,0E0,0E0,0E0,0E0,0E0,0E0,0E0,0E0,0E0,0E0,0E0,1.5976257E-6,6.8188034E-5,5.645695E-5,2.1860289E-4,2.0726939E-4,4.8197195E-5,7.050785E-5,0E0,0E0,0E0,0E0,7.793447E-5,4.294549E-5,0E0,0E0,0E0,0E0,4.315868E-5,2.3069515E-5,0E0,0E0,2.2027967E-4,6.0031132E-5,0E0,0E0,1.671268E-6,1.7718514E-5,1.7457409E-5,3.600516E-5,4.521123E-5,9.104465E-5,3.7114725E-5,0E0,0E0,3.361638E-6,2.117159E-6,1.061528E-5,0E0,1.3031608E-4,0E0,0E0,0E0,0E0,0E0,0E0,0E0,0E0,2.7430731E-5,6.0942984E-6,2.5328418E-5,2.71498E-5,6.2236155E-5,5.1373805E-5,3.230671E-5,0E0,0E0,0E0,0E0,0E0,3.4820914E-6,2.387038E-6,1.0553897E-4,4.0056737E-5,1.3992401E-5,3.8815047E-6,0E0,0E0,1.4390425E-6,3.9855613E-6,2.312992E-5,7.2696203E-6,4.2872507E-6,0E0,0E0,4.5920126E-5,2.740449E-5,1.7522168E-5,0E0,0E0,0E0,0E0,5.703357E-5,5.4558324E-5,3.3531775E-5,0E0,3.934348E-6,0E0,0E0,0E0,0E0,0E0,0E0,0E0,0E0,8.630363E-6,0E0,2.6604102E-6,0E0,0E0,1.6238231E-5,5.284705E-5,1.2700657E-5,1.4976073E-5,6.7084075E-6,0E0,2.0645672E-5,4.164953E-5,8.143302E-5,2.5819769E-5,9.647949E-6,0E0,0E0,0E0,0E0,0E0,0E0,0E0,2.308314E-6,0E0,3.5865232E-6,2.0922847E-5,0E0,0E0,3.2273256E-6,1.9351892E-6,2.4425644E-6,0E0,2.1405103E-6,1.812381E-6,2.8108E-5,3.3354983E-5,4.8239206E-5,6.768594E-6,1.7717151E-5,0E0,0E0,0E0,0E0,0E0,2.4118053E-6,0E0,1.26332525E-5,7.619102E-6,0E0,0E0,0E0,0E0,1.5874557E-6,0E0,0E0,0E0,0E0,0E0,5.1703155E-6,0E0,0E0,3.617606E-5,1.7461773E-5,4.3667344E-5,0E0,0E0,5.4727934E-6,0E0,0E0,0E0,4.233064E-6,8.631079E-6,0E0,0E0,1.92247E-6,0E0,0E0,0E0,2.4299341E-5,9.203264E-6,0E0,2.730445E-6,0E0,0E0,0E0,0E0,0E0,0E0,2.6635535E-6,0E0,0E0,0E0,5.1521974E-6,2.502068E-5,0E0,1.5429174E-6,0E0,0E0,0E0,0E0,1.6901035E-6,0E0,2.3966306E-5,2.3332573E-6,0E0,0E0,0E0,0E0,3.7735008E-5,1.6740876E-5,0E0,0E0,5.355698E-6,4.1754887E-5,1.3840836E-5,7.1777495E-6,0E0,0E0,0E0,0E0,0E0,1.0573276E-6,0E0,0E0,0E0,0E0],"parents":[2147483647,0,0,1,1,2,2,3,3,4,4,5,5,6,6,7,7,8,8,9,9,10,10,11,11,12,12,14,14,23,23,24,24,26,26,27,27,29,29,30,30,31,31,32,32,35,35,36,36,37,37,38,38,39,39,41,41,42,42,43,43,44,44,45,45,46,46,47,47,48,48,49,49,50,50,51,51,52,52,54,54,66,66,67,67,68,68,69,69,70,70,71,71,72,72,77,77,78,78,83,83,84,84,87,87,88,88,91,91,92,92,93,93,94,94,95,95,96,96,97,97,100,100,101,101,102,102,104,104,113,113,114,114,115,115,116,116,117,117,118,118,119,119,125,125,126,126,127,127,128,128,129,129,130,130,133,133,134,134,135,135,136,136,137,137,140,140,141,141,142,142,147,147,148,148,149,149,151,151,160,160,162,162,165,165,166,166,167,167,168,168,169,169,171,171,172,172,173,173,174,174,175,175,183,183,185,185,186,186,189,189,190,190,191,191,193,193,194,194,195,195,196,196,197,197,198,198,199,199,205,205,207,207,208,208,213,213,219,219,222,222,223,223,224,224,227,227,231,231,232,232,235,235,239,239,240,240,242,242,249,249,253,253,254,254,256,256,261,261,263,263,264,264,269,269,270,270,273,273,274,274,275,275,276,276,282,282],"right_children":[2,4,6,8,10,12,14,16,18,20,22,24,26,-1,28,-1,-1,-1,-1,-1,-1,-1,-1,30,32,-1,34,36,-1,38,40,42,44,-1,-1,46,48,50,52,54,-1,56,58,60,62,64,66,68,70,72,74,76,78,-1,80,-1,-1,-1,-1,-1,-1,-1,-1,-1,-1,-1,82,84,86,88,90,92,94,-1,-1,-1,-1,96,98,-1,-1,-1,-1,100,102,-1,-1,104,106,-1,-1,108,110,112,114,116,118,120,-1,-1,122,124,126,-1,128,-1,-1,-1,-1,-1,-1,-1,-1,130,132,134,136,138,140,142,-1,-1,-1,-1,-1,144,146,148,150,152,154,-1,-1,156,158,160,162,164,-1,-1,166,168,170,-1,-1,-1,-1,172,174,176,-1,178,-1,-1,-1,-1,-1,-1,-1,-1,180,-1,182,-1,-1,184,186,188,190,192,-1,194,196,198,200,202,-1,-1,-1,-1,-1,-1,-1,204,-1,206,208,-1,-1,210,212,214,-1,216,218,220,222,224,226,228,-1,-1,-1,-1,-1,230,-1,232,234,-1,-1,-1,-1,236,-1,-1,-1,-1,-1,238,-1,-1,240,242,244,-1,-1,246,-1,-1,-1,248,250,-1,-1,252,-1,-1,-1,254,256,-1,258,-1,-1,-1,-1,-1,-1,260,-1,-1,-1,262,264,-1,266,-1,-1,-1,-1,268,-1,270,272,-1,-1,-1,-1,274,276,-1,-1,278,280,282,284,-1,-1,-1,-1,-1,286,-1,-1,-1,-1],"split_conditions":[-3.3419468E0,-9.528627E-1,4.793443E-1,2.8247745E2,-4.5997155E-1,1.436859E0,-3.0751715E1,6.3166E4,2.6511E2,2.415E2,7.95391E5,1.2145947E0,4.6108467E1,1.7662207E-3,1E2,9.4865565E-5,-4.555156E-4,5.628212E-4,1.255255E-4,-4.8635997E-7,-5.487279E-4,-1.9746032E-3,-3.7862104E-4,1.077444E0,2.207538E0,9.3481765E-4,2.5791E2,-1.0198586E0,1.7174839E-3,-1.5698543E0,2.4998095E1,-3.6129138E-1,2.7326913E2,9.56022E-5,-3.4540496E-4,2.2685272E1,-1.9571853E0,2.5395372E1,-1.2842026E0,2.4718E2,8.882414E-4,2.5458E2,3.01E2,2.74695E2,2.781E2,2.4727E2,2.7366E2,2.64674E5,9.979364E-1,-1.3802527E1,-2.4381704E0,1.18E2,-1.8024135E-1,3.3516964E-4,-1.4285714E1,-3.298587E-4,-7.097338E-5,-3.4855548E-4,-1.3241303E-3,-1.7088233E-4,-4.643999E-4,-7.508607E-5,2.0155967E-4,-1.3802173E-3,-4.567511E-4,1.6996932E-4,2.73885E2,6.462222E1,2.6062E2,7.1066604E0,2.5354E2,-1.7337518E0,5.787218E0,-6.644846E-4,9.993147E-5,-5.227438E-5,-7.926423E-4,1.145E0,7.95391E5,8.893463E-5,-8.827239E-6,2.369139E-6,-1.4126392E-4,5.69546E-1,-3.3816987E-1,1.2610729E-4,1.0981761E-3,-1.2369666E0,2.7659E2,1.809473E-5,1.7997153E-3,2.525E2,1.20103E5,-1.0102208E-1,2.8317E2,-7.42614E-1,-9.2168915E-1,9.8768586E-1,-4.4342372E-4,1.9504837E-4,1.7739298E1,2.5689E2,1.7550053E-1,-9.560993E-4,3.2267997E0,-1.0397279E-4,-8.7273837E-4,-1.0110466E-4,3.3874305E-5,1.3086326E-4,5.574297E-4,-3.1177257E-4,-2.4702622E-5,8.6988276E-1,7.4659E4,8.3228E4,5.403557E1,9.8174E4,-1.7316446E1,1E0,-2.2742637E-4,1.6814342E-4,6.54769E-4,1.8373597E-6,-1.745597E-4,5.7963736E-2,9.826543E-1,1.91215E5,4.642616E1,-7.243543E-1,-5.2826387E-1,2.3256407E-5,-1.9196756E-4,-7.741534E-1,2.4116E2,-2.0377525E5,3.903758E0,2.6802E2,4.2186567E-4,-4.3968437E-4,1.9106503E1,-6.5802705E-1,1.5133369E0,1.5101774E-4,1.0827145E-5,3.2508638E-4,6.532453E-5,-1.5788817E0,5.883E3,5.405573E-1,-7.941372E-5,-3.4335475E0,3.7837433E-4,-4.0312265E-5,1.0086617E-4,-2.579508E-4,-1.0361245E-4,-6.236766E-5,1.19280725E-4,-1.6710072E-4,1.06E2,-6.952389E-5,7.142857E1,-1.5076461E-4,1.4114611E-5,2.3732107E1,7.762448E-1,2.4126811E2,-2.405771E-1,8.9823884E-1,1.0358796E-4,5.8851403E-1,7.7E-1,1E2,7.424685E-1,2.7788E2,9.977912E-5,1.8640379E-4,-8.132006E-6,-1.2077152E-4,-5.997407E-4,-3.1007078E-4,-9.943163E-5,2.0320143E1,2.7776277E-4,1.5105546E0,2.6669666E2,2.5320876E-5,3.20789E-4,2.8429E2,7.9184425E-1,5.09371E-1,2.0845398E-5,1.7569551E0,2.5807E2,9.018698E-1,2.4317E2,2.7756E2,2.776E2,1.0295013E5,-1.5436226E-4,6.811554E-4,1.4116714E-4,-4.7051064E-5,6.3984364E-5,2.8213055E2,-1.2989106E-4,-5.630081E1,1.17382E5,8.0861246E-5,2.6461526E-4,2.0086352E-5,-8.521657E-5,4.280349E-1,-4.7564678E-5,-2.7047252E-4,-7.9032674E-5,1.2078495E-4,-1.8840872E-5,8.5144E4,2.2571157E-4,-1.6023531E-4,2.7660454E1,-1.6597108E0,2.0239504E1,4.4290372E-4,5.5133023E-5,-3.3306645E4,-9.691257E-5,-4.321057E-4,-1.5630687E-4,2.524263E2,4.41E3,1.6690213E-4,-5.2336847E-5,9.285714E1,-2.777431E-5,-1.6557814E-4,4.30297E-5,9.757168E0,1.01354E5,1.1018766E-4,5.8E1,-5.990932E-4,6.598671E-5,1.1432192E-4,2.9608698E-4,5.2308136E-5,-9.7979384E-5,4.973861E-1,1.2684274E-5,-2.2475852E-4,-3.2397056E-5,6.342262E-1,1E2,1.2264226E-4,7.2387594E-1,-5.84116E-5,-1.9536943E-4,-5.7913283E-5,-2.2278198E-4,2.4638E2,-6.119989E-5,2.0798366E-1,2.5498E2,1.633661E-5,-6.8356436E-5,-7.867608E-6,1.2719764E-4,-1.6850783E-1,7.066688E1,-1.4788136E-5,1.0577925E-4,-9.191462E-1,9.033936E-1,4.252083E1,1.5584889E1,4.6898524E-5,2.2343844E-4,2.580627E-4,6.535168E-4,5.8298578E-5,2.4233913E1,-5.7025045E-5,1.2544554E-4,3.6427812E-4,9.236123E-5],"split_indices":[9,10,9,54,39,29,141,4,0,0,4,148,33,0,95,0,0,0,0,0,0,0,0,148,144,0,0,24,0,10,46,11,70,0,0,7,10,14,10,0,0,1,4,0,1,0,0,4,11,141,10,4,9,0,19,0,0,0,0,0,0,0,0,0,0,0,0,33,0,10,0,29,38,0,0,0,0,149,4,0,0,0,0,148,11,0,0,26,0,0,0,0,4,28,0,29,12,12,0,0,7,0,26,0,9,0,0,0,0,0,0,0,0,144,4,4,47,4,141,13,0,0,0,0,0,26,11,4,14,9,12,0,0,9,2,151,35,0,0,0,33,28,28,0,0,0,0,10,5,32,0,10,0,0,0,0,0,0,0,0,4,0,17,0,0,7,144,66,26,139,0,148,149,111,11,0,0,0,0,0,0,0,0,14,0,24,67,0,0,1,10,11,0,27,0,139,1,1,0,151,0,0,0,0,0,66,0,53,4,0,0,0,0,9,0,0,0,0,0,4,0,0,15,10,7,0,0,151,0,0,0,3,5,0,0,19,0,0,0,15,4,0,5,0,0,0,0,0,0,139,0,0,0,10,91,0,10,0,0,0,0,1,0,26,0,0,0,0,0,29,45,0,0,12,144,21,15,0,0,0,0,0,7,0,0,0,0],"split_type":[0,0,0,0,0,0,0,0,0,0,0,0,0,0,0,0,0,0,0,0,0,0,0,0,0,0,0,0,0,0,0,0,0,0,0,0,0,0,0,0,0,0,0,0,0,0,0,0,0,0,0,0,0,0,0,0,0,0,0,0,0,0,0,0,0,0,0,0,0,0,0,0,0,0,0,0,0,0,0,0,0,0,0,0,0,0,0,0,0,0,0,0,0,0,0,0,0,0,0,0,0,0,0,0,0,0,0,0,0,0,0,0,0,0,0,0,0,0,0,0,0,0,0,0,0,0,0,0,0,0,0,0,0,0,0,0,0,0,0,0,0,0,0,0,0,0,0,0,0,0,0,0,0,0,0,0,0,0,0,0,0,0,0,0,0,0,0,0,0,0,0,0,0,0,0,0,0,0,0,0,0,0,0,0,0,0,0,0,0,0,0,0,0,0,0,0,0,0,0,0,0,0,0,0,0,0,0,0,0,0,0,0,0,0,0,0,0,0,0,0,0,0,0,0,0,0,0,0,0,0,0,0,0,0,0,0,0,0,0,0,0,0,0,0,0,0,0,0,0,0,0,0,0,0,0,0,0,0,0,0,0,0,0,0,0,0,0,0,0,0,0,0,0,0,0,0,0,0,0,0,0,0,0,0,0,0,0],"sum_hessian":[4.2E2,1.8E1,4.02E2,7E0,1.1E1,2.18E2,1.84E2,5E0,2E0,6E0,5E0,2.13E2,5E0,2E0,1.82E2,1E0,4E0,1E0,1E0,1E0,5E0,4E0,1E0,1.97E2,1.6E1,3E0,2E0,1.8E2,2E0,1.88E2,9E0,8E0,8E0,1E0,1E0,8E0,1.72E2,4.5E1,1.43E2,5E0,4E0,3E0,5E0,4E0,4E0,3E0,5E0,3.3E1,1.39E2,3.8E1,7E0,5E0,1.38E2,1E0,4E0,2E0,1E0,1E0,4E0,3E0,1E0,1E0,3E0,1E0,2E0,2E0,3E0,2.8E1,5E0,1.37E2,2E0,1E1,2.8E1,5E0,2E0,1E0,4E0,9.4E1,4.4E1,2E0,2E0,1E0,2E0,1.3E1,1.5E1,1E0,4E0,1.33E2,4E0,1E0,1E0,2E0,8E0,8E0,2E1,3.6E1,5.8E1,4.3E1,1E0,5E0,8E0,2E0,1.3E1,1E0,1.32E2,2E0,2E0,1E0,1E0,2E0,6E0,4E0,4E0,1.6E1,4E0,1.2E1,2.4E1,9E0,4.9E1,3.9E1,4E0,1E0,7E0,1E0,1E0,7E0,6E0,1.23E2,9E0,1E1,6E0,2E0,2E0,8E0,4E0,1.2E1,1.2E1,5E0,4E0,5E0,4.4E1,2.2E1,1.7E1,4E0,3E0,5E0,1E0,8.7E1,3.6E1,8E0,1E0,3E0,7E0,3E0,3E0,5E0,3E0,1E0,3E0,3E0,9E0,3E0,9E0,2E0,3E0,8E0,3.6E1,9E0,1.3E1,1.2E1,5E0,8E0,7.9E1,2.1E1,1.5E1,6E0,2E0,1E0,2E0,1E0,8E0,7E0,2E0,6E0,2E0,1E1,2.6E1,2E0,7E0,6E0,7E0,9E0,3E0,5E0,3E0,9E0,7E1,1.9E1,2E0,1.2E1,3E0,5E0,1E0,4E0,2E0,8E0,2E0,2.1E1,5E0,5E0,1E0,2E0,5E0,6E0,3E0,3E0,2E0,2E0,1E0,7E0,2E0,2E0,6.8E1,1.4E1,5E0,1E0,1E0,1E1,2E0,6E0,2E0,6E0,1.5E1,3E0,2E0,5E0,1E0,6E0,1E0,5.2E1,1.6E1,2E0,1.2E1,4E0,1E0,7E0,3E0,4E0,2E0,1.3E1,2E0,4E0,1E0,7E0,4.5E1,9E0,7E0,3E0,9E0,2E0,1.1E1,5E0,2E0,4E1,5E0,4E0,3E0,1E0,4E0,2.4E1,1.6E1,3E0,2E0,1E1,1.4E1,9E0,7E0,3E0,7E0,8E0,6E0,3E0,6E0,3E0,4E0,5E0,1E0],"tree_param":{"num_deleted":"0","num_feature":"153","num_nodes":"287","size_leaf_vector":"1"}},{"base_weights":[2.672562E-5,-1.9804859E-3,1.3508747E-3,-1.4765874E-3,-1.0214731E-2,1.6484726E-3,1.1552578E-3,-6.986721E-3,-1.2003975E-3,-8.7890093E-4,-1.7507615E-2,8.465299E-4,9.9639585E-3,-3.225178E-3,-1.0927053E-3,5.006104E-4,-1.8988727E-3,-2.7510765E-4,3.3049012E-4,-2.0871633E-3,-2.0257701E-4,1.7097294E-3,7.02166E-4,1.0750978E-4,1.5856326E-3,-3.694349E-4,-6.742471E-5,-3.8887213E-3,1.9485509E-3,-1.6108607E-3,-1.096232E-3,8.1923686E-4,-1.3112065E-3,9.820909E-5,-1.258117E-4,2.8886105E-4,-5.7157516E-3,3.1492717E-3,-2.9611648E-3,-4.058169E-3,-1.0672605E-3,-9.0829434E-4,9.021413E-4,1.7708361E-4,-6.8729295E-4,7.2035454E-3,2.130983E-3,-4.53223E-3,6.44332E-5,-1.5695016E-3,-5.8921534E-3,-1.580486E-3,1.8573155E-3,6.8948924E-4,4.3824E-3,8.2518597E-4,1.5051448E-4,3.8668874E-4,3.2246942E-3,-5.652974E-4,-1.900743E-4,-2.8705932E-4,4.5490284E-5,-6.2784454E-4,-1.2077618E-4,3.1557332E-3,-1.7608884E-3,-4.24743E-4,3.8740432E-3,1.8462138E-3,2.2534559E-4,6.5023225E-4,2.2446583E-3,1.3746122E-4,-5.0102896E-4,4.5753247E-3,1.6398059E-3,-2.5146814E-5,6.16662E-5,4.7684365E-4,-3.483652E-6,-6.891941E-4,-2.3409587E-3,-2.045062E-4,1.8615382E-4,5.9401087E-4,8.3946704E-4,1.1815144E-3,6.900064E-3,3.694048E-4,-3.437702E-3,3.0643432E-4,-1.429307E-4,-9.6310774E-5,-2.9212586E-6,4.9240905E-4,1.241364E-4,2.1697207E-4,3.3374101E-6,-3.009154E-3,6.4703277E-6,-1.9464361E-3,-5.898207E-4,7.025726E-5,-2.4769872E-5,-7.1331764E-5,1.5948345E-4,-1.0429151E-4,1.9559776E-3,7.988896E-4,2.7853236E-4,-1.7749623E-3,5.8427243E-4,-1.4487514E-3,-4.9437355E-4,-7.544303E-5,5.4003427E-5,-5.7516376E-5,-3.3809192E-4,7.485212E-4,-2.5177968E-4,1.2699139E-3,-2.2264095E-3,6.1899534E-4,-2.6872659E-3,2.506833E-3,-6.055625E-4,2.507947E-4,-2.2973358E-3,3.289896E-4,1.9908964E-3,-2.6071357E-5,-1.7578596E-4,-7.120894E-4,1.6099534E-3,-6.321826E-5,2.1146737E-4,-2.840232E-3,-1.1665251E-3,-1.2056691E-4,9.988237E-4,-3.0649258E-4,-5.8831265E-5,4.775186E-3,1.707472E-3,3.4545548E-4,-1.9887384E-4,-5.439345E-4,-3.016188E-3,1.7810899E-3,1.4468205E-5,2.7841068E-4,3.2520597E-3,-1.1790651E-4,3.0356667E-5,2.3247052E-3,6.268758E-5,-3.136635E-3,2.8013383E-4,1.04992956E-4,-1.5581565E-3,-6.544276E-5,2.2386286E-5,1.2996818E-4,-3.369779E-5,7.2839604E-5,5.3282515E-3,5.752597E-4,2.697395E-3,-7.469221E-5,8.052804E-5,1.9383431E-5,-7.768353E-5,-3.691278E-4,-1.2495065E-4,1.0048843E-3,4.828743E-4,2.1629602E-4,-2.2831317E-3,-2.909366E-4,1.2051657E-4,3.9583496E-3,-1.862597E-5,5.223086E-5,2.5807228E-4,-1.2969435E-4,-3.4308443E-3,-3.1782896E-5,7.380297E-5,-2.217921E-4,-7.860929E-4,1.2418318E-4,5.897169E-4,-5.504099E-4,1.0116395E-3,1.01074365E-4,3.4143776E-4,-1.2872203E-3,1.5491198E-3,-1.3306201E-3,5.148343E-4,1.7454906E-6,-2.6142804E-4,5.1234245E-5,-1.532756E-4,3.0880743E-5,4.329542E-3,-6.8743095E-5,4.9288945E-5,-3.5591407E-3,-4.9660663E-5,-1.109696E-4,1.2314426E-5,-3.0136434E-6,-1.05561514E-4,3.7216418E-5,1.2693499E-4,-1.7312983E-4,2.2506822E-6,2.0317957E-3,1.7740863E-4,-2.1953291E-4,-2.5690722E-3,8.463833E-4,-9.1199373E-4,4.9085007E-4,1.5354589E-4,-3.6664654E-3,-8.136482E-5,2.2316682E-4,7.549133E-5,-4.3742588E-5,4.4047374E-5,-1.4965594E-4,6.6840684E-4,-6.399078E-5,-2.7839484E-4,1.525159E-3,9.65129E-5,-2.0061852E-3,-1.6427945E-4,-9.476803E-5,-3.770648E-3,1.08252316E-4,-1.06550515E-5,1.1358339E-3,3.4782125E-4,-2.1721476E-3,5.1306066E-4,-4.7290527E-5,-3.3818302E-4,4.015799E-5,-8.104548E-5,-4.0411227E-4,-1.8813243E-4,2.4905014E-3,5.9159874E-4,-2.5112784E-4,-4.0781215E-5,9.227693E-4,-5.753435E-4,3.1047277E-4,1.1000935E-4,-9.929937E-4,9.988968E-4,-3.6396108E-5,1.0859594E-3,-8.797324E-5,2.2521535E-5,7.6702445E-6,-1.2795934E-4,1.2465394E-3,-6.548297E-5,1.7131349E-3,4.1290556E-4,4.395807E-4,1.8253316E-4,2.4411018E-5,2.0979834E-4,5.4982606E-6,9.360443E-5,-5.1669143E-5,8.444534E-5],"categories":[],"categories_nodes":[],"categories_segments":[],"categories_sizes":[],"default_left":[0,0,0,0,0,0,0,0,0,0,0,0,0,0,0,0,0,0,0,0,0,0,0,0,0,0,0,0,0,0,0,0,0,0,0,0,0,0,0,0,0,0,0,0,0,0,0,0,0,0,0,0,0,0,0,0,0,0,0,0,0,0,0,0,0,0,0,0,0,0,0,0,0,0,0,0,0,0,0,0,0,0,0,0,0,0,0,0,0,0,0,0,0,0,0,0,0,0,0,0,0,0,0,0,0,0,0,0,0,0,0,0,0,0,0,0,0,0,0,0,0,0,0,0,0,0,0,0,0,0,0,0,0,0,0,0,0,0,0,0,0,0,0,0,0,0,0,0,0,0,0,0,0,0,0,0,0,0,0,0,0,0,0,0,0,0,0,0,0,0,0,0,0,0,0,0,0,0,0,0,0,0,0,0,0,0,0,0,0,0,0,0,0,0,0,0,0,0,0,0,0,0,0,0,0,0,0,0,0,0,0,0,0,0,0,0,0,0,0,0,0,0,0,0,0,0,0,0,0,0,0,0,0,0,0,0,0,0,0,0,0,0,0,0,0,0,0,0,0,0,0,0,0,0,0,0,0,0,0,0,0,0,0,0,0,0,0,0,0,0,0,0,0,0,0,0,0,0,0,0,0,0,0],"id":5,"left_children":[1,3,5,7,9,-1,11,13,15,17,19,21,23,25,-1,27,29,-1,-1,-1,-1,-1,31,33,-1,-1,-1,35,37,39,-1,41,-1,-1,-1,-1,43,45,47,49,51,-1,53,-1,-1,55,57,59,-1,61,63,65,67,69,71,-1,-1,73,75,-1,-1,-1,77,-1,-1,79,81,83,85,87,89,-1,91,-1,93,95,97,-1,-1,-1,-1,99,101,-1,103,-1,105,107,109,111,113,-1,115,-1,-1,-1,-1,-1,-1,117,119,121,-1,-1,-1,-1,-1,123,125,-1,-1,127,129,131,-1,-1,-1,-1,-1,133,-1,135,137,139,141,143,145,-1,147,149,151,-1,-1,153,155,-1,-1,157,159,161,163,-1,-1,165,167,169,-1,171,173,175,177,179,181,-1,-1,183,-1,185,187,-1,189,-1,-1,-1,-1,-1,191,193,195,-1,-1,-1,-1,-1,-1,197,-1,199,201,203,-1,205,-1,-1,-1,207,209,-1,-1,-1,211,-1,-1,213,215,-1,-1,217,219,221,223,-1,-1,-1,-1,-1,225,-1,-1,227,-1,-1,-1,-1,-1,-1,-1,-1,-1,229,231,233,235,237,239,-1,-1,241,-1,-1,-1,-1,-1,-1,243,-1,-1,245,247,249,251,-1,253,-1,-1,255,-1,257,259,-1,-1,-1,-1,-1,-1,261,263,-1,-1,265,267,-1,-1,269,271,-1,273,-1,-1,-1,-1,275,-1,277,279,281,-1,-1,-1,-1,-1,-1,-1],"loss_changes":[1.0631564E-3,6.4464373E-4,6.944211E-4,2.214114E-4,5.973786E-4,0E0,6.415237E-4,6.851039E-5,1.7322683E-4,4.82561E-5,2.1812494E-4,5.322723E-4,4.6291773E-4,3.4932054E-6,0E0,2.808635E-4,2.5121047E-4,0E0,0E0,0E0,0E0,0E0,3.843252E-4,6.0129914E-6,0E0,0E0,0E0,1.5271686E-4,2.0386702E-4,1.3003498E-4,0E0,1.9700911E-4,0E0,0E0,0E0,0E0,9.0140675E-5,9.611677E-5,4.2571555E-5,7.290742E-5,1.2901667E-4,0E0,1.6645768E-4,0E0,0E0,1.74483E-5,4.2631385E-5,4.0012674E-6,0E0,1.9041854E-5,1.05125655E-5,6.707554E-5,6.147525E-5,1.16088304E-4,4.4318527E-5,0E0,0E0,9.45869E-6,2.2465756E-5,0E0,0E0,0E0,1.003142E-6,0E0,0E0,1.560244E-5,4.1902706E-5,7.30963E-6,3.8900907E-5,2.0012353E-4,8.359044E-5,0E0,1.6094553E-5,0E0,1.2799634E-6,2.0268053E-6,6.737764E-6,0E0,0E0,0E0,0E0,4.1981224E-5,5.167318E-5,0E0,1.5183239E-6,0E0,5.8293163E-6,5.596932E-5,9.110168E-6,7.061108E-5,1.0810312E-5,0E0,1.6603166E-6,0E0,0E0,0E0,0E0,0E0,0E0,3.4846562E-6,4.122045E-5,4.0648025E-5,0E0,0E0,0E0,0E0,0E0,4.276449E-5,5.0904375E-5,0E0,0E0,3.7083497E-5,4.889902E-5,1.0106314E-6,0E0,0E0,0E0,0E0,0E0,2.2536115E-5,0E0,7.764116E-6,2.2059452E-5,5.1767447E-6,2.1603191E-6,4.4430257E-5,9.894996E-6,0E0,1.474507E-5,5.3866792E-5,4.444879E-5,0E0,0E0,3.6779325E-6,6.271921E-6,0E0,0E0,2.3075932E-5,1.5524483E-5,1.4336446E-6,5.2606047E-6,0E0,0E0,1.1785902E-5,2.4226778E-5,3.1129941E-6,0E0,1.0097122E-6,6.121736E-6,4.4825392E-5,4.593835E-5,5.627081E-6,2.9878676E-5,0E0,0E0,1.4207399E-6,0E0,1.9017782E-5,1.0559813E-6,0E0,5.387832E-6,0E0,0E0,0E0,0E0,0E0,6.6257344E-6,6.4514506E-6,1.1060532E-5,0E0,0E0,0E0,0E0,0E0,0E0,2.4448067E-5,0E0,4.2710093E-5,6.1403225E-6,7.767989E-6,0E0,1.2209843E-5,0E0,0E0,0E0,1.3805408E-6,5.761569E-6,0E0,0E0,0E0,2.490508E-6,0E0,0E0,1.0195671E-6,1.0107879E-6,0E0,0E0,2.3654497E-6,9.570918E-6,2.0076432E-5,3.7197773E-5,0E0,0E0,0E0,0E0,0E0,7.022114E-6,0E0,0E0,2.6152993E-6,0E0,0E0,0E0,0E0,0E0,0E0,0E0,0E0,0E0,1.122633E-6,1.0013821E-6,1.1205613E-5,1.1202501E-6,3.1919404E-5,1.1942566E-5,0E0,0E0,1.525128E-6,0E0,0E0,0E0,0E0,0E0,0E0,2.0408786E-6,0E0,0E0,2.1141626E-5,3.0409614E-5,1.1056209E-5,3.9819056E-6,0E0,1.0846124E-6,0E0,0E0,1.9907096E-5,0E0,1.9675736E-6,1.2570982E-5,0E0,0E0,0E0,0E0,0E0,0E0,3.416706E-6,1.5190726E-5,0E0,0E0,4.59488E-6,2.1475785E-6,0E0,0E0,1.6310205E-6,8.187868E-6,0E0,6.8908485E-6,0E0,0E0,0E0,0E0,6.6706034E-6,0E0,4.576028E-6,1.8209677E-6,3.5336689E-6,0E0,0E0,0E0,0E0,0E0,0E0,0E0],"parents":[2147483647,0,0,1,1,2,2,3,3,4,4,6,6,7,7,8,8,9,9,10,10,11,11,12,12,13,13,15,15,16,16,22,22,23,23,27,27,28,28,29,29,31,31,36,36,37,37,38,38,39,39,40,40,42,42,45,45,46,46,47,47,49,49,50,50,51,51,52,52,53,53,54,54,57,57,58,58,62,62,65,65,66,66,67,67,68,68,69,69,70,70,72,72,74,74,75,75,76,76,81,81,82,82,84,84,86,86,87,87,88,88,89,89,90,90,92,92,99,99,100,100,101,101,107,107,108,108,111,111,112,112,113,113,119,119,121,121,122,122,123,123,124,124,125,125,126,126,128,128,129,129,130,130,133,133,134,134,137,137,138,138,139,139,140,140,143,143,144,144,145,145,147,147,148,148,149,149,150,150,151,151,152,152,155,155,157,157,158,158,160,160,166,166,167,167,168,168,175,175,177,177,178,178,179,179,181,181,185,185,186,186,190,190,193,193,194,194,197,197,198,198,199,199,200,200,206,206,209,209,219,219,220,220,221,221,222,222,223,223,224,224,227,227,234,234,237,237,238,238,239,239,240,240,242,242,245,245,247,247,248,248,255,255,256,256,259,259,260,260,263,263,264,264,266,266,271,271,273,273,274,274,275,275],"right_children":[2,4,6,8,10,-1,12,14,16,18,20,22,24,26,-1,28,30,-1,-1,-1,-1,-1,32,34,-1,-1,-1,36,38,40,-1,42,-1,-1,-1,-1,44,46,48,50,52,-1,54,-1,-1,56,58,60,-1,62,64,66,68,70,72,-1,-1,74,76,-1,-1,-1,78,-1,-1,80,82,84,86,88,90,-1,92,-1,94,96,98,-1,-1,-1,-1,100,102,-1,104,-1,106,108,110,112,114,-1,116,-1,-1,-1,-1,-1,-1,118,120,122,-1,-1,-1,-1,-1,124,126,-1,-1,128,130,132,-1,-1,-1,-1,-1,134,-1,136,138,140,142,144,146,-1,148,150,152,-1,-1,154,156,-1,-1,158,160,162,164,-1,-1,166,168,170,-1,172,174,176,178,180,182,-1,-1,184,-1,186,188,-1,190,-1,-1,-1,-1,-1,192,194,196,-1,-1,-1,-1,-1,-1,198,-1,200,202,204,-1,206,-1,-1,-1,208,210,-1,-1,-1,212,-1,-1,214,216,-1,-1,218,220,222,224,-1,-1,-1,-1,-1,226,-1,-1,228,-1,-1,-1,-1,-1,-1,-1,-1,-1,230,232,234,236,238,240,-1,-1,242,-1,-1,-1,-1,-1,-1,244,-1,-1,246,248,250,252,-1,254,-1,-1,256,-1,258,260,-1,-1,-1,-1,-1,-1,262,264,-1,-1,266,268,-1,-1,270,272,-1,274,-1,-1,-1,-1,276,-1,278,280,282,-1,-1,-1,-1,-1,-1,-1],"split_conditions":[-1.8994227E-1,5.078281E0,-1.5931553E0,3.9419627E-1,8.768089E0,1.6484726E-3,5.60189E5,-3.6129138E-1,-1.5698543E0,2.8301E2,2.7594E2,-1.7713379E0,3.5714287E1,2.5458E2,-1.0927053E-3,-2.5609756E-1,5.04E0,-2.7510765E-4,3.3049012E-4,-2.0871633E-3,-2.0257701E-4,1.7097294E-3,1E2,7.95391E5,1.5856326E-3,-3.694349E-4,-6.742471E-5,2.4207E2,1E2,-1.7316446E1,-1.096232E-3,-1.2369666E0,-1.3112065E-3,9.820909E-5,-1.258117E-4,2.8886105E-4,-9.899157E-1,-1.5205128E0,-2.2847314E0,-2.8733464E-2,7.8771315E0,-9.0829434E-4,3.429765E0,1.7708361E-4,-6.8729295E-4,3.917E3,6.1219466E-1,3.12058E5,6.44332E-5,1.4554928E1,-8.962846E-1,2.4000958E2,-1.4285714E1,5.0454254E1,5.9560097E1,8.2518597E-4,1.5051448E-4,4.6298E4,3.638092E1,-5.652974E-4,-1.900743E-4,-2.8705932E-4,3.6E2,-6.2784454E-4,-1.2077618E-4,2.44E2,-8.9108914E-2,2.45745E2,1.1656473E1,1.6312317E1,4.27546E0,6.5023225E-4,3.0222E5,1.3746122E-4,2.4339E2,6.59015E5,1.9383718E1,-2.5146814E-5,6.16662E-5,4.7684365E-4,-3.483652E-6,-8.265735E-1,4.98081E5,-2.045062E-4,2.4935E2,5.9401087E-4,2.7703E2,2.5089291E2,4.2857143E1,4E0,2.7659E2,3.0643432E-4,2.5591E2,-9.6310774E-5,-2.9212586E-6,4.9240905E-4,1.241364E-4,2.1697207E-4,3.3374101E-6,2.4392E2,2.7344373E-1,3.3236125E-1,-5.898207E-4,7.025726E-5,-2.4769872E-5,-7.1331764E-5,1.5948345E-4,2.4965195E2,1.75868E5,7.988896E-4,2.7853236E-4,7.5301785E0,2.17188E0,2.44114E2,-4.9437355E-4,-7.544303E-5,5.4003427E-5,-5.7516376E-5,-3.3809192E-4,3.5668388E-2,-2.5177968E-4,2.4339E2,6.2281895E-1,-4.368687E-1,2.4976E2,-1.1303878E1,1.3951904E0,2.507947E-4,1.2444184E1,2.4513578E1,7.241346E-1,-2.6071357E-5,-1.7578596E-4,6.60807E1,5.7174675E-2,-6.321826E-5,2.1146737E-4,3.6163437E1,6.2552655E-1,1.372E3,2.4955424E2,-3.0649258E-4,-5.8831265E-5,2.4785E2,2.1822514E1,2.5458E2,-1.9887384E-4,1.7588242E1,7.857143E1,2.8099023E2,1.3135618E0,2.845E0,7.377664E1,-1.1790651E-4,3.0356667E-5,2.4924E2,6.268758E-5,2.4275023E2,2.49E2,1.04992956E-4,3.3425415E-1,-6.544276E-5,2.2386286E-5,1.2996818E-4,-3.369779E-5,7.2839604E-5,2.17E2,-5.070994E-1,6.913561E-1,-7.469221E-5,8.052804E-5,1.9383431E-5,-7.768353E-5,-3.691278E-4,-1.2495065E-4,5.2869095E1,4.828743E-4,1.3700732E0,2.2842329E1,6.428571E1,1.2051657E-4,2E2,-1.862597E-5,5.223086E-5,2.5807228E-4,2.4086E2,2.7736154E2,-3.1782896E-5,7.380297E-5,-2.217921E-4,2.5512E2,1.2418318E-4,5.897169E-4,2.874E2,5.541357E0,1.01074365E-4,3.4143776E-4,2.6765E2,1.77163E0,5.7097027E1,2.78075E2,1.7454906E-6,-2.6142804E-4,5.1234245E-5,-1.532756E-4,3.0880743E-5,1.4159104E-1,-6.8743095E-5,4.9288945E-5,3.433491E1,-4.9660663E-5,-1.109696E-4,1.2314426E-5,-3.0136434E-6,-1.05561514E-4,3.7216418E-5,1.2693499E-4,-1.7312983E-4,2.2506822E-6,2.7426587E2,2.5461E2,6.489512E1,1.09E2,3.1747508E-1,5.7142857E1,4.9085007E-4,1.5354589E-4,-9.996489E-1,-8.136482E-5,2.2316682E-4,7.549133E-5,-4.3742588E-5,4.4047374E-5,-1.4965594E-4,9.1358E4,-6.399078E-5,-2.7839484E-4,-5.3839364E0,3.932353E1,2.8571428E1,2.907E3,-9.476803E-5,4.5773536E-1,1.08252316E-4,-1.06550515E-5,0E0,3.4782125E-4,1.7411858E2,4.73E0,-4.7290527E-5,-3.3818302E-4,4.015799E-5,-8.104548E-5,-4.0411227E-4,-1.8813243E-4,-3.2653558E-1,1.3465685E-1,-2.5112784E-4,-4.0781215E-5,1.260753E-1,1.791897E2,3.1047277E-4,1.1000935E-4,2.4302E2,3.16591E5,-3.6396108E-5,1.71E0,-8.797324E-5,2.2521535E-5,7.6702445E-6,-1.2795934E-4,8.7938E4,-6.548297E-5,-2.429022E1,1E2,1.4357188E1,1.8253316E-4,2.4411018E-5,2.0979834E-4,5.4982606E-6,9.360443E-5,-5.1669143E-5,8.444534E-5],"split_indices":[9,10,29,139,35,0,4,11,10,0,0,138,17,1,0,20,36,0,0,0,0,0,121,4,0,0,0,0,110,141,0,26,0,0,0,0,12,27,9,51,35,0,9,0,0,5,148,4,0,15,9,56,19,52,52,0,0,4,50,0,0,0,4,0,0,0,20,0,14,141,10,0,4,0,0,4,15,0,0,0,0,11,4,0,0,0,0,54,19,5,0,0,0,0,0,0,0,0,0,0,29,144,0,0,0,0,